digraph Tree {
node [shape=box, style="filled, rounded", color="black", fontname="helvetica"] ;
edge [fontname="helvetica"] ;
0 [label="respiração <= 11.37\nentropy = 1.5\nsamples = 656\nvalue = [172, 577, 286, 15]", fillcolor="#b9f5b4"] ;
1 [label="pDiast <= 10.43\nentropy = 1.19\nsamples = 328\nvalue = [139, 353, 43, 0]", fillcolor="#9cf194"] ;
0 -> 1 [labeldistance=2.5, labelangle=45, headlabel="True"] ;
2 [label="pSist <= 16.34\nentropy = 0.96\nsamples = 226\nvalue = [35, 288, 43, 0]", fillcolor="#73eb69"] ;
1 -> 2 ;
3 [label="qPA <= -4.72\nentropy = 1.07\nsamples = 147\nvalue = [23, 177, 39, 0]", fillcolor="#80ed76"] ;
2 -> 3 ;
4 [label="pDiast <= 2.63\nentropy = 0.99\nsamples = 25\nvalue = [17, 22, 0, 0]", fillcolor="#d5f9d2"] ;
3 -> 4 ;
5 [label="pDiast <= 1.78\nentropy = 1.0\nsamples = 18\nvalue = [15, 13, 0, 0]", fillcolor="#fceee5"] ;
4 -> 5 ;
6 [label="respiração <= 4.08\nentropy = 0.98\nsamples = 12\nvalue = [8, 11, 0, 0]", fillcolor="#cdf8c9"] ;
5 -> 6 ;
7 [label="entropy = 0.78\nsamples = 7\nvalue = [3, 10, 0, 0]", fillcolor="#7eed74"] ;
6 -> 7 ;
8 [label="entropy = 0.65\nsamples = 5\nvalue = [5, 1, 0, 0]", fillcolor="#ea9a61"] ;
6 -> 8 ;
9 [label="pulso <= 131.28\nentropy = 0.76\nsamples = 6\nvalue = [7, 2, 0, 0]", fillcolor="#eca572"] ;
5 -> 9 ;
10 [label="entropy = 1.0\nsamples = 4\nvalue = [2, 2, 0, 0]", fillcolor="#ffffff"] ;
9 -> 10 ;
11 [label="entropy = 0.0\nsamples = 2\nvalue = [5, 0, 0, 0]", fillcolor="#e58139"] ;
9 -> 11 ;
12 [label="pDiast <= 3.55\nentropy = 0.68\nsamples = 7\nvalue = [2, 9, 0, 0]", fillcolor="#70eb65"] ;
4 -> 12 ;
13 [label="entropy = 0.0\nsamples = 5\nvalue = [0, 8, 0, 0]", fillcolor="#47e539"] ;
12 -> 13 ;
14 [label="qPA <= -6.04\nentropy = 0.92\nsamples = 2\nvalue = [2, 1, 0, 0]", fillcolor="#f2c09c"] ;
12 -> 14 ;
15 [label="entropy = 0.0\nsamples = 1\nvalue = [2, 0, 0, 0]", fillcolor="#e58139"] ;
14 -> 15 ;
16 [label="entropy = 0.0\nsamples = 1\nvalue = [0, 1, 0, 0]", fillcolor="#47e539"] ;
14 -> 16 ;
17 [label="pulso <= 122.7\nentropy = 0.9\nsamples = 122\nvalue = [6, 155, 39, 0]", fillcolor="#7aec70"] ;
3 -> 17 ;
18 [label="pulso <= 58.73\nentropy = 1.0\nsamples = 67\nvalue = [1, 73, 39, 0]", fillcolor="#aaf3a4"] ;
17 -> 18 ;
19 [label="pDiast <= 5.3\nentropy = 0.14\nsamples = 31\nvalue = [1, 52, 0, 0]", fillcolor="#4be63d"] ;
18 -> 19 ;
20 [label="entropy = 0.0\nsamples = 19\nvalue = [0, 36, 0, 0]", fillcolor="#47e539"] ;
19 -> 20 ;
21 [label="entropy = 0.32\nsamples = 12\nvalue = [1, 16, 0, 0]", fillcolor="#52e745"] ;
19 -> 21 ;
22 [label="pSist <= 10.85\nentropy = 0.93\nsamples = 36\nvalue = [0, 21, 39, 0]", fillcolor="#a4d2f3"] ;
18 -> 22 ;
23 [label="entropy = 0.0\nsamples = 10\nvalue = [0, 0, 15, 0]", fillcolor="#399de5"] ;
22 -> 23 ;
24 [label="entropy = 1.0\nsamples = 26\nvalue = [0, 21, 24, 0]", fillcolor="#e6f3fc"] ;
22 -> 24 ;
25 [label="pulso <= 178.38\nentropy = 0.32\nsamples = 55\nvalue = [5, 82, 0, 0]", fillcolor="#52e745"] ;
17 -> 25 ;
26 [label="entropy = 0.0\nsamples = 38\nvalue = [0, 62, 0, 0]", fillcolor="#47e539"] ;
25 -> 26 ;
27 [label="respiração <= 7.55\nentropy = 0.72\nsamples = 17\nvalue = [5, 20, 0, 0]", fillcolor="#75ec6a"] ;
25 -> 27 ;
28 [label="entropy = 0.31\nsamples = 13\nvalue = [1, 17, 0, 0]", fillcolor="#52e745"] ;
27 -> 28 ;
29 [label="entropy = 0.99\nsamples = 4\nvalue = [4, 3, 0, 0]", fillcolor="#f8e0ce"] ;
27 -> 29 ;
30 [label="pulso <= 34.53\nentropy = 0.65\nsamples = 79\nvalue = [12, 111, 4, 0]", fillcolor="#61e955"] ;
2 -> 30 ;
31 [label="pDiast <= 5.6\nentropy = 0.81\nsamples = 18\nvalue = [6, 18, 0, 0]", fillcolor="#84ee7b"] ;
30 -> 31 ;
32 [label="entropy = 0.0\nsamples = 11\nvalue = [0, 15, 0, 0]", fillcolor="#47e539"] ;
31 -> 32 ;
33 [label="qPA <= 4.72\nentropy = 0.92\nsamples = 7\nvalue = [6, 3, 0, 0]", fillcolor="#f2c09c"] ;
31 -> 33 ;
34 [label="entropy = 0.0\nsamples = 2\nvalue = [0, 3, 0, 0]", fillcolor="#47e539"] ;
33 -> 34 ;
35 [label="entropy = 0.0\nsamples = 5\nvalue = [6, 0, 0, 0]", fillcolor="#e58139"] ;
33 -> 35 ;
36 [label="pDiast <= 4.5\nentropy = 0.55\nsamples = 61\nvalue = [6, 93, 4, 0]", fillcolor="#5ae84d"] ;
30 -> 36 ;
37 [label="qPA <= -1.28\nentropy = 0.58\nsamples = 19\nvalue = [0, 25, 4, 0]", fillcolor="#64e959"] ;
36 -> 37 ;
38 [label="respiração <= 4.22\nentropy = 0.38\nsamples = 18\nvalue = [0, 25, 2, 0]", fillcolor="#56e749"] ;
37 -> 38 ;
39 [label="entropy = 0.76\nsamples = 6\nvalue = [0, 7, 2, 0]", fillcolor="#7cec72"] ;
38 -> 39 ;
40 [label="entropy = 0.0\nsamples = 12\nvalue = [0, 18, 0, 0]", fillcolor="#47e539"] ;
38 -> 40 ;
41 [label="entropy = 0.0\nsamples = 1\nvalue = [0, 0, 2, 0]", fillcolor="#399de5"] ;
37 -> 41 ;
42 [label="pSist <= 17.85\nentropy = 0.41\nsamples = 42\nvalue = [6, 68, 0, 0]", fillcolor="#57e74a"] ;
36 -> 42 ;
43 [label="pulso <= 188.61\nentropy = 0.85\nsamples = 14\nvalue = [6, 16, 0, 0]", fillcolor="#8cef83"] ;
42 -> 43 ;
44 [label="entropy = 0.63\nsamples = 12\nvalue = [3, 16, 0, 0]", fillcolor="#6aea5e"] ;
43 -> 44 ;
45 [label="entropy = 0.0\nsamples = 2\nvalue = [3, 0, 0, 0]", fillcolor="#e58139"] ;
43 -> 45 ;
46 [label="entropy = 0.0\nsamples = 28\nvalue = [0, 52, 0, 0]", fillcolor="#47e539"] ;
42 -> 46 ;
47 [label="respiração <= 0.33\nentropy = 0.96\nsamples = 102\nvalue = [104, 65, 0, 0]", fillcolor="#f5d0b5"] ;
1 -> 47 ;
48 [label="entropy = 0.0\nsamples = 3\nvalue = [0, 5, 0, 0]", fillcolor="#47e539"] ;
47 -> 48 ;
49 [label="qPA <= 4.47\nentropy = 0.95\nsamples = 99\nvalue = [104, 60, 0, 0]", fillcolor="#f4caab"] ;
47 -> 49 ;
50 [label="entropy = 0.0\nsamples = 2\nvalue = [0, 5, 0, 0]", fillcolor="#47e539"] ;
49 -> 50 ;
51 [label="pulso <= 123.13\nentropy = 0.93\nsamples = 97\nvalue = [104, 55, 0, 0]", fillcolor="#f3c4a2"] ;
49 -> 51 ;
52 [label="pulso <= 42.71\nentropy = 0.92\nsamples = 49\nvalue = [27, 53, 0, 0]", fillcolor="#a5f29e"] ;
51 -> 52 ;
53 [label="pDiast <= 12.02\nentropy = 0.36\nsamples = 21\nvalue = [27, 2, 0, 0]", fillcolor="#e78a48"] ;
52 -> 53 ;
54 [label="entropy = 0.57\nsamples = 10\nvalue = [13, 2, 0, 0]", fillcolor="#e99457"] ;
53 -> 54 ;
55 [label="entropy = 0.0\nsamples = 11\nvalue = [14, 0, 0, 0]", fillcolor="#e58139"] ;
53 -> 55 ;
56 [label="entropy = 0.0\nsamples = 28\nvalue = [0, 51, 0, 0]", fillcolor="#47e539"] ;
52 -> 56 ;
57 [label="respiração <= 10.85\nentropy = 0.17\nsamples = 48\nvalue = [77, 2, 0, 0]", fillcolor="#e6843e"] ;
51 -> 57 ;
58 [label="entropy = 0.0\nsamples = 46\nvalue = [77, 0, 0, 0]", fillcolor="#e58139"] ;
57 -> 58 ;
59 [label="entropy = 0.0\nsamples = 2\nvalue = [0, 2, 0, 0]", fillcolor="#47e539"] ;
57 -> 59 ;
60 [label="pSist <= 13.55\nentropy = 1.44\nsamples = 328\nvalue = [33, 224, 243, 15]", fillcolor="#f2f9fd"] ;
0 -> 60 [labeldistance=2.5, labelangle=-45, headlabel="False"] ;
61 [label="qPA <= 5.12\nentropy = 1.29\nsamples = 126\nvalue = [7, 40, 133, 14]", fillcolor="#87c4ef"] ;
60 -> 61 ;
62 [label="pDiast <= 3.66\nentropy = 1.18\nsamples = 118\nvalue = [3, 34, 130, 14]", fillcolor="#7ebfee"] ;
61 -> 62 ;
63 [label="pulso <= 37.69\nentropy = 1.35\nsamples = 41\nvalue = [3, 19, 45, 4]", fillcolor="#9ccef2"] ;
62 -> 63 ;
64 [label="pSist <= 3.81\nentropy = 1.29\nsamples = 7\nvalue = [2, 9, 3, 0]", fillcolor="#9bf193"] ;
63 -> 64 ;
65 [label="entropy = 0.0\nsamples = 1\nvalue = [0, 0, 3, 0]", fillcolor="#399de5"] ;
64 -> 65 ;
66 [label="respiração <= 20.28\nentropy = 0.68\nsamples = 6\nvalue = [2, 9, 0, 0]", fillcolor="#70eb65"] ;
64 -> 66 ;
67 [label="entropy = 0.0\nsamples = 5\nvalue = [0, 9, 0, 0]", fillcolor="#47e539"] ;
66 -> 67 ;
68 [label="entropy = 0.0\nsamples = 1\nvalue = [2, 0, 0, 0]", fillcolor="#e58139"] ;
66 -> 68 ;
69 [label="pulso <= 104.5\nentropy = 1.14\nsamples = 34\nvalue = [1, 10, 42, 4]", fillcolor="#78bced"] ;
63 -> 69 ;
70 [label="pDiast <= 1.51\nentropy = 0.65\nsamples = 11\nvalue = [0, 0, 20, 4]", fillcolor="#61b1ea"] ;
69 -> 70 ;
71 [label="entropy = 0.95\nsamples = 6\nvalue = [0, 0, 7, 4]", fillcolor="#aad5f4"] ;
70 -> 71 ;
72 [label="entropy = 0.0\nsamples = 5\nvalue = [0, 0, 13, 0]", fillcolor="#399de5"] ;
70 -> 72 ;
73 [label="pSist <= 9.65\nentropy = 1.06\nsamples = 23\nvalue = [1, 10, 22, 0]", fillcolor="#98ccf1"] ;
69 -> 73 ;
74 [label="entropy = 0.99\nsamples = 14\nvalue = [0, 9, 11, 0]", fillcolor="#dbedfa"] ;
73 -> 74 ;
75 [label="entropy = 0.77\nsamples = 9\nvalue = [1, 1, 11, 0]", fillcolor="#5aade9"] ;
73 -> 75 ;
76 [label="pDiast <= 6.44\nentropy = 0.99\nsamples = 77\nvalue = [0, 15, 85, 10]", fillcolor="#6db7ec"] ;
62 -> 76 ;
77 [label="qPA <= -0.08\nentropy = 0.67\nsamples = 38\nvalue = [0, 3, 49, 4]", fillcolor="#54aae8"] ;
76 -> 77 ;
78 [label="qPA <= -1.58\nentropy = 1.09\nsamples = 16\nvalue = [0, 3, 17, 3]", fillcolor="#74baed"] ;
77 -> 78 ;
79 [label="entropy = 0.0\nsamples = 8\nvalue = [0, 0, 12, 0]", fillcolor="#399de5"] ;
78 -> 79 ;
80 [label="entropy = 1.54\nsamples = 8\nvalue = [0, 3, 5, 3]", fillcolor="#cee6f8"] ;
78 -> 80 ;
81 [label="pulso <= 96.87\nentropy = 0.2\nsamples = 22\nvalue = [0, 0, 32, 1]", fillcolor="#3fa0e6"] ;
77 -> 81 ;
82 [label="entropy = 0.47\nsamples = 7\nvalue = [0, 0, 9, 1]", fillcolor="#4fa8e8"] ;
81 -> 82 ;
83 [label="entropy = 0.0\nsamples = 15\nvalue = [0, 0, 23, 0]", fillcolor="#399de5"] ;
81 -> 83 ;
84 [label="qPA <= 2.97\nentropy = 1.22\nsamples = 39\nvalue = [0, 12, 36, 6]", fillcolor="#8ec7f0"] ;
76 -> 84 ;
85 [label="pulso <= 142.05\nentropy = 1.3\nsamples = 36\nvalue = [0, 12, 30, 6]", fillcolor="#9ccef2"] ;
84 -> 85 ;
86 [label="entropy = 1.16\nsamples = 23\nvalue = [0, 3, 21, 6]", fillcolor="#83c2ef"] ;
85 -> 86 ;
87 [label="entropy = 1.0\nsamples = 13\nvalue = [0, 9, 9, 0]", fillcolor="#ffffff"] ;
85 -> 87 ;
88 [label="entropy = 0.0\nsamples = 3\nvalue = [0, 0, 6, 0]", fillcolor="#399de5"] ;
84 -> 88 ;
89 [label="respiração <= 19.67\nentropy = 1.53\nsamples = 8\nvalue = [4, 6, 3, 0]", fillcolor="#d6f9d3"] ;
61 -> 89 ;
90 [label="qPA <= 5.26\nentropy = 0.92\nsamples = 6\nvalue = [0, 6, 3, 0]", fillcolor="#a3f29c"] ;
89 -> 90 ;
91 [label="entropy = 0.0\nsamples = 1\nvalue = [0, 0, 2, 0]", fillcolor="#399de5"] ;
90 -> 91 ;
92 [label="respiração <= 13.77\nentropy = 0.59\nsamples = 5\nvalue = [0, 6, 1, 0]", fillcolor="#66e95a"] ;
90 -> 92 ;
93 [label="entropy = 0.0\nsamples = 1\nvalue = [0, 0, 1, 0]", fillcolor="#399de5"] ;
92 -> 93 ;
94 [label="entropy = 0.0\nsamples = 4\nvalue = [0, 6, 0, 0]", fillcolor="#47e539"] ;
92 -> 94 ;
95 [label="entropy = 0.0\nsamples = 2\nvalue = [4, 0, 0, 0]", fillcolor="#e58139"] ;
89 -> 95 ;
96 [label="respiração <= 19.5\nentropy = 1.31\nsamples = 202\nvalue = [26, 184, 110, 1]", fillcolor="#bef6ba"] ;
60 -> 96 ;
97 [label="pDiast <= 5.27\nentropy = 1.01\nsamples = 154\nvalue = [0, 146, 101, 1]", fillcolor="#c7f7c2"] ;
96 -> 97 ;
98 [label="respiração <= 12.39\nentropy = 0.97\nsamples = 38\nvalue = [0, 17, 43, 1]", fillcolor="#8ac5f0"] ;
97 -> 98 ;
99 [label="pDiast <= 3.93\nentropy = 0.47\nsamples = 6\nvalue = [0, 9, 1, 0]", fillcolor="#5be84f"] ;
98 -> 99 ;
100 [label="entropy = 0.0\nsamples = 5\nvalue = [0, 9, 0, 0]", fillcolor="#47e539"] ;
99 -> 100 ;
101 [label="entropy = 0.0\nsamples = 1\nvalue = [0, 0, 1, 0]", fillcolor="#399de5"] ;
99 -> 101 ;
102 [label="qPA <= -4.36\nentropy = 0.76\nsamples = 32\nvalue = [0, 8, 42, 1]", fillcolor="#62b2ea"] ;
98 -> 102 ;
103 [label="respiração <= 17.44\nentropy = 0.97\nsamples = 9\nvalue = [0, 6, 9, 0]", fillcolor="#bddef6"] ;
102 -> 103 ;
104 [label="entropy = 0.0\nsamples = 5\nvalue = [0, 0, 9, 0]", fillcolor="#399de5"] ;
103 -> 104 ;
105 [label="entropy = 0.0\nsamples = 4\nvalue = [0, 6, 0, 0]", fillcolor="#47e539"] ;
103 -> 105 ;
106 [label="pDiast <= 1.17\nentropy = 0.49\nsamples = 23\nvalue = [0, 2, 33, 1]", fillcolor="#4aa6e7"] ;
102 -> 106 ;
107 [label="entropy = 0.92\nsamples = 5\nvalue = [0, 2, 4, 0]", fillcolor="#9ccef2"] ;
106 -> 107 ;
108 [label="entropy = 0.21\nsamples = 18\nvalue = [0, 0, 29, 1]", fillcolor="#40a0e6"] ;
106 -> 108 ;
109 [label="pulso <= 127.57\nentropy = 0.89\nsamples = 116\nvalue = [0, 129, 58, 0]", fillcolor="#9af192"] ;
97 -> 109 ;
110 [label="pSist <= 16.32\nentropy = 1.0\nsamples = 77\nvalue = [0, 62, 58, 0]", fillcolor="#f3fdf2"] ;
109 -> 110 ;
111 [label="respiração <= 16.89\nentropy = 0.9\nsamples = 23\nvalue = [0, 12, 26, 0]", fillcolor="#94caf1"] ;
110 -> 111 ;
112 [label="entropy = 0.45\nsamples = 12\nvalue = [0, 2, 19, 0]", fillcolor="#4ea7e8"] ;
111 -> 112 ;
113 [label="entropy = 0.98\nsamples = 11\nvalue = [0, 10, 7, 0]", fillcolor="#c8f7c4"] ;
111 -> 113 ;
114 [label="pSist <= 20.07\nentropy = 0.96\nsamples = 54\nvalue = [0, 50, 32, 0]", fillcolor="#bdf6b8"] ;
110 -> 114 ;
115 [label="entropy = 0.82\nsamples = 40\nvalue = [0, 44, 15, 0]", fillcolor="#86ee7c"] ;
114 -> 115 ;
116 [label="entropy = 0.83\nsamples = 14\nvalue = [0, 6, 17, 0]", fillcolor="#7fc0ee"] ;
114 -> 116 ;
117 [label="entropy = 0.0\nsamples = 39\nvalue = [0, 67, 0, 0]", fillcolor="#47e539"] ;
109 -> 117 ;
118 [label="respiração <= 21.48\nentropy = 1.39\nsamples = 48\nvalue = [26, 38, 9, 0]", fillcolor="#d0f8cc"] ;
96 -> 118 ;
119 [label="pDiast <= 10.28\nentropy = 1.45\nsamples = 42\nvalue = [26, 28, 9, 0]", fillcolor="#f5fef4"] ;
118 -> 119 ;
120 [label="respiração <= 21.05\nentropy = 1.36\nsamples = 21\nvalue = [5, 20, 9, 0]", fillcolor="#aef4a8"] ;
119 -> 120 ;
121 [label="pulso <= 98.34\nentropy = 0.88\nsamples = 17\nvalue = [0, 19, 8, 0]", fillcolor="#94f08c"] ;
120 -> 121 ;
122 [label="entropy = 1.0\nsamples = 10\nvalue = [0, 7, 8, 0]", fillcolor="#e6f3fc"] ;
121 -> 122 ;
123 [label="entropy = 0.0\nsamples = 7\nvalue = [0, 12, 0, 0]", fillcolor="#47e539"] ;
121 -> 123 ;
124 [label="qPA <= 4.69\nentropy = 1.15\nsamples = 4\nvalue = [5, 1, 1, 0]", fillcolor="#eeab7b"] ;
120 -> 124 ;
125 [label="entropy = 0.0\nsamples = 1\nvalue = [0, 1, 0, 0]", fillcolor="#47e539"] ;
124 -> 125 ;
126 [label="entropy = 0.65\nsamples = 3\nvalue = [5, 0, 1, 0]", fillcolor="#ea9a61"] ;
124 -> 126 ;
127 [label="pulso <= 40.94\nentropy = 0.85\nsamples = 21\nvalue = [21, 8, 0, 0]", fillcolor="#efb184"] ;
119 -> 127 ;
128 [label="entropy = 0.0\nsamples = 8\nvalue = [11, 0, 0, 0]", fillcolor="#e58139"] ;
127 -> 128 ;
129 [label="respiração <= 20.92\nentropy = 0.99\nsamples = 13\nvalue = [10, 8, 0, 0]", fillcolor="#fae6d7"] ;
127 -> 129 ;
130 [label="entropy = 0.72\nsamples = 8\nvalue = [8, 2, 0, 0]", fillcolor="#eca06a"] ;
129 -> 130 ;
131 [label="entropy = 0.81\nsamples = 5\nvalue = [2, 6, 0, 0]", fillcolor="#84ee7b"] ;
129 -> 131 ;
132 [label="entropy = 0.0\nsamples = 6\nvalue = [0, 10, 0, 0]", fillcolor="#47e539"] ;
118 -> 132 ;
}