digraph Tree {
node [shape=box, style="filled, rounded", color="black", fontname="helvetica"] ;
edge [fontname="helvetica"] ;
0 [label="qPA <= 4.74\nentropy = 1.46\nsamples = 669\nvalue = [168, 619, 245, 18]", fillcolor="#aaf3a3"] ;
1 [label="pSist <= 13.9\nentropy = 1.26\nsamples = 434\nvalue = [22, 414, 214, 18]", fillcolor="#aef4a8"] ;
0 -> 1 [labeldistance=2.5, labelangle=45, headlabel="True"] ;
2 [label="pDiast <= 3.77\nentropy = 1.45\nsamples = 232\nvalue = [20, 175, 150, 15]", fillcolor="#e9fce7"] ;
1 -> 2 ;
3 [label="respiração <= 12.14\nentropy = 1.55\nsamples = 92\nvalue = [20, 79, 39, 5]", fillcolor="#b8f5b3"] ;
2 -> 3 ;
4 [label="pSist <= 5.1\nentropy = 1.04\nsamples = 54\nvalue = [15, 66, 7, 0]", fillcolor="#7eed75"] ;
3 -> 4 ;
5 [label="pulso <= 44.21\nentropy = 1.0\nsamples = 11\nvalue = [0, 8, 7, 0]", fillcolor="#e8fce6"] ;
4 -> 5 ;
6 [label="entropy = 0.0\nsamples = 4\nvalue = [0, 5, 0, 0]", fillcolor="#47e539"] ;
5 -> 6 ;
7 [label="pDiast <= 1.8\nentropy = 0.88\nsamples = 7\nvalue = [0, 3, 7, 0]", fillcolor="#8ec7f0"] ;
5 -> 7 ;
8 [label="entropy = 0.0\nsamples = 2\nvalue = [0, 2, 0, 0]", fillcolor="#47e539"] ;
7 -> 8 ;
9 [label="entropy = 0.54\nsamples = 5\nvalue = [0, 1, 7, 0]", fillcolor="#55abe9"] ;
7 -> 9 ;
10 [label="qPA <= -4.69\nentropy = 0.73\nsamples = 43\nvalue = [15, 58, 0, 0]", fillcolor="#77ec6c"] ;
4 -> 10 ;
11 [label="pulso <= 130.11\nentropy = 0.9\nsamples = 29\nvalue = [15, 33, 0, 0]", fillcolor="#9bf193"] ;
10 -> 11 ;
12 [label="entropy = 0.55\nsamples = 18\nvalue = [4, 27, 0, 0]", fillcolor="#62e956"] ;
11 -> 12 ;
13 [label="entropy = 0.94\nsamples = 11\nvalue = [11, 6, 0, 0]", fillcolor="#f3c6a5"] ;
11 -> 13 ;
14 [label="entropy = 0.0\nsamples = 14\nvalue = [0, 25, 0, 0]", fillcolor="#47e539"] ;
10 -> 14 ;
15 [label="pSist <= 5.51\nentropy = 1.58\nsamples = 38\nvalue = [5, 13, 32, 5]", fillcolor="#a5d3f3"] ;
3 -> 15 ;
16 [label="pSist <= 3.69\nentropy = 1.11\nsamples = 13\nvalue = [0, 1, 13, 5]", fillcolor="#8ec7f0"] ;
15 -> 16 ;
17 [label="pulso <= 99.56\nentropy = 0.44\nsamples = 8\nvalue = [0, 0, 10, 1]", fillcolor="#4da7e8"] ;
16 -> 17 ;
18 [label="entropy = 0.92\nsamples = 3\nvalue = [0, 0, 2, 1]", fillcolor="#9ccef2"] ;
17 -> 18 ;
19 [label="entropy = 0.0\nsamples = 5\nvalue = [0, 0, 8, 0]", fillcolor="#399de5"] ;
17 -> 19 ;
20 [label="pulso <= 111.53\nentropy = 1.41\nsamples = 5\nvalue = [0, 1, 3, 4]", fillcolor="#f7d7fa"] ;
16 -> 20 ;
21 [label="entropy = 0.0\nsamples = 2\nvalue = [0, 0, 0, 4]", fillcolor="#d739e5"] ;
20 -> 21 ;
22 [label="entropy = 0.81\nsamples = 3\nvalue = [0, 1, 3, 0]", fillcolor="#7bbeee"] ;
20 -> 22 ;
23 [label="pSist <= 6.98\nentropy = 1.41\nsamples = 25\nvalue = [5, 12, 19, 0]", fillcolor="#c5e2f7"] ;
15 -> 23 ;
24 [label="qPA <= -8.65\nentropy = 1.39\nsamples = 6\nvalue = [4, 1, 4, 0]", fillcolor="#ffffff"] ;
23 -> 24 ;
25 [label="entropy = 0.72\nsamples = 4\nvalue = [0, 1, 4, 0]", fillcolor="#6ab6ec"] ;
24 -> 25 ;
26 [label="entropy = 0.0\nsamples = 2\nvalue = [4, 0, 0, 0]", fillcolor="#e58139"] ;
24 -> 26 ;
27 [label="pDiast <= 3.12\nentropy = 1.17\nsamples = 19\nvalue = [1, 11, 15, 0]", fillcolor="#cde6f8"] ;
23 -> 27 ;
28 [label="entropy = 1.12\nsamples = 17\nvalue = [1, 7, 15, 0]", fillcolor="#9ccef2"] ;
27 -> 28 ;
29 [label="entropy = 0.0\nsamples = 2\nvalue = [0, 4, 0, 0]", fillcolor="#47e539"] ;
27 -> 29 ;
30 [label="respiração <= 11.31\nentropy = 1.22\nsamples = 140\nvalue = [0, 96, 111, 10]", fillcolor="#e6f3fc"] ;
2 -> 30 ;
31 [label="pulso <= 125.1\nentropy = 0.83\nsamples = 64\nvalue = [0, 77, 27, 0]", fillcolor="#88ee7e"] ;
30 -> 31 ;
32 [label="pulso <= 56.98\nentropy = 0.99\nsamples = 35\nvalue = [0, 33, 27, 0]", fillcolor="#defadb"] ;
31 -> 32 ;
33 [label="entropy = 0.0\nsamples = 15\nvalue = [0, 29, 0, 0]", fillcolor="#47e539"] ;
32 -> 33 ;
34 [label="pDiast <= 4.28\nentropy = 0.55\nsamples = 20\nvalue = [0, 4, 27, 0]", fillcolor="#56ace9"] ;
32 -> 34 ;
35 [label="entropy = 0.0\nsamples = 2\nvalue = [0, 4, 0, 0]", fillcolor="#47e539"] ;
34 -> 35 ;
36 [label="entropy = 0.0\nsamples = 18\nvalue = [0, 0, 27, 0]", fillcolor="#399de5"] ;
34 -> 36 ;
37 [label="entropy = 0.0\nsamples = 29\nvalue = [0, 44, 0, 0]", fillcolor="#47e539"] ;
31 -> 37 ;
38 [label="respiração <= 19.07\nentropy = 1.06\nsamples = 76\nvalue = [0, 19, 84, 10]", fillcolor="#76bbed"] ;
30 -> 38 ;
39 [label="pSist <= 5.54\nentropy = 0.59\nsamples = 54\nvalue = [0, 1, 72, 9]", fillcolor="#54aae9"] ;
38 -> 39 ;
40 [label="qPA <= -4.62\nentropy = 0.97\nsamples = 2\nvalue = [0, 0, 2, 3]", fillcolor="#f2bdf6"] ;
39 -> 40 ;
41 [label="entropy = 0.0\nsamples = 1\nvalue = [0, 0, 2, 0]", fillcolor="#399de5"] ;
40 -> 41 ;
42 [label="entropy = 0.0\nsamples = 1\nvalue = [0, 0, 0, 3]", fillcolor="#d739e5"] ;
40 -> 42 ;
43 [label="respiração <= 14.63\nentropy = 0.49\nsamples = 52\nvalue = [0, 1, 70, 6]", fillcolor="#4da7e8"] ;
39 -> 43 ;
44 [label="entropy = 0.16\nsamples = 29\nvalue = [0, 1, 43, 0]", fillcolor="#3e9fe6"] ;
43 -> 44 ;
45 [label="entropy = 0.68\nsamples = 23\nvalue = [0, 0, 27, 6]", fillcolor="#65b3eb"] ;
43 -> 45 ;
46 [label="pSist <= 12.87\nentropy = 1.15\nsamples = 22\nvalue = [0, 18, 12, 1]", fillcolor="#c5f7c0"] ;
38 -> 46 ;
47 [label="qPA <= 0.21\nentropy = 0.96\nsamples = 16\nvalue = [0, 16, 4, 1]", fillcolor="#7ded73"] ;
46 -> 47 ;
48 [label="entropy = 1.16\nsamples = 12\nvalue = [0, 10, 4, 1]", fillcolor="#9bf193"] ;
47 -> 48 ;
49 [label="entropy = 0.0\nsamples = 4\nvalue = [0, 6, 0, 0]", fillcolor="#47e539"] ;
47 -> 49 ;
50 [label="qPA <= 3.09\nentropy = 0.72\nsamples = 6\nvalue = [0, 2, 8, 0]", fillcolor="#6ab6ec"] ;
46 -> 50 ;
51 [label="entropy = 0.5\nsamples = 5\nvalue = [0, 1, 8, 0]", fillcolor="#52a9e8"] ;
50 -> 51 ;
52 [label="entropy = 0.0\nsamples = 1\nvalue = [0, 1, 0, 0]", fillcolor="#47e539"] ;
50 -> 52 ;
53 [label="respiração <= 12.58\nentropy = 0.87\nsamples = 202\nvalue = [2, 239, 64, 3]", fillcolor="#7bec71"] ;
1 -> 53 ;
54 [label="pulso <= 164.42\nentropy = 0.25\nsamples = 111\nvalue = [2, 170, 4, 0]", fillcolor="#4de640"] ;
53 -> 54 ;
55 [label="qPA <= -1.93\nentropy = 0.18\nsamples = 95\nvalue = [0, 145, 4, 0]", fillcolor="#4ce63e"] ;
54 -> 55 ;
56 [label="entropy = 0.0\nsamples = 44\nvalue = [0, 70, 0, 0]", fillcolor="#47e539"] ;
55 -> 56 ;
57 [label="respiração <= 11.37\nentropy = 0.29\nsamples = 51\nvalue = [0, 75, 4, 0]", fillcolor="#51e644"] ;
55 -> 57 ;
58 [label="pDiast <= 4.34\nentropy = 0.18\nsamples = 46\nvalue = [0, 72, 2, 0]", fillcolor="#4ce63e"] ;
57 -> 58 ;
59 [label="entropy = 0.0\nsamples = 1\nvalue = [0, 0, 2, 0]", fillcolor="#399de5"] ;
58 -> 59 ;
60 [label="entropy = 0.0\nsamples = 45\nvalue = [0, 72, 0, 0]", fillcolor="#47e539"] ;
58 -> 60 ;
61 [label="pSist <= 19.55\nentropy = 0.97\nsamples = 5\nvalue = [0, 3, 2, 0]", fillcolor="#c2f6bd"] ;
57 -> 61 ;
62 [label="entropy = 0.0\nsamples = 2\nvalue = [0, 2, 0, 0]", fillcolor="#47e539"] ;
61 -> 62 ;
63 [label="entropy = 0.92\nsamples = 3\nvalue = [0, 1, 2, 0]", fillcolor="#9ccef2"] ;
61 -> 63 ;
64 [label="pDiast <= 4.6\nentropy = 0.38\nsamples = 16\nvalue = [2, 25, 0, 0]", fillcolor="#56e749"] ;
54 -> 64 ;
65 [label="entropy = 0.0\nsamples = 9\nvalue = [0, 17, 0, 0]", fillcolor="#47e539"] ;
64 -> 65 ;
66 [label="qPA <= 4.68\nentropy = 0.72\nsamples = 7\nvalue = [2, 8, 0, 0]", fillcolor="#75ec6a"] ;
64 -> 66 ;
67 [label="entropy = 0.0\nsamples = 4\nvalue = [0, 6, 0, 0]", fillcolor="#47e539"] ;
66 -> 67 ;
68 [label="pulso <= 175.38\nentropy = 1.0\nsamples = 3\nvalue = [2, 2, 0, 0]", fillcolor="#ffffff"] ;
66 -> 68 ;
69 [label="entropy = 0.0\nsamples = 2\nvalue = [2, 0, 0, 0]", fillcolor="#e58139"] ;
68 -> 69 ;
70 [label="entropy = 0.0\nsamples = 1\nvalue = [0, 2, 0, 0]", fillcolor="#47e539"] ;
68 -> 70 ;
71 [label="qPA <= 4.41\nentropy = 1.13\nsamples = 91\nvalue = [0, 69, 60, 3]", fillcolor="#e8fce6"] ;
53 -> 71 ;
72 [label="pSist <= 14.14\nentropy = 1.21\nsamples = 44\nvalue = [0, 26, 35, 3]", fillcolor="#d0e8f9"] ;
71 -> 72 ;
73 [label="entropy = 0.0\nsamples = 2\nvalue = [0, 6, 0, 0]", fillcolor="#47e539"] ;
72 -> 73 ;
74 [label="respiração <= 17.44\nentropy = 1.19\nsamples = 42\nvalue = [0, 20, 35, 3]", fillcolor="#b1d8f5"] ;
72 -> 74 ;
75 [label="pDiast <= 0.49\nentropy = 0.61\nsamples = 25\nvalue = [0, 2, 32, 2]", fillcolor="#50a9e8"] ;
74 -> 75 ;
76 [label="entropy = 1.0\nsamples = 2\nvalue = [0, 2, 2, 0]", fillcolor="#ffffff"] ;
75 -> 76 ;
77 [label="entropy = 0.34\nsamples = 23\nvalue = [0, 0, 30, 2]", fillcolor="#46a4e7"] ;
75 -> 77 ;
78 [label="qPA <= -3.53\nentropy = 0.83\nsamples = 17\nvalue = [0, 18, 3, 1]", fillcolor="#6eea63"] ;
74 -> 78 ;
79 [label="entropy = 0.31\nsamples = 13\nvalue = [0, 17, 1, 0]", fillcolor="#52e745"] ;
78 -> 79 ;
80 [label="entropy = 1.5\nsamples = 4\nvalue = [0, 1, 2, 1]", fillcolor="#bddef6"] ;
78 -> 80 ;
81 [label="qPA <= 4.73\nentropy = 0.95\nsamples = 47\nvalue = [0, 43, 25, 0]", fillcolor="#b2f4ac"] ;
71 -> 81 ;
82 [label="pulso <= 127.57\nentropy = 0.89\nsamples = 43\nvalue = [0, 43, 19, 0]", fillcolor="#98f090"] ;
81 -> 82 ;
83 [label="pulso <= 38.38\nentropy = 1.0\nsamples = 28\nvalue = [0, 18, 19, 0]", fillcolor="#f5fafe"] ;
82 -> 83 ;
84 [label="entropy = 0.0\nsamples = 8\nvalue = [0, 13, 0, 0]", fillcolor="#47e539"] ;
83 -> 84 ;
85 [label="entropy = 0.74\nsamples = 20\nvalue = [0, 5, 19, 0]", fillcolor="#6db7ec"] ;
83 -> 85 ;
86 [label="entropy = 0.0\nsamples = 15\nvalue = [0, 25, 0, 0]", fillcolor="#47e539"] ;
82 -> 86 ;
87 [label="entropy = 0.0\nsamples = 4\nvalue = [0, 0, 6, 0]", fillcolor="#399de5"] ;
81 -> 87 ;
88 [label="pDiast <= 10.44\nentropy = 1.31\nsamples = 235\nvalue = [146, 205, 31, 0]", fillcolor="#d1f8ce"] ;
0 -> 88 [labeldistance=2.5, labelangle=-45, headlabel="False"] ;
89 [label="pulso <= 118.11\nentropy = 1.1\nsamples = 46\nvalue = [12, 54, 8, 0]", fillcolor="#82ed79"] ;
88 -> 89 ;
90 [label="pulso <= 64.3\nentropy = 1.24\nsamples = 25\nvalue = [4, 23, 8, 0]", fillcolor="#99f191"] ;
89 -> 90 ;
91 [label="respiração <= 7.42\nentropy = 0.72\nsamples = 13\nvalue = [4, 16, 0, 0]", fillcolor="#75ec6a"] ;
90 -> 91 ;
92 [label="respiração <= 4.47\nentropy = 1.0\nsamples = 5\nvalue = [4, 4, 0, 0]", fillcolor="#ffffff"] ;
91 -> 92 ;
93 [label="entropy = 0.0\nsamples = 2\nvalue = [0, 4, 0, 0]", fillcolor="#47e539"] ;
92 -> 93 ;
94 [label="entropy = 0.0\nsamples = 3\nvalue = [4, 0, 0, 0]", fillcolor="#e58139"] ;
92 -> 94 ;
95 [label="entropy = 0.0\nsamples = 8\nvalue = [0, 12, 0, 0]", fillcolor="#47e539"] ;
91 -> 95 ;
96 [label="pDiast <= 9.83\nentropy = 1.0\nsamples = 12\nvalue = [0, 7, 8, 0]", fillcolor="#e6f3fc"] ;
90 -> 96 ;
97 [label="respiração <= 11.75\nentropy = 0.81\nsamples = 6\nvalue = [0, 6, 2, 0]", fillcolor="#84ee7b"] ;
96 -> 97 ;
98 [label="entropy = 0.0\nsamples = 3\nvalue = [0, 4, 0, 0]", fillcolor="#47e539"] ;
97 -> 98 ;
99 [label="respiração <= 16.8\nentropy = 1.0\nsamples = 3\nvalue = [0, 2, 2, 0]", fillcolor="#ffffff"] ;
97 -> 99 ;
100 [label="entropy = 0.0\nsamples = 2\nvalue = [0, 0, 2, 0]", fillcolor="#399de5"] ;
99 -> 100 ;
101 [label="entropy = 0.0\nsamples = 1\nvalue = [0, 2, 0, 0]", fillcolor="#47e539"] ;
99 -> 101 ;
102 [label="pulso <= 89.42\nentropy = 0.59\nsamples = 6\nvalue = [0, 1, 6, 0]", fillcolor="#5aade9"] ;
96 -> 102 ;
103 [label="pSist <= 16.22\nentropy = 1.0\nsamples = 2\nvalue = [0, 1, 1, 0]", fillcolor="#ffffff"] ;
102 -> 103 ;
104 [label="entropy = 0.0\nsamples = 1\nvalue = [0, 0, 1, 0]", fillcolor="#399de5"] ;
103 -> 104 ;
105 [label="entropy = 0.0\nsamples = 1\nvalue = [0, 1, 0, 0]", fillcolor="#47e539"] ;
103 -> 105 ;
106 [label="entropy = 0.0\nsamples = 4\nvalue = [0, 0, 5, 0]", fillcolor="#399de5"] ;
102 -> 106 ;
107 [label="respiração <= 10.1\nentropy = 0.73\nsamples = 21\nvalue = [8, 31, 0, 0]", fillcolor="#76ec6c"] ;
89 -> 107 ;
108 [label="qPA <= 4.8\nentropy = 0.98\nsamples = 8\nvalue = [7, 5, 0, 0]", fillcolor="#f8dbc6"] ;
107 -> 108 ;
109 [label="qPA <= 4.76\nentropy = 0.76\nsamples = 6\nvalue = [7, 2, 0, 0]", fillcolor="#eca572"] ;
108 -> 109 ;
110 [label="respiração <= 6.99\nentropy = 0.92\nsamples = 2\nvalue = [1, 2, 0, 0]", fillcolor="#a3f29c"] ;
109 -> 110 ;
111 [label="entropy = 0.0\nsamples = 1\nvalue = [0, 2, 0, 0]", fillcolor="#47e539"] ;
110 -> 111 ;
112 [label="entropy = 0.0\nsamples = 1\nvalue = [1, 0, 0, 0]", fillcolor="#e58139"] ;
110 -> 112 ;
113 [label="entropy = 0.0\nsamples = 4\nvalue = [6, 0, 0, 0]", fillcolor="#e58139"] ;
109 -> 113 ;
114 [label="entropy = 0.0\nsamples = 2\nvalue = [0, 3, 0, 0]", fillcolor="#47e539"] ;
108 -> 114 ;
115 [label="qPA <= 5.12\nentropy = 0.23\nsamples = 13\nvalue = [1, 26, 0, 0]", fillcolor="#4ee641"] ;
107 -> 115 ;
116 [label="entropy = 0.0\nsamples = 11\nvalue = [0, 23, 0, 0]", fillcolor="#47e539"] ;
115 -> 116 ;
117 [label="pSist <= 18.43\nentropy = 0.81\nsamples = 2\nvalue = [1, 3, 0, 0]", fillcolor="#84ee7b"] ;
115 -> 117 ;
118 [label="entropy = 0.0\nsamples = 1\nvalue = [0, 3, 0, 0]", fillcolor="#47e539"] ;
117 -> 118 ;
119 [label="entropy = 0.0\nsamples = 1\nvalue = [1, 0, 0, 0]", fillcolor="#e58139"] ;
117 -> 119 ;
120 [label="pDiast <= 14.74\nentropy = 1.31\nsamples = 189\nvalue = [134, 151, 23, 0]", fillcolor="#edfcec"] ;
88 -> 120 ;
121 [label="pulso <= 143.07\nentropy = 1.31\nsamples = 180\nvalue = [134, 139, 22, 0]", fillcolor="#f9fef9"] ;
120 -> 121 ;
122 [label="pSist <= 20.62\nentropy = 1.31\nsamples = 127\nvalue = [64, 123, 22, 0]", fillcolor="#b4f4ae"] ;
121 -> 122 ;
123 [label="pulso <= 39.99\nentropy = 1.39\nsamples = 112\nvalue = [62, 94, 22, 0]", fillcolor="#ccf8c8"] ;
122 -> 123 ;
124 [label="pDiast <= 14.43\nentropy = 0.77\nsamples = 38\nvalue = [51, 15, 0, 0]", fillcolor="#eda673"] ;
123 -> 124 ;
125 [label="entropy = 0.83\nsamples = 35\nvalue = [42, 15, 0, 0]", fillcolor="#eeae80"] ;
124 -> 125 ;
126 [label="entropy = 0.0\nsamples = 3\nvalue = [9, 0, 0, 0]", fillcolor="#e58139"] ;
124 -> 126 ;
127 [label="qPA <= 6.7\nentropy = 1.15\nsamples = 74\nvalue = [11, 79, 22, 0]", fillcolor="#8aef82"] ;
123 -> 127 ;
128 [label="entropy = 0.99\nsamples = 11\nvalue = [0, 9, 7, 0]", fillcolor="#d6f9d3"] ;
127 -> 128 ;
129 [label="entropy = 1.11\nsamples = 63\nvalue = [11, 70, 15, 0]", fillcolor="#82ed79"] ;
127 -> 129 ;
130 [label="qPA <= 8.53\nentropy = 0.35\nsamples = 15\nvalue = [2, 29, 0, 0]", fillcolor="#54e747"] ;
122 -> 130 ;
131 [label="pulso <= 72.97\nentropy = 0.92\nsamples = 3\nvalue = [2, 1, 0, 0]", fillcolor="#f2c09c"] ;
130 -> 131 ;
132 [label="entropy = 0.0\nsamples = 2\nvalue = [2, 0, 0, 0]", fillcolor="#e58139"] ;
131 -> 132 ;
133 [label="entropy = 0.0\nsamples = 1\nvalue = [0, 1, 0, 0]", fillcolor="#47e539"] ;
131 -> 133 ;
134 [label="entropy = 0.0\nsamples = 12\nvalue = [0, 28, 0, 0]", fillcolor="#47e539"] ;
130 -> 134 ;
135 [label="pDiast <= 13.23\nentropy = 0.69\nsamples = 53\nvalue = [70, 16, 0, 0]", fillcolor="#eb9e66"] ;
121 -> 135 ;
136 [label="respiração <= 10.62\nentropy = 0.56\nsamples = 38\nvalue = [59, 9, 0, 0]", fillcolor="#e99457"] ;
135 -> 136 ;
137 [label="entropy = 0.0\nsamples = 24\nvalue = [44, 0, 0, 0]", fillcolor="#e58139"] ;
136 -> 137 ;
138 [label="respiração <= 18.92\nentropy = 0.95\nsamples = 14\nvalue = [15, 9, 0, 0]", fillcolor="#f5cdb0"] ;
136 -> 138 ;
139 [label="entropy = 0.0\nsamples = 7\nvalue = [0, 9, 0, 0]", fillcolor="#47e539"] ;
138 -> 139 ;
140 [label="entropy = 0.0\nsamples = 7\nvalue = [15, 0, 0, 0]", fillcolor="#e58139"] ;
138 -> 140 ;
141 [label="pSist <= 16.71\nentropy = 0.96\nsamples = 15\nvalue = [11, 7, 0, 0]", fillcolor="#f6d1b7"] ;
135 -> 141 ;
142 [label="pDiast <= 13.29\nentropy = 0.59\nsamples = 7\nvalue = [6, 1, 0, 0]", fillcolor="#e9965a"] ;
141 -> 142 ;
143 [label="entropy = 0.0\nsamples = 1\nvalue = [0, 1, 0, 0]", fillcolor="#47e539"] ;
142 -> 143 ;
144 [label="entropy = 0.0\nsamples = 6\nvalue = [6, 0, 0, 0]", fillcolor="#e58139"] ;
142 -> 144 ;
145 [label="respiração <= 9.84\nentropy = 0.99\nsamples = 8\nvalue = [5, 6, 0, 0]", fillcolor="#e0fbde"] ;
141 -> 145 ;
146 [label="entropy = 0.0\nsamples = 2\nvalue = [4, 0, 0, 0]", fillcolor="#e58139"] ;
145 -> 146 ;
147 [label="entropy = 0.59\nsamples = 6\nvalue = [1, 6, 0, 0]", fillcolor="#66e95a"] ;
145 -> 147 ;
148 [label="pulso <= 103.54\nentropy = 0.39\nsamples = 9\nvalue = [0, 12, 1, 0]", fillcolor="#56e749"] ;
120 -> 148 ;
149 [label="pulso <= 84.72\nentropy = 0.81\nsamples = 4\nvalue = [0, 3, 1, 0]", fillcolor="#84ee7b"] ;
148 -> 149 ;
150 [label="entropy = 0.0\nsamples = 3\nvalue = [0, 3, 0, 0]", fillcolor="#47e539"] ;
149 -> 150 ;
151 [label="entropy = 0.0\nsamples = 1\nvalue = [0, 0, 1, 0]", fillcolor="#399de5"] ;
149 -> 151 ;
152 [label="entropy = 0.0\nsamples = 5\nvalue = [0, 9, 0, 0]", fillcolor="#47e539"] ;
148 -> 152 ;
}