digraph Tree {
node [shape=box, style="filled, rounded", color="black", fontname="helvetica"] ;
edge [fontname="helvetica"] ;
0 [label="respiração <= 11.38\nentropy = 1.55\nsamples = 657\nvalue = [188, 563, 276, 23]", fillcolor="#bbf5b6"] ;
1 [label="pDiast <= 9.48\nentropy = 1.22\nsamples = 331\nvalue = [150, 344, 44, 0]", fillcolor="#a3f29c"] ;
0 -> 1 [labeldistance=2.5, labelangle=45, headlabel="True"] ;
2 [label="pSist <= 8.77\nentropy = 1.01\nsamples = 210\nvalue = [34, 256, 44, 0]", fillcolor="#78ec6e"] ;
1 -> 2 ;
3 [label="respiração <= 6.79\nentropy = 1.46\nsamples = 43\nvalue = [24, 38, 13, 0]", fillcolor="#ccf8c9"] ;
2 -> 3 ;
4 [label="qPA <= -5.9\nentropy = 0.95\nsamples = 28\nvalue = [17, 29, 0, 0]", fillcolor="#b3f4ad"] ;
3 -> 4 ;
5 [label="pulso <= 134.61\nentropy = 0.83\nsamples = 12\nvalue = [17, 6, 0, 0]", fillcolor="#eead7f"] ;
4 -> 5 ;
6 [label="qPA <= -7.58\nentropy = 0.81\nsamples = 5\nvalue = [2, 6, 0, 0]", fillcolor="#84ee7b"] ;
5 -> 6 ;
7 [label="entropy = 0.0\nsamples = 4\nvalue = [0, 6, 0, 0]", fillcolor="#47e539"] ;
6 -> 7 ;
8 [label="entropy = 0.0\nsamples = 1\nvalue = [2, 0, 0, 0]", fillcolor="#e58139"] ;
6 -> 8 ;
9 [label="entropy = 0.0\nsamples = 7\nvalue = [15, 0, 0, 0]", fillcolor="#e58139"] ;
5 -> 9 ;
10 [label="entropy = 0.0\nsamples = 16\nvalue = [0, 23, 0, 0]", fillcolor="#47e539"] ;
4 -> 10 ;
11 [label="qPA <= -3.38\nentropy = 1.54\nsamples = 15\nvalue = [7, 9, 13, 0]", fillcolor="#d7ebfa"] ;
3 -> 11 ;
12 [label="pSist <= 7.81\nentropy = 0.76\nsamples = 5\nvalue = [7, 2, 0, 0]", fillcolor="#eca572"] ;
11 -> 12 ;
13 [label="entropy = 0.0\nsamples = 3\nvalue = [5, 0, 0, 0]", fillcolor="#e58139"] ;
12 -> 13 ;
14 [label="pDiast <= 1.54\nentropy = 1.0\nsamples = 2\nvalue = [2, 2, 0, 0]", fillcolor="#ffffff"] ;
12 -> 14 ;
15 [label="entropy = 0.0\nsamples = 1\nvalue = [0, 2, 0, 0]", fillcolor="#47e539"] ;
14 -> 15 ;
16 [label="entropy = 0.0\nsamples = 1\nvalue = [2, 0, 0, 0]", fillcolor="#e58139"] ;
14 -> 16 ;
17 [label="respiração <= 10.63\nentropy = 0.93\nsamples = 10\nvalue = [0, 7, 13, 0]", fillcolor="#a4d2f3"] ;
11 -> 17 ;
18 [label="respiração <= 7.28\nentropy = 0.37\nsamples = 8\nvalue = [0, 1, 13, 0]", fillcolor="#48a5e7"] ;
17 -> 18 ;
19 [label="entropy = 0.81\nsamples = 2\nvalue = [0, 1, 3, 0]", fillcolor="#7bbeee"] ;
18 -> 19 ;
20 [label="entropy = 0.0\nsamples = 6\nvalue = [0, 0, 10, 0]", fillcolor="#399de5"] ;
18 -> 20 ;
21 [label="entropy = 0.0\nsamples = 2\nvalue = [0, 6, 0, 0]", fillcolor="#47e539"] ;
17 -> 21 ;
22 [label="pSist <= 16.37\nentropy = 0.76\nsamples = 167\nvalue = [10, 218, 31, 0]", fillcolor="#68ea5d"] ;
2 -> 22 ;
23 [label="pDiast <= 2.95\nentropy = 0.88\nsamples = 100\nvalue = [5, 126, 30, 0]", fillcolor="#78ec6e"] ;
22 -> 23 ;
24 [label="pDiast <= 1.84\nentropy = 0.41\nsamples = 23\nvalue = [3, 33, 0, 0]", fillcolor="#58e74b"] ;
23 -> 24 ;
25 [label="qPA <= -4.55\nentropy = 0.72\nsamples = 8\nvalue = [3, 12, 0, 0]", fillcolor="#75ec6a"] ;
24 -> 25 ;
26 [label="entropy = 0.99\nsamples = 4\nvalue = [3, 4, 0, 0]", fillcolor="#d1f8ce"] ;
25 -> 26 ;
27 [label="entropy = 0.0\nsamples = 4\nvalue = [0, 8, 0, 0]", fillcolor="#47e539"] ;
25 -> 27 ;
28 [label="entropy = 0.0\nsamples = 15\nvalue = [0, 21, 0, 0]", fillcolor="#47e539"] ;
24 -> 28 ;
29 [label="qPA <= 3.55\nentropy = 0.91\nsamples = 77\nvalue = [2, 93, 30, 0]", fillcolor="#85ee7c"] ;
23 -> 29 ;
30 [label="qPA <= -4.36\nentropy = 0.91\nsamples = 55\nvalue = [0, 62, 30, 0]", fillcolor="#a0f299"] ;
29 -> 30 ;
31 [label="entropy = 0.0\nsamples = 8\nvalue = [0, 10, 0, 0]", fillcolor="#47e539"] ;
30 -> 31 ;
32 [label="entropy = 0.95\nsamples = 47\nvalue = [0, 52, 30, 0]", fillcolor="#b1f4ab"] ;
30 -> 32 ;
33 [label="qPA <= 4.7\nentropy = 0.33\nsamples = 22\nvalue = [2, 31, 0, 0]", fillcolor="#53e746"] ;
29 -> 33 ;
34 [label="entropy = 0.0\nsamples = 19\nvalue = [0, 30, 0, 0]", fillcolor="#47e539"] ;
33 -> 34 ;
35 [label="entropy = 0.92\nsamples = 3\nvalue = [2, 1, 0, 0]", fillcolor="#f2c09c"] ;
33 -> 35 ;
36 [label="pSist <= 21.38\nentropy = 0.37\nsamples = 67\nvalue = [5, 92, 1, 0]", fillcolor="#53e746"] ;
22 -> 36 ;
37 [label="pSist <= 20.29\nentropy = 0.32\nsamples = 59\nvalue = [5, 80, 0, 0]", fillcolor="#52e745"] ;
36 -> 37 ;
38 [label="pSist <= 17.84\nentropy = 0.19\nsamples = 47\nvalue = [2, 68, 0, 0]", fillcolor="#4ce63f"] ;
37 -> 38 ;
39 [label="entropy = 0.36\nsamples = 18\nvalue = [2, 27, 0, 0]", fillcolor="#55e748"] ;
38 -> 39 ;
40 [label="entropy = 0.0\nsamples = 29\nvalue = [0, 41, 0, 0]", fillcolor="#47e539"] ;
38 -> 40 ;
41 [label="respiração <= 9.72\nentropy = 0.72\nsamples = 12\nvalue = [3, 12, 0, 0]", fillcolor="#75ec6a"] ;
37 -> 41 ;
42 [label="entropy = 0.39\nsamples = 10\nvalue = [1, 12, 0, 0]", fillcolor="#56e749"] ;
41 -> 42 ;
43 [label="entropy = 0.0\nsamples = 2\nvalue = [2, 0, 0, 0]", fillcolor="#e58139"] ;
41 -> 43 ;
44 [label="respiração <= 2.12\nentropy = 0.39\nsamples = 8\nvalue = [0, 12, 1, 0]", fillcolor="#56e749"] ;
36 -> 44 ;
45 [label="pulso <= 111.02\nentropy = 0.81\nsamples = 2\nvalue = [0, 3, 1, 0]", fillcolor="#84ee7b"] ;
44 -> 45 ;
46 [label="entropy = 0.0\nsamples = 1\nvalue = [0, 0, 1, 0]", fillcolor="#399de5"] ;
45 -> 46 ;
47 [label="entropy = 0.0\nsamples = 1\nvalue = [0, 3, 0, 0]", fillcolor="#47e539"] ;
45 -> 47 ;
48 [label="entropy = 0.0\nsamples = 6\nvalue = [0, 9, 0, 0]", fillcolor="#47e539"] ;
44 -> 48 ;
49 [label="respiração <= 10.78\nentropy = 0.99\nsamples = 121\nvalue = [116, 88, 0, 0]", fillcolor="#f9e1cf"] ;
1 -> 49 ;
50 [label="qPA <= 4.63\nentropy = 0.98\nsamples = 116\nvalue = [116, 80, 0, 0]", fillcolor="#f7d8c2"] ;
49 -> 50 ;
51 [label="entropy = 0.0\nsamples = 8\nvalue = [0, 14, 0, 0]", fillcolor="#47e539"] ;
50 -> 51 ;
52 [label="qPA <= 6.85\nentropy = 0.94\nsamples = 108\nvalue = [116, 66, 0, 0]", fillcolor="#f4c9aa"] ;
50 -> 52 ;
53 [label="qPA <= 6.26\nentropy = 0.99\nsamples = 25\nvalue = [19, 23, 0, 0]", fillcolor="#dffadd"] ;
52 -> 53 ;
54 [label="pSist <= 19.96\nentropy = 0.95\nsamples = 20\nvalue = [19, 11, 0, 0]", fillcolor="#f4caac"] ;
53 -> 54 ;
55 [label="entropy = 0.8\nsamples = 16\nvalue = [19, 6, 0, 0]", fillcolor="#eda978"] ;
54 -> 55 ;
56 [label="entropy = 0.0\nsamples = 4\nvalue = [0, 5, 0, 0]", fillcolor="#47e539"] ;
54 -> 56 ;
57 [label="entropy = 0.0\nsamples = 5\nvalue = [0, 12, 0, 0]", fillcolor="#47e539"] ;
53 -> 57 ;
58 [label="pulso <= 121.01\nentropy = 0.89\nsamples = 83\nvalue = [97, 43, 0, 0]", fillcolor="#f1b991"] ;
52 -> 58 ;
59 [label="pSist <= 21.27\nentropy = 0.99\nsamples = 45\nvalue = [33, 43, 0, 0]", fillcolor="#d4f9d1"] ;
58 -> 59 ;
60 [label="entropy = 1.0\nsamples = 38\nvalue = [33, 30, 0, 0]", fillcolor="#fdf4ed"] ;
59 -> 60 ;
61 [label="entropy = 0.0\nsamples = 7\nvalue = [0, 13, 0, 0]", fillcolor="#47e539"] ;
59 -> 61 ;
62 [label="entropy = 0.0\nsamples = 38\nvalue = [64, 0, 0, 0]", fillcolor="#e58139"] ;
58 -> 62 ;
63 [label="entropy = 0.0\nsamples = 5\nvalue = [0, 8, 0, 0]", fillcolor="#47e539"] ;
49 -> 63 ;
64 [label="qPA <= 4.43\nentropy = 1.52\nsamples = 326\nvalue = [38, 219, 232, 23]", fillcolor="#f6fbfe"] ;
0 -> 64 [labeldistance=2.5, labelangle=-45, headlabel="False"] ;
65 [label="qPA <= -4.23\nentropy = 1.22\nsamples = 166\nvalue = [1, 60, 172, 23]", fillcolor="#8ec7f0"] ;
64 -> 65 ;
66 [label="respiração <= 17.83\nentropy = 1.0\nsamples = 70\nvalue = [1, 37, 68, 0]", fillcolor="#a6d3f3"] ;
65 -> 66 ;
67 [label="qPA <= -4.4\nentropy = 0.66\nsamples = 46\nvalue = [0, 11, 53, 0]", fillcolor="#62b1ea"] ;
66 -> 67 ;
68 [label="pulso <= 38.91\nentropy = 0.32\nsamples = 20\nvalue = [0, 2, 32, 0]", fillcolor="#45a3e7"] ;
67 -> 68 ;
69 [label="entropy = 0.0\nsamples = 1\nvalue = [0, 1, 0, 0]", fillcolor="#47e539"] ;
68 -> 69 ;
70 [label="pSist <= 11.27\nentropy = 0.2\nsamples = 19\nvalue = [0, 1, 32, 0]", fillcolor="#3fa0e6"] ;
68 -> 70 ;
71 [label="entropy = 0.0\nsamples = 13\nvalue = [0, 0, 22, 0]", fillcolor="#399de5"] ;
70 -> 71 ;
72 [label="entropy = 0.44\nsamples = 6\nvalue = [0, 1, 10, 0]", fillcolor="#4da7e8"] ;
70 -> 72 ;
73 [label="pDiast <= 3.56\nentropy = 0.88\nsamples = 26\nvalue = [0, 9, 21, 0]", fillcolor="#8ec7f0"] ;
67 -> 73 ;
74 [label="respiração <= 12.25\nentropy = 0.76\nsamples = 23\nvalue = [0, 6, 21, 0]", fillcolor="#72b9ec"] ;
73 -> 74 ;
75 [label="entropy = 0.0\nsamples = 3\nvalue = [0, 3, 0, 0]", fillcolor="#47e539"] ;
74 -> 75 ;
76 [label="entropy = 0.54\nsamples = 20\nvalue = [0, 3, 21, 0]", fillcolor="#55abe9"] ;
74 -> 76 ;
77 [label="entropy = 0.0\nsamples = 3\nvalue = [0, 3, 0, 0]", fillcolor="#47e539"] ;
73 -> 77 ;
78 [label="pSist <= 13.89\nentropy = 1.09\nsamples = 24\nvalue = [1, 26, 15, 0]", fillcolor="#b4f4ae"] ;
66 -> 78 ;
79 [label="pSist <= 7.88\nentropy = 1.17\nsamples = 11\nvalue = [1, 7, 13, 0]", fillcolor="#aad5f4"] ;
78 -> 79 ;
80 [label="respiração <= 19.21\nentropy = 1.35\nsamples = 5\nvalue = [1, 5, 3, 0]", fillcolor="#c2f6bd"] ;
79 -> 80 ;
81 [label="entropy = 0.0\nsamples = 3\nvalue = [0, 5, 0, 0]", fillcolor="#47e539"] ;
80 -> 81 ;
82 [label="entropy = 0.81\nsamples = 2\nvalue = [1, 0, 3, 0]", fillcolor="#7bbeee"] ;
80 -> 82 ;
83 [label="qPA <= -4.41\nentropy = 0.65\nsamples = 6\nvalue = [0, 2, 10, 0]", fillcolor="#61b1ea"] ;
79 -> 83 ;
84 [label="entropy = 0.44\nsamples = 5\nvalue = [0, 1, 10, 0]", fillcolor="#4da7e8"] ;
83 -> 84 ;
85 [label="entropy = 0.0\nsamples = 1\nvalue = [0, 1, 0, 0]", fillcolor="#47e539"] ;
83 -> 85 ;
86 [label="pulso <= 111.86\nentropy = 0.45\nsamples = 13\nvalue = [0, 19, 2, 0]", fillcolor="#5ae84e"] ;
78 -> 86 ;
87 [label="pulso <= 57.88\nentropy = 0.92\nsamples = 5\nvalue = [0, 4, 2, 0]", fillcolor="#a3f29c"] ;
86 -> 87 ;
88 [label="entropy = 0.0\nsamples = 3\nvalue = [0, 4, 0, 0]", fillcolor="#47e539"] ;
87 -> 88 ;
89 [label="entropy = 0.0\nsamples = 2\nvalue = [0, 0, 2, 0]", fillcolor="#399de5"] ;
87 -> 89 ;
90 [label="entropy = 0.0\nsamples = 8\nvalue = [0, 15, 0, 0]", fillcolor="#47e539"] ;
86 -> 90 ;
91 [label="respiração <= 18.56\nentropy = 1.2\nsamples = 96\nvalue = [0, 23, 104, 23]", fillcolor="#81c0ee"] ;
65 -> 91 ;
92 [label="qPA <= 3.51\nentropy = 0.86\nsamples = 68\nvalue = [0, 5, 88, 16]", fillcolor="#66b3eb"] ;
91 -> 92 ;
93 [label="pulso <= 104.47\nentropy = 0.63\nsamples = 59\nvalue = [0, 0, 80, 15]", fillcolor="#5eafea"] ;
92 -> 93 ;
94 [label="pSist <= 8.98\nentropy = 0.82\nsamples = 36\nvalue = [0, 0, 44, 15]", fillcolor="#7cbeee"] ;
93 -> 94 ;
95 [label="entropy = 0.27\nsamples = 13\nvalue = [0, 0, 21, 1]", fillcolor="#42a2e6"] ;
94 -> 95 ;
96 [label="entropy = 0.96\nsamples = 23\nvalue = [0, 0, 23, 14]", fillcolor="#b2d9f5"] ;
94 -> 96 ;
97 [label="entropy = 0.0\nsamples = 23\nvalue = [0, 0, 36, 0]", fillcolor="#399de5"] ;
93 -> 97 ;
98 [label="pulso <= 41.56\nentropy = 1.26\nsamples = 9\nvalue = [0, 5, 8, 1]", fillcolor="#bddef6"] ;
92 -> 98 ;
99 [label="entropy = 0.0\nsamples = 2\nvalue = [0, 4, 0, 0]", fillcolor="#47e539"] ;
98 -> 99 ;
100 [label="pDiast <= 4.8\nentropy = 0.92\nsamples = 7\nvalue = [0, 1, 8, 1]", fillcolor="#65b3eb"] ;
98 -> 100 ;
101 [label="entropy = 0.0\nsamples = 1\nvalue = [0, 0, 0, 1]", fillcolor="#d739e5"] ;
100 -> 101 ;
102 [label="entropy = 0.5\nsamples = 6\nvalue = [0, 1, 8, 0]", fillcolor="#52a9e8"] ;
100 -> 102 ;
103 [label="pulso <= 137.14\nentropy = 1.49\nsamples = 28\nvalue = [0, 18, 16, 7]", fillcolor="#f0fdef"] ;
91 -> 103 ;
104 [label="pDiast <= 9.61\nentropy = 1.49\nsamples = 22\nvalue = [0, 9, 16, 7]", fillcolor="#c3e1f7"] ;
103 -> 104 ;
105 [label="qPA <= -0.07\nentropy = 1.41\nsamples = 19\nvalue = [0, 5, 16, 7]", fillcolor="#aad5f4"] ;
104 -> 105 ;
106 [label="entropy = 1.0\nsamples = 2\nvalue = [0, 2, 0, 2]", fillcolor="#ffffff"] ;
105 -> 106 ;
107 [label="entropy = 1.24\nsamples = 17\nvalue = [0, 3, 16, 5]", fillcolor="#8cc6f0"] ;
105 -> 107 ;
108 [label="entropy = 0.0\nsamples = 3\nvalue = [0, 4, 0, 0]", fillcolor="#47e539"] ;
104 -> 108 ;
109 [label="entropy = 0.0\nsamples = 6\nvalue = [0, 9, 0, 0]", fillcolor="#47e539"] ;
103 -> 109 ;
110 [label="pulso <= 127.57\nentropy = 1.32\nsamples = 160\nvalue = [37, 159, 60, 0]", fillcolor="#a2f29b"] ;
64 -> 110 ;
111 [label="pDiast <= 11.53\nentropy = 1.31\nsamples = 104\nvalue = [13, 84, 60, 0]", fillcolor="#d1f9ce"] ;
110 -> 111 ;
112 [label="pulso <= 40.87\nentropy = 1.0\nsamples = 56\nvalue = [0, 45, 41, 0]", fillcolor="#effded"] ;
111 -> 112 ;
113 [label="entropy = 0.0\nsamples = 11\nvalue = [0, 19, 0, 0]", fillcolor="#47e539"] ;
112 -> 113 ;
114 [label="pulso <= 110.63\nentropy = 0.96\nsamples = 45\nvalue = [0, 26, 41, 0]", fillcolor="#b7dbf5"] ;
112 -> 114 ;
115 [label="respiração <= 18.5\nentropy = 0.78\nsamples = 36\nvalue = [0, 11, 37, 0]", fillcolor="#74baed"] ;
114 -> 115 ;
116 [label="entropy = 0.0\nsamples = 25\nvalue = [0, 0, 32, 0]", fillcolor="#399de5"] ;
115 -> 116 ;
117 [label="entropy = 0.9\nsamples = 11\nvalue = [0, 11, 5, 0]", fillcolor="#9bf193"] ;
115 -> 117 ;
118 [label="respiração <= 13.1\nentropy = 0.74\nsamples = 9\nvalue = [0, 15, 4, 0]", fillcolor="#78ec6e"] ;
114 -> 118 ;
119 [label="entropy = 0.0\nsamples = 4\nvalue = [0, 10, 0, 0]", fillcolor="#47e539"] ;
118 -> 119 ;
120 [label="entropy = 0.99\nsamples = 5\nvalue = [0, 5, 4, 0]", fillcolor="#dafad7"] ;
118 -> 120 ;
121 [label="respiração <= 19.61\nentropy = 1.43\nsamples = 48\nvalue = [13, 39, 19, 0]", fillcolor="#b8f5b3"] ;
111 -> 121 ;
122 [label="respiração <= 18.72\nentropy = 0.97\nsamples = 32\nvalue = [0, 28, 19, 0]", fillcolor="#c4f7bf"] ;
121 -> 122 ;
123 [label="pSist <= 19.61\nentropy = 1.0\nsamples = 28\nvalue = [0, 21, 19, 0]", fillcolor="#edfdec"] ;
122 -> 123 ;
124 [label="entropy = 0.96\nsamples = 21\nvalue = [0, 18, 11, 0]", fillcolor="#b7f5b2"] ;
123 -> 124 ;
125 [label="entropy = 0.85\nsamples = 7\nvalue = [0, 3, 8, 0]", fillcolor="#83c2ef"] ;
123 -> 125 ;
126 [label="entropy = 0.0\nsamples = 4\nvalue = [0, 7, 0, 0]", fillcolor="#47e539"] ;
122 -> 126 ;
127 [label="pDiast <= 14.81\nentropy = 0.99\nsamples = 16\nvalue = [13, 11, 0, 0]", fillcolor="#fbece1"] ;
121 -> 127 ;
128 [label="respiração <= 20.38\nentropy = 0.96\nsamples = 15\nvalue = [13, 8, 0, 0]", fillcolor="#f5cfb3"] ;
127 -> 128 ;
129 [label="entropy = 0.0\nsamples = 5\nvalue = [9, 0, 0, 0]", fillcolor="#e58139"] ;
128 -> 129 ;
130 [label="entropy = 0.92\nsamples = 10\nvalue = [4, 8, 0, 0]", fillcolor="#a3f29c"] ;
128 -> 130 ;
131 [label="entropy = 0.0\nsamples = 1\nvalue = [0, 3, 0, 0]", fillcolor="#47e539"] ;
127 -> 131 ;
132 [label="qPA <= 8.64\nentropy = 0.8\nsamples = 56\nvalue = [24, 75, 0, 0]", fillcolor="#82ed78"] ;
110 -> 132 ;
133 [label="qPA <= 4.71\nentropy = 0.54\nsamples = 40\nvalue = [8, 57, 0, 0]", fillcolor="#61e955"] ;
132 -> 133 ;
134 [label="entropy = 0.0\nsamples = 13\nvalue = [0, 21, 0, 0]", fillcolor="#47e539"] ;
133 -> 134 ;
135 [label="pulso <= 151.65\nentropy = 0.68\nsamples = 27\nvalue = [8, 36, 0, 0]", fillcolor="#70eb65"] ;
133 -> 135 ;
136 [label="respiração <= 19.93\nentropy = 1.0\nsamples = 8\nvalue = [6, 7, 0, 0]", fillcolor="#e5fbe3"] ;
135 -> 136 ;
137 [label="entropy = 0.0\nsamples = 4\nvalue = [0, 7, 0, 0]", fillcolor="#47e539"] ;
136 -> 137 ;
138 [label="entropy = 0.0\nsamples = 4\nvalue = [6, 0, 0, 0]", fillcolor="#e58139"] ;
136 -> 138 ;
139 [label="respiração <= 19.97\nentropy = 0.35\nsamples = 19\nvalue = [2, 29, 0, 0]", fillcolor="#54e747"] ;
135 -> 139 ;
140 [label="entropy = 0.0\nsamples = 17\nvalue = [0, 29, 0, 0]", fillcolor="#47e539"] ;
139 -> 140 ;
141 [label="entropy = 0.0\nsamples = 2\nvalue = [2, 0, 0, 0]", fillcolor="#e58139"] ;
139 -> 141 ;
142 [label="pulso <= 152.09\nentropy = 1.0\nsamples = 16\nvalue = [16, 18, 0, 0]", fillcolor="#ebfce9"] ;
132 -> 142 ;
143 [label="pDiast <= 11.77\nentropy = 0.59\nsamples = 6\nvalue = [2, 12, 0, 0]", fillcolor="#66e95a"] ;
142 -> 143 ;
144 [label="entropy = 0.0\nsamples = 1\nvalue = [2, 0, 0, 0]", fillcolor="#e58139"] ;
143 -> 144 ;
145 [label="entropy = 0.0\nsamples = 5\nvalue = [0, 12, 0, 0]", fillcolor="#47e539"] ;
143 -> 145 ;
146 [label="respiração <= 18.56\nentropy = 0.88\nsamples = 10\nvalue = [14, 6, 0, 0]", fillcolor="#f0b78e"] ;
142 -> 146 ;
147 [label="entropy = 0.0\nsamples = 3\nvalue = [0, 6, 0, 0]", fillcolor="#47e539"] ;
146 -> 147 ;
148 [label="entropy = 0.0\nsamples = 7\nvalue = [14, 0, 0, 0]", fillcolor="#e58139"] ;
146 -> 148 ;
}