digraph Tree {
node [shape=box, style="filled, rounded", color="black", fontname="helvetica"] ;
edge [fontname="helvetica"] ;
0 [label="respiração <= 11.39\nentropy = 1.51\nsamples = 669\nvalue = [173, 580, 279, 18]", fillcolor="#b7f5b2"] ;
1 [label="pSist <= 13.03\nentropy = 1.12\nsamples = 352\nvalue = [129, 377, 37, 0]", fillcolor="#91ef88"] ;
0 -> 1 [labeldistance=2.5, labelangle=45, headlabel="True"] ;
2 [label="qPA <= -4.72\nentropy = 1.24\nsamples = 121\nvalue = [25, 120, 34, 0]", fillcolor="#92f08a"] ;
1 -> 2 ;
3 [label="qPA <= -6.7\nentropy = 0.99\nsamples = 31\nvalue = [20, 25, 0, 0]", fillcolor="#dafad7"] ;
2 -> 3 ;
4 [label="respiração <= 5.12\nentropy = 0.84\nsamples = 11\nvalue = [11, 4, 0, 0]", fillcolor="#eeaf81"] ;
3 -> 4 ;
5 [label="qPA <= -8.68\nentropy = 0.97\nsamples = 7\nvalue = [6, 4, 0, 0]", fillcolor="#f6d5bd"] ;
4 -> 5 ;
6 [label="entropy = 0.0\nsamples = 3\nvalue = [0, 3, 0, 0]", fillcolor="#47e539"] ;
5 -> 6 ;
7 [label="pDiast <= 2.97\nentropy = 0.59\nsamples = 4\nvalue = [6, 1, 0, 0]", fillcolor="#e9965a"] ;
5 -> 7 ;
8 [label="entropy = 0.0\nsamples = 3\nvalue = [6, 0, 0, 0]", fillcolor="#e58139"] ;
7 -> 8 ;
9 [label="entropy = 0.0\nsamples = 1\nvalue = [0, 1, 0, 0]", fillcolor="#47e539"] ;
7 -> 9 ;
10 [label="entropy = 0.0\nsamples = 4\nvalue = [5, 0, 0, 0]", fillcolor="#e58139"] ;
4 -> 10 ;
11 [label="pulso <= 135.7\nentropy = 0.88\nsamples = 20\nvalue = [9, 21, 0, 0]", fillcolor="#96f08e"] ;
3 -> 11 ;
12 [label="pulso <= 39.19\nentropy = 0.63\nsamples = 17\nvalue = [4, 21, 0, 0]", fillcolor="#6aea5f"] ;
11 -> 12 ;
13 [label="entropy = 0.0\nsamples = 3\nvalue = [4, 0, 0, 0]", fillcolor="#e58139"] ;
12 -> 13 ;
14 [label="entropy = 0.0\nsamples = 14\nvalue = [0, 21, 0, 0]", fillcolor="#47e539"] ;
12 -> 14 ;
15 [label="entropy = 0.0\nsamples = 3\nvalue = [5, 0, 0, 0]", fillcolor="#e58139"] ;
11 -> 15 ;
16 [label="pulso <= 123.59\nentropy = 1.03\nsamples = 90\nvalue = [5, 95, 34, 0]", fillcolor="#8fef86"] ;
2 -> 16 ;
17 [label="qPA <= -3.64\nentropy = 0.99\nsamples = 53\nvalue = [0, 41, 34, 0]", fillcolor="#e0fbdd"] ;
16 -> 17 ;
18 [label="entropy = 0.0\nsamples = 10\nvalue = [0, 12, 0, 0]", fillcolor="#47e539"] ;
17 -> 18 ;
19 [label="pSist <= 4.02\nentropy = 1.0\nsamples = 43\nvalue = [0, 29, 34, 0]", fillcolor="#e2f1fb"] ;
17 -> 19 ;
20 [label="entropy = 0.0\nsamples = 4\nvalue = [0, 8, 0, 0]", fillcolor="#47e539"] ;
19 -> 20 ;
21 [label="pDiast <= 9.47\nentropy = 0.96\nsamples = 39\nvalue = [0, 21, 34, 0]", fillcolor="#b3daf5"] ;
19 -> 21 ;
22 [label="entropy = 0.8\nsamples = 33\nvalue = [0, 11, 34, 0]", fillcolor="#79bded"] ;
21 -> 22 ;
23 [label="entropy = 0.0\nsamples = 6\nvalue = [0, 10, 0, 0]", fillcolor="#47e539"] ;
21 -> 23 ;
24 [label="pDiast <= 10.83\nentropy = 0.42\nsamples = 37\nvalue = [5, 54, 0, 0]", fillcolor="#58e74b"] ;
16 -> 24 ;
25 [label="entropy = 0.0\nsamples = 33\nvalue = [0, 53, 0, 0]", fillcolor="#47e539"] ;
24 -> 25 ;
26 [label="pSist <= 12.85\nentropy = 0.65\nsamples = 4\nvalue = [5, 1, 0, 0]", fillcolor="#ea9a61"] ;
24 -> 26 ;
27 [label="entropy = 0.0\nsamples = 3\nvalue = [5, 0, 0, 0]", fillcolor="#e58139"] ;
26 -> 27 ;
28 [label="entropy = 0.0\nsamples = 1\nvalue = [0, 1, 0, 0]", fillcolor="#47e539"] ;
26 -> 28 ;
29 [label="pulso <= 126.63\nentropy = 0.93\nsamples = 231\nvalue = [104, 257, 3, 0]", fillcolor="#93f08a"] ;
1 -> 29 ;
30 [label="pDiast <= 10.43\nentropy = 0.68\nsamples = 145\nvalue = [31, 191, 3, 0]", fillcolor="#67ea5c"] ;
29 -> 30 ;
31 [label="pDiast <= 5.54\nentropy = 0.34\nsamples = 90\nvalue = [4, 132, 3, 0]", fillcolor="#51e643"] ;
30 -> 31 ;
32 [label="pDiast <= 4.15\nentropy = 0.25\nsamples = 47\nvalue = [0, 68, 3, 0]", fillcolor="#4fe642"] ;
31 -> 32 ;
33 [label="qPA <= -4.33\nentropy = 0.12\nsamples = 38\nvalue = [0, 60, 1, 0]", fillcolor="#4ae53c"] ;
32 -> 33 ;
34 [label="entropy = 0.0\nsamples = 25\nvalue = [0, 39, 0, 0]", fillcolor="#47e539"] ;
33 -> 34 ;
35 [label="entropy = 0.27\nsamples = 13\nvalue = [0, 21, 1, 0]", fillcolor="#50e642"] ;
33 -> 35 ;
36 [label="qPA <= 1.82\nentropy = 0.72\nsamples = 9\nvalue = [0, 8, 2, 0]", fillcolor="#75ec6a"] ;
32 -> 36 ;
37 [label="entropy = 0.0\nsamples = 2\nvalue = [0, 0, 2, 0]", fillcolor="#399de5"] ;
36 -> 37 ;
38 [label="entropy = 0.0\nsamples = 7\nvalue = [0, 8, 0, 0]", fillcolor="#47e539"] ;
36 -> 38 ;
39 [label="pulso <= 40.09\nentropy = 0.32\nsamples = 43\nvalue = [4, 64, 0, 0]", fillcolor="#52e745"] ;
31 -> 39 ;
40 [label="respiração <= 1.15\nentropy = 0.79\nsamples = 13\nvalue = [4, 13, 0, 0]", fillcolor="#80ed76"] ;
39 -> 40 ;
41 [label="entropy = 0.0\nsamples = 1\nvalue = [2, 0, 0, 0]", fillcolor="#e58139"] ;
40 -> 41 ;
42 [label="entropy = 0.57\nsamples = 12\nvalue = [2, 13, 0, 0]", fillcolor="#63e957"] ;
40 -> 42 ;
43 [label="entropy = 0.0\nsamples = 30\nvalue = [0, 51, 0, 0]", fillcolor="#47e539"] ;
39 -> 43 ;
44 [label="respiração <= 5.17\nentropy = 0.9\nsamples = 55\nvalue = [27, 59, 0, 0]", fillcolor="#9bf194"] ;
30 -> 44 ;
45 [label="pulso <= 43.06\nentropy = 1.0\nsamples = 24\nvalue = [17, 19, 0, 0]", fillcolor="#ecfcea"] ;
44 -> 45 ;
46 [label="entropy = 0.0\nsamples = 10\nvalue = [17, 0, 0, 0]", fillcolor="#e58139"] ;
45 -> 46 ;
47 [label="entropy = 0.0\nsamples = 14\nvalue = [0, 19, 0, 0]", fillcolor="#47e539"] ;
45 -> 47 ;
48 [label="pulso <= 41.23\nentropy = 0.72\nsamples = 31\nvalue = [10, 40, 0, 0]", fillcolor="#75ec6a"] ;
44 -> 48 ;
49 [label="pSist <= 20.51\nentropy = 0.78\nsamples = 8\nvalue = [10, 3, 0, 0]", fillcolor="#eda774"] ;
48 -> 49 ;
50 [label="entropy = 0.0\nsamples = 5\nvalue = [9, 0, 0, 0]", fillcolor="#e58139"] ;
49 -> 50 ;
51 [label="entropy = 0.81\nsamples = 3\nvalue = [1, 3, 0, 0]", fillcolor="#84ee7b"] ;
49 -> 51 ;
52 [label="entropy = 0.0\nsamples = 23\nvalue = [0, 37, 0, 0]", fillcolor="#47e539"] ;
48 -> 52 ;
53 [label="respiração <= 10.65\nentropy = 1.0\nsamples = 86\nvalue = [73, 66, 0, 0]", fillcolor="#fdf3ec"] ;
29 -> 53 ;
54 [label="respiração <= 7.71\nentropy = 0.99\nsamples = 81\nvalue = [73, 58, 0, 0]", fillcolor="#fae5d6"] ;
53 -> 54 ;
55 [label="qPA <= 4.7\nentropy = 1.0\nsamples = 62\nvalue = [48, 50, 0, 0]", fillcolor="#f8fef7"] ;
54 -> 55 ;
56 [label="entropy = 0.0\nsamples = 33\nvalue = [0, 50, 0, 0]", fillcolor="#47e539"] ;
55 -> 56 ;
57 [label="entropy = 0.0\nsamples = 29\nvalue = [48, 0, 0, 0]", fillcolor="#e58139"] ;
55 -> 57 ;
58 [label="pDiast <= 5.82\nentropy = 0.8\nsamples = 19\nvalue = [25, 8, 0, 0]", fillcolor="#eda978"] ;
54 -> 58 ;
59 [label="respiração <= 9.06\nentropy = 0.59\nsamples = 5\nvalue = [1, 6, 0, 0]", fillcolor="#66e95a"] ;
58 -> 59 ;
60 [label="entropy = 0.0\nsamples = 2\nvalue = [0, 3, 0, 0]", fillcolor="#47e539"] ;
59 -> 60 ;
61 [label="entropy = 0.81\nsamples = 3\nvalue = [1, 3, 0, 0]", fillcolor="#84ee7b"] ;
59 -> 61 ;
62 [label="pulso <= 156.15\nentropy = 0.39\nsamples = 14\nvalue = [24, 2, 0, 0]", fillcolor="#e78c49"] ;
58 -> 62 ;
63 [label="entropy = 0.81\nsamples = 7\nvalue = [6, 2, 0, 0]", fillcolor="#eeab7b"] ;
62 -> 63 ;
64 [label="entropy = 0.0\nsamples = 7\nvalue = [18, 0, 0, 0]", fillcolor="#e58139"] ;
62 -> 64 ;
65 [label="entropy = 0.0\nsamples = 5\nvalue = [0, 8, 0, 0]", fillcolor="#47e539"] ;
53 -> 65 ;
66 [label="qPA <= 4.37\nentropy = 1.52\nsamples = 317\nvalue = [44, 203, 242, 18]", fillcolor="#e6f2fc"] ;
0 -> 66 [labeldistance=2.5, labelangle=-45, headlabel="False"] ;
67 [label="pulso <= 114.18\nentropy = 1.3\nsamples = 153\nvalue = [5, 62, 158, 18]", fillcolor="#96cbf1"] ;
66 -> 67 ;
68 [label="respiração <= 11.89\nentropy = 1.1\nsamples = 91\nvalue = [1, 19, 113, 18]", fillcolor="#72b9ec"] ;
67 -> 68 ;
69 [label="respiração <= 11.51\nentropy = 0.98\nsamples = 7\nvalue = [0, 7, 5, 0]", fillcolor="#caf8c6"] ;
68 -> 69 ;
70 [label="entropy = 0.0\nsamples = 2\nvalue = [0, 0, 5, 0]", fillcolor="#399de5"] ;
69 -> 70 ;
71 [label="entropy = 0.0\nsamples = 5\nvalue = [0, 7, 0, 0]", fillcolor="#47e539"] ;
69 -> 71 ;
72 [label="pulso <= 53.74\nentropy = 1.02\nsamples = 84\nvalue = [1, 12, 108, 18]", fillcolor="#6cb6ec"] ;
68 -> 72 ;
73 [label="qPA <= -0.66\nentropy = 0.89\nsamples = 33\nvalue = [1, 12, 41, 0]", fillcolor="#76bbed"] ;
72 -> 73 ;
74 [label="pulso <= 37.11\nentropy = 1.3\nsamples = 9\nvalue = [1, 7, 6, 0]", fillcolor="#e8fce6"] ;
73 -> 74 ;
75 [label="entropy = 0.59\nsamples = 6\nvalue = [1, 6, 0, 0]", fillcolor="#66e95a"] ;
74 -> 75 ;
76 [label="entropy = 0.59\nsamples = 3\nvalue = [0, 1, 6, 0]", fillcolor="#5aade9"] ;
74 -> 76 ;
77 [label="pDiast <= 5.91\nentropy = 0.54\nsamples = 24\nvalue = [0, 5, 35, 0]", fillcolor="#55abe9"] ;
73 -> 77 ;
78 [label="entropy = 0.0\nsamples = 8\nvalue = [0, 0, 12, 0]", fillcolor="#399de5"] ;
77 -> 78 ;
79 [label="entropy = 0.68\nsamples = 16\nvalue = [0, 5, 23, 0]", fillcolor="#64b2eb"] ;
77 -> 79 ;
80 [label="pSist <= 11.48\nentropy = 0.74\nsamples = 51\nvalue = [0, 0, 67, 18]", fillcolor="#6eb7ec"] ;
72 -> 80 ;
81 [label="pDiast <= 6.13\nentropy = 0.99\nsamples = 21\nvalue = [0, 0, 17, 14]", fillcolor="#dceefa"] ;
80 -> 81 ;
82 [label="entropy = 0.83\nsamples = 15\nvalue = [0, 0, 17, 6]", fillcolor="#7fc0ee"] ;
81 -> 82 ;
83 [label="entropy = 0.0\nsamples = 6\nvalue = [0, 0, 0, 8]", fillcolor="#d739e5"] ;
81 -> 83 ;
84 [label="respiração <= 15.64\nentropy = 0.38\nsamples = 30\nvalue = [0, 0, 50, 4]", fillcolor="#49a5e7"] ;
80 -> 84 ;
85 [label="entropy = 0.67\nsamples = 15\nvalue = [0, 0, 19, 4]", fillcolor="#63b2ea"] ;
84 -> 85 ;
86 [label="entropy = 0.0\nsamples = 15\nvalue = [0, 0, 31, 0]", fillcolor="#399de5"] ;
84 -> 86 ;
87 [label="respiração <= 19.1\nentropy = 1.21\nsamples = 62\nvalue = [4, 43, 45, 0]", fillcolor="#f7fbfe"] ;
67 -> 87 ;
88 [label="pDiast <= 3.8\nentropy = 0.79\nsamples = 44\nvalue = [0, 14, 45, 0]", fillcolor="#77bbed"] ;
87 -> 88 ;
89 [label="respiração <= 12.33\nentropy = 1.0\nsamples = 21\nvalue = [0, 14, 15, 0]", fillcolor="#f2f8fd"] ;
88 -> 89 ;
90 [label="entropy = 0.0\nsamples = 5\nvalue = [0, 6, 0, 0]", fillcolor="#47e539"] ;
89 -> 90 ;
91 [label="pulso <= 118.78\nentropy = 0.93\nsamples = 16\nvalue = [0, 8, 15, 0]", fillcolor="#a3d1f3"] ;
89 -> 91 ;
92 [label="entropy = 0.0\nsamples = 2\nvalue = [0, 3, 0, 0]", fillcolor="#47e539"] ;
91 -> 92 ;
93 [label="entropy = 0.81\nsamples = 14\nvalue = [0, 5, 15, 0]", fillcolor="#7bbeee"] ;
91 -> 93 ;
94 [label="entropy = 0.0\nsamples = 23\nvalue = [0, 0, 30, 0]", fillcolor="#399de5"] ;
88 -> 94 ;
95 [label="pSist <= 10.04\nentropy = 0.53\nsamples = 18\nvalue = [4, 29, 0, 0]", fillcolor="#60e954"] ;
87 -> 95 ;
96 [label="pSist <= 9.46\nentropy = 0.95\nsamples = 5\nvalue = [4, 7, 0, 0]", fillcolor="#b0f4aa"] ;
95 -> 96 ;
97 [label="entropy = 0.0\nsamples = 4\nvalue = [0, 7, 0, 0]", fillcolor="#47e539"] ;
96 -> 97 ;
98 [label="entropy = 0.0\nsamples = 1\nvalue = [4, 0, 0, 0]", fillcolor="#e58139"] ;
96 -> 98 ;
99 [label="entropy = 0.0\nsamples = 13\nvalue = [0, 22, 0, 0]", fillcolor="#47e539"] ;
95 -> 99 ;
100 [label="qPA <= 4.71\nentropy = 1.42\nsamples = 164\nvalue = [39, 141, 84, 0]", fillcolor="#c5f7c0"] ;
66 -> 100 ;
101 [label="qPA <= 4.67\nentropy = 0.94\nsamples = 43\nvalue = [0, 45, 25, 0]", fillcolor="#adf3a7"] ;
100 -> 101 ;
102 [label="respiração <= 17.81\nentropy = 0.72\nsamples = 22\nvalue = [0, 32, 8, 0]", fillcolor="#75ec6a"] ;
101 -> 102 ;
103 [label="pSist <= 17.95\nentropy = 0.9\nsamples = 14\nvalue = [0, 15, 7, 0]", fillcolor="#9df195"] ;
102 -> 103 ;
104 [label="pulso <= 142.14\nentropy = 0.99\nsamples = 7\nvalue = [0, 5, 6, 0]", fillcolor="#deeffb"] ;
103 -> 104 ;
105 [label="entropy = 0.0\nsamples = 4\nvalue = [0, 0, 6, 0]", fillcolor="#399de5"] ;
104 -> 105 ;
106 [label="entropy = 0.0\nsamples = 3\nvalue = [0, 5, 0, 0]", fillcolor="#47e539"] ;
104 -> 106 ;
107 [label="respiração <= 12.2\nentropy = 0.44\nsamples = 7\nvalue = [0, 10, 1, 0]", fillcolor="#59e84d"] ;
103 -> 107 ;
108 [label="entropy = 0.92\nsamples = 2\nvalue = [0, 2, 1, 0]", fillcolor="#a3f29c"] ;
107 -> 108 ;
109 [label="entropy = 0.0\nsamples = 5\nvalue = [0, 8, 0, 0]", fillcolor="#47e539"] ;
107 -> 109 ;
110 [label="pDiast <= 8.8\nentropy = 0.31\nsamples = 8\nvalue = [0, 17, 1, 0]", fillcolor="#52e745"] ;
102 -> 110 ;
111 [label="entropy = 0.0\nsamples = 7\nvalue = [0, 17, 0, 0]", fillcolor="#47e539"] ;
110 -> 111 ;
112 [label="entropy = 0.0\nsamples = 1\nvalue = [0, 0, 1, 0]", fillcolor="#399de5"] ;
110 -> 112 ;
113 [label="pSist <= 20.45\nentropy = 0.99\nsamples = 21\nvalue = [0, 13, 17, 0]", fillcolor="#d0e8f9"] ;
101 -> 113 ;
114 [label="pulso <= 132.38\nentropy = 0.99\nsamples = 16\nvalue = [0, 12, 9, 0]", fillcolor="#d1f8ce"] ;
113 -> 114 ;
115 [label="pSist <= 16.94\nentropy = 0.89\nsamples = 9\nvalue = [0, 4, 9, 0]", fillcolor="#91c9f1"] ;
114 -> 115 ;
116 [label="entropy = 0.47\nsamples = 7\nvalue = [0, 1, 9, 0]", fillcolor="#4fa8e8"] ;
115 -> 116 ;
117 [label="entropy = 0.0\nsamples = 2\nvalue = [0, 3, 0, 0]", fillcolor="#47e539"] ;
115 -> 117 ;
118 [label="entropy = 0.0\nsamples = 7\nvalue = [0, 8, 0, 0]", fillcolor="#47e539"] ;
114 -> 118 ;
119 [label="respiração <= 13.68\nentropy = 0.5\nsamples = 5\nvalue = [0, 1, 8, 0]", fillcolor="#52a9e8"] ;
113 -> 119 ;
120 [label="entropy = 0.0\nsamples = 1\nvalue = [0, 1, 0, 0]", fillcolor="#47e539"] ;
119 -> 120 ;
121 [label="entropy = 0.0\nsamples = 4\nvalue = [0, 0, 8, 0]", fillcolor="#399de5"] ;
119 -> 121 ;
122 [label="pulso <= 114.06\nentropy = 1.49\nsamples = 121\nvalue = [39, 96, 59, 0]", fillcolor="#cdf8c9"] ;
100 -> 122 ;
123 [label="qPA <= 8.14\nentropy = 1.44\nsamples = 74\nvalue = [18, 41, 59, 0]", fillcolor="#d1e8f9"] ;
122 -> 123 ;
124 [label="pSist <= 18.64\nentropy = 0.6\nsamples = 23\nvalue = [0, 6, 35, 0]", fillcolor="#5baee9"] ;
123 -> 124 ;
125 [label="entropy = 0.0\nsamples = 14\nvalue = [0, 0, 28, 0]", fillcolor="#399de5"] ;
124 -> 125 ;
126 [label="pSist <= 19.3\nentropy = 1.0\nsamples = 9\nvalue = [0, 6, 7, 0]", fillcolor="#e3f1fb"] ;
124 -> 126 ;
127 [label="entropy = 0.0\nsamples = 3\nvalue = [0, 3, 0, 0]", fillcolor="#47e539"] ;
126 -> 127 ;
128 [label="entropy = 0.88\nsamples = 6\nvalue = [0, 3, 7, 0]", fillcolor="#8ec7f0"] ;
126 -> 128 ;
129 [label="respiração <= 19.57\nentropy = 1.53\nsamples = 51\nvalue = [18, 35, 24, 0]", fillcolor="#d9fad6"] ;
123 -> 129 ;
130 [label="respiração <= 18.72\nentropy = 1.0\nsamples = 36\nvalue = [0, 27, 24, 0]", fillcolor="#ebfce9"] ;
129 -> 130 ;
131 [label="entropy = 1.0\nsamples = 32\nvalue = [0, 21, 24, 0]", fillcolor="#e6f3fc"] ;
130 -> 131 ;
132 [label="entropy = 0.0\nsamples = 4\nvalue = [0, 6, 0, 0]", fillcolor="#47e539"] ;
130 -> 132 ;
133 [label="pDiast <= 14.81\nentropy = 0.89\nsamples = 15\nvalue = [18, 8, 0, 0]", fillcolor="#f1b991"] ;
129 -> 133 ;
134 [label="entropy = 0.81\nsamples = 14\nvalue = [18, 6, 0, 0]", fillcolor="#eeab7b"] ;
133 -> 134 ;
135 [label="entropy = 0.0\nsamples = 1\nvalue = [0, 2, 0, 0]", fillcolor="#47e539"] ;
133 -> 135 ;
136 [label="pulso <= 198.83\nentropy = 0.85\nsamples = 47\nvalue = [21, 55, 0, 0]", fillcolor="#8def85"] ;
122 -> 136 ;
137 [label="pDiast <= 9.59\nentropy = 0.77\nsamples = 45\nvalue = [16, 55, 0, 0]", fillcolor="#7ded73"] ;
136 -> 137 ;
138 [label="pSist <= 18.55\nentropy = 0.95\nsamples = 5\nvalue = [5, 3, 0, 0]", fillcolor="#f5cdb0"] ;
137 -> 138 ;
139 [label="entropy = 0.65\nsamples = 3\nvalue = [5, 1, 0, 0]", fillcolor="#ea9a61"] ;
138 -> 139 ;
140 [label="entropy = 0.0\nsamples = 2\nvalue = [0, 2, 0, 0]", fillcolor="#47e539"] ;
138 -> 140 ;
141 [label="pSist <= 21.69\nentropy = 0.67\nsamples = 40\nvalue = [11, 52, 0, 0]", fillcolor="#6eea63"] ;
137 -> 141 ;
142 [label="entropy = 0.58\nsamples = 36\nvalue = [8, 50, 0, 0]", fillcolor="#64e959"] ;
141 -> 142 ;
143 [label="entropy = 0.97\nsamples = 4\nvalue = [3, 2, 0, 0]", fillcolor="#f6d5bd"] ;
141 -> 143 ;
144 [label="entropy = 0.0\nsamples = 2\nvalue = [5, 0, 0, 0]", fillcolor="#e58139"] ;
136 -> 144 ;
}