digraph Tree {
node [shape=box, style="filled, rounded", color="black", fontname="helvetica"] ;
edge [fontname="helvetica"] ;
0 [label="qPA <= 4.7\nentropy = 1.5\nsamples = 660\nvalue = [151, 577, 303, 19]", fillcolor="#bcf5b6"] ;
1 [label="qPA <= -4.73\nentropy = 1.32\nsamples = 426\nvalue = [26, 382, 250, 19]", fillcolor="#c6f7c2"] ;
0 -> 1 [labeldistance=2.5, labelangle=45, headlabel="True"] ;
2 [label="qPA <= -8.69\nentropy = 1.55\nsamples = 47\nvalue = [26, 32, 18, 0]", fillcolor="#e9fce7"] ;
1 -> 2 ;
3 [label="respiração <= 12.74\nentropy = 0.92\nsamples = 7\nvalue = [0, 8, 4, 0]", fillcolor="#a3f29c"] ;
2 -> 3 ;
4 [label="entropy = 0.0\nsamples = 4\nvalue = [0, 8, 0, 0]", fillcolor="#47e539"] ;
3 -> 4 ;
5 [label="entropy = 0.0\nsamples = 3\nvalue = [0, 0, 4, 0]", fillcolor="#399de5"] ;
3 -> 5 ;
6 [label="respiração <= 12.88\nentropy = 1.54\nsamples = 40\nvalue = [26, 24, 14, 0]", fillcolor="#fef9f5"] ;
2 -> 6 ;
7 [label="pSist <= 7.79\nentropy = 1.0\nsamples = 27\nvalue = [23, 21, 0, 0]", fillcolor="#fdf4ee"] ;
6 -> 7 ;
8 [label="pSist <= 5.79\nentropy = 0.3\nsamples = 11\nvalue = [18, 1, 0, 0]", fillcolor="#e68844"] ;
7 -> 8 ;
9 [label="qPA <= -8.56\nentropy = 1.0\nsamples = 2\nvalue = [1, 1, 0, 0]", fillcolor="#ffffff"] ;
8 -> 9 ;
10 [label="entropy = 0.0\nsamples = 1\nvalue = [1, 0, 0, 0]", fillcolor="#e58139"] ;
9 -> 10 ;
11 [label="entropy = 0.0\nsamples = 1\nvalue = [0, 1, 0, 0]", fillcolor="#47e539"] ;
9 -> 11 ;
12 [label="entropy = 0.0\nsamples = 9\nvalue = [17, 0, 0, 0]", fillcolor="#e58139"] ;
8 -> 12 ;
13 [label="pulso <= 135.7\nentropy = 0.72\nsamples = 16\nvalue = [5, 20, 0, 0]", fillcolor="#75ec6a"] ;
7 -> 13 ;
14 [label="pulso <= 23.09\nentropy = 0.32\nsamples = 11\nvalue = [1, 16, 0, 0]", fillcolor="#52e745"] ;
13 -> 14 ;
15 [label="entropy = 0.0\nsamples = 1\nvalue = [1, 0, 0, 0]", fillcolor="#e58139"] ;
14 -> 15 ;
16 [label="entropy = 0.0\nsamples = 10\nvalue = [0, 16, 0, 0]", fillcolor="#47e539"] ;
14 -> 16 ;
17 [label="qPA <= -5.75\nentropy = 1.0\nsamples = 5\nvalue = [4, 4, 0, 0]", fillcolor="#ffffff"] ;
13 -> 17 ;
18 [label="entropy = 0.0\nsamples = 1\nvalue = [0, 4, 0, 0]", fillcolor="#47e539"] ;
17 -> 18 ;
19 [label="entropy = 0.0\nsamples = 4\nvalue = [4, 0, 0, 0]", fillcolor="#e58139"] ;
17 -> 19 ;
20 [label="respiração <= 20.47\nentropy = 1.18\nsamples = 13\nvalue = [3, 3, 14, 0]", fillcolor="#7fc0ee"] ;
6 -> 20 ;
21 [label="respiração <= 16.56\nentropy = 0.75\nsamples = 9\nvalue = [0, 3, 11, 0]", fillcolor="#6fb8ec"] ;
20 -> 21 ;
22 [label="entropy = 0.0\nsamples = 4\nvalue = [0, 0, 8, 0]", fillcolor="#399de5"] ;
21 -> 22 ;
23 [label="qPA <= -5.55\nentropy = 1.0\nsamples = 5\nvalue = [0, 3, 3, 0]", fillcolor="#ffffff"] ;
21 -> 23 ;
24 [label="entropy = 0.81\nsamples = 3\nvalue = [0, 1, 3, 0]", fillcolor="#7bbeee"] ;
23 -> 24 ;
25 [label="entropy = 0.0\nsamples = 2\nvalue = [0, 2, 0, 0]", fillcolor="#47e539"] ;
23 -> 25 ;
26 [label="pulso <= 118.59\nentropy = 1.0\nsamples = 4\nvalue = [3, 0, 3, 0]", fillcolor="#ffffff"] ;
20 -> 26 ;
27 [label="pulso <= 36.23\nentropy = 0.81\nsamples = 3\nvalue = [1, 0, 3, 0]", fillcolor="#7bbeee"] ;
26 -> 27 ;
28 [label="entropy = 0.0\nsamples = 1\nvalue = [1, 0, 0, 0]", fillcolor="#e58139"] ;
27 -> 28 ;
29 [label="entropy = 0.0\nsamples = 2\nvalue = [0, 0, 3, 0]", fillcolor="#399de5"] ;
27 -> 29 ;
30 [label="entropy = 0.0\nsamples = 1\nvalue = [2, 0, 0, 0]", fillcolor="#e58139"] ;
26 -> 30 ;
31 [label="respiração <= 11.74\nentropy = 1.14\nsamples = 379\nvalue = [0, 350, 232, 19]", fillcolor="#c4f7c0"] ;
1 -> 31 ;
32 [label="pDiast <= 4.04\nentropy = 0.6\nsamples = 190\nvalue = [0, 244, 42, 0]", fillcolor="#67e95b"] ;
31 -> 32 ;
33 [label="qPA <= -4.33\nentropy = 0.37\nsamples = 65\nvalue = [0, 93, 7, 0]", fillcolor="#55e748"] ;
32 -> 33 ;
34 [label="entropy = 0.0\nsamples = 34\nvalue = [0, 51, 0, 0]", fillcolor="#47e539"] ;
33 -> 34 ;
35 [label="pulso <= 90.58\nentropy = 0.59\nsamples = 31\nvalue = [0, 42, 7, 0]", fillcolor="#66e95a"] ;
33 -> 35 ;
36 [label="pSist <= 21.13\nentropy = 0.87\nsamples = 14\nvalue = [0, 17, 7, 0]", fillcolor="#93f08b"] ;
35 -> 36 ;
37 [label="entropy = 0.77\nsamples = 13\nvalue = [0, 17, 5, 0]", fillcolor="#7ded73"] ;
36 -> 37 ;
38 [label="entropy = 0.0\nsamples = 1\nvalue = [0, 0, 2, 0]", fillcolor="#399de5"] ;
36 -> 38 ;
39 [label="entropy = 0.0\nsamples = 17\nvalue = [0, 25, 0, 0]", fillcolor="#47e539"] ;
35 -> 39 ;
40 [label="qPA <= 3.29\nentropy = 0.7\nsamples = 125\nvalue = [0, 151, 35, 0]", fillcolor="#72eb67"] ;
32 -> 40 ;
41 [label="pulso <= 123.59\nentropy = 0.92\nsamples = 74\nvalue = [0, 69, 35, 0]", fillcolor="#a4f29d"] ;
40 -> 41 ;
42 [label="pSist <= 13.06\nentropy = 0.97\nsamples = 42\nvalue = [0, 24, 35, 0]", fillcolor="#c1e0f7"] ;
41 -> 42 ;
43 [label="entropy = 0.83\nsamples = 31\nvalue = [0, 11, 31, 0]", fillcolor="#7fc0ee"] ;
42 -> 43 ;
44 [label="entropy = 0.79\nsamples = 11\nvalue = [0, 13, 4, 0]", fillcolor="#80ed76"] ;
42 -> 44 ;
45 [label="entropy = 0.0\nsamples = 32\nvalue = [0, 45, 0, 0]", fillcolor="#47e539"] ;
41 -> 45 ;
46 [label="entropy = 0.0\nsamples = 51\nvalue = [0, 82, 0, 0]", fillcolor="#47e539"] ;
40 -> 46 ;
47 [label="respiração <= 18.0\nentropy = 1.21\nsamples = 189\nvalue = [0, 106, 190, 19]", fillcolor="#afd8f5"] ;
31 -> 47 ;
48 [label="pSist <= 13.97\nentropy = 1.0\nsamples = 123\nvalue = [0, 31, 158, 17]", fillcolor="#6fb8ec"] ;
47 -> 48 ;
49 [label="respiração <= 13.82\nentropy = 0.71\nsamples = 61\nvalue = [0, 2, 87, 14]", fillcolor="#5dafea"] ;
48 -> 49 ;
50 [label="entropy = 0.0\nsamples = 25\nvalue = [0, 0, 39, 0]", fillcolor="#399de5"] ;
49 -> 50 ;
51 [label="respiração <= 17.18\nentropy = 0.95\nsamples = 36\nvalue = [0, 2, 48, 14]", fillcolor="#78bced"] ;
49 -> 51 ;
52 [label="entropy = 1.14\nsamples = 28\nvalue = [0, 2, 28, 14]", fillcolor="#a3d1f3"] ;
51 -> 52 ;
53 [label="entropy = 0.0\nsamples = 8\nvalue = [0, 0, 20, 0]", fillcolor="#399de5"] ;
51 -> 53 ;
54 [label="pDiast <= 5.14\nentropy = 1.03\nsamples = 62\nvalue = [0, 29, 71, 3]", fillcolor="#8fc7f0"] ;
48 -> 54 ;
55 [label="respiração <= 12.85\nentropy = 0.8\nsamples = 35\nvalue = [0, 7, 50, 3]", fillcolor="#5eafea"] ;
54 -> 55 ;
56 [label="entropy = 0.81\nsamples = 4\nvalue = [0, 3, 1, 0]", fillcolor="#84ee7b"] ;
55 -> 56 ;
57 [label="entropy = 0.67\nsamples = 31\nvalue = [0, 4, 49, 3]", fillcolor="#54aae8"] ;
55 -> 57 ;
58 [label="pDiast <= 9.43\nentropy = 1.0\nsamples = 27\nvalue = [0, 22, 21, 0]", fillcolor="#f7fef6"] ;
54 -> 58 ;
59 [label="entropy = 0.97\nsamples = 25\nvalue = [0, 22, 15, 0]", fillcolor="#c4f7c0"] ;
58 -> 59 ;
60 [label="entropy = 0.0\nsamples = 2\nvalue = [0, 0, 6, 0]", fillcolor="#399de5"] ;
58 -> 60 ;
61 [label="qPA <= 4.02\nentropy = 1.0\nsamples = 66\nvalue = [0, 75, 32, 2]", fillcolor="#98f090"] ;
47 -> 61 ;
62 [label="pulso <= 129.13\nentropy = 1.09\nsamples = 49\nvalue = [0, 51, 29, 2]", fillcolor="#b3f4ad"] ;
61 -> 62 ;
63 [label="pSist <= 5.38\nentropy = 1.21\nsamples = 28\nvalue = [0, 18, 23, 2]", fillcolor="#d7ebfa"] ;
62 -> 63 ;
64 [label="entropy = 0.92\nsamples = 3\nvalue = [0, 0, 2, 1]", fillcolor="#9ccef2"] ;
63 -> 64 ;
65 [label="entropy = 1.14\nsamples = 25\nvalue = [0, 18, 21, 1]", fillcolor="#e4f2fb"] ;
63 -> 65 ;
66 [label="pSist <= 10.86\nentropy = 0.62\nsamples = 21\nvalue = [0, 33, 6, 0]", fillcolor="#68ea5d"] ;
62 -> 66 ;
67 [label="entropy = 0.95\nsamples = 9\nvalue = [0, 10, 6, 0]", fillcolor="#b5f5b0"] ;
66 -> 67 ;
68 [label="entropy = 0.0\nsamples = 12\nvalue = [0, 23, 0, 0]", fillcolor="#47e539"] ;
66 -> 68 ;
69 [label="pDiast <= 9.09\nentropy = 0.5\nsamples = 17\nvalue = [0, 24, 3, 0]", fillcolor="#5ee852"] ;
61 -> 69 ;
70 [label="qPA <= 4.68\nentropy = 0.25\nsamples = 15\nvalue = [0, 23, 1, 0]", fillcolor="#4fe642"] ;
69 -> 70 ;
71 [label="entropy = 0.0\nsamples = 12\nvalue = [0, 18, 0, 0]", fillcolor="#47e539"] ;
70 -> 71 ;
72 [label="entropy = 0.65\nsamples = 3\nvalue = [0, 5, 1, 0]", fillcolor="#6cea61"] ;
70 -> 72 ;
73 [label="pDiast <= 10.02\nentropy = 0.92\nsamples = 2\nvalue = [0, 1, 2, 0]", fillcolor="#9ccef2"] ;
69 -> 73 ;
74 [label="entropy = 0.0\nsamples = 1\nvalue = [0, 0, 2, 0]", fillcolor="#399de5"] ;
73 -> 74 ;
75 [label="entropy = 0.0\nsamples = 1\nvalue = [0, 1, 0, 0]", fillcolor="#47e539"] ;
73 -> 75 ;
76 [label="respiração <= 10.78\nentropy = 1.42\nsamples = 234\nvalue = [125, 195, 53, 0]", fillcolor="#cbf8c7"] ;
0 -> 76 [labeldistance=2.5, labelangle=-45, headlabel="False"] ;
77 [label="qPA <= 5.83\nentropy = 0.99\nsamples = 106\nvalue = [95, 75, 0, 0]", fillcolor="#fae4d5"] ;
76 -> 77 ;
78 [label="pulso <= 175.93\nentropy = 0.86\nsamples = 28\nvalue = [13, 33, 0, 0]", fillcolor="#8fef87"] ;
77 -> 78 ;
79 [label="qPA <= 4.72\nentropy = 0.71\nsamples = 23\nvalue = [8, 33, 0, 0]", fillcolor="#74eb69"] ;
78 -> 79 ;
80 [label="entropy = 0.0\nsamples = 2\nvalue = [3, 0, 0, 0]", fillcolor="#e58139"] ;
79 -> 80 ;
81 [label="pulso <= 36.22\nentropy = 0.56\nsamples = 21\nvalue = [5, 33, 0, 0]", fillcolor="#63e957"] ;
79 -> 81 ;
82 [label="qPA <= 4.76\nentropy = 0.95\nsamples = 5\nvalue = [5, 3, 0, 0]", fillcolor="#f5cdb0"] ;
81 -> 82 ;
83 [label="entropy = 0.81\nsamples = 2\nvalue = [1, 3, 0, 0]", fillcolor="#84ee7b"] ;
82 -> 83 ;
84 [label="entropy = 0.0\nsamples = 3\nvalue = [4, 0, 0, 0]", fillcolor="#e58139"] ;
82 -> 84 ;
85 [label="entropy = 0.0\nsamples = 16\nvalue = [0, 30, 0, 0]", fillcolor="#47e539"] ;
81 -> 85 ;
86 [label="entropy = 0.0\nsamples = 5\nvalue = [5, 0, 0, 0]", fillcolor="#e58139"] ;
78 -> 86 ;
87 [label="pSist <= 20.3\nentropy = 0.92\nsamples = 78\nvalue = [82, 42, 0, 0]", fillcolor="#f2c29e"] ;
77 -> 87 ;
88 [label="pulso <= 122.48\nentropy = 0.84\nsamples = 57\nvalue = [69, 25, 0, 0]", fillcolor="#eeaf81"] ;
87 -> 88 ;
89 [label="pSist <= 14.83\nentropy = 1.0\nsamples = 31\nvalue = [26, 25, 0, 0]", fillcolor="#fefaf7"] ;
88 -> 89 ;
90 [label="entropy = 0.0\nsamples = 5\nvalue = [0, 8, 0, 0]", fillcolor="#47e539"] ;
89 -> 90 ;
91 [label="qPA <= 6.36\nentropy = 0.97\nsamples = 26\nvalue = [26, 17, 0, 0]", fillcolor="#f6d3ba"] ;
89 -> 91 ;
92 [label="entropy = 0.0\nsamples = 1\nvalue = [3, 0, 0, 0]", fillcolor="#e58139"] ;
91 -> 92 ;
93 [label="entropy = 0.98\nsamples = 25\nvalue = [23, 17, 0, 0]", fillcolor="#f8decb"] ;
91 -> 93 ;
94 [label="entropy = 0.0\nsamples = 26\nvalue = [43, 0, 0, 0]", fillcolor="#e58139"] ;
88 -> 94 ;
95 [label="pulso <= 119.66\nentropy = 0.99\nsamples = 21\nvalue = [13, 17, 0, 0]", fillcolor="#d4f9d0"] ;
87 -> 95 ;
96 [label="pSist <= 21.08\nentropy = 0.7\nsamples = 14\nvalue = [4, 17, 0, 0]", fillcolor="#72eb68"] ;
95 -> 96 ;
97 [label="pulso <= 33.92\nentropy = 0.89\nsamples = 8\nvalue = [4, 9, 0, 0]", fillcolor="#99f191"] ;
96 -> 97 ;
98 [label="entropy = 0.0\nsamples = 4\nvalue = [4, 0, 0, 0]", fillcolor="#e58139"] ;
97 -> 98 ;
99 [label="entropy = 0.0\nsamples = 4\nvalue = [0, 9, 0, 0]", fillcolor="#47e539"] ;
97 -> 99 ;
100 [label="entropy = 0.0\nsamples = 6\nvalue = [0, 8, 0, 0]", fillcolor="#47e539"] ;
96 -> 100 ;
101 [label="entropy = 0.0\nsamples = 7\nvalue = [9, 0, 0, 0]", fillcolor="#e58139"] ;
95 -> 101 ;
102 [label="pulso <= 115.67\nentropy = 1.36\nsamples = 128\nvalue = [30, 120, 53, 0]", fillcolor="#adf3a7"] ;
76 -> 102 ;
103 [label="respiração <= 19.34\nentropy = 1.41\nsamples = 83\nvalue = [17, 65, 53, 0]", fillcolor="#e4fbe2"] ;
102 -> 103 ;
104 [label="pulso <= 46.4\nentropy = 0.99\nsamples = 58\nvalue = [0, 40, 48, 0]", fillcolor="#deeffb"] ;
103 -> 104 ;
105 [label="entropy = 0.0\nsamples = 19\nvalue = [0, 28, 0, 0]", fillcolor="#47e539"] ;
104 -> 105 ;
106 [label="respiração <= 12.35\nentropy = 0.72\nsamples = 39\nvalue = [0, 12, 48, 0]", fillcolor="#6ab6ec"] ;
104 -> 106 ;
107 [label="pSist <= 17.9\nentropy = 0.92\nsamples = 10\nvalue = [0, 8, 4, 0]", fillcolor="#a3f29c"] ;
106 -> 107 ;
108 [label="entropy = 0.54\nsamples = 7\nvalue = [0, 7, 1, 0]", fillcolor="#61e955"] ;
107 -> 108 ;
109 [label="entropy = 0.81\nsamples = 3\nvalue = [0, 1, 3, 0]", fillcolor="#7bbeee"] ;
107 -> 109 ;
110 [label="respiração <= 17.84\nentropy = 0.41\nsamples = 29\nvalue = [0, 4, 44, 0]", fillcolor="#4ba6e7"] ;
106 -> 110 ;
111 [label="entropy = 0.0\nsamples = 22\nvalue = [0, 0, 39, 0]", fillcolor="#399de5"] ;
110 -> 111 ;
112 [label="entropy = 0.99\nsamples = 7\nvalue = [0, 4, 5, 0]", fillcolor="#d7ebfa"] ;
110 -> 112 ;
113 [label="pulso <= 45.7\nentropy = 1.36\nsamples = 25\nvalue = [17, 25, 5, 0]", fillcolor="#cef8ca"] ;
103 -> 113 ;
114 [label="entropy = 0.0\nsamples = 10\nvalue = [17, 0, 0, 0]", fillcolor="#e58139"] ;
113 -> 114 ;
115 [label="pDiast <= 10.34\nentropy = 0.65\nsamples = 15\nvalue = [0, 25, 5, 0]", fillcolor="#6cea61"] ;
113 -> 115 ;
116 [label="pulso <= 102.42\nentropy = 0.86\nsamples = 5\nvalue = [0, 2, 5, 0]", fillcolor="#88c4ef"] ;
115 -> 116 ;
117 [label="entropy = 0.0\nsamples = 4\nvalue = [0, 0, 5, 0]", fillcolor="#399de5"] ;
116 -> 117 ;
118 [label="entropy = 0.0\nsamples = 1\nvalue = [0, 2, 0, 0]", fillcolor="#47e539"] ;
116 -> 118 ;
119 [label="entropy = 0.0\nsamples = 10\nvalue = [0, 23, 0, 0]", fillcolor="#47e539"] ;
115 -> 119 ;
120 [label="pSist <= 21.09\nentropy = 0.7\nsamples = 45\nvalue = [13, 55, 0, 0]", fillcolor="#72eb68"] ;
102 -> 120 ;
121 [label="pSist <= 17.66\nentropy = 0.8\nsamples = 36\nvalue = [13, 40, 0, 0]", fillcolor="#83ed79"] ;
120 -> 121 ;
122 [label="pulso <= 191.22\nentropy = 0.61\nsamples = 22\nvalue = [5, 28, 0, 0]", fillcolor="#68ea5c"] ;
121 -> 122 ;
123 [label="pSist <= 16.41\nentropy = 0.46\nsamples = 21\nvalue = [3, 28, 0, 0]", fillcolor="#5be84e"] ;
122 -> 123 ;
124 [label="entropy = 0.65\nsamples = 14\nvalue = [3, 15, 0, 0]", fillcolor="#6cea61"] ;
123 -> 124 ;
125 [label="entropy = 0.0\nsamples = 7\nvalue = [0, 13, 0, 0]", fillcolor="#47e539"] ;
123 -> 125 ;
126 [label="entropy = 0.0\nsamples = 1\nvalue = [2, 0, 0, 0]", fillcolor="#e58139"] ;
122 -> 126 ;
127 [label="pulso <= 192.94\nentropy = 0.97\nsamples = 14\nvalue = [8, 12, 0, 0]", fillcolor="#c2f6bd"] ;
121 -> 127 ;
128 [label="respiração <= 18.6\nentropy = 1.0\nsamples = 12\nvalue = [8, 8, 0, 0]", fillcolor="#ffffff"] ;
127 -> 128 ;
129 [label="entropy = 0.0\nsamples = 7\nvalue = [0, 8, 0, 0]", fillcolor="#47e539"] ;
128 -> 129 ;
130 [label="entropy = 0.0\nsamples = 5\nvalue = [8, 0, 0, 0]", fillcolor="#e58139"] ;
128 -> 130 ;
131 [label="entropy = 0.0\nsamples = 2\nvalue = [0, 4, 0, 0]", fillcolor="#47e539"] ;
127 -> 131 ;
132 [label="entropy = 0.0\nsamples = 9\nvalue = [0, 15, 0, 0]", fillcolor="#47e539"] ;
120 -> 132 ;
}