digraph Tree {
node [shape=box, style="filled, rounded", color="black", fontname="helvetica"] ;
edge [fontname="helvetica"] ;
0 [label="respiração <= 11.36\nentropy = 1.5\nsamples = 659\nvalue = [165, 592, 272, 21]", fillcolor="#b3f4ae"] ;
1 [label="pulso <= 126.63\nentropy = 1.16\nsamples = 334\nvalue = [133, 352, 37, 0]", fillcolor="#97f090"] ;
0 -> 1 [labeldistance=2.5, labelangle=45, headlabel="True"] ;
2 [label="pulso <= 39.42\nentropy = 1.12\nsamples = 212\nvalue = [54, 240, 37, 0]", fillcolor="#83ee7a"] ;
1 -> 2 ;
3 [label="respiração <= 5.49\nentropy = 1.0\nsamples = 75\nvalue = [54, 59, 0, 0]", fillcolor="#effdee"] ;
2 -> 3 ;
4 [label="respiração <= 0.16\nentropy = 0.92\nsamples = 35\nvalue = [37, 19, 0, 0]", fillcolor="#f2c29f"] ;
3 -> 4 ;
5 [label="entropy = 0.0\nsamples = 2\nvalue = [0, 4, 0, 0]", fillcolor="#47e539"] ;
4 -> 5 ;
6 [label="qPA <= 4.7\nentropy = 0.87\nsamples = 33\nvalue = [37, 15, 0, 0]", fillcolor="#f0b489"] ;
4 -> 6 ;
7 [label="pSist <= 10.5\nentropy = 0.9\nsamples = 15\nvalue = [7, 15, 0, 0]", fillcolor="#9df195"] ;
6 -> 7 ;
8 [label="entropy = 0.76\nsamples = 4\nvalue = [7, 2, 0, 0]", fillcolor="#eca572"] ;
7 -> 8 ;
9 [label="entropy = 0.0\nsamples = 11\nvalue = [0, 13, 0, 0]", fillcolor="#47e539"] ;
7 -> 9 ;
10 [label="entropy = 0.0\nsamples = 18\nvalue = [30, 0, 0, 0]", fillcolor="#e58139"] ;
6 -> 10 ;
11 [label="respiração <= 10.24\nentropy = 0.88\nsamples = 40\nvalue = [17, 40, 0, 0]", fillcolor="#95f08d"] ;
3 -> 11 ;
12 [label="pDiast <= 9.8\nentropy = 0.94\nsamples = 33\nvalue = [17, 30, 0, 0]", fillcolor="#aff4a9"] ;
11 -> 12 ;
13 [label="qPA <= -4.57\nentropy = 0.74\nsamples = 25\nvalue = [8, 30, 0, 0]", fillcolor="#78ec6e"] ;
12 -> 13 ;
14 [label="entropy = 0.0\nsamples = 2\nvalue = [5, 0, 0, 0]", fillcolor="#e58139"] ;
13 -> 14 ;
15 [label="entropy = 0.44\nsamples = 23\nvalue = [3, 30, 0, 0]", fillcolor="#59e84d"] ;
13 -> 15 ;
16 [label="entropy = 0.0\nsamples = 8\nvalue = [9, 0, 0, 0]", fillcolor="#e58139"] ;
12 -> 16 ;
17 [label="entropy = 0.0\nsamples = 7\nvalue = [0, 10, 0, 0]", fillcolor="#47e539"] ;
11 -> 17 ;
18 [label="qPA <= 3.79\nentropy = 0.66\nsamples = 137\nvalue = [0, 181, 37, 0]", fillcolor="#6dea61"] ;
2 -> 18 ;
19 [label="qPA <= -1.71\nentropy = 0.89\nsamples = 72\nvalue = [0, 85, 37, 0]", fillcolor="#97f08f"] ;
18 -> 19 ;
20 [label="pulso <= 83.78\nentropy = 0.17\nsamples = 47\nvalue = [0, 79, 2, 0]", fillcolor="#4ce63e"] ;
19 -> 20 ;
21 [label="pSist <= 11.86\nentropy = 0.29\nsamples = 23\nvalue = [0, 38, 2, 0]", fillcolor="#51e643"] ;
20 -> 21 ;
22 [label="entropy = 0.0\nsamples = 9\nvalue = [0, 18, 0, 0]", fillcolor="#47e539"] ;
21 -> 22 ;
23 [label="entropy = 0.44\nsamples = 14\nvalue = [0, 20, 2, 0]", fillcolor="#59e84d"] ;
21 -> 23 ;
24 [label="entropy = 0.0\nsamples = 24\nvalue = [0, 41, 0, 0]", fillcolor="#47e539"] ;
20 -> 24 ;
25 [label="respiração <= 6.45\nentropy = 0.6\nsamples = 25\nvalue = [0, 6, 35, 0]", fillcolor="#5baee9"] ;
19 -> 25 ;
26 [label="pSist <= 8.13\nentropy = 0.85\nsamples = 15\nvalue = [0, 6, 16, 0]", fillcolor="#83c2ef"] ;
25 -> 26 ;
27 [label="entropy = 0.0\nsamples = 2\nvalue = [0, 2, 0, 0]", fillcolor="#47e539"] ;
26 -> 27 ;
28 [label="entropy = 0.72\nsamples = 13\nvalue = [0, 4, 16, 0]", fillcolor="#6ab6ec"] ;
26 -> 28 ;
29 [label="entropy = 0.0\nsamples = 10\nvalue = [0, 0, 19, 0]", fillcolor="#399de5"] ;
25 -> 29 ;
30 [label="entropy = 0.0\nsamples = 65\nvalue = [0, 96, 0, 0]", fillcolor="#47e539"] ;
18 -> 30 ;
31 [label="pDiast <= 10.58\nentropy = 0.98\nsamples = 122\nvalue = [79, 112, 0, 0]", fillcolor="#c9f7c5"] ;
1 -> 31 ;
32 [label="pSist <= 7.81\nentropy = 0.59\nsamples = 83\nvalue = [18, 110, 0, 0]", fillcolor="#65e959"] ;
31 -> 32 ;
33 [label="pulso <= 173.18\nentropy = 1.0\nsamples = 14\nvalue = [10, 9, 0, 0]", fillcolor="#fcf2eb"] ;
32 -> 33 ;
34 [label="qPA <= -4.35\nentropy = 0.72\nsamples = 7\nvalue = [2, 8, 0, 0]", fillcolor="#75ec6a"] ;
33 -> 34 ;
35 [label="entropy = 0.0\nsamples = 1\nvalue = [2, 0, 0, 0]", fillcolor="#e58139"] ;
34 -> 35 ;
36 [label="entropy = 0.0\nsamples = 6\nvalue = [0, 8, 0, 0]", fillcolor="#47e539"] ;
34 -> 36 ;
37 [label="pSist <= 4.68\nentropy = 0.5\nsamples = 7\nvalue = [8, 1, 0, 0]", fillcolor="#e89152"] ;
33 -> 37 ;
38 [label="entropy = 0.0\nsamples = 1\nvalue = [0, 1, 0, 0]", fillcolor="#47e539"] ;
37 -> 38 ;
39 [label="entropy = 0.0\nsamples = 6\nvalue = [8, 0, 0, 0]", fillcolor="#e58139"] ;
37 -> 39 ;
40 [label="pSist <= 16.47\nentropy = 0.38\nsamples = 69\nvalue = [8, 101, 0, 0]", fillcolor="#56e749"] ;
32 -> 40 ;
41 [label="qPA <= -4.8\nentropy = 0.18\nsamples = 47\nvalue = [2, 72, 0, 0]", fillcolor="#4ce63e"] ;
40 -> 41 ;
42 [label="entropy = 0.0\nsamples = 2\nvalue = [2, 0, 0, 0]", fillcolor="#e58139"] ;
41 -> 42 ;
43 [label="entropy = 0.0\nsamples = 45\nvalue = [0, 72, 0, 0]", fillcolor="#47e539"] ;
41 -> 43 ;
44 [label="qPA <= 4.7\nentropy = 0.66\nsamples = 22\nvalue = [6, 29, 0, 0]", fillcolor="#6dea62"] ;
40 -> 44 ;
45 [label="entropy = 0.0\nsamples = 16\nvalue = [0, 27, 0, 0]", fillcolor="#47e539"] ;
44 -> 45 ;
46 [label="respiração <= 10.1\nentropy = 0.81\nsamples = 6\nvalue = [6, 2, 0, 0]", fillcolor="#eeab7b"] ;
44 -> 46 ;
47 [label="entropy = 0.0\nsamples = 4\nvalue = [6, 0, 0, 0]", fillcolor="#e58139"] ;
46 -> 47 ;
48 [label="entropy = 0.0\nsamples = 2\nvalue = [0, 2, 0, 0]", fillcolor="#47e539"] ;
46 -> 48 ;
49 [label="pDiast <= 12.62\nentropy = 0.2\nsamples = 39\nvalue = [61, 2, 0, 0]", fillcolor="#e6853f"] ;
31 -> 49 ;
50 [label="pulso <= 154.39\nentropy = 0.32\nsamples = 22\nvalue = [32, 2, 0, 0]", fillcolor="#e78945"] ;
49 -> 50 ;
51 [label="respiração <= 9.78\nentropy = 0.68\nsamples = 9\nvalue = [9, 2, 0, 0]", fillcolor="#eb9d65"] ;
50 -> 51 ;
52 [label="entropy = 0.0\nsamples = 7\nvalue = [9, 0, 0, 0]", fillcolor="#e58139"] ;
51 -> 52 ;
53 [label="entropy = 0.0\nsamples = 2\nvalue = [0, 2, 0, 0]", fillcolor="#47e539"] ;
51 -> 53 ;
54 [label="entropy = 0.0\nsamples = 13\nvalue = [23, 0, 0, 0]", fillcolor="#e58139"] ;
50 -> 54 ;
55 [label="entropy = 0.0\nsamples = 17\nvalue = [29, 0, 0, 0]", fillcolor="#e58139"] ;
49 -> 55 ;
56 [label="respiração <= 19.41\nentropy = 1.47\nsamples = 325\nvalue = [32, 240, 235, 21]", fillcolor="#fcfffc"] ;
0 -> 56 [labeldistance=2.5, labelangle=-45, headlabel="False"] ;
57 [label="qPA <= 3.65\nentropy = 1.22\nsamples = 247\nvalue = [0, 162, 215, 20]", fillcolor="#d2e9f9"] ;
56 -> 57 ;
58 [label="pDiast <= 4.01\nentropy = 1.12\nsamples = 121\nvalue = [0, 35, 143, 20]", fillcolor="#7cbeee"] ;
57 -> 58 ;
59 [label="pSist <= 5.87\nentropy = 1.07\nsamples = 64\nvalue = [0, 34, 61, 2]", fillcolor="#aad5f4"] ;
58 -> 59 ;
60 [label="pDiast <= 1.7\nentropy = 0.41\nsamples = 16\nvalue = [0, 0, 22, 2]", fillcolor="#4ba6e7"] ;
59 -> 60 ;
61 [label="pDiast <= 1.05\nentropy = 0.68\nsamples = 9\nvalue = [0, 0, 9, 2]", fillcolor="#65b3eb"] ;
60 -> 61 ;
62 [label="entropy = 0.0\nsamples = 5\nvalue = [0, 0, 7, 0]", fillcolor="#399de5"] ;
61 -> 62 ;
63 [label="entropy = 1.0\nsamples = 4\nvalue = [0, 0, 2, 2]", fillcolor="#ffffff"] ;
61 -> 63 ;
64 [label="entropy = 0.0\nsamples = 7\nvalue = [0, 0, 13, 0]", fillcolor="#399de5"] ;
60 -> 64 ;
65 [label="pulso <= 45.57\nentropy = 1.0\nsamples = 48\nvalue = [0, 34, 39, 0]", fillcolor="#e6f2fc"] ;
59 -> 65 ;
66 [label="pDiast <= 2.44\nentropy = 0.67\nsamples = 9\nvalue = [0, 14, 3, 0]", fillcolor="#6eeb63"] ;
65 -> 66 ;
67 [label="entropy = 0.0\nsamples = 4\nvalue = [0, 10, 0, 0]", fillcolor="#47e539"] ;
66 -> 67 ;
68 [label="entropy = 0.99\nsamples = 5\nvalue = [0, 4, 3, 0]", fillcolor="#d1f8ce"] ;
66 -> 68 ;
69 [label="respiração <= 17.44\nentropy = 0.94\nsamples = 39\nvalue = [0, 20, 36, 0]", fillcolor="#a7d3f3"] ;
65 -> 69 ;
70 [label="entropy = 0.63\nsamples = 28\nvalue = [0, 6, 32, 0]", fillcolor="#5eafea"] ;
69 -> 70 ;
71 [label="entropy = 0.76\nsamples = 11\nvalue = [0, 14, 4, 0]", fillcolor="#7cec72"] ;
69 -> 71 ;
72 [label="pulso <= 103.09\nentropy = 0.75\nsamples = 57\nvalue = [0, 1, 82, 18]", fillcolor="#66b3eb"] ;
58 -> 72 ;
73 [label="pulso <= 57.45\nentropy = 0.95\nsamples = 30\nvalue = [0, 0, 31, 18]", fillcolor="#acd6f4"] ;
72 -> 73 ;
74 [label="entropy = 0.0\nsamples = 15\nvalue = [0, 0, 25, 0]", fillcolor="#399de5"] ;
73 -> 74 ;
75 [label="pDiast <= 4.6\nentropy = 0.81\nsamples = 15\nvalue = [0, 0, 6, 18]", fillcolor="#e47bee"] ;
73 -> 75 ;
76 [label="entropy = 0.72\nsamples = 3\nvalue = [0, 0, 4, 1]", fillcolor="#6ab6ec"] ;
75 -> 76 ;
77 [label="entropy = 0.49\nsamples = 12\nvalue = [0, 0, 2, 17]", fillcolor="#dc50e8"] ;
75 -> 77 ;
78 [label="respiração <= 18.95\nentropy = 0.14\nsamples = 27\nvalue = [0, 1, 51, 0]", fillcolor="#3d9fe6"] ;
72 -> 78 ;
79 [label="entropy = 0.0\nsamples = 26\nvalue = [0, 0, 51, 0]", fillcolor="#399de5"] ;
78 -> 79 ;
80 [label="entropy = 0.0\nsamples = 1\nvalue = [0, 1, 0, 0]", fillcolor="#47e539"] ;
78 -> 80 ;
81 [label="qPA <= 8.52\nentropy = 0.94\nsamples = 126\nvalue = [0, 127, 72, 0]", fillcolor="#aff4a9"] ;
57 -> 81 ;
82 [label="pulso <= 124.19\nentropy = 1.0\nsamples = 82\nvalue = [0, 70, 62, 0]", fillcolor="#eafce8"] ;
81 -> 82 ;
83 [label="pSist <= 20.7\nentropy = 0.92\nsamples = 50\nvalue = [0, 30, 60, 0]", fillcolor="#9ccef2"] ;
82 -> 83 ;
84 [label="pulso <= 43.36\nentropy = 0.97\nsamples = 42\nvalue = [0, 30, 44, 0]", fillcolor="#c0e0f7"] ;
83 -> 84 ;
85 [label="entropy = 0.0\nsamples = 13\nvalue = [0, 22, 0, 0]", fillcolor="#47e539"] ;
84 -> 85 ;
86 [label="entropy = 0.62\nsamples = 29\nvalue = [0, 8, 44, 0]", fillcolor="#5dafea"] ;
84 -> 86 ;
87 [label="entropy = 0.0\nsamples = 8\nvalue = [0, 0, 16, 0]", fillcolor="#399de5"] ;
83 -> 87 ;
88 [label="qPA <= 4.24\nentropy = 0.28\nsamples = 32\nvalue = [0, 40, 2, 0]", fillcolor="#50e643"] ;
82 -> 88 ;
89 [label="entropy = 0.0\nsamples = 1\nvalue = [0, 0, 2, 0]", fillcolor="#399de5"] ;
88 -> 89 ;
90 [label="entropy = 0.0\nsamples = 31\nvalue = [0, 40, 0, 0]", fillcolor="#47e539"] ;
88 -> 90 ;
91 [label="pulso <= 113.9\nentropy = 0.61\nsamples = 44\nvalue = [0, 57, 10, 0]", fillcolor="#67ea5c"] ;
81 -> 91 ;
92 [label="pulso <= 67.28\nentropy = 0.83\nsamples = 22\nvalue = [0, 28, 10, 0]", fillcolor="#89ee80"] ;
91 -> 92 ;
93 [label="entropy = 0.0\nsamples = 14\nvalue = [0, 25, 0, 0]", fillcolor="#47e539"] ;
92 -> 93 ;
94 [label="pSist <= 17.1\nentropy = 0.78\nsamples = 8\nvalue = [0, 3, 10, 0]", fillcolor="#74baed"] ;
92 -> 94 ;
95 [label="entropy = 0.0\nsamples = 1\nvalue = [0, 3, 0, 0]", fillcolor="#47e539"] ;
94 -> 95 ;
96 [label="entropy = 0.0\nsamples = 7\nvalue = [0, 0, 10, 0]", fillcolor="#399de5"] ;
94 -> 96 ;
97 [label="entropy = 0.0\nsamples = 22\nvalue = [0, 29, 0, 0]", fillcolor="#47e539"] ;
91 -> 97 ;
98 [label="qPA <= 5.03\nentropy = 1.41\nsamples = 78\nvalue = [32, 78, 20, 1]", fillcolor="#aaf3a3"] ;
56 -> 98 ;
99 [label="pulso <= 122.39\nentropy = 1.22\nsamples = 52\nvalue = [6, 57, 20, 1]", fillcolor="#95f08d"] ;
98 -> 99 ;
100 [label="pDiast <= 8.66\nentropy = 1.28\nsamples = 26\nvalue = [1, 18, 20, 1]", fillcolor="#edf6fd"] ;
99 -> 100 ;
101 [label="pDiast <= 8.31\nentropy = 1.32\nsamples = 20\nvalue = [1, 17, 10, 1]", fillcolor="#bbf5b6"] ;
100 -> 101 ;
102 [label="pSist <= 17.3\nentropy = 1.44\nsamples = 17\nvalue = [1, 10, 10, 1]", fillcolor="#ffffff"] ;
101 -> 102 ;
103 [label="entropy = 1.29\nsamples = 13\nvalue = [1, 2, 10, 1]", fillcolor="#7bbeee"] ;
102 -> 103 ;
104 [label="entropy = 0.0\nsamples = 4\nvalue = [0, 8, 0, 0]", fillcolor="#47e539"] ;
102 -> 104 ;
105 [label="entropy = 0.0\nsamples = 3\nvalue = [0, 7, 0, 0]", fillcolor="#47e539"] ;
101 -> 105 ;
106 [label="respiração <= 19.7\nentropy = 0.44\nsamples = 6\nvalue = [0, 1, 10, 0]", fillcolor="#4da7e8"] ;
100 -> 106 ;
107 [label="entropy = 0.0\nsamples = 1\nvalue = [0, 1, 0, 0]", fillcolor="#47e539"] ;
106 -> 107 ;
108 [label="entropy = 0.0\nsamples = 5\nvalue = [0, 0, 10, 0]", fillcolor="#399de5"] ;
106 -> 108 ;
109 [label="qPA <= 4.69\nentropy = 0.51\nsamples = 26\nvalue = [5, 39, 0, 0]", fillcolor="#5fe852"] ;
99 -> 109 ;
110 [label="pDiast <= 2.64\nentropy = 0.18\nsamples = 23\nvalue = [1, 36, 0, 0]", fillcolor="#4ce63e"] ;
109 -> 110 ;
111 [label="respiração <= 21.01\nentropy = 0.59\nsamples = 5\nvalue = [1, 6, 0, 0]", fillcolor="#66e95a"] ;
110 -> 111 ;
112 [label="entropy = 0.92\nsamples = 2\nvalue = [1, 2, 0, 0]", fillcolor="#a3f29c"] ;
111 -> 112 ;
113 [label="entropy = 0.0\nsamples = 3\nvalue = [0, 4, 0, 0]", fillcolor="#47e539"] ;
111 -> 113 ;
114 [label="entropy = 0.0\nsamples = 18\nvalue = [0, 30, 0, 0]", fillcolor="#47e539"] ;
110 -> 114 ;
115 [label="qPA <= 4.8\nentropy = 0.99\nsamples = 3\nvalue = [4, 3, 0, 0]", fillcolor="#f8e0ce"] ;
109 -> 115 ;
116 [label="entropy = 0.0\nsamples = 2\nvalue = [4, 0, 0, 0]", fillcolor="#e58139"] ;
115 -> 116 ;
117 [label="entropy = 0.0\nsamples = 1\nvalue = [0, 3, 0, 0]", fillcolor="#47e539"] ;
115 -> 117 ;
118 [label="pulso <= 123.78\nentropy = 0.99\nsamples = 26\nvalue = [26, 21, 0, 0]", fillcolor="#fae7d9"] ;
98 -> 118 ;
119 [label="respiração <= 19.57\nentropy = 0.93\nsamples = 18\nvalue = [11, 21, 0, 0]", fillcolor="#a7f3a1"] ;
118 -> 119 ;
120 [label="entropy = 0.0\nsamples = 2\nvalue = [0, 7, 0, 0]", fillcolor="#47e539"] ;
119 -> 120 ;
121 [label="pulso <= 38.86\nentropy = 0.99\nsamples = 16\nvalue = [11, 14, 0, 0]", fillcolor="#d8f9d5"] ;
119 -> 121 ;
122 [label="entropy = 0.0\nsamples = 8\nvalue = [11, 0, 0, 0]", fillcolor="#e58139"] ;
121 -> 122 ;
123 [label="entropy = 0.0\nsamples = 8\nvalue = [0, 14, 0, 0]", fillcolor="#47e539"] ;
121 -> 123 ;
124 [label="entropy = 0.0\nsamples = 8\nvalue = [15, 0, 0, 0]", fillcolor="#e58139"] ;
118 -> 124 ;
}