digraph Tree {
node [shape=box, style="filled, rounded", color="black", fontname="helvetica"] ;
edge [fontname="helvetica"] ;
0 [label="respiração <= 11.37\nentropy = 1.5\nsamples = 689\nvalue = [187, 591, 256, 16]", fillcolor="#b1f4ab"] ;
1 [label="pulso <= 130.68\nentropy = 1.2\nsamples = 355\nvalue = [150, 338, 37, 0]", fillcolor="#a3f29c"] ;
0 -> 1 [labeldistance=2.5, labelangle=45, headlabel="True"] ;
2 [label="qPA <= 4.71\nentropy = 1.14\nsamples = 228\nvalue = [60, 241, 37, 0]", fillcolor="#87ee7e"] ;
1 -> 2 ;
3 [label="qPA <= -4.36\nentropy = 0.99\nsamples = 139\nvalue = [12, 156, 37, 0]", fillcolor="#7ded73"] ;
2 -> 3 ;
4 [label="qPA <= -5.3\nentropy = 0.67\nsamples = 44\nvalue = [12, 56, 0, 0]", fillcolor="#6eeb63"] ;
3 -> 4 ;
5 [label="pDiast <= 1.41\nentropy = 0.99\nsamples = 12\nvalue = [10, 12, 0, 0]", fillcolor="#e0fbde"] ;
4 -> 5 ;
6 [label="entropy = 0.0\nsamples = 5\nvalue = [0, 8, 0, 0]", fillcolor="#47e539"] ;
5 -> 6 ;
7 [label="pSist <= 8.91\nentropy = 0.86\nsamples = 7\nvalue = [10, 4, 0, 0]", fillcolor="#efb388"] ;
5 -> 7 ;
8 [label="entropy = 0.65\nsamples = 6\nvalue = [10, 2, 0, 0]", fillcolor="#ea9a61"] ;
7 -> 8 ;
9 [label="entropy = 0.0\nsamples = 1\nvalue = [0, 2, 0, 0]", fillcolor="#47e539"] ;
7 -> 9 ;
10 [label="pulso <= 30.74\nentropy = 0.26\nsamples = 32\nvalue = [2, 44, 0, 0]", fillcolor="#4fe642"] ;
4 -> 10 ;
11 [label="qPA <= -4.73\nentropy = 0.72\nsamples = 9\nvalue = [2, 8, 0, 0]", fillcolor="#75ec6a"] ;
10 -> 11 ;
12 [label="entropy = 0.0\nsamples = 2\nvalue = [2, 0, 0, 0]", fillcolor="#e58139"] ;
11 -> 12 ;
13 [label="entropy = 0.0\nsamples = 7\nvalue = [0, 8, 0, 0]", fillcolor="#47e539"] ;
11 -> 13 ;
14 [label="entropy = 0.0\nsamples = 23\nvalue = [0, 36, 0, 0]", fillcolor="#47e539"] ;
10 -> 14 ;
15 [label="respiração <= 5.67\nentropy = 0.84\nsamples = 95\nvalue = [0, 100, 37, 0]", fillcolor="#8bef82"] ;
3 -> 15 ;
16 [label="pulso <= 56.98\nentropy = 0.6\nsamples = 46\nvalue = [0, 58, 10, 0]", fillcolor="#67e95b"] ;
15 -> 16 ;
17 [label="entropy = 0.0\nsamples = 20\nvalue = [0, 30, 0, 0]", fillcolor="#47e539"] ;
16 -> 17 ;
18 [label="pSist <= 15.05\nentropy = 0.83\nsamples = 26\nvalue = [0, 28, 10, 0]", fillcolor="#89ee80"] ;
16 -> 18 ;
19 [label="entropy = 1.0\nsamples = 11\nvalue = [0, 8, 8, 0]", fillcolor="#ffffff"] ;
18 -> 19 ;
20 [label="entropy = 0.44\nsamples = 15\nvalue = [0, 20, 2, 0]", fillcolor="#59e84d"] ;
18 -> 20 ;
21 [label="pDiast <= 6.49\nentropy = 0.97\nsamples = 49\nvalue = [0, 42, 27, 0]", fillcolor="#bdf6b8"] ;
15 -> 21 ;
22 [label="pulso <= 39.29\nentropy = 0.99\nsamples = 24\nvalue = [0, 16, 19, 0]", fillcolor="#e0f0fb"] ;
21 -> 22 ;
23 [label="entropy = 0.0\nsamples = 9\nvalue = [0, 9, 0, 0]", fillcolor="#47e539"] ;
22 -> 23 ;
24 [label="entropy = 0.84\nsamples = 15\nvalue = [0, 7, 19, 0]", fillcolor="#82c1ef"] ;
22 -> 24 ;
25 [label="pSist <= 13.18\nentropy = 0.79\nsamples = 25\nvalue = [0, 26, 8, 0]", fillcolor="#80ed76"] ;
21 -> 25 ;
26 [label="entropy = 0.99\nsamples = 8\nvalue = [0, 6, 8, 0]", fillcolor="#cee6f8"] ;
25 -> 26 ;
27 [label="entropy = 0.0\nsamples = 17\nvalue = [0, 20, 0, 0]", fillcolor="#47e539"] ;
25 -> 27 ;
28 [label="pulso <= 40.88\nentropy = 0.94\nsamples = 89\nvalue = [48, 85, 0, 0]", fillcolor="#aff4a9"] ;
2 -> 28 ;
29 [label="pulso <= 15.79\nentropy = 0.52\nsamples = 33\nvalue = [46, 6, 0, 0]", fillcolor="#e89153"] ;
28 -> 29 ;
30 [label="pDiast <= 8.04\nentropy = 0.85\nsamples = 11\nvalue = [16, 6, 0, 0]", fillcolor="#efb083"] ;
29 -> 30 ;
31 [label="entropy = 0.0\nsamples = 1\nvalue = [0, 3, 0, 0]", fillcolor="#47e539"] ;
30 -> 31 ;
32 [label="pulso <= 14.37\nentropy = 0.63\nsamples = 10\nvalue = [16, 3, 0, 0]", fillcolor="#ea995e"] ;
30 -> 32 ;
33 [label="entropy = 0.32\nsamples = 9\nvalue = [16, 1, 0, 0]", fillcolor="#e78945"] ;
32 -> 33 ;
34 [label="entropy = 0.0\nsamples = 1\nvalue = [0, 2, 0, 0]", fillcolor="#47e539"] ;
32 -> 34 ;
35 [label="entropy = 0.0\nsamples = 22\nvalue = [30, 0, 0, 0]", fillcolor="#e58139"] ;
29 -> 35 ;
36 [label="pSist <= 21.8\nentropy = 0.17\nsamples = 56\nvalue = [2, 79, 0, 0]", fillcolor="#4ce63e"] ;
28 -> 36 ;
37 [label="pulso <= 126.87\nentropy = 0.1\nsamples = 54\nvalue = [1, 77, 0, 0]", fillcolor="#49e53c"] ;
36 -> 37 ;
38 [label="entropy = 0.0\nsamples = 53\nvalue = [0, 77, 0, 0]", fillcolor="#47e539"] ;
37 -> 38 ;
39 [label="entropy = 0.0\nsamples = 1\nvalue = [1, 0, 0, 0]", fillcolor="#e58139"] ;
37 -> 39 ;
40 [label="pDiast <= 13.24\nentropy = 0.92\nsamples = 2\nvalue = [1, 2, 0, 0]", fillcolor="#a3f29c"] ;
36 -> 40 ;
41 [label="entropy = 0.0\nsamples = 1\nvalue = [0, 2, 0, 0]", fillcolor="#47e539"] ;
40 -> 41 ;
42 [label="entropy = 0.0\nsamples = 1\nvalue = [1, 0, 0, 0]", fillcolor="#e58139"] ;
40 -> 42 ;
43 [label="qPA <= 4.7\nentropy = 1.0\nsamples = 127\nvalue = [90, 97, 0, 0]", fillcolor="#f2fdf1"] ;
1 -> 43 ;
44 [label="qPA <= -4.58\nentropy = 0.72\nsamples = 78\nvalue = [23, 94, 0, 0]", fillcolor="#74eb69"] ;
43 -> 44 ;
45 [label="pulso <= 154.55\nentropy = 0.25\nsamples = 13\nvalue = [23, 1, 0, 0]", fillcolor="#e68642"] ;
44 -> 45 ;
46 [label="respiração <= 7.52\nentropy = 0.81\nsamples = 3\nvalue = [3, 1, 0, 0]", fillcolor="#eeab7b"] ;
45 -> 46 ;
47 [label="entropy = 0.0\nsamples = 2\nvalue = [3, 0, 0, 0]", fillcolor="#e58139"] ;
46 -> 47 ;
48 [label="entropy = 0.0\nsamples = 1\nvalue = [0, 1, 0, 0]", fillcolor="#47e539"] ;
46 -> 48 ;
49 [label="entropy = 0.0\nsamples = 10\nvalue = [20, 0, 0, 0]", fillcolor="#e58139"] ;
45 -> 49 ;
50 [label="entropy = 0.0\nsamples = 65\nvalue = [0, 93, 0, 0]", fillcolor="#47e539"] ;
44 -> 50 ;
51 [label="pDiast <= 5.82\nentropy = 0.26\nsamples = 49\nvalue = [67, 3, 0, 0]", fillcolor="#e68742"] ;
43 -> 51 ;
52 [label="qPA <= 4.76\nentropy = 1.0\nsamples = 4\nvalue = [2, 2, 0, 0]", fillcolor="#ffffff"] ;
51 -> 52 ;
53 [label="entropy = 0.0\nsamples = 2\nvalue = [2, 0, 0, 0]", fillcolor="#e58139"] ;
52 -> 53 ;
54 [label="entropy = 0.0\nsamples = 2\nvalue = [0, 2, 0, 0]", fillcolor="#47e539"] ;
52 -> 54 ;
55 [label="pSist <= 13.28\nentropy = 0.11\nsamples = 45\nvalue = [65, 1, 0, 0]", fillcolor="#e5833c"] ;
51 -> 55 ;
56 [label="pSist <= 12.85\nentropy = 0.54\nsamples = 6\nvalue = [7, 1, 0, 0]", fillcolor="#e99355"] ;
55 -> 56 ;
57 [label="entropy = 0.0\nsamples = 5\nvalue = [7, 0, 0, 0]", fillcolor="#e58139"] ;
56 -> 57 ;
58 [label="entropy = 0.0\nsamples = 1\nvalue = [0, 1, 0, 0]", fillcolor="#47e539"] ;
56 -> 58 ;
59 [label="entropy = 0.0\nsamples = 39\nvalue = [58, 0, 0, 0]", fillcolor="#e58139"] ;
55 -> 59 ;
60 [label="pSist <= 14.39\nentropy = 1.46\nsamples = 334\nvalue = [37, 253, 219, 16]", fillcolor="#ebfce9"] ;
0 -> 60 [labeldistance=2.5, labelangle=-45, headlabel="False"] ;
61 [label="qPA <= 5.12\nentropy = 1.48\nsamples = 137\nvalue = [12, 62, 125, 16]", fillcolor="#add7f4"] ;
60 -> 61 ;
62 [label="respiração <= 17.61\nentropy = 1.33\nsamples = 120\nvalue = [3, 51, 118, 16]", fillcolor="#9ecff2"] ;
61 -> 62 ;
63 [label="qPA <= -4.38\nentropy = 0.97\nsamples = 69\nvalue = [0, 9, 79, 13]", fillcolor="#6ab6ec"] ;
62 -> 63 ;
64 [label="respiração <= 12.29\nentropy = 0.9\nsamples = 19\nvalue = [0, 8, 17, 0]", fillcolor="#96cbf1"] ;
63 -> 64 ;
65 [label="entropy = 0.0\nsamples = 4\nvalue = [0, 6, 0, 0]", fillcolor="#47e539"] ;
64 -> 65 ;
66 [label="pulso <= 44.94\nentropy = 0.49\nsamples = 15\nvalue = [0, 2, 17, 0]", fillcolor="#50a9e8"] ;
64 -> 66 ;
67 [label="entropy = 0.0\nsamples = 1\nvalue = [0, 2, 0, 0]", fillcolor="#47e539"] ;
66 -> 67 ;
68 [label="entropy = 0.0\nsamples = 14\nvalue = [0, 0, 17, 0]", fillcolor="#399de5"] ;
66 -> 68 ;
69 [label="pulso <= 104.41\nentropy = 0.76\nsamples = 50\nvalue = [0, 1, 62, 13]", fillcolor="#65b3eb"] ;
63 -> 69 ;
70 [label="qPA <= 0.05\nentropy = 0.91\nsamples = 28\nvalue = [0, 0, 27, 13]", fillcolor="#98ccf2"] ;
69 -> 70 ;
71 [label="entropy = 1.0\nsamples = 18\nvalue = [0, 0, 13, 12]", fillcolor="#f0f7fd"] ;
70 -> 71 ;
72 [label="entropy = 0.35\nsamples = 10\nvalue = [0, 0, 14, 1]", fillcolor="#47a4e7"] ;
70 -> 72 ;
73 [label="respiração <= 12.31\nentropy = 0.18\nsamples = 22\nvalue = [0, 1, 35, 0]", fillcolor="#3fa0e6"] ;
69 -> 73 ;
74 [label="entropy = 0.72\nsamples = 3\nvalue = [0, 1, 4, 0]", fillcolor="#6ab6ec"] ;
73 -> 74 ;
75 [label="entropy = 0.0\nsamples = 19\nvalue = [0, 0, 31, 0]", fillcolor="#399de5"] ;
73 -> 75 ;
76 [label="respiração <= 20.22\nentropy = 1.36\nsamples = 51\nvalue = [3, 42, 39, 3]", fillcolor="#f4fdf3"] ;
62 -> 76 ;
77 [label="pulso <= 104.5\nentropy = 1.14\nsamples = 30\nvalue = [0, 31, 17, 2]", fillcolor="#b1f4ab"] ;
76 -> 77 ;
78 [label="pDiast <= 5.67\nentropy = 1.4\nsamples = 14\nvalue = [0, 7, 8, 2]", fillcolor="#ebf5fc"] ;
77 -> 78 ;
79 [label="entropy = 1.1\nsamples = 8\nvalue = [0, 2, 8, 1]", fillcolor="#7bbeee"] ;
78 -> 79 ;
80 [label="entropy = 0.65\nsamples = 6\nvalue = [0, 5, 0, 1]", fillcolor="#6cea61"] ;
78 -> 80 ;
81 [label="pDiast <= 7.19\nentropy = 0.85\nsamples = 16\nvalue = [0, 24, 9, 0]", fillcolor="#8cef83"] ;
77 -> 81 ;
82 [label="entropy = 0.56\nsamples = 11\nvalue = [0, 20, 3, 0]", fillcolor="#63e957"] ;
81 -> 82 ;
83 [label="entropy = 0.97\nsamples = 5\nvalue = [0, 4, 6, 0]", fillcolor="#bddef6"] ;
81 -> 83 ;
84 [label="respiração <= 20.78\nentropy = 1.4\nsamples = 21\nvalue = [3, 11, 22, 1]", fillcolor="#abd6f4"] ;
76 -> 84 ;
85 [label="qPA <= -4.62\nentropy = 1.09\nsamples = 8\nvalue = [3, 1, 10, 0]", fillcolor="#81c1ee"] ;
84 -> 85 ;
86 [label="entropy = 0.81\nsamples = 3\nvalue = [3, 0, 1, 0]", fillcolor="#eeab7b"] ;
85 -> 86 ;
87 [label="entropy = 0.47\nsamples = 5\nvalue = [0, 1, 9, 0]", fillcolor="#4fa8e8"] ;
85 -> 87 ;
88 [label="pulso <= 128.94\nentropy = 1.21\nsamples = 13\nvalue = [0, 10, 12, 1]", fillcolor="#e1f0fb"] ;
84 -> 88 ;
89 [label="entropy = 1.01\nsamples = 8\nvalue = [0, 3, 12, 1]", fillcolor="#76bbed"] ;
88 -> 89 ;
90 [label="entropy = 0.0\nsamples = 5\nvalue = [0, 7, 0, 0]", fillcolor="#47e539"] ;
88 -> 90 ;
91 [label="respiração <= 19.9\nentropy = 1.56\nsamples = 17\nvalue = [9, 11, 7, 0]", fillcolor="#ebfce9"] ;
61 -> 91 ;
92 [label="pDiast <= 11.46\nentropy = 0.96\nsamples = 11\nvalue = [0, 11, 7, 0]", fillcolor="#bcf6b7"] ;
91 -> 92 ;
93 [label="entropy = 0.0\nsamples = 2\nvalue = [0, 0, 2, 0]", fillcolor="#399de5"] ;
92 -> 93 ;
94 [label="pSist <= 14.33\nentropy = 0.9\nsamples = 9\nvalue = [0, 11, 5, 0]", fillcolor="#9bf193"] ;
92 -> 94 ;
95 [label="pSist <= 12.7\nentropy = 0.75\nsamples = 8\nvalue = [0, 11, 3, 0]", fillcolor="#79ec6f"] ;
94 -> 95 ;
96 [label="entropy = 0.81\nsamples = 3\nvalue = [0, 1, 3, 0]", fillcolor="#7bbeee"] ;
95 -> 96 ;
97 [label="entropy = 0.0\nsamples = 5\nvalue = [0, 10, 0, 0]", fillcolor="#47e539"] ;
95 -> 97 ;
98 [label="entropy = 0.0\nsamples = 1\nvalue = [0, 0, 2, 0]", fillcolor="#399de5"] ;
94 -> 98 ;
99 [label="entropy = 0.0\nsamples = 6\nvalue = [9, 0, 0, 0]", fillcolor="#e58139"] ;
91 -> 99 ;
100 [label="qPA <= 4.71\nentropy = 1.25\nsamples = 197\nvalue = [25, 191, 94, 0]", fillcolor="#acf3a6"] ;
60 -> 100 ;
101 [label="qPA <= -4.35\nentropy = 1.0\nsamples = 84\nvalue = [0, 76, 65, 0]", fillcolor="#e4fbe2"] ;
100 -> 101 ;
102 [label="pulso <= 57.81\nentropy = 0.59\nsamples = 14\nvalue = [0, 24, 4, 0]", fillcolor="#66e95a"] ;
101 -> 102 ;
103 [label="entropy = 0.0\nsamples = 4\nvalue = [0, 13, 0, 0]", fillcolor="#47e539"] ;
102 -> 103 ;
104 [label="respiração <= 19.64\nentropy = 0.84\nsamples = 10\nvalue = [0, 11, 4, 0]", fillcolor="#8aee81"] ;
102 -> 104 ;
105 [label="pSist <= 15.08\nentropy = 0.99\nsamples = 6\nvalue = [0, 3, 4, 0]", fillcolor="#cee6f8"] ;
104 -> 105 ;
106 [label="entropy = 0.0\nsamples = 1\nvalue = [0, 1, 0, 0]", fillcolor="#47e539"] ;
105 -> 106 ;
107 [label="entropy = 0.92\nsamples = 5\nvalue = [0, 2, 4, 0]", fillcolor="#9ccef2"] ;
105 -> 107 ;
108 [label="entropy = 0.0\nsamples = 4\nvalue = [0, 8, 0, 0]", fillcolor="#47e539"] ;
104 -> 108 ;
109 [label="respiração <= 13.75\nentropy = 1.0\nsamples = 70\nvalue = [0, 52, 61, 0]", fillcolor="#e2f1fb"] ;
101 -> 109 ;
110 [label="respiração <= 13.21\nentropy = 0.78\nsamples = 16\nvalue = [0, 20, 6, 0]", fillcolor="#7eed74"] ;
109 -> 110 ;
111 [label="respiração <= 11.95\nentropy = 0.92\nsamples = 11\nvalue = [0, 12, 6, 0]", fillcolor="#a3f29c"] ;
110 -> 111 ;
112 [label="entropy = 0.5\nsamples = 6\nvalue = [0, 8, 1, 0]", fillcolor="#5ee852"] ;
111 -> 112 ;
113 [label="entropy = 0.99\nsamples = 5\nvalue = [0, 4, 5, 0]", fillcolor="#d7ebfa"] ;
111 -> 113 ;
114 [label="entropy = 0.0\nsamples = 5\nvalue = [0, 8, 0, 0]", fillcolor="#47e539"] ;
110 -> 114 ;
115 [label="qPA <= -4.34\nentropy = 0.95\nsamples = 54\nvalue = [0, 32, 55, 0]", fillcolor="#acd6f4"] ;
109 -> 115 ;
116 [label="entropy = 0.0\nsamples = 7\nvalue = [0, 0, 11, 0]", fillcolor="#399de5"] ;
115 -> 116 ;
117 [label="pulso <= 128.57\nentropy = 0.98\nsamples = 47\nvalue = [0, 32, 44, 0]", fillcolor="#c9e4f8"] ;
115 -> 117 ;
118 [label="entropy = 0.8\nsamples = 36\nvalue = [0, 14, 43, 0]", fillcolor="#79bded"] ;
117 -> 118 ;
119 [label="entropy = 0.3\nsamples = 11\nvalue = [0, 18, 1, 0]", fillcolor="#51e644"] ;
117 -> 119 ;
120 [label="pulso <= 114.06\nentropy = 1.22\nsamples = 113\nvalue = [25, 115, 29, 0]", fillcolor="#8eef85"] ;
100 -> 120 ;
121 [label="respiração <= 19.65\nentropy = 1.3\nsamples = 63\nvalue = [9, 55, 29, 0]", fillcolor="#b4f4af"] ;
120 -> 121 ;
122 [label="pSist <= 20.88\nentropy = 0.97\nsamples = 43\nvalue = [0, 39, 25, 0]", fillcolor="#bdf6b8"] ;
121 -> 122 ;
123 [label="pulso <= 57.74\nentropy = 0.92\nsamples = 37\nvalue = [0, 38, 19, 0]", fillcolor="#a3f29c"] ;
122 -> 123 ;
124 [label="entropy = 0.19\nsamples = 22\nvalue = [0, 34, 1, 0]", fillcolor="#4ce63f"] ;
123 -> 124 ;
125 [label="entropy = 0.68\nsamples = 15\nvalue = [0, 4, 18, 0]", fillcolor="#65b3eb"] ;
123 -> 125 ;
126 [label="pulso <= 65.55\nentropy = 0.59\nsamples = 6\nvalue = [0, 1, 6, 0]", fillcolor="#5aade9"] ;
122 -> 126 ;
127 [label="entropy = 0.0\nsamples = 1\nvalue = [0, 1, 0, 0]", fillcolor="#47e539"] ;
126 -> 127 ;
128 [label="entropy = 0.0\nsamples = 5\nvalue = [0, 0, 6, 0]", fillcolor="#399de5"] ;
126 -> 128 ;
129 [label="pulso <= 42.33\nentropy = 1.39\nsamples = 20\nvalue = [9, 16, 4, 0]", fillcolor="#bff6ba"] ;
121 -> 129 ;
130 [label="entropy = 0.0\nsamples = 6\nvalue = [9, 0, 0, 0]", fillcolor="#e58139"] ;
129 -> 130 ;
131 [label="pDiast <= 10.15\nentropy = 0.72\nsamples = 14\nvalue = [0, 16, 4, 0]", fillcolor="#75ec6a"] ;
129 -> 131 ;
132 [label="entropy = 0.99\nsamples = 6\nvalue = [0, 3, 4, 0]", fillcolor="#cee6f8"] ;
131 -> 132 ;
133 [label="entropy = 0.0\nsamples = 8\nvalue = [0, 13, 0, 0]", fillcolor="#47e539"] ;
131 -> 133 ;
134 [label="pulso <= 134.3\nentropy = 0.74\nsamples = 50\nvalue = [16, 60, 0, 0]", fillcolor="#78ec6e"] ;
120 -> 134 ;
135 [label="entropy = 0.0\nsamples = 11\nvalue = [0, 14, 0, 0]", fillcolor="#47e539"] ;
134 -> 135 ;
136 [label="pDiast <= 14.68\nentropy = 0.82\nsamples = 39\nvalue = [16, 46, 0, 0]", fillcolor="#87ee7e"] ;
134 -> 136 ;
137 [label="pSist <= 21.84\nentropy = 0.88\nsamples = 36\nvalue = [16, 38, 0, 0]", fillcolor="#94f08c"] ;
136 -> 137 ;
138 [label="entropy = 0.84\nsamples = 35\nvalue = [14, 38, 0, 0]", fillcolor="#8bef82"] ;
137 -> 138 ;
139 [label="entropy = 0.0\nsamples = 1\nvalue = [2, 0, 0, 0]", fillcolor="#e58139"] ;
137 -> 139 ;
140 [label="entropy = 0.0\nsamples = 3\nvalue = [0, 8, 0, 0]", fillcolor="#47e539"] ;
136 -> 140 ;
}