digraph Tree {
node [shape=box, style="filled, rounded", color="black", fontname="helvetica"] ;
edge [fontname="helvetica"] ;
0 [label="respiração <= 11.32\nentropy = 1.5\nsamples = 646\nvalue = [172, 610, 243, 25]", fillcolor="#abf3a5"] ;
1 [label="qPA <= 4.7\nentropy = 1.16\nsamples = 333\nvalue = [137, 364, 40, 0]", fillcolor="#98f090"] ;
0 -> 1 [labeldistance=2.5, labelangle=45, headlabel="True"] ;
2 [label="pSist <= 10.41\nentropy = 0.88\nsamples = 219\nvalue = [26, 283, 40, 0]", fillcolor="#6eeb63"] ;
1 -> 2 ;
3 [label="qPA <= -4.63\nentropy = 1.39\nsamples = 70\nvalue = [26, 63, 19, 0]", fillcolor="#acf3a6"] ;
2 -> 3 ;
4 [label="qPA <= -6.29\nentropy = 0.98\nsamples = 31\nvalue = [26, 19, 0, 0]", fillcolor="#f8ddca"] ;
3 -> 4 ;
5 [label="pulso <= 126.0\nentropy = 0.57\nsamples = 16\nvalue = [19, 3, 0, 0]", fillcolor="#e99558"] ;
4 -> 5 ;
6 [label="pSist <= 6.42\nentropy = 0.95\nsamples = 6\nvalue = [5, 3, 0, 0]", fillcolor="#f5cdb0"] ;
5 -> 6 ;
7 [label="entropy = 0.0\nsamples = 3\nvalue = [0, 3, 0, 0]", fillcolor="#47e539"] ;
6 -> 7 ;
8 [label="entropy = 0.0\nsamples = 3\nvalue = [5, 0, 0, 0]", fillcolor="#e58139"] ;
6 -> 8 ;
9 [label="entropy = 0.0\nsamples = 10\nvalue = [14, 0, 0, 0]", fillcolor="#e58139"] ;
5 -> 9 ;
10 [label="pulso <= 33.97\nentropy = 0.89\nsamples = 15\nvalue = [7, 16, 0, 0]", fillcolor="#98f090"] ;
4 -> 10 ;
11 [label="entropy = 0.0\nsamples = 2\nvalue = [5, 0, 0, 0]", fillcolor="#e58139"] ;
10 -> 11 ;
12 [label="qPA <= -4.97\nentropy = 0.5\nsamples = 13\nvalue = [2, 16, 0, 0]", fillcolor="#5ee852"] ;
10 -> 12 ;
13 [label="entropy = 0.0\nsamples = 9\nvalue = [0, 11, 0, 0]", fillcolor="#47e539"] ;
12 -> 13 ;
14 [label="entropy = 0.86\nsamples = 4\nvalue = [2, 5, 0, 0]", fillcolor="#91ef88"] ;
12 -> 14 ;
15 [label="pSist <= 9.99\nentropy = 0.88\nsamples = 39\nvalue = [0, 44, 19, 0]", fillcolor="#96f08e"] ;
3 -> 15 ;
16 [label="pulso <= 120.2\nentropy = 0.84\nsamples = 36\nvalue = [0, 44, 16, 0]", fillcolor="#8aee81"] ;
15 -> 16 ;
17 [label="pulso <= 52.18\nentropy = 0.99\nsamples = 20\nvalue = [0, 19, 16, 0]", fillcolor="#e2fbe0"] ;
16 -> 17 ;
18 [label="entropy = 0.0\nsamples = 10\nvalue = [0, 19, 0, 0]", fillcolor="#47e539"] ;
17 -> 18 ;
19 [label="entropy = 0.0\nsamples = 10\nvalue = [0, 0, 16, 0]", fillcolor="#399de5"] ;
17 -> 19 ;
20 [label="entropy = 0.0\nsamples = 16\nvalue = [0, 25, 0, 0]", fillcolor="#47e539"] ;
16 -> 20 ;
21 [label="entropy = 0.0\nsamples = 3\nvalue = [0, 0, 3, 0]", fillcolor="#399de5"] ;
15 -> 21 ;
22 [label="qPA <= 3.04\nentropy = 0.43\nsamples = 149\nvalue = [0, 220, 21, 0]", fillcolor="#59e74c"] ;
2 -> 22 ;
23 [label="qPA <= 0.08\nentropy = 0.56\nsamples = 98\nvalue = [0, 139, 21, 0]", fillcolor="#63e957"] ;
22 -> 23 ;
24 [label="pulso <= 86.43\nentropy = 0.26\nsamples = 71\nvalue = [0, 109, 5, 0]", fillcolor="#4fe642"] ;
23 -> 24 ;
25 [label="pulso <= 61.96\nentropy = 0.5\nsamples = 29\nvalue = [0, 41, 5, 0]", fillcolor="#5de851"] ;
24 -> 25 ;
26 [label="entropy = 0.0\nsamples = 24\nvalue = [0, 39, 0, 0]", fillcolor="#47e539"] ;
25 -> 26 ;
27 [label="entropy = 0.86\nsamples = 5\nvalue = [0, 2, 5, 0]", fillcolor="#88c4ef"] ;
25 -> 27 ;
28 [label="entropy = 0.0\nsamples = 42\nvalue = [0, 68, 0, 0]", fillcolor="#47e539"] ;
24 -> 28 ;
29 [label="pulso <= 123.18\nentropy = 0.93\nsamples = 27\nvalue = [0, 30, 16, 0]", fillcolor="#a9f3a3"] ;
23 -> 29 ;
30 [label="qPA <= 1.19\nentropy = 0.94\nsamples = 16\nvalue = [0, 9, 16, 0]", fillcolor="#a8d4f4"] ;
29 -> 30 ;
31 [label="entropy = 0.0\nsamples = 5\nvalue = [0, 0, 8, 0]", fillcolor="#399de5"] ;
30 -> 31 ;
32 [label="entropy = 1.0\nsamples = 11\nvalue = [0, 9, 8, 0]", fillcolor="#ebfce9"] ;
30 -> 32 ;
33 [label="entropy = 0.0\nsamples = 11\nvalue = [0, 21, 0, 0]", fillcolor="#47e539"] ;
29 -> 33 ;
34 [label="entropy = 0.0\nsamples = 51\nvalue = [0, 81, 0, 0]", fillcolor="#47e539"] ;
22 -> 34 ;
35 [label="respiração <= 10.53\nentropy = 0.98\nsamples = 114\nvalue = [111, 81, 0, 0]", fillcolor="#f8ddc9"] ;
1 -> 35 ;
36 [label="qPA <= 8.5\nentropy = 0.95\nsamples = 106\nvalue = [111, 66, 0, 0]", fillcolor="#f4ccaf"] ;
35 -> 36 ;
37 [label="pulso <= 125.47\nentropy = 1.0\nsamples = 50\nvalue = [43, 38, 0, 0]", fillcolor="#fcf0e8"] ;
36 -> 37 ;
38 [label="pulso <= 38.24\nentropy = 0.82\nsamples = 32\nvalue = [13, 38, 0, 0]", fillcolor="#86ee7d"] ;
37 -> 38 ;
39 [label="respiração <= 10.02\nentropy = 0.37\nsamples = 9\nvalue = [13, 1, 0, 0]", fillcolor="#e78b48"] ;
38 -> 39 ;
40 [label="entropy = 0.0\nsamples = 8\nvalue = [13, 0, 0, 0]", fillcolor="#e58139"] ;
39 -> 40 ;
41 [label="entropy = 0.0\nsamples = 1\nvalue = [0, 1, 0, 0]", fillcolor="#47e539"] ;
39 -> 41 ;
42 [label="entropy = 0.0\nsamples = 23\nvalue = [0, 37, 0, 0]", fillcolor="#47e539"] ;
38 -> 42 ;
43 [label="entropy = 0.0\nsamples = 18\nvalue = [30, 0, 0, 0]", fillcolor="#e58139"] ;
37 -> 43 ;
44 [label="respiração <= 9.28\nentropy = 0.87\nsamples = 56\nvalue = [68, 28, 0, 0]", fillcolor="#f0b58b"] ;
36 -> 44 ;
45 [label="pulso <= 117.66\nentropy = 0.92\nsamples = 50\nvalue = [56, 28, 0, 0]", fillcolor="#f2c09c"] ;
44 -> 45 ;
46 [label="pSist <= 21.0\nentropy = 0.96\nsamples = 26\nvalue = [17, 28, 0, 0]", fillcolor="#b7f5b1"] ;
45 -> 46 ;
47 [label="entropy = 1.0\nsamples = 22\nvalue = [17, 20, 0, 0]", fillcolor="#e3fbe1"] ;
46 -> 47 ;
48 [label="entropy = 0.0\nsamples = 4\nvalue = [0, 8, 0, 0]", fillcolor="#47e539"] ;
46 -> 48 ;
49 [label="entropy = 0.0\nsamples = 24\nvalue = [39, 0, 0, 0]", fillcolor="#e58139"] ;
45 -> 49 ;
50 [label="entropy = 0.0\nsamples = 6\nvalue = [12, 0, 0, 0]", fillcolor="#e58139"] ;
44 -> 50 ;
51 [label="entropy = 0.0\nsamples = 8\nvalue = [0, 15, 0, 0]", fillcolor="#47e539"] ;
35 -> 51 ;
52 [label="respiração <= 19.49\nentropy = 1.52\nsamples = 313\nvalue = [35, 246, 203, 25]", fillcolor="#e5fbe3"] ;
0 -> 52 [labeldistance=2.5, labelangle=-45, headlabel="False"] ;
53 [label="qPA <= 4.51\nentropy = 1.26\nsamples = 240\nvalue = [0, 182, 190, 23]", fillcolor="#f8fbfe"] ;
52 -> 53 ;
54 [label="pDiast <= 4.02\nentropy = 1.19\nsamples = 122\nvalue = [0, 41, 141, 23]", fillcolor="#86c3ef"] ;
53 -> 54 ;
55 [label="pSist <= 5.87\nentropy = 1.0\nsamples = 58\nvalue = [0, 31, 61, 1]", fillcolor="#9fd0f2"] ;
54 -> 55 ;
56 [label="pulso <= 99.56\nentropy = 0.26\nsamples = 12\nvalue = [0, 0, 22, 1]", fillcolor="#42a1e6"] ;
55 -> 56 ;
57 [label="pSist <= 2.27\nentropy = 0.47\nsamples = 6\nvalue = [0, 0, 9, 1]", fillcolor="#4fa8e8"] ;
56 -> 57 ;
58 [label="entropy = 0.0\nsamples = 1\nvalue = [0, 0, 0, 1]", fillcolor="#d739e5"] ;
57 -> 58 ;
59 [label="entropy = 0.0\nsamples = 5\nvalue = [0, 0, 9, 0]", fillcolor="#399de5"] ;
57 -> 59 ;
60 [label="entropy = 0.0\nsamples = 6\nvalue = [0, 0, 13, 0]", fillcolor="#399de5"] ;
56 -> 60 ;
61 [label="respiração <= 12.08\nentropy = 0.99\nsamples = 46\nvalue = [0, 31, 39, 0]", fillcolor="#d6ebfa"] ;
55 -> 61 ;
62 [label="entropy = 0.0\nsamples = 6\nvalue = [0, 9, 0, 0]", fillcolor="#47e539"] ;
61 -> 62 ;
63 [label="pulso <= 37.11\nentropy = 0.94\nsamples = 40\nvalue = [0, 22, 39, 0]", fillcolor="#a9d4f4"] ;
61 -> 63 ;
64 [label="entropy = 0.0\nsamples = 8\nvalue = [0, 12, 0, 0]", fillcolor="#47e539"] ;
63 -> 64 ;
65 [label="entropy = 0.73\nsamples = 32\nvalue = [0, 10, 39, 0]", fillcolor="#6cb6ec"] ;
63 -> 65 ;
66 [label="pulso <= 103.09\nentropy = 1.12\nsamples = 64\nvalue = [0, 10, 80, 22]", fillcolor="#7fc0ee"] ;
54 -> 66 ;
67 [label="pulso <= 65.26\nentropy = 1.36\nsamples = 35\nvalue = [0, 7, 34, 22]", fillcolor="#c5e2f7"] ;
66 -> 67 ;
68 [label="pulso <= 27.08\nentropy = 0.8\nsamples = 18\nvalue = [0, 7, 22, 0]", fillcolor="#78bced"] ;
67 -> 68 ;
69 [label="entropy = 1.0\nsamples = 8\nvalue = [0, 7, 6, 0]", fillcolor="#e5fbe3"] ;
68 -> 69 ;
70 [label="entropy = 0.0\nsamples = 10\nvalue = [0, 0, 16, 0]", fillcolor="#399de5"] ;
68 -> 70 ;
71 [label="pSist <= 13.21\nentropy = 0.94\nsamples = 17\nvalue = [0, 0, 12, 22]", fillcolor="#eda5f3"] ;
67 -> 71 ;
72 [label="entropy = 0.59\nsamples = 11\nvalue = [0, 0, 3, 18]", fillcolor="#de5ae9"] ;
71 -> 72 ;
73 [label="entropy = 0.89\nsamples = 6\nvalue = [0, 0, 9, 4]", fillcolor="#91c9f1"] ;
71 -> 73 ;
74 [label="pulso <= 189.73\nentropy = 0.33\nsamples = 29\nvalue = [0, 3, 46, 0]", fillcolor="#46a3e7"] ;
66 -> 74 ;
75 [label="pDiast <= 10.13\nentropy = 0.15\nsamples = 27\nvalue = [0, 1, 45, 0]", fillcolor="#3d9fe6"] ;
74 -> 75 ;
76 [label="entropy = 0.0\nsamples = 25\nvalue = [0, 0, 44, 0]", fillcolor="#399de5"] ;
75 -> 76 ;
77 [label="entropy = 1.0\nsamples = 2\nvalue = [0, 1, 1, 0]", fillcolor="#ffffff"] ;
75 -> 77 ;
78 [label="pDiast <= 7.54\nentropy = 0.92\nsamples = 2\nvalue = [0, 2, 1, 0]", fillcolor="#a3f29c"] ;
74 -> 78 ;
79 [label="entropy = 0.0\nsamples = 1\nvalue = [0, 0, 1, 0]", fillcolor="#399de5"] ;
78 -> 79 ;
80 [label="entropy = 0.0\nsamples = 1\nvalue = [0, 2, 0, 0]", fillcolor="#47e539"] ;
78 -> 80 ;
81 [label="pulso <= 127.37\nentropy = 0.82\nsamples = 118\nvalue = [0, 141, 49, 0]", fillcolor="#87ee7e"] ;
53 -> 81 ;
82 [label="pulso <= 43.16\nentropy = 0.99\nsamples = 74\nvalue = [0, 64, 49, 0]", fillcolor="#d4f9d1"] ;
81 -> 82 ;
83 [label="entropy = 0.0\nsamples = 24\nvalue = [0, 37, 0, 0]", fillcolor="#47e539"] ;
82 -> 83 ;
84 [label="pulso <= 109.78\nentropy = 0.94\nsamples = 50\nvalue = [0, 27, 49, 0]", fillcolor="#a6d3f3"] ;
82 -> 84 ;
85 [label="pulso <= 66.25\nentropy = 0.74\nsamples = 37\nvalue = [0, 12, 45, 0]", fillcolor="#6eb7ec"] ;
84 -> 85 ;
86 [label="entropy = 0.97\nsamples = 11\nvalue = [0, 9, 6, 0]", fillcolor="#c2f6bd"] ;
85 -> 86 ;
87 [label="entropy = 0.37\nsamples = 26\nvalue = [0, 3, 39, 0]", fillcolor="#48a5e7"] ;
85 -> 87 ;
88 [label="respiração <= 16.92\nentropy = 0.74\nsamples = 13\nvalue = [0, 15, 4, 0]", fillcolor="#78ec6e"] ;
84 -> 88 ;
89 [label="entropy = 1.0\nsamples = 6\nvalue = [0, 4, 4, 0]", fillcolor="#ffffff"] ;
88 -> 89 ;
90 [label="entropy = 0.0\nsamples = 7\nvalue = [0, 11, 0, 0]", fillcolor="#47e539"] ;
88 -> 90 ;
91 [label="entropy = 0.0\nsamples = 44\nvalue = [0, 77, 0, 0]", fillcolor="#47e539"] ;
81 -> 91 ;
92 [label="pDiast <= 10.28\nentropy = 1.45\nsamples = 73\nvalue = [35, 64, 13, 2]", fillcolor="#bbf5b6"] ;
52 -> 92 ;
93 [label="pulso <= 122.58\nentropy = 1.21\nsamples = 48\nvalue = [5, 51, 13, 2]", fillcolor="#86ee7d"] ;
92 -> 93 ;
94 [label="pulso <= 54.56\nentropy = 1.53\nsamples = 24\nvalue = [2, 16, 13, 2]", fillcolor="#e3fbe1"] ;
93 -> 94 ;
95 [label="pDiast <= 9.0\nentropy = 0.99\nsamples = 9\nvalue = [2, 10, 1, 0]", fillcolor="#79ec6f"] ;
94 -> 95 ;
96 [label="qPA <= -6.41\nentropy = 0.65\nsamples = 8\nvalue = [2, 10, 0, 0]", fillcolor="#6cea61"] ;
95 -> 96 ;
97 [label="entropy = 0.0\nsamples = 2\nvalue = [2, 0, 0, 0]", fillcolor="#e58139"] ;
96 -> 97 ;
98 [label="entropy = 0.0\nsamples = 6\nvalue = [0, 10, 0, 0]", fillcolor="#47e539"] ;
96 -> 98 ;
99 [label="entropy = 0.0\nsamples = 1\nvalue = [0, 0, 1, 0]", fillcolor="#399de5"] ;
95 -> 99 ;
100 [label="qPA <= 3.37\nentropy = 1.3\nsamples = 15\nvalue = [0, 6, 12, 2]", fillcolor="#aad5f4"] ;
94 -> 100 ;
101 [label="pDiast <= 2.25\nentropy = 0.65\nsamples = 9\nvalue = [0, 0, 10, 2]", fillcolor="#61b1ea"] ;
100 -> 101 ;
102 [label="entropy = 0.92\nsamples = 4\nvalue = [0, 0, 4, 2]", fillcolor="#9ccef2"] ;
101 -> 102 ;
103 [label="entropy = 0.0\nsamples = 5\nvalue = [0, 0, 6, 0]", fillcolor="#399de5"] ;
101 -> 103 ;
104 [label="pSist <= 15.47\nentropy = 0.81\nsamples = 6\nvalue = [0, 6, 2, 0]", fillcolor="#84ee7b"] ;
100 -> 104 ;
105 [label="entropy = 0.0\nsamples = 1\nvalue = [0, 0, 1, 0]", fillcolor="#399de5"] ;
104 -> 105 ;
106 [label="entropy = 0.59\nsamples = 5\nvalue = [0, 6, 1, 0]", fillcolor="#66e95a"] ;
104 -> 106 ;
107 [label="qPA <= -4.61\nentropy = 0.4\nsamples = 24\nvalue = [3, 35, 0, 0]", fillcolor="#57e74a"] ;
93 -> 107 ;
108 [label="respiração <= 20.47\nentropy = 0.92\nsamples = 2\nvalue = [2, 1, 0, 0]", fillcolor="#f2c09c"] ;
107 -> 108 ;
109 [label="entropy = 0.0\nsamples = 1\nvalue = [0, 1, 0, 0]", fillcolor="#47e539"] ;
108 -> 109 ;
110 [label="entropy = 0.0\nsamples = 1\nvalue = [2, 0, 0, 0]", fillcolor="#e58139"] ;
108 -> 110 ;
111 [label="pulso <= 136.39\nentropy = 0.19\nsamples = 22\nvalue = [1, 34, 0, 0]", fillcolor="#4ce63f"] ;
107 -> 111 ;
112 [label="pulso <= 132.82\nentropy = 1.0\nsamples = 2\nvalue = [1, 1, 0, 0]", fillcolor="#ffffff"] ;
111 -> 112 ;
113 [label="entropy = 0.0\nsamples = 1\nvalue = [0, 1, 0, 0]", fillcolor="#47e539"] ;
112 -> 113 ;
114 [label="entropy = 0.0\nsamples = 1\nvalue = [1, 0, 0, 0]", fillcolor="#e58139"] ;
112 -> 114 ;
115 [label="entropy = 0.0\nsamples = 20\nvalue = [0, 33, 0, 0]", fillcolor="#47e539"] ;
111 -> 115 ;
116 [label="pDiast <= 13.87\nentropy = 0.88\nsamples = 25\nvalue = [30, 13, 0, 0]", fillcolor="#f0b88f"] ;
92 -> 116 ;
117 [label="pDiast <= 12.69\nentropy = 0.94\nsamples = 21\nvalue = [23, 13, 0, 0]", fillcolor="#f4c8a9"] ;
116 -> 117 ;
118 [label="respiração <= 21.49\nentropy = 0.74\nsamples = 16\nvalue = [23, 6, 0, 0]", fillcolor="#eca26d"] ;
117 -> 118 ;
119 [label="pDiast <= 10.91\nentropy = 0.52\nsamples = 14\nvalue = [23, 3, 0, 0]", fillcolor="#e89153"] ;
118 -> 119 ;
120 [label="entropy = 0.97\nsamples = 2\nvalue = [2, 3, 0, 0]", fillcolor="#c2f6bd"] ;
119 -> 120 ;
121 [label="entropy = 0.0\nsamples = 12\nvalue = [21, 0, 0, 0]", fillcolor="#e58139"] ;
119 -> 121 ;
122 [label="entropy = 0.0\nsamples = 2\nvalue = [0, 3, 0, 0]", fillcolor="#47e539"] ;
118 -> 122 ;
123 [label="entropy = 0.0\nsamples = 5\nvalue = [0, 7, 0, 0]", fillcolor="#47e539"] ;
117 -> 123 ;
124 [label="entropy = 0.0\nsamples = 4\nvalue = [7, 0, 0, 0]", fillcolor="#e58139"] ;
116 -> 124 ;
}