digraph Tree {
node [shape=box, style="filled, rounded", color="black", fontname="helvetica"] ;
edge [fontname="helvetica"] ;
0 [label="qPA <= 4.74\nentropy = 1.52\nsamples = 667\nvalue = [172, 563, 298, 17]", fillcolor="#bef6b9"] ;
1 [label="qPA <= -4.74\nentropy = 1.33\nsamples = 439\nvalue = [30, 386, 246, 17]", fillcolor="#c4f7bf"] ;
0 -> 1 [labeldistance=2.5, labelangle=45, headlabel="True"] ;
2 [label="respiração <= 12.58\nentropy = 1.58\nsamples = 55\nvalue = [28, 30, 25, 0]", fillcolor="#f8fef8"] ;
1 -> 2 ;
3 [label="pSist <= 7.71\nentropy = 1.0\nsamples = 35\nvalue = [24, 24, 0, 0]", fillcolor="#ffffff"] ;
2 -> 3 ;
4 [label="pSist <= 6.42\nentropy = 0.83\nsamples = 16\nvalue = [17, 6, 0, 0]", fillcolor="#eead7f"] ;
3 -> 4 ;
5 [label="pDiast <= 0.83\nentropy = 0.99\nsamples = 7\nvalue = [4, 5, 0, 0]", fillcolor="#dafad7"] ;
4 -> 5 ;
6 [label="entropy = 0.0\nsamples = 2\nvalue = [2, 0, 0, 0]", fillcolor="#e58139"] ;
5 -> 6 ;
7 [label="respiração <= 4.34\nentropy = 0.86\nsamples = 5\nvalue = [2, 5, 0, 0]", fillcolor="#91ef88"] ;
5 -> 7 ;
8 [label="entropy = 0.0\nsamples = 4\nvalue = [0, 5, 0, 0]", fillcolor="#47e539"] ;
7 -> 8 ;
9 [label="entropy = 0.0\nsamples = 1\nvalue = [2, 0, 0, 0]", fillcolor="#e58139"] ;
7 -> 9 ;
10 [label="respiração <= 6.8\nentropy = 0.37\nsamples = 9\nvalue = [13, 1, 0, 0]", fillcolor="#e78b48"] ;
4 -> 10 ;
11 [label="entropy = 0.0\nsamples = 7\nvalue = [11, 0, 0, 0]", fillcolor="#e58139"] ;
10 -> 11 ;
12 [label="qPA <= -6.45\nentropy = 0.92\nsamples = 2\nvalue = [2, 1, 0, 0]", fillcolor="#f2c09c"] ;
10 -> 12 ;
13 [label="entropy = 0.0\nsamples = 1\nvalue = [0, 1, 0, 0]", fillcolor="#47e539"] ;
12 -> 13 ;
14 [label="entropy = 0.0\nsamples = 1\nvalue = [2, 0, 0, 0]", fillcolor="#e58139"] ;
12 -> 14 ;
15 [label="pDiast <= 2.17\nentropy = 0.86\nsamples = 19\nvalue = [7, 18, 0, 0]", fillcolor="#8fef86"] ;
3 -> 15 ;
16 [label="qPA <= -4.75\nentropy = 0.96\nsamples = 13\nvalue = [7, 11, 0, 0]", fillcolor="#bcf6b7"] ;
15 -> 16 ;
17 [label="pulso <= 174.02\nentropy = 0.84\nsamples = 12\nvalue = [4, 11, 0, 0]", fillcolor="#8aee81"] ;
16 -> 17 ;
18 [label="entropy = 0.41\nsamples = 9\nvalue = [1, 11, 0, 0]", fillcolor="#58e74b"] ;
17 -> 18 ;
19 [label="entropy = 0.0\nsamples = 3\nvalue = [3, 0, 0, 0]", fillcolor="#e58139"] ;
17 -> 19 ;
20 [label="entropy = 0.0\nsamples = 1\nvalue = [3, 0, 0, 0]", fillcolor="#e58139"] ;
16 -> 20 ;
21 [label="entropy = 0.0\nsamples = 6\nvalue = [0, 7, 0, 0]", fillcolor="#47e539"] ;
15 -> 21 ;
22 [label="respiração <= 20.51\nentropy = 1.14\nsamples = 20\nvalue = [4, 6, 25, 0]", fillcolor="#7dbfee"] ;
2 -> 22 ;
23 [label="respiração <= 17.8\nentropy = 0.75\nsamples = 16\nvalue = [0, 6, 22, 0]", fillcolor="#6fb8ec"] ;
22 -> 23 ;
24 [label="pulso <= 44.83\nentropy = 0.3\nsamples = 9\nvalue = [0, 1, 18, 0]", fillcolor="#44a2e6"] ;
23 -> 24 ;
25 [label="entropy = 0.0\nsamples = 1\nvalue = [0, 1, 0, 0]", fillcolor="#47e539"] ;
24 -> 25 ;
26 [label="entropy = 0.0\nsamples = 8\nvalue = [0, 0, 18, 0]", fillcolor="#399de5"] ;
24 -> 26 ;
27 [label="pSist <= 6.8\nentropy = 0.99\nsamples = 7\nvalue = [0, 5, 4, 0]", fillcolor="#dafad7"] ;
23 -> 27 ;
28 [label="pulso <= 52.08\nentropy = 0.81\nsamples = 3\nvalue = [0, 1, 3, 0]", fillcolor="#7bbeee"] ;
27 -> 28 ;
29 [label="entropy = 0.0\nsamples = 1\nvalue = [0, 1, 0, 0]", fillcolor="#47e539"] ;
28 -> 29 ;
30 [label="entropy = 0.0\nsamples = 2\nvalue = [0, 0, 3, 0]", fillcolor="#399de5"] ;
28 -> 30 ;
31 [label="pulso <= 93.44\nentropy = 0.72\nsamples = 4\nvalue = [0, 4, 1, 0]", fillcolor="#75ec6a"] ;
27 -> 31 ;
32 [label="entropy = 1.0\nsamples = 2\nvalue = [0, 1, 1, 0]", fillcolor="#ffffff"] ;
31 -> 32 ;
33 [label="entropy = 0.0\nsamples = 2\nvalue = [0, 3, 0, 0]", fillcolor="#47e539"] ;
31 -> 33 ;
34 [label="respiração <= 21.04\nentropy = 0.99\nsamples = 4\nvalue = [4, 0, 3, 0]", fillcolor="#f8e0ce"] ;
22 -> 34 ;
35 [label="entropy = 0.0\nsamples = 2\nvalue = [4, 0, 0, 0]", fillcolor="#e58139"] ;
34 -> 35 ;
36 [label="entropy = 0.0\nsamples = 2\nvalue = [0, 0, 3, 0]", fillcolor="#399de5"] ;
34 -> 36 ;
37 [label="pSist <= 13.16\nentropy = 1.15\nsamples = 384\nvalue = [2, 356, 221, 17]", fillcolor="#bdf6b8"] ;
1 -> 37 ;
38 [label="qPA <= -0.08\nentropy = 1.27\nsamples = 163\nvalue = [0, 106, 129, 16]", fillcolor="#e0effb"] ;
37 -> 38 ;
39 [label="pulso <= 61.64\nentropy = 0.95\nsamples = 32\nvalue = [0, 25, 15, 0]", fillcolor="#b5f5b0"] ;
38 -> 39 ;
40 [label="entropy = 0.0\nsamples = 8\nvalue = [0, 11, 0, 0]", fillcolor="#47e539"] ;
39 -> 40 ;
41 [label="pDiast <= 1.23\nentropy = 1.0\nsamples = 24\nvalue = [0, 14, 15, 0]", fillcolor="#f2f8fd"] ;
39 -> 41 ;
42 [label="entropy = 0.0\nsamples = 2\nvalue = [0, 0, 3, 0]", fillcolor="#399de5"] ;
41 -> 42 ;
43 [label="respiração <= 4.42\nentropy = 1.0\nsamples = 22\nvalue = [0, 14, 12, 0]", fillcolor="#e5fbe3"] ;
41 -> 43 ;
44 [label="entropy = 0.0\nsamples = 3\nvalue = [0, 4, 0, 0]", fillcolor="#47e539"] ;
43 -> 44 ;
45 [label="entropy = 0.99\nsamples = 19\nvalue = [0, 10, 12, 0]", fillcolor="#deeffb"] ;
43 -> 45 ;
46 [label="respiração <= 11.32\nentropy = 1.29\nsamples = 131\nvalue = [0, 81, 114, 16]", fillcolor="#cde6f8"] ;
38 -> 46 ;
47 [label="pDiast <= 8.48\nentropy = 0.96\nsamples = 58\nvalue = [0, 58, 35, 0]", fillcolor="#b6f5b0"] ;
46 -> 47 ;
48 [label="pSist <= 3.22\nentropy = 0.88\nsamples = 45\nvalue = [0, 52, 22, 0]", fillcolor="#95f08d"] ;
47 -> 48 ;
49 [label="entropy = 0.88\nsamples = 4\nvalue = [0, 3, 7, 0]", fillcolor="#8ec7f0"] ;
48 -> 49 ;
50 [label="entropy = 0.79\nsamples = 41\nvalue = [0, 49, 15, 0]", fillcolor="#7fed76"] ;
48 -> 50 ;
51 [label="pulso <= 50.95\nentropy = 0.9\nsamples = 13\nvalue = [0, 6, 13, 0]", fillcolor="#94caf1"] ;
47 -> 51 ;
52 [label="entropy = 0.0\nsamples = 3\nvalue = [0, 3, 0, 0]", fillcolor="#47e539"] ;
51 -> 52 ;
53 [label="entropy = 0.7\nsamples = 10\nvalue = [0, 3, 13, 0]", fillcolor="#67b4eb"] ;
51 -> 53 ;
54 [label="pSist <= 11.82\nentropy = 1.24\nsamples = 73\nvalue = [0, 23, 79, 16]", fillcolor="#8ac5f0"] ;
46 -> 54 ;
55 [label="respiração <= 19.64\nentropy = 1.09\nsamples = 50\nvalue = [0, 12, 59, 9]", fillcolor="#76bbed"] ;
54 -> 55 ;
56 [label="entropy = 0.51\nsamples = 40\nvalue = [0, 0, 55, 7]", fillcolor="#52a9e8"] ;
55 -> 56 ;
57 [label="entropy = 1.22\nsamples = 10\nvalue = [0, 12, 4, 2]", fillcolor="#96f08e"] ;
55 -> 57 ;
58 [label="pSist <= 12.83\nentropy = 1.45\nsamples = 23\nvalue = [0, 11, 20, 7]", fillcolor="#bddef6"] ;
54 -> 58 ;
59 [label="entropy = 1.55\nsamples = 15\nvalue = [0, 10, 8, 6]", fillcolor="#e8fce6"] ;
58 -> 59 ;
60 [label="entropy = 0.73\nsamples = 8\nvalue = [0, 1, 12, 1]", fillcolor="#57ace9"] ;
58 -> 60 ;
61 [label="qPA <= 4.72\nentropy = 0.91\nsamples = 221\nvalue = [2, 250, 92, 1]", fillcolor="#8cef83"] ;
37 -> 61 ;
62 [label="qPA <= -4.39\nentropy = 0.88\nsamples = 218\nvalue = [1, 250, 89, 1]", fillcolor="#89ee80"] ;
61 -> 62 ;
63 [label="pDiast <= 0.82\nentropy = 0.24\nsamples = 20\nvalue = [0, 24, 1, 0]", fillcolor="#4fe641"] ;
62 -> 63 ;
64 [label="entropy = 0.0\nsamples = 1\nvalue = [0, 0, 1, 0]", fillcolor="#399de5"] ;
63 -> 64 ;
65 [label="entropy = 0.0\nsamples = 19\nvalue = [0, 24, 0, 0]", fillcolor="#47e539"] ;
63 -> 65 ;
66 [label="qPA <= 3.59\nentropy = 0.91\nsamples = 198\nvalue = [1, 226, 88, 1]", fillcolor="#90ef87"] ;
62 -> 66 ;
67 [label="respiração <= 12.2\nentropy = 1.01\nsamples = 93\nvalue = [0, 87, 52, 1]", fillcolor="#b6f5b0"] ;
66 -> 67 ;
68 [label="entropy = 0.54\nsamples = 56\nvalue = [0, 70, 10, 0]", fillcolor="#61e955"] ;
67 -> 68 ;
69 [label="entropy = 0.97\nsamples = 37\nvalue = [0, 17, 42, 1]", fillcolor="#8cc6f0"] ;
67 -> 69 ;
70 [label="pulso <= 127.57\nentropy = 0.78\nsamples = 105\nvalue = [1, 139, 36, 0]", fillcolor="#78ec6d"] ;
66 -> 70 ;
71 [label="entropy = 0.89\nsamples = 67\nvalue = [0, 80, 35, 0]", fillcolor="#98f090"] ;
70 -> 71 ;
72 [label="entropy = 0.24\nsamples = 38\nvalue = [1, 59, 1, 0]", fillcolor="#4de640"] ;
70 -> 72 ;
73 [label="pulso <= 118.57\nentropy = 0.81\nsamples = 3\nvalue = [1, 0, 3, 0]", fillcolor="#7bbeee"] ;
61 -> 73 ;
74 [label="entropy = 0.0\nsamples = 2\nvalue = [0, 0, 3, 0]", fillcolor="#399de5"] ;
73 -> 74 ;
75 [label="entropy = 0.0\nsamples = 1\nvalue = [1, 0, 0, 0]", fillcolor="#e58139"] ;
73 -> 75 ;
76 [label="pulso <= 130.5\nentropy = 1.44\nsamples = 228\nvalue = [142, 177, 52, 0]", fillcolor="#e3fbe1"] ;
0 -> 76 [labeldistance=2.5, labelangle=-45, headlabel="False"] ;
77 [label="pulso <= 43.02\nentropy = 1.43\nsamples = 159\nvalue = [62, 142, 52, 0]", fillcolor="#b3f4ad"] ;
76 -> 77 ;
78 [label="pulso <= 13.55\nentropy = 0.93\nsamples = 55\nvalue = [60, 31, 0, 0]", fillcolor="#f2c29f"] ;
77 -> 78 ;
79 [label="respiração <= 10.66\nentropy = 0.71\nsamples = 24\nvalue = [33, 8, 0, 0]", fillcolor="#eba069"] ;
78 -> 79 ;
80 [label="entropy = 0.0\nsamples = 10\nvalue = [19, 0, 0, 0]", fillcolor="#e58139"] ;
79 -> 80 ;
81 [label="pulso <= 11.88\nentropy = 0.95\nsamples = 14\nvalue = [14, 8, 0, 0]", fillcolor="#f4c9aa"] ;
79 -> 81 ;
82 [label="pDiast <= 13.84\nentropy = 0.88\nsamples = 12\nvalue = [14, 6, 0, 0]", fillcolor="#f0b78e"] ;
81 -> 82 ;
83 [label="entropy = 1.0\nsamples = 9\nvalue = [7, 6, 0, 0]", fillcolor="#fbede3"] ;
82 -> 83 ;
84 [label="entropy = 0.0\nsamples = 3\nvalue = [7, 0, 0, 0]", fillcolor="#e58139"] ;
82 -> 84 ;
85 [label="entropy = 0.0\nsamples = 2\nvalue = [0, 2, 0, 0]", fillcolor="#47e539"] ;
81 -> 85 ;
86 [label="respiração <= 10.93\nentropy = 1.0\nsamples = 31\nvalue = [27, 23, 0, 0]", fillcolor="#fbece2"] ;
78 -> 86 ;
87 [label="respiração <= 1.06\nentropy = 0.24\nsamples = 19\nvalue = [25, 1, 0, 0]", fillcolor="#e68641"] ;
86 -> 87 ;
88 [label="entropy = 0.0\nsamples = 1\nvalue = [0, 1, 0, 0]", fillcolor="#47e539"] ;
87 -> 88 ;
89 [label="entropy = 0.0\nsamples = 18\nvalue = [25, 0, 0, 0]", fillcolor="#e58139"] ;
87 -> 89 ;
90 [label="pSist <= 14.19\nentropy = 0.41\nsamples = 12\nvalue = [2, 22, 0, 0]", fillcolor="#58e74b"] ;
86 -> 90 ;
91 [label="entropy = 0.0\nsamples = 1\nvalue = [2, 0, 0, 0]", fillcolor="#e58139"] ;
90 -> 91 ;
92 [label="entropy = 0.0\nsamples = 11\nvalue = [0, 22, 0, 0]", fillcolor="#47e539"] ;
90 -> 92 ;
93 [label="pulso <= 116.19\nentropy = 0.99\nsamples = 104\nvalue = [2, 111, 52, 0]", fillcolor="#9ff198"] ;
77 -> 93 ;
94 [label="respiração <= 10.92\nentropy = 0.93\nsamples = 94\nvalue = [0, 97, 52, 0]", fillcolor="#aaf3a3"] ;
93 -> 94 ;
95 [label="entropy = 0.0\nsamples = 41\nvalue = [0, 66, 0, 0]", fillcolor="#47e539"] ;
94 -> 95 ;
96 [label="qPA <= 4.79\nentropy = 0.95\nsamples = 53\nvalue = [0, 31, 52, 0]", fillcolor="#afd7f4"] ;
94 -> 96 ;
97 [label="entropy = 0.0\nsamples = 5\nvalue = [0, 0, 6, 0]", fillcolor="#399de5"] ;
96 -> 97 ;
98 [label="pulso <= 48.66\nentropy = 0.97\nsamples = 48\nvalue = [0, 31, 46, 0]", fillcolor="#bedff7"] ;
96 -> 98 ;
99 [label="entropy = 0.0\nsamples = 5\nvalue = [0, 6, 0, 0]", fillcolor="#47e539"] ;
98 -> 99 ;
100 [label="entropy = 0.94\nsamples = 43\nvalue = [0, 25, 46, 0]", fillcolor="#a5d2f3"] ;
98 -> 100 ;
101 [label="respiração <= 9.98\nentropy = 0.54\nsamples = 10\nvalue = [2, 14, 0, 0]", fillcolor="#61e955"] ;
93 -> 101 ;
102 [label="pSist <= 16.89\nentropy = 1.0\nsamples = 3\nvalue = [2, 2, 0, 0]", fillcolor="#ffffff"] ;
101 -> 102 ;
103 [label="entropy = 0.0\nsamples = 1\nvalue = [0, 2, 0, 0]", fillcolor="#47e539"] ;
102 -> 103 ;
104 [label="entropy = 0.0\nsamples = 2\nvalue = [2, 0, 0, 0]", fillcolor="#e58139"] ;
102 -> 104 ;
105 [label="entropy = 0.0\nsamples = 7\nvalue = [0, 12, 0, 0]", fillcolor="#47e539"] ;
101 -> 105 ;
106 [label="pSist <= 20.67\nentropy = 0.89\nsamples = 69\nvalue = [80, 35, 0, 0]", fillcolor="#f0b890"] ;
76 -> 106 ;
107 [label="respiração <= 10.73\nentropy = 0.83\nsamples = 60\nvalue = [74, 26, 0, 0]", fillcolor="#eead7f"] ;
106 -> 107 ;
108 [label="entropy = 0.0\nsamples = 35\nvalue = [59, 0, 0, 0]", fillcolor="#e58139"] ;
107 -> 108 ;
109 [label="pDiast <= 14.16\nentropy = 0.95\nsamples = 25\nvalue = [15, 26, 0, 0]", fillcolor="#b1f4ab"] ;
107 -> 109 ;
110 [label="qPA <= 4.78\nentropy = 0.99\nsamples = 22\nvalue = [15, 20, 0, 0]", fillcolor="#d1f8ce"] ;
109 -> 110 ;
111 [label="entropy = 0.0\nsamples = 2\nvalue = [2, 0, 0, 0]", fillcolor="#e58139"] ;
110 -> 111 ;
112 [label="pDiast <= 13.72\nentropy = 0.97\nsamples = 20\nvalue = [13, 20, 0, 0]", fillcolor="#bff6ba"] ;
110 -> 112 ;
113 [label="entropy = 0.89\nsamples = 18\nvalue = [9, 20, 0, 0]", fillcolor="#9af192"] ;
112 -> 113 ;
114 [label="entropy = 0.0\nsamples = 2\nvalue = [4, 0, 0, 0]", fillcolor="#e58139"] ;
112 -> 114 ;
115 [label="entropy = 0.0\nsamples = 3\nvalue = [0, 6, 0, 0]", fillcolor="#47e539"] ;
109 -> 115 ;
116 [label="qPA <= 8.72\nentropy = 0.97\nsamples = 9\nvalue = [6, 9, 0, 0]", fillcolor="#c2f6bd"] ;
106 -> 116 ;
117 [label="entropy = 0.0\nsamples = 4\nvalue = [0, 8, 0, 0]", fillcolor="#47e539"] ;
116 -> 117 ;
118 [label="pSist <= 21.57\nentropy = 0.59\nsamples = 5\nvalue = [6, 1, 0, 0]", fillcolor="#e9965a"] ;
116 -> 118 ;
119 [label="pDiast <= 12.98\nentropy = 1.0\nsamples = 2\nvalue = [1, 1, 0, 0]", fillcolor="#ffffff"] ;
118 -> 119 ;
120 [label="entropy = 0.0\nsamples = 1\nvalue = [1, 0, 0, 0]", fillcolor="#e58139"] ;
119 -> 120 ;
121 [label="entropy = 0.0\nsamples = 1\nvalue = [0, 1, 0, 0]", fillcolor="#47e539"] ;
119 -> 121 ;
122 [label="entropy = 0.0\nsamples = 3\nvalue = [5, 0, 0, 0]", fillcolor="#e58139"] ;
118 -> 122 ;
}