digraph Tree {
node [shape=box, style="filled, rounded", color="black", fontname="helvetica"] ;
edge [fontname="helvetica"] ;
0 [label="pDiast <= 10.44\nentropy = 1.51\nsamples = 669\nvalue = [169, 602, 254, 25]", fillcolor="#aff4a8"] ;
1 [label="respiração <= 11.37\nentropy = 1.35\nsamples = 485\nvalue = [42, 464, 224, 25]", fillcolor="#acf3a6"] ;
0 -> 1 [labeldistance=2.5, labelangle=45, headlabel="True"] ;
2 [label="qPA <= 4.71\nentropy = 0.9\nsamples = 246\nvalue = [39, 316, 37, 0]", fillcolor="#6feb64"] ;
1 -> 2 ;
3 [label="qPA <= -4.72\nentropy = 0.77\nsamples = 219\nvalue = [18, 294, 37, 0]", fillcolor="#67ea5c"] ;
2 -> 3 ;
4 [label="pSist <= 10.17\nentropy = 0.97\nsamples = 30\nvalue = [18, 28, 0, 0]", fillcolor="#bdf6b8"] ;
3 -> 4 ;
5 [label="pulso <= 154.55\nentropy = 0.93\nsamples = 28\nvalue = [15, 28, 0, 0]", fillcolor="#aaf3a3"] ;
4 -> 5 ;
6 [label="qPA <= -8.72\nentropy = 0.35\nsamples = 19\nvalue = [2, 28, 0, 0]", fillcolor="#54e747"] ;
5 -> 6 ;
7 [label="entropy = 0.0\nsamples = 1\nvalue = [1, 0, 0, 0]", fillcolor="#e58139"] ;
6 -> 7 ;
8 [label="entropy = 0.22\nsamples = 18\nvalue = [1, 28, 0, 0]", fillcolor="#4ee640"] ;
6 -> 8 ;
9 [label="entropy = 0.0\nsamples = 9\nvalue = [13, 0, 0, 0]", fillcolor="#e58139"] ;
5 -> 9 ;
10 [label="entropy = 0.0\nsamples = 2\nvalue = [3, 0, 0, 0]", fillcolor="#e58139"] ;
4 -> 10 ;
11 [label="pSist <= 13.68\nentropy = 0.54\nsamples = 189\nvalue = [0, 266, 37, 0]", fillcolor="#61e955"] ;
3 -> 11 ;
12 [label="pulso <= 123.59\nentropy = 0.86\nsamples = 81\nvalue = [0, 88, 35, 0]", fillcolor="#90ef88"] ;
11 -> 12 ;
13 [label="pDiast <= 4.43\nentropy = 1.0\nsamples = 48\nvalue = [0, 36, 35, 0]", fillcolor="#fafefa"] ;
12 -> 13 ;
14 [label="entropy = 0.66\nsamples = 21\nvalue = [0, 24, 5, 0]", fillcolor="#6dea62"] ;
13 -> 14 ;
15 [label="entropy = 0.86\nsamples = 27\nvalue = [0, 12, 30, 0]", fillcolor="#88c4ef"] ;
13 -> 15 ;
16 [label="entropy = 0.0\nsamples = 33\nvalue = [0, 52, 0, 0]", fillcolor="#47e539"] ;
12 -> 16 ;
17 [label="pDiast <= 1.4\nentropy = 0.09\nsamples = 108\nvalue = [0, 178, 2, 0]", fillcolor="#49e53b"] ;
11 -> 17 ;
18 [label="pulso <= 85.74\nentropy = 0.44\nsamples = 14\nvalue = [0, 20, 2, 0]", fillcolor="#59e84d"] ;
17 -> 18 ;
19 [label="entropy = 0.68\nsamples = 8\nvalue = [0, 9, 2, 0]", fillcolor="#70eb65"] ;
18 -> 19 ;
20 [label="entropy = 0.0\nsamples = 6\nvalue = [0, 11, 0, 0]", fillcolor="#47e539"] ;
18 -> 20 ;
21 [label="entropy = 0.0\nsamples = 94\nvalue = [0, 158, 0, 0]", fillcolor="#47e539"] ;
17 -> 21 ;
22 [label="respiração <= 0.79\nentropy = 1.0\nsamples = 27\nvalue = [21, 22, 0, 0]", fillcolor="#f7fef6"] ;
2 -> 22 ;
23 [label="entropy = 0.0\nsamples = 2\nvalue = [3, 0, 0, 0]", fillcolor="#e58139"] ;
22 -> 23 ;
24 [label="pSist <= 18.89\nentropy = 0.99\nsamples = 25\nvalue = [18, 22, 0, 0]", fillcolor="#defadb"] ;
22 -> 24 ;
25 [label="qPA <= 4.75\nentropy = 0.96\nsamples = 13\nvalue = [13, 8, 0, 0]", fillcolor="#f5cfb3"] ;
24 -> 25 ;
26 [label="entropy = 0.0\nsamples = 4\nvalue = [6, 0, 0, 0]", fillcolor="#e58139"] ;
25 -> 26 ;
27 [label="pDiast <= 5.59\nentropy = 1.0\nsamples = 9\nvalue = [7, 8, 0, 0]", fillcolor="#e8fce6"] ;
25 -> 27 ;
28 [label="entropy = 0.0\nsamples = 1\nvalue = [0, 3, 0, 0]", fillcolor="#47e539"] ;
27 -> 28 ;
29 [label="entropy = 0.98\nsamples = 8\nvalue = [7, 5, 0, 0]", fillcolor="#f8dbc6"] ;
27 -> 29 ;
30 [label="pSist <= 20.83\nentropy = 0.83\nsamples = 12\nvalue = [5, 14, 0, 0]", fillcolor="#89ee80"] ;
24 -> 30 ;
31 [label="pDiast <= 6.2\nentropy = 0.54\nsamples = 10\nvalue = [2, 14, 0, 0]", fillcolor="#61e955"] ;
30 -> 31 ;
32 [label="entropy = 0.86\nsamples = 4\nvalue = [2, 5, 0, 0]", fillcolor="#91ef88"] ;
31 -> 32 ;
33 [label="entropy = 0.0\nsamples = 6\nvalue = [0, 9, 0, 0]", fillcolor="#47e539"] ;
31 -> 33 ;
34 [label="entropy = 0.0\nsamples = 2\nvalue = [3, 0, 0, 0]", fillcolor="#e58139"] ;
30 -> 34 ;
35 [label="pSist <= 13.55\nentropy = 1.34\nsamples = 239\nvalue = [3, 148, 187, 25]", fillcolor="#dbedfa"] ;
1 -> 35 ;
36 [label="pulso <= 104.72\nentropy = 1.26\nsamples = 113\nvalue = [0, 36, 116, 24]", fillcolor="#8ec7f0"] ;
35 -> 36 ;
37 [label="qPA <= -1.58\nentropy = 1.21\nsamples = 58\nvalue = [0, 6, 52, 24]", fillcolor="#9fd0f2"] ;
36 -> 37 ;
38 [label="pSist <= 8.72\nentropy = 0.61\nsamples = 13\nvalue = [0, 3, 17, 0]", fillcolor="#5caeea"] ;
37 -> 38 ;
39 [label="pSist <= 8.35\nentropy = 0.85\nsamples = 7\nvalue = [0, 3, 8, 0]", fillcolor="#83c2ef"] ;
38 -> 39 ;
40 [label="entropy = 0.5\nsamples = 5\nvalue = [0, 1, 8, 0]", fillcolor="#52a9e8"] ;
39 -> 40 ;
41 [label="entropy = 0.0\nsamples = 2\nvalue = [0, 2, 0, 0]", fillcolor="#47e539"] ;
39 -> 41 ;
42 [label="entropy = 0.0\nsamples = 6\nvalue = [0, 0, 9, 0]", fillcolor="#399de5"] ;
38 -> 42 ;
43 [label="respiração <= 13.73\nentropy = 1.21\nsamples = 45\nvalue = [0, 3, 35, 24]", fillcolor="#c6e3f7"] ;
37 -> 43 ;
44 [label="entropy = 0.0\nsamples = 8\nvalue = [0, 0, 11, 0]", fillcolor="#399de5"] ;
43 -> 44 ;
45 [label="pSist <= 8.79\nentropy = 1.26\nsamples = 37\nvalue = [0, 3, 24, 24]", fillcolor="#ffffff"] ;
43 -> 45 ;
46 [label="entropy = 1.09\nsamples = 13\nvalue = [0, 1, 15, 6]", fillcolor="#90c8f0"] ;
45 -> 46 ;
47 [label="entropy = 1.22\nsamples = 24\nvalue = [0, 2, 9, 18]", fillcolor="#eda6f3"] ;
45 -> 47 ;
48 [label="respiração <= 19.1\nentropy = 0.9\nsamples = 55\nvalue = [0, 30, 64, 0]", fillcolor="#96cbf1"] ;
36 -> 48 ;
49 [label="pDiast <= 3.57\nentropy = 0.52\nsamples = 40\nvalue = [0, 8, 61, 0]", fillcolor="#53aae8"] ;
48 -> 49 ;
50 [label="qPA <= -4.59\nentropy = 0.89\nsamples = 17\nvalue = [0, 8, 18, 0]", fillcolor="#91c9f1"] ;
49 -> 50 ;
51 [label="entropy = 0.99\nsamples = 9\nvalue = [0, 8, 6, 0]", fillcolor="#d1f8ce"] ;
50 -> 51 ;
52 [label="entropy = 0.0\nsamples = 8\nvalue = [0, 0, 12, 0]", fillcolor="#399de5"] ;
50 -> 52 ;
53 [label="entropy = 0.0\nsamples = 23\nvalue = [0, 0, 43, 0]", fillcolor="#399de5"] ;
49 -> 53 ;
54 [label="pulso <= 122.58\nentropy = 0.53\nsamples = 15\nvalue = [0, 22, 3, 0]", fillcolor="#60e954"] ;
48 -> 54 ;
55 [label="pulso <= 117.33\nentropy = 0.97\nsamples = 3\nvalue = [0, 2, 3, 0]", fillcolor="#bddef6"] ;
54 -> 55 ;
56 [label="entropy = 0.0\nsamples = 1\nvalue = [0, 2, 0, 0]", fillcolor="#47e539"] ;
55 -> 56 ;
57 [label="entropy = 0.0\nsamples = 2\nvalue = [0, 0, 3, 0]", fillcolor="#399de5"] ;
55 -> 57 ;
58 [label="entropy = 0.0\nsamples = 12\nvalue = [0, 20, 0, 0]", fillcolor="#47e539"] ;
54 -> 58 ;
59 [label="pSist <= 14.33\nentropy = 1.11\nsamples = 126\nvalue = [3, 112, 71, 1]", fillcolor="#bef6b9"] ;
35 -> 59 ;
60 [label="pDiast <= 3.03\nentropy = 0.54\nsamples = 5\nvalue = [0, 7, 0, 1]", fillcolor="#61e955"] ;
59 -> 60 ;
61 [label="entropy = 0.0\nsamples = 3\nvalue = [0, 5, 0, 0]", fillcolor="#47e539"] ;
60 -> 61 ;
62 [label="pDiast <= 6.21\nentropy = 0.92\nsamples = 2\nvalue = [0, 2, 0, 1]", fillcolor="#a3f29c"] ;
60 -> 62 ;
63 [label="entropy = 0.0\nsamples = 1\nvalue = [0, 0, 0, 1]", fillcolor="#d739e5"] ;
62 -> 63 ;
64 [label="entropy = 0.0\nsamples = 1\nvalue = [0, 2, 0, 0]", fillcolor="#47e539"] ;
62 -> 64 ;
65 [label="pulso <= 110.63\nentropy = 1.08\nsamples = 121\nvalue = [3, 105, 71, 0]", fillcolor="#c5f7c1"] ;
59 -> 65 ;
66 [label="respiração <= 13.75\nentropy = 0.97\nsamples = 64\nvalue = [0, 37, 57, 0]", fillcolor="#baddf6"] ;
65 -> 66 ;
67 [label="pulso <= 51.22\nentropy = 0.81\nsamples = 13\nvalue = [0, 15, 5, 0]", fillcolor="#84ee7b"] ;
66 -> 67 ;
68 [label="entropy = 0.0\nsamples = 9\nvalue = [0, 15, 0, 0]", fillcolor="#47e539"] ;
67 -> 68 ;
69 [label="entropy = 0.0\nsamples = 4\nvalue = [0, 0, 5, 0]", fillcolor="#399de5"] ;
67 -> 69 ;
70 [label="pulso <= 59.44\nentropy = 0.88\nsamples = 51\nvalue = [0, 22, 52, 0]", fillcolor="#8dc6f0"] ;
66 -> 70 ;
71 [label="entropy = 1.0\nsamples = 20\nvalue = [0, 15, 13, 0]", fillcolor="#e6fce5"] ;
70 -> 71 ;
72 [label="entropy = 0.62\nsamples = 31\nvalue = [0, 7, 39, 0]", fillcolor="#5dafea"] ;
70 -> 72 ;
73 [label="pDiast <= 4.69\nentropy = 0.86\nsamples = 57\nvalue = [3, 68, 14, 0]", fillcolor="#73eb68"] ;
65 -> 73 ;
74 [label="respiração <= 17.44\nentropy = 0.99\nsamples = 20\nvalue = [0, 16, 12, 0]", fillcolor="#d1f8ce"] ;
73 -> 74 ;
75 [label="entropy = 0.92\nsamples = 12\nvalue = [0, 6, 12, 0]", fillcolor="#9ccef2"] ;
74 -> 75 ;
76 [label="entropy = 0.0\nsamples = 8\nvalue = [0, 10, 0, 0]", fillcolor="#47e539"] ;
74 -> 76 ;
77 [label="pDiast <= 9.43\nentropy = 0.51\nsamples = 37\nvalue = [3, 52, 2, 0]", fillcolor="#58e74b"] ;
73 -> 77 ;
78 [label="entropy = 0.15\nsamples = 29\nvalue = [1, 44, 0, 0]", fillcolor="#4be63d"] ;
77 -> 78 ;
79 [label="entropy = 1.25\nsamples = 8\nvalue = [2, 8, 2, 0]", fillcolor="#91ef88"] ;
77 -> 79 ;
80 [label="pulso <= 129.25\nentropy = 1.37\nsamples = 184\nvalue = [127, 138, 30, 0]", fillcolor="#f3fdf2"] ;
0 -> 80 [labeldistance=2.5, labelangle=-45, headlabel="False"] ;
81 [label="respiração <= 11.37\nentropy = 1.37\nsamples = 120\nvalue = [41, 106, 30, 0]", fillcolor="#a7f3a0"] ;
80 -> 81 ;
82 [label="pulso <= 42.74\nentropy = 0.95\nsamples = 60\nvalue = [32, 54, 0, 0]", fillcolor="#b4f4ae"] ;
81 -> 82 ;
83 [label="pSist <= 21.29\nentropy = 0.2\nsamples = 23\nvalue = [31, 1, 0, 0]", fillcolor="#e6853f"] ;
82 -> 83 ;
84 [label="entropy = 0.0\nsamples = 21\nvalue = [29, 0, 0, 0]", fillcolor="#e58139"] ;
83 -> 84 ;
85 [label="pSist <= 21.64\nentropy = 0.92\nsamples = 2\nvalue = [2, 1, 0, 0]", fillcolor="#f2c09c"] ;
83 -> 85 ;
86 [label="entropy = 0.0\nsamples = 1\nvalue = [0, 1, 0, 0]", fillcolor="#47e539"] ;
85 -> 86 ;
87 [label="entropy = 0.0\nsamples = 1\nvalue = [2, 0, 0, 0]", fillcolor="#e58139"] ;
85 -> 87 ;
88 [label="pulso <= 123.04\nentropy = 0.13\nsamples = 37\nvalue = [1, 53, 0, 0]", fillcolor="#4ae53d"] ;
82 -> 88 ;
89 [label="entropy = 0.0\nsamples = 36\nvalue = [0, 53, 0, 0]", fillcolor="#47e539"] ;
88 -> 89 ;
90 [label="entropy = 0.0\nsamples = 1\nvalue = [1, 0, 0, 0]", fillcolor="#e58139"] ;
88 -> 90 ;
91 [label="pulso <= 48.66\nentropy = 1.32\nsamples = 60\nvalue = [9, 52, 30, 0]", fillcolor="#bdf6b8"] ;
81 -> 91 ;
92 [label="respiração <= 19.48\nentropy = 0.82\nsamples = 22\nvalue = [9, 26, 0, 0]", fillcolor="#87ee7e"] ;
91 -> 92 ;
93 [label="entropy = 0.0\nsamples = 14\nvalue = [0, 24, 0, 0]", fillcolor="#47e539"] ;
92 -> 93 ;
94 [label="qPA <= 7.65\nentropy = 0.68\nsamples = 8\nvalue = [9, 2, 0, 0]", fillcolor="#eb9d65"] ;
92 -> 94 ;
95 [label="entropy = 0.0\nsamples = 1\nvalue = [0, 1, 0, 0]", fillcolor="#47e539"] ;
94 -> 95 ;
96 [label="pSist <= 19.65\nentropy = 0.47\nsamples = 7\nvalue = [9, 1, 0, 0]", fillcolor="#e88f4f"] ;
94 -> 96 ;
97 [label="entropy = 0.81\nsamples = 3\nvalue = [3, 1, 0, 0]", fillcolor="#eeab7b"] ;
96 -> 97 ;
98 [label="entropy = 0.0\nsamples = 4\nvalue = [6, 0, 0, 0]", fillcolor="#e58139"] ;
96 -> 98 ;
99 [label="respiração <= 19.34\nentropy = 1.0\nsamples = 38\nvalue = [0, 26, 30, 0]", fillcolor="#e5f2fc"] ;
91 -> 99 ;
100 [label="pDiast <= 11.37\nentropy = 0.86\nsamples = 29\nvalue = [0, 12, 30, 0]", fillcolor="#88c4ef"] ;
99 -> 100 ;
101 [label="entropy = 0.0\nsamples = 7\nvalue = [0, 0, 14, 0]", fillcolor="#399de5"] ;
100 -> 101 ;
102 [label="pulso <= 109.78\nentropy = 0.99\nsamples = 22\nvalue = [0, 12, 16, 0]", fillcolor="#cee6f8"] ;
100 -> 102 ;
103 [label="entropy = 0.79\nsamples = 16\nvalue = [0, 5, 16, 0]", fillcolor="#77bced"] ;
102 -> 103 ;
104 [label="entropy = 0.0\nsamples = 6\nvalue = [0, 7, 0, 0]", fillcolor="#47e539"] ;
102 -> 104 ;
105 [label="entropy = 0.0\nsamples = 9\nvalue = [0, 14, 0, 0]", fillcolor="#47e539"] ;
99 -> 105 ;
106 [label="pulso <= 191.0\nentropy = 0.84\nsamples = 64\nvalue = [86, 32, 0, 0]", fillcolor="#efb083"] ;
80 -> 106 ;
107 [label="qPA <= 5.23\nentropy = 0.92\nsamples = 54\nvalue = [63, 32, 0, 0]", fillcolor="#f2c19e"] ;
106 -> 107 ;
108 [label="entropy = 0.0\nsamples = 1\nvalue = [0, 4, 0, 0]", fillcolor="#47e539"] ;
107 -> 108 ;
109 [label="pulso <= 184.47\nentropy = 0.89\nsamples = 53\nvalue = [63, 28, 0, 0]", fillcolor="#f1b991"] ;
107 -> 109 ;
110 [label="respiração <= 10.61\nentropy = 0.84\nsamples = 50\nvalue = [63, 23, 0, 0]", fillcolor="#eeaf81"] ;
109 -> 110 ;
111 [label="entropy = 0.0\nsamples = 33\nvalue = [55, 0, 0, 0]", fillcolor="#e58139"] ;
110 -> 111 ;
112 [label="qPA <= 6.3\nentropy = 0.82\nsamples = 17\nvalue = [8, 23, 0, 0]", fillcolor="#87ee7e"] ;
110 -> 112 ;
113 [label="entropy = 0.0\nsamples = 1\nvalue = [3, 0, 0, 0]", fillcolor="#e58139"] ;
112 -> 113 ;
114 [label="entropy = 0.68\nsamples = 16\nvalue = [5, 23, 0, 0]", fillcolor="#6feb64"] ;
112 -> 114 ;
115 [label="entropy = 0.0\nsamples = 3\nvalue = [0, 5, 0, 0]", fillcolor="#47e539"] ;
109 -> 115 ;
116 [label="entropy = 0.0\nsamples = 10\nvalue = [23, 0, 0, 0]", fillcolor="#e58139"] ;
106 -> 116 ;
}