digraph Tree {
node [shape=box, style="filled, rounded", color="black", fontname="helvetica"] ;
edge [fontname="helvetica"] ;
0 [label="qPA <= 4.7\nentropy = 1.54\nsamples = 673\nvalue = [179, 576, 271, 24]", fillcolor="#b7f5b1"] ;
1 [label="respiração <= 11.36\nentropy = 1.3\nsamples = 423\nvalue = [19, 386, 216, 24]", fillcolor="#b6f5b1"] ;
0 -> 1 [labeldistance=2.5, labelangle=45, headlabel="True"] ;
2 [label="pulso <= 123.08\nentropy = 0.79\nsamples = 211\nvalue = [17, 268, 35, 0]", fillcolor="#69ea5d"] ;
1 -> 2 ;
3 [label="pulso <= 44.23\nentropy = 0.9\nsamples = 128\nvalue = [7, 151, 35, 0]", fillcolor="#78ec6e"] ;
2 -> 3 ;
4 [label="respiração <= 7.38\nentropy = 0.43\nsamples = 53\nvalue = [7, 72, 0, 0]", fillcolor="#59e84c"] ;
3 -> 4 ;
5 [label="pDiast <= 2.75\nentropy = 0.21\nsamples = 38\nvalue = [2, 57, 0, 0]", fillcolor="#4de640"] ;
4 -> 5 ;
6 [label="pSist <= 10.78\nentropy = 0.54\nsamples = 13\nvalue = [2, 14, 0, 0]", fillcolor="#61e955"] ;
5 -> 6 ;
7 [label="entropy = 0.92\nsamples = 5\nvalue = [2, 4, 0, 0]", fillcolor="#a3f29c"] ;
6 -> 7 ;
8 [label="entropy = 0.0\nsamples = 8\nvalue = [0, 10, 0, 0]", fillcolor="#47e539"] ;
6 -> 8 ;
9 [label="entropy = 0.0\nsamples = 25\nvalue = [0, 43, 0, 0]", fillcolor="#47e539"] ;
5 -> 9 ;
10 [label="qPA <= -4.73\nentropy = 0.81\nsamples = 15\nvalue = [5, 15, 0, 0]", fillcolor="#84ee7b"] ;
4 -> 10 ;
11 [label="entropy = 0.0\nsamples = 4\nvalue = [5, 0, 0, 0]", fillcolor="#e58139"] ;
10 -> 11 ;
12 [label="entropy = 0.0\nsamples = 11\nvalue = [0, 15, 0, 0]", fillcolor="#47e539"] ;
10 -> 12 ;
13 [label="pSist <= 16.44\nentropy = 0.89\nsamples = 75\nvalue = [0, 79, 35, 0]", fillcolor="#99f191"] ;
3 -> 13 ;
14 [label="pDiast <= 1.71\nentropy = 0.98\nsamples = 56\nvalue = [0, 47, 35, 0]", fillcolor="#d0f8cc"] ;
13 -> 14 ;
15 [label="entropy = 0.0\nsamples = 11\nvalue = [0, 19, 0, 0]", fillcolor="#47e539"] ;
14 -> 15 ;
16 [label="qPA <= -4.36\nentropy = 0.99\nsamples = 45\nvalue = [0, 28, 35, 0]", fillcolor="#d7ebfa"] ;
14 -> 16 ;
17 [label="entropy = 0.0\nsamples = 10\nvalue = [0, 12, 0, 0]", fillcolor="#47e539"] ;
16 -> 17 ;
18 [label="entropy = 0.9\nsamples = 35\nvalue = [0, 16, 35, 0]", fillcolor="#94caf1"] ;
16 -> 18 ;
19 [label="entropy = 0.0\nsamples = 19\nvalue = [0, 32, 0, 0]", fillcolor="#47e539"] ;
13 -> 19 ;
20 [label="pSist <= 10.31\nentropy = 0.4\nsamples = 83\nvalue = [10, 117, 0, 0]", fillcolor="#57e74a"] ;
2 -> 20 ;
21 [label="pDiast <= 4.56\nentropy = 0.86\nsamples = 25\nvalue = [10, 25, 0, 0]", fillcolor="#91ef88"] ;
20 -> 21 ;
22 [label="pulso <= 176.7\nentropy = 1.0\nsamples = 15\nvalue = [10, 11, 0, 0]", fillcolor="#eefded"] ;
21 -> 22 ;
23 [label="pSist <= 4.7\nentropy = 0.75\nsamples = 9\nvalue = [3, 11, 0, 0]", fillcolor="#79ec6f"] ;
22 -> 23 ;
24 [label="entropy = 0.0\nsamples = 5\nvalue = [0, 10, 0, 0]", fillcolor="#47e539"] ;
23 -> 24 ;
25 [label="entropy = 0.81\nsamples = 4\nvalue = [3, 1, 0, 0]", fillcolor="#eeab7b"] ;
23 -> 25 ;
26 [label="entropy = 0.0\nsamples = 6\nvalue = [7, 0, 0, 0]", fillcolor="#e58139"] ;
22 -> 26 ;
27 [label="entropy = 0.0\nsamples = 10\nvalue = [0, 14, 0, 0]", fillcolor="#47e539"] ;
21 -> 27 ;
28 [label="entropy = 0.0\nsamples = 58\nvalue = [0, 92, 0, 0]", fillcolor="#47e539"] ;
20 -> 28 ;
29 [label="respiração <= 17.63\nentropy = 1.32\nsamples = 212\nvalue = [2, 118, 181, 24]", fillcolor="#c3e1f7"] ;
1 -> 29 ;
30 [label="pulso <= 124.18\nentropy = 1.13\nsamples = 130\nvalue = [0, 42, 140, 17]", fillcolor="#83c2ef"] ;
29 -> 30 ;
31 [label="pSist <= 13.21\nentropy = 1.04\nsamples = 79\nvalue = [0, 13, 94, 17]", fillcolor="#71b8ec"] ;
30 -> 31 ;
32 [label="pulso <= 54.07\nentropy = 1.07\nsamples = 45\nvalue = [0, 4, 50, 16]", fillcolor="#82c1ef"] ;
31 -> 32 ;
33 [label="pSist <= 12.21\nentropy = 0.59\nsamples = 18\nvalue = [0, 4, 24, 0]", fillcolor="#5aade9"] ;
32 -> 33 ;
34 [label="entropy = 0.26\nsamples = 15\nvalue = [0, 1, 22, 0]", fillcolor="#42a1e6"] ;
33 -> 34 ;
35 [label="entropy = 0.97\nsamples = 3\nvalue = [0, 3, 2, 0]", fillcolor="#c2f6bd"] ;
33 -> 35 ;
36 [label="pDiast <= 6.17\nentropy = 0.96\nsamples = 27\nvalue = [0, 0, 26, 16]", fillcolor="#b3d9f5"] ;
32 -> 36 ;
37 [label="entropy = 0.39\nsamples = 16\nvalue = [0, 0, 24, 2]", fillcolor="#49a5e7"] ;
36 -> 37 ;
38 [label="entropy = 0.54\nsamples = 11\nvalue = [0, 0, 2, 14]", fillcolor="#dd55e9"] ;
36 -> 38 ;
39 [label="pDiast <= 3.3\nentropy = 0.78\nsamples = 34\nvalue = [0, 9, 44, 1]", fillcolor="#65b3eb"] ;
31 -> 39 ;
40 [label="entropy = 0.0\nsamples = 8\nvalue = [0, 0, 17, 0]", fillcolor="#399de5"] ;
39 -> 40 ;
41 [label="pulso <= 41.86\nentropy = 0.97\nsamples = 26\nvalue = [0, 9, 27, 1]", fillcolor="#80c0ee"] ;
39 -> 41 ;
42 [label="entropy = 0.0\nsamples = 8\nvalue = [0, 9, 0, 0]", fillcolor="#47e539"] ;
41 -> 42 ;
43 [label="entropy = 0.22\nsamples = 18\nvalue = [0, 0, 27, 1]", fillcolor="#40a1e6"] ;
41 -> 43 ;
44 [label="respiração <= 12.48\nentropy = 0.96\nsamples = 51\nvalue = [0, 29, 46, 0]", fillcolor="#b6dbf5"] ;
30 -> 44 ;
45 [label="entropy = 0.0\nsamples = 11\nvalue = [0, 16, 0, 0]", fillcolor="#47e539"] ;
44 -> 45 ;
46 [label="pSist <= 14.62\nentropy = 0.76\nsamples = 40\nvalue = [0, 13, 46, 0]", fillcolor="#71b9ec"] ;
44 -> 46 ;
47 [label="respiração <= 12.71\nentropy = 0.2\nsamples = 23\nvalue = [0, 1, 31, 0]", fillcolor="#3fa0e6"] ;
46 -> 47 ;
48 [label="entropy = 1.0\nsamples = 2\nvalue = [0, 1, 1, 0]", fillcolor="#ffffff"] ;
47 -> 48 ;
49 [label="entropy = 0.0\nsamples = 21\nvalue = [0, 0, 30, 0]", fillcolor="#399de5"] ;
47 -> 49 ;
50 [label="pDiast <= 4.83\nentropy = 0.99\nsamples = 17\nvalue = [0, 12, 15, 0]", fillcolor="#d7ebfa"] ;
46 -> 50 ;
51 [label="entropy = 0.0\nsamples = 8\nvalue = [0, 0, 12, 0]", fillcolor="#399de5"] ;
50 -> 51 ;
52 [label="entropy = 0.72\nsamples = 9\nvalue = [0, 12, 3, 0]", fillcolor="#75ec6a"] ;
50 -> 52 ;
53 [label="pSist <= 14.34\nentropy = 1.29\nsamples = 82\nvalue = [2, 76, 41, 7]", fillcolor="#b3f4ad"] ;
29 -> 53 ;
54 [label="respiração <= 20.24\nentropy = 1.49\nsamples = 52\nvalue = [2, 35, 33, 7]", fillcolor="#f7fef6"] ;
53 -> 54 ;
55 [label="pSist <= 14.2\nentropy = 1.42\nsamples = 35\nvalue = [0, 26, 18, 7]", fillcolor="#d2f9cf"] ;
54 -> 55 ;
56 [label="qPA <= 0.4\nentropy = 1.31\nsamples = 33\nvalue = [0, 26, 17, 4]", fillcolor="#c8f7c4"] ;
55 -> 56 ;
57 [label="entropy = 1.36\nsamples = 28\nvalue = [0, 20, 17, 4]", fillcolor="#e8fce6"] ;
56 -> 57 ;
58 [label="entropy = 0.0\nsamples = 5\nvalue = [0, 6, 0, 0]", fillcolor="#47e539"] ;
56 -> 58 ;
59 [label="qPA <= 0.64\nentropy = 0.81\nsamples = 2\nvalue = [0, 0, 1, 3]", fillcolor="#e47bee"] ;
55 -> 59 ;
60 [label="entropy = 0.0\nsamples = 1\nvalue = [0, 0, 0, 3]", fillcolor="#d739e5"] ;
59 -> 60 ;
61 [label="entropy = 0.0\nsamples = 1\nvalue = [0, 0, 1, 0]", fillcolor="#399de5"] ;
59 -> 61 ;
62 [label="pDiast <= 1.1\nentropy = 1.27\nsamples = 17\nvalue = [2, 9, 15, 0]", fillcolor="#b9dcf6"] ;
54 -> 62 ;
63 [label="entropy = 0.0\nsamples = 2\nvalue = [0, 0, 5, 0]", fillcolor="#399de5"] ;
62 -> 63 ;
64 [label="pDiast <= 1.6\nentropy = 1.36\nsamples = 15\nvalue = [2, 9, 10, 0]", fillcolor="#eef7fd"] ;
62 -> 64 ;
65 [label="entropy = 0.0\nsamples = 1\nvalue = [0, 4, 0, 0]", fillcolor="#47e539"] ;
64 -> 65 ;
66 [label="entropy = 1.33\nsamples = 14\nvalue = [2, 5, 10, 0]", fillcolor="#acd6f4"] ;
64 -> 66 ;
67 [label="pDiast <= 9.23\nentropy = 0.64\nsamples = 30\nvalue = [0, 41, 8, 0]", fillcolor="#6bea60"] ;
53 -> 67 ;
68 [label="pSist <= 20.02\nentropy = 0.55\nsamples = 29\nvalue = [0, 41, 6, 0]", fillcolor="#62e956"] ;
67 -> 68 ;
69 [label="respiração <= 20.97\nentropy = 0.65\nsamples = 23\nvalue = [0, 30, 6, 0]", fillcolor="#6cea61"] ;
68 -> 69 ;
70 [label="entropy = 0.76\nsamples = 17\nvalue = [0, 21, 6, 0]", fillcolor="#7cec72"] ;
69 -> 70 ;
71 [label="entropy = 0.0\nsamples = 6\nvalue = [0, 9, 0, 0]", fillcolor="#47e539"] ;
69 -> 71 ;
72 [label="entropy = 0.0\nsamples = 6\nvalue = [0, 11, 0, 0]", fillcolor="#47e539"] ;
68 -> 72 ;
73 [label="entropy = 0.0\nsamples = 1\nvalue = [0, 0, 2, 0]", fillcolor="#399de5"] ;
67 -> 73 ;
74 [label="qPA <= 6.95\nentropy = 1.43\nsamples = 250\nvalue = [160, 190, 55, 0]", fillcolor="#e8fce7"] ;
0 -> 74 [labeldistance=2.5, labelangle=-45, headlabel="False"] ;
75 [label="pSist <= 12.27\nentropy = 1.49\nsamples = 89\nvalue = [45, 76, 32, 0]", fillcolor="#caf8c6"] ;
74 -> 75 ;
76 [label="pDiast <= 11.73\nentropy = 0.44\nsamples = 6\nvalue = [10, 1, 0, 0]", fillcolor="#e88e4d"] ;
75 -> 76 ;
77 [label="entropy = 0.0\nsamples = 5\nvalue = [10, 0, 0, 0]", fillcolor="#e58139"] ;
76 -> 77 ;
78 [label="entropy = 0.0\nsamples = 1\nvalue = [0, 1, 0, 0]", fillcolor="#47e539"] ;
76 -> 78 ;
79 [label="pulso <= 107.04\nentropy = 1.47\nsamples = 83\nvalue = [35, 75, 32, 0]", fillcolor="#baf5b5"] ;
75 -> 79 ;
80 [label="pSist <= 19.79\nentropy = 1.5\nsamples = 48\nvalue = [15, 35, 32, 0]", fillcolor="#f4fdf3"] ;
79 -> 80 ;
81 [label="qPA <= 6.77\nentropy = 1.44\nsamples = 35\nvalue = [9, 23, 30, 0]", fillcolor="#dbedfa"] ;
80 -> 81 ;
82 [label="respiração <= 11.17\nentropy = 1.44\nsamples = 33\nvalue = [9, 20, 30, 0]", fillcolor="#cce6f8"] ;
81 -> 82 ;
83 [label="entropy = 0.99\nsamples = 11\nvalue = [9, 11, 0, 0]", fillcolor="#defadb"] ;
82 -> 83 ;
84 [label="entropy = 0.78\nsamples = 22\nvalue = [0, 9, 30, 0]", fillcolor="#74baed"] ;
82 -> 84 ;
85 [label="entropy = 0.0\nsamples = 2\nvalue = [0, 3, 0, 0]", fillcolor="#47e539"] ;
81 -> 85 ;
86 [label="pulso <= 32.17\nentropy = 1.3\nsamples = 13\nvalue = [6, 12, 2, 0]", fillcolor="#b0f4aa"] ;
80 -> 86 ;
87 [label="pDiast <= 6.01\nentropy = 0.92\nsamples = 5\nvalue = [6, 3, 0, 0]", fillcolor="#f2c09c"] ;
86 -> 87 ;
88 [label="entropy = 0.0\nsamples = 2\nvalue = [0, 3, 0, 0]", fillcolor="#47e539"] ;
87 -> 88 ;
89 [label="entropy = 0.0\nsamples = 3\nvalue = [6, 0, 0, 0]", fillcolor="#e58139"] ;
87 -> 89 ;
90 [label="pulso <= 90.24\nentropy = 0.68\nsamples = 8\nvalue = [0, 9, 2, 0]", fillcolor="#70eb65"] ;
86 -> 90 ;
91 [label="entropy = 0.0\nsamples = 6\nvalue = [0, 9, 0, 0]", fillcolor="#47e539"] ;
90 -> 91 ;
92 [label="entropy = 0.0\nsamples = 2\nvalue = [0, 0, 2, 0]", fillcolor="#399de5"] ;
90 -> 92 ;
93 [label="qPA <= 4.8\nentropy = 0.92\nsamples = 35\nvalue = [20, 40, 0, 0]", fillcolor="#a3f29c"] ;
79 -> 93 ;
94 [label="pSist <= 18.04\nentropy = 1.0\nsamples = 18\nvalue = [15, 14, 0, 0]", fillcolor="#fdf7f2"] ;
93 -> 94 ;
95 [label="respiração <= 12.93\nentropy = 0.54\nsamples = 10\nvalue = [14, 2, 0, 0]", fillcolor="#e99355"] ;
94 -> 95 ;
96 [label="entropy = 0.0\nsamples = 7\nvalue = [12, 0, 0, 0]", fillcolor="#e58139"] ;
95 -> 96 ;
97 [label="entropy = 1.0\nsamples = 3\nvalue = [2, 2, 0, 0]", fillcolor="#ffffff"] ;
95 -> 97 ;
98 [label="pDiast <= 5.71\nentropy = 0.39\nsamples = 8\nvalue = [1, 12, 0, 0]", fillcolor="#56e749"] ;
94 -> 98 ;
99 [label="entropy = 0.0\nsamples = 1\nvalue = [1, 0, 0, 0]", fillcolor="#e58139"] ;
98 -> 99 ;
100 [label="entropy = 0.0\nsamples = 7\nvalue = [0, 12, 0, 0]", fillcolor="#47e539"] ;
98 -> 100 ;
101 [label="pDiast <= 10.46\nentropy = 0.64\nsamples = 17\nvalue = [5, 26, 0, 0]", fillcolor="#6aea5f"] ;
93 -> 101 ;
102 [label="entropy = 0.0\nsamples = 8\nvalue = [0, 13, 0, 0]", fillcolor="#47e539"] ;
101 -> 102 ;
103 [label="pSist <= 13.2\nentropy = 0.85\nsamples = 9\nvalue = [5, 13, 0, 0]", fillcolor="#8eef85"] ;
101 -> 103 ;
104 [label="entropy = 0.0\nsamples = 4\nvalue = [0, 7, 0, 0]", fillcolor="#47e539"] ;
103 -> 104 ;
105 [label="entropy = 0.99\nsamples = 5\nvalue = [5, 6, 0, 0]", fillcolor="#e0fbde"] ;
103 -> 105 ;
106 [label="pulso <= 123.04\nentropy = 1.35\nsamples = 161\nvalue = [115, 114, 23, 0]", fillcolor="#fffefe"] ;
74 -> 106 ;
107 [label="pulso <= 44.38\nentropy = 1.37\nsamples = 100\nvalue = [39, 89, 23, 0]", fillcolor="#adf3a7"] ;
106 -> 107 ;
108 [label="respiração <= 10.92\nentropy = 0.92\nsamples = 39\nvalue = [39, 20, 0, 0]", fillcolor="#f2c29f"] ;
107 -> 108 ;
109 [label="entropy = 0.0\nsamples = 18\nvalue = [26, 0, 0, 0]", fillcolor="#e58139"] ;
108 -> 109 ;
110 [label="respiração <= 19.48\nentropy = 0.97\nsamples = 21\nvalue = [13, 20, 0, 0]", fillcolor="#bff6ba"] ;
108 -> 110 ;
111 [label="entropy = 0.0\nsamples = 14\nvalue = [0, 20, 0, 0]", fillcolor="#47e539"] ;
110 -> 111 ;
112 [label="entropy = 0.0\nsamples = 7\nvalue = [13, 0, 0, 0]", fillcolor="#e58139"] ;
110 -> 112 ;
113 [label="respiração <= 12.35\nentropy = 0.81\nsamples = 61\nvalue = [0, 69, 23, 0]", fillcolor="#84ee7b"] ;
107 -> 113 ;
114 [label="entropy = 0.0\nsamples = 35\nvalue = [0, 50, 0, 0]", fillcolor="#47e539"] ;
113 -> 114 ;
115 [label="respiração <= 18.95\nentropy = 0.99\nsamples = 26\nvalue = [0, 19, 23, 0]", fillcolor="#ddeefa"] ;
113 -> 115 ;
116 [label="pSist <= 20.12\nentropy = 0.68\nsamples = 16\nvalue = [0, 5, 23, 0]", fillcolor="#64b2eb"] ;
115 -> 116 ;
117 [label="entropy = 0.44\nsamples = 12\nvalue = [0, 2, 20, 0]", fillcolor="#4da7e8"] ;
116 -> 117 ;
118 [label="entropy = 1.0\nsamples = 4\nvalue = [0, 3, 3, 0]", fillcolor="#ffffff"] ;
116 -> 118 ;
119 [label="entropy = 0.0\nsamples = 10\nvalue = [0, 14, 0, 0]", fillcolor="#47e539"] ;
115 -> 119 ;
120 [label="pDiast <= 12.27\nentropy = 0.81\nsamples = 61\nvalue = [76, 25, 0, 0]", fillcolor="#eeaa7a"] ;
106 -> 120 ;
121 [label="pSist <= 21.71\nentropy = 0.22\nsamples = 18\nvalue = [28, 1, 0, 0]", fillcolor="#e68640"] ;
120 -> 121 ;
122 [label="entropy = 0.0\nsamples = 17\nvalue = [28, 0, 0, 0]", fillcolor="#e58139"] ;
121 -> 122 ;
123 [label="entropy = 0.0\nsamples = 1\nvalue = [0, 1, 0, 0]", fillcolor="#47e539"] ;
121 -> 123 ;
124 [label="pSist <= 13.28\nentropy = 0.92\nsamples = 43\nvalue = [48, 24, 0, 0]", fillcolor="#f2c09c"] ;
120 -> 124 ;
125 [label="entropy = 0.0\nsamples = 1\nvalue = [0, 5, 0, 0]", fillcolor="#47e539"] ;
124 -> 125 ;
126 [label="qPA <= 8.47\nentropy = 0.86\nsamples = 42\nvalue = [48, 19, 0, 0]", fillcolor="#efb387"] ;
124 -> 126 ;
127 [label="entropy = 0.0\nsamples = 2\nvalue = [5, 0, 0, 0]", fillcolor="#e58139"] ;
126 -> 127 ;
128 [label="respiração <= 10.92\nentropy = 0.89\nsamples = 40\nvalue = [43, 19, 0, 0]", fillcolor="#f0b990"] ;
126 -> 128 ;
129 [label="entropy = 0.0\nsamples = 23\nvalue = [38, 0, 0, 0]", fillcolor="#e58139"] ;
128 -> 129 ;
130 [label="entropy = 0.74\nsamples = 17\nvalue = [5, 19, 0, 0]", fillcolor="#77ec6d"] ;
128 -> 130 ;
}