digraph Tree {
node [shape=box, style="filled, rounded", color="black", fontname="helvetica"] ;
edge [fontname="helvetica"] ;
0 [label="pDiast <= 10.44\nentropy = 1.53\nsamples = 662\nvalue = [180, 575, 275, 20]", fillcolor="#b8f5b2"] ;
1 [label="respiração <= 11.75\nentropy = 1.38\nsamples = 463\nvalue = [48, 423, 234, 20]", fillcolor="#b8f5b3"] ;
0 -> 1 [labeldistance=2.5, labelangle=45, headlabel="True"] ;
2 [label="qPA <= -4.72\nentropy = 0.98\nsamples = 239\nvalue = [40, 288, 41, 0]", fillcolor="#74eb6a"] ;
1 -> 2 ;
3 [label="pulso <= 140.73\nentropy = 1.0\nsamples = 29\nvalue = [26, 25, 0, 0]", fillcolor="#fefaf7"] ;
2 -> 3 ;
4 [label="pSist <= 7.69\nentropy = 0.65\nsamples = 18\nvalue = [5, 25, 0, 0]", fillcolor="#6cea61"] ;
3 -> 4 ;
5 [label="pulso <= 45.39\nentropy = 0.96\nsamples = 8\nvalue = [5, 8, 0, 0]", fillcolor="#baf5b5"] ;
4 -> 5 ;
6 [label="entropy = 0.0\nsamples = 3\nvalue = [5, 0, 0, 0]", fillcolor="#e58139"] ;
5 -> 6 ;
7 [label="entropy = 0.0\nsamples = 5\nvalue = [0, 8, 0, 0]", fillcolor="#47e539"] ;
5 -> 7 ;
8 [label="entropy = 0.0\nsamples = 10\nvalue = [0, 17, 0, 0]", fillcolor="#47e539"] ;
4 -> 8 ;
9 [label="entropy = 0.0\nsamples = 11\nvalue = [21, 0, 0, 0]", fillcolor="#e58139"] ;
3 -> 9 ;
10 [label="pulso <= 127.86\nentropy = 0.81\nsamples = 210\nvalue = [14, 263, 41, 0]", fillcolor="#6cea60"] ;
2 -> 10 ;
11 [label="qPA <= 3.55\nentropy = 0.94\nsamples = 135\nvalue = [7, 150, 41, 0]", fillcolor="#7fed76"] ;
10 -> 11 ;
12 [label="qPA <= -3.64\nentropy = 0.91\nsamples = 85\nvalue = [0, 85, 41, 0]", fillcolor="#a0f299"] ;
11 -> 12 ;
13 [label="pulso <= 73.6\nentropy = 0.29\nsamples = 40\nvalue = [0, 55, 3, 0]", fillcolor="#51e644"] ;
12 -> 13 ;
14 [label="entropy = 0.0\nsamples = 32\nvalue = [0, 47, 0, 0]", fillcolor="#47e539"] ;
13 -> 14 ;
15 [label="entropy = 0.85\nsamples = 8\nvalue = [0, 8, 3, 0]", fillcolor="#8cef83"] ;
13 -> 15 ;
16 [label="pulso <= 42.39\nentropy = 0.99\nsamples = 45\nvalue = [0, 30, 38, 0]", fillcolor="#d5eafa"] ;
12 -> 16 ;
17 [label="entropy = 0.0\nsamples = 15\nvalue = [0, 25, 0, 0]", fillcolor="#47e539"] ;
16 -> 17 ;
18 [label="entropy = 0.52\nsamples = 30\nvalue = [0, 5, 38, 0]", fillcolor="#53aae8"] ;
16 -> 18 ;
19 [label="qPA <= 4.73\nentropy = 0.46\nsamples = 50\nvalue = [7, 65, 0, 0]", fillcolor="#5be84e"] ;
11 -> 19 ;
20 [label="entropy = 0.0\nsamples = 35\nvalue = [0, 51, 0, 0]", fillcolor="#47e539"] ;
19 -> 20 ;
21 [label="pDiast <= 5.61\nentropy = 0.92\nsamples = 15\nvalue = [7, 14, 0, 0]", fillcolor="#a3f29c"] ;
19 -> 21 ;
22 [label="entropy = 0.0\nsamples = 2\nvalue = [0, 6, 0, 0]", fillcolor="#47e539"] ;
21 -> 22 ;
23 [label="entropy = 1.0\nsamples = 13\nvalue = [7, 8, 0, 0]", fillcolor="#e8fce6"] ;
21 -> 23 ;
24 [label="pDiast <= 9.46\nentropy = 0.32\nsamples = 75\nvalue = [7, 113, 0, 0]", fillcolor="#52e745"] ;
10 -> 24 ;
25 [label="qPA <= 4.7\nentropy = 0.18\nsamples = 70\nvalue = [3, 111, 0, 0]", fillcolor="#4ce63e"] ;
24 -> 25 ;
26 [label="entropy = 0.0\nsamples = 66\nvalue = [0, 106, 0, 0]", fillcolor="#47e539"] ;
25 -> 26 ;
27 [label="pDiast <= 5.46\nentropy = 0.95\nsamples = 4\nvalue = [3, 5, 0, 0]", fillcolor="#b5f5b0"] ;
25 -> 27 ;
28 [label="entropy = 0.0\nsamples = 2\nvalue = [3, 0, 0, 0]", fillcolor="#e58139"] ;
27 -> 28 ;
29 [label="entropy = 0.0\nsamples = 2\nvalue = [0, 5, 0, 0]", fillcolor="#47e539"] ;
27 -> 29 ;
30 [label="qPA <= 4.74\nentropy = 0.92\nsamples = 5\nvalue = [4, 2, 0, 0]", fillcolor="#f2c09c"] ;
24 -> 30 ;
31 [label="pulso <= 146.76\nentropy = 0.92\nsamples = 3\nvalue = [1, 2, 0, 0]", fillcolor="#a3f29c"] ;
30 -> 31 ;
32 [label="entropy = 0.0\nsamples = 1\nvalue = [1, 0, 0, 0]", fillcolor="#e58139"] ;
31 -> 32 ;
33 [label="entropy = 0.0\nsamples = 2\nvalue = [0, 2, 0, 0]", fillcolor="#47e539"] ;
31 -> 33 ;
34 [label="entropy = 0.0\nsamples = 2\nvalue = [3, 0, 0, 0]", fillcolor="#e58139"] ;
30 -> 34 ;
35 [label="qPA <= 4.51\nentropy = 1.37\nsamples = 224\nvalue = [8, 135, 193, 20]", fillcolor="#cbe5f8"] ;
1 -> 35 ;
36 [label="respiração <= 19.58\nentropy = 1.32\nsamples = 158\nvalue = [4, 66, 155, 20]", fillcolor="#9dcef2"] ;
35 -> 36 ;
37 [label="pDiast <= 4.01\nentropy = 1.02\nsamples = 122\nvalue = [0, 26, 141, 18]", fillcolor="#70b8ec"] ;
36 -> 37 ;
38 [label="qPA <= -2.17\nentropy = 1.11\nsamples = 54\nvalue = [0, 20, 51, 4]", fillcolor="#8fc8f0"] ;
37 -> 38 ;
39 [label="respiração <= 12.14\nentropy = 0.9\nsamples = 45\nvalue = [0, 20, 43, 0]", fillcolor="#95cbf1"] ;
38 -> 39 ;
40 [label="entropy = 0.0\nsamples = 3\nvalue = [0, 5, 0, 0]", fillcolor="#47e539"] ;
39 -> 40 ;
41 [label="entropy = 0.82\nsamples = 42\nvalue = [0, 15, 43, 0]", fillcolor="#7ebfee"] ;
39 -> 41 ;
42 [label="pulso <= 58.66\nentropy = 0.92\nsamples = 9\nvalue = [0, 0, 8, 4]", fillcolor="#9ccef2"] ;
38 -> 42 ;
43 [label="entropy = 0.0\nsamples = 3\nvalue = [0, 0, 5, 0]", fillcolor="#399de5"] ;
42 -> 43 ;
44 [label="entropy = 0.99\nsamples = 6\nvalue = [0, 0, 3, 4]", fillcolor="#f5cef8"] ;
42 -> 44 ;
45 [label="pulso <= 103.03\nentropy = 0.84\nsamples = 68\nvalue = [0, 6, 90, 14]", fillcolor="#62b1ea"] ;
37 -> 45 ;
46 [label="respiração <= 17.3\nentropy = 1.16\nsamples = 36\nvalue = [0, 4, 37, 14]", fillcolor="#90c8f0"] ;
45 -> 46 ;
47 [label="entropy = 0.93\nsamples = 29\nvalue = [0, 0, 27, 14]", fillcolor="#a0d0f2"] ;
46 -> 47 ;
48 [label="entropy = 0.86\nsamples = 7\nvalue = [0, 4, 10, 0]", fillcolor="#88c4ef"] ;
46 -> 48 ;
49 [label="qPA <= 4.37\nentropy = 0.23\nsamples = 32\nvalue = [0, 2, 53, 0]", fillcolor="#40a1e6"] ;
45 -> 49 ;
50 [label="entropy = 0.13\nsamples = 31\nvalue = [0, 1, 53, 0]", fillcolor="#3d9fe5"] ;
49 -> 50 ;
51 [label="entropy = 0.0\nsamples = 1\nvalue = [0, 1, 0, 0]", fillcolor="#47e539"] ;
49 -> 51 ;
52 [label="pulso <= 129.13\nentropy = 1.3\nsamples = 36\nvalue = [4, 40, 14, 2]", fillcolor="#97f08f"] ;
36 -> 52 ;
53 [label="pulso <= 39.19\nentropy = 1.58\nsamples = 21\nvalue = [3, 16, 14, 2]", fillcolor="#edfdec"] ;
52 -> 53 ;
54 [label="pulso <= 13.05\nentropy = 0.65\nsamples = 9\nvalue = [3, 15, 0, 0]", fillcolor="#6cea61"] ;
53 -> 54 ;
55 [label="entropy = 0.97\nsamples = 3\nvalue = [3, 2, 0, 0]", fillcolor="#f6d5bd"] ;
54 -> 55 ;
56 [label="entropy = 0.0\nsamples = 6\nvalue = [0, 13, 0, 0]", fillcolor="#47e539"] ;
54 -> 56 ;
57 [label="qPA <= -4.35\nentropy = 0.83\nsamples = 12\nvalue = [0, 1, 14, 2]", fillcolor="#61b1ea"] ;
53 -> 57 ;
58 [label="entropy = 0.0\nsamples = 1\nvalue = [0, 1, 0, 0]", fillcolor="#47e539"] ;
57 -> 58 ;
59 [label="entropy = 0.54\nsamples = 11\nvalue = [0, 0, 14, 2]", fillcolor="#55abe9"] ;
57 -> 59 ;
60 [label="pSist <= 10.04\nentropy = 0.24\nsamples = 15\nvalue = [1, 24, 0, 0]", fillcolor="#4fe641"] ;
52 -> 60 ;
61 [label="qPA <= -2.41\nentropy = 0.81\nsamples = 2\nvalue = [1, 3, 0, 0]", fillcolor="#84ee7b"] ;
60 -> 61 ;
62 [label="entropy = 0.0\nsamples = 1\nvalue = [1, 0, 0, 0]", fillcolor="#e58139"] ;
61 -> 62 ;
63 [label="entropy = 0.0\nsamples = 1\nvalue = [0, 3, 0, 0]", fillcolor="#47e539"] ;
61 -> 63 ;
64 [label="entropy = 0.0\nsamples = 13\nvalue = [0, 21, 0, 0]", fillcolor="#47e539"] ;
60 -> 64 ;
65 [label="pulso <= 122.11\nentropy = 1.13\nsamples = 66\nvalue = [4, 69, 38, 0]", fillcolor="#b1f4ab"] ;
35 -> 65 ;
66 [label="pDiast <= 5.61\nentropy = 0.94\nsamples = 35\nvalue = [0, 21, 38, 0]", fillcolor="#a6d3f3"] ;
65 -> 66 ;
67 [label="entropy = 0.0\nsamples = 5\nvalue = [0, 0, 8, 0]", fillcolor="#399de5"] ;
66 -> 67 ;
68 [label="qPA <= 4.68\nentropy = 0.98\nsamples = 30\nvalue = [0, 21, 30, 0]", fillcolor="#c4e2f7"] ;
66 -> 68 ;
69 [label="pSist <= 18.0\nentropy = 0.93\nsamples = 12\nvalue = [0, 13, 7, 0]", fillcolor="#aaf3a4"] ;
68 -> 69 ;
70 [label="entropy = 0.59\nsamples = 5\nvalue = [0, 1, 6, 0]", fillcolor="#5aade9"] ;
69 -> 70 ;
71 [label="entropy = 0.39\nsamples = 7\nvalue = [0, 12, 1, 0]", fillcolor="#56e749"] ;
69 -> 71 ;
72 [label="pDiast <= 6.08\nentropy = 0.82\nsamples = 18\nvalue = [0, 8, 23, 0]", fillcolor="#7ebfee"] ;
68 -> 72 ;
73 [label="entropy = 0.0\nsamples = 2\nvalue = [0, 4, 0, 0]", fillcolor="#47e539"] ;
72 -> 73 ;
74 [label="entropy = 0.61\nsamples = 16\nvalue = [0, 4, 23, 0]", fillcolor="#5baeea"] ;
72 -> 74 ;
75 [label="respiração <= 20.13\nentropy = 0.39\nsamples = 31\nvalue = [4, 48, 0, 0]", fillcolor="#56e749"] ;
65 -> 75 ;
76 [label="entropy = 0.0\nsamples = 24\nvalue = [0, 40, 0, 0]", fillcolor="#47e539"] ;
75 -> 76 ;
77 [label="pSist <= 15.69\nentropy = 0.92\nsamples = 7\nvalue = [4, 8, 0, 0]", fillcolor="#a3f29c"] ;
75 -> 77 ;
78 [label="entropy = 0.0\nsamples = 1\nvalue = [2, 0, 0, 0]", fillcolor="#e58139"] ;
77 -> 78 ;
79 [label="pDiast <= 7.35\nentropy = 0.72\nsamples = 6\nvalue = [2, 8, 0, 0]", fillcolor="#75ec6a"] ;
77 -> 79 ;
80 [label="entropy = 0.0\nsamples = 1\nvalue = [1, 0, 0, 0]", fillcolor="#e58139"] ;
79 -> 80 ;
81 [label="entropy = 0.5\nsamples = 5\nvalue = [1, 8, 0, 0]", fillcolor="#5ee852"] ;
79 -> 81 ;
82 [label="pulso <= 129.25\nentropy = 1.42\nsamples = 199\nvalue = [132, 152, 41, 0]", fillcolor="#ecfcea"] ;
0 -> 82 [labeldistance=2.5, labelangle=-45, headlabel="False"] ;
83 [label="respiração <= 11.49\nentropy = 1.45\nsamples = 130\nvalue = [57, 113, 41, 0]", fillcolor="#bcf6b7"] ;
82 -> 83 ;
84 [label="pulso <= 38.68\nentropy = 0.93\nsamples = 65\nvalue = [35, 66, 0, 0]", fillcolor="#a9f3a2"] ;
83 -> 84 ;
85 [label="qPA <= 4.81\nentropy = 0.31\nsamples = 24\nvalue = [34, 2, 0, 0]", fillcolor="#e78845"] ;
84 -> 85 ;
86 [label="entropy = 0.0\nsamples = 1\nvalue = [0, 1, 0, 0]", fillcolor="#47e539"] ;
85 -> 86 ;
87 [label="pulso <= 7.48\nentropy = 0.19\nsamples = 23\nvalue = [34, 1, 0, 0]", fillcolor="#e6853f"] ;
85 -> 87 ;
88 [label="respiração <= 10.66\nentropy = 0.39\nsamples = 7\nvalue = [12, 1, 0, 0]", fillcolor="#e78c49"] ;
87 -> 88 ;
89 [label="entropy = 0.0\nsamples = 6\nvalue = [12, 0, 0, 0]", fillcolor="#e58139"] ;
88 -> 89 ;
90 [label="entropy = 0.0\nsamples = 1\nvalue = [0, 1, 0, 0]", fillcolor="#47e539"] ;
88 -> 90 ;
91 [label="entropy = 0.0\nsamples = 16\nvalue = [22, 0, 0, 0]", fillcolor="#e58139"] ;
87 -> 91 ;
92 [label="pulso <= 123.04\nentropy = 0.11\nsamples = 41\nvalue = [1, 64, 0, 0]", fillcolor="#4ae53c"] ;
84 -> 92 ;
93 [label="entropy = 0.0\nsamples = 40\nvalue = [0, 64, 0, 0]", fillcolor="#47e539"] ;
92 -> 93 ;
94 [label="entropy = 0.0\nsamples = 1\nvalue = [1, 0, 0, 0]", fillcolor="#e58139"] ;
92 -> 94 ;
95 [label="pulso <= 50.24\nentropy = 1.52\nsamples = 65\nvalue = [22, 47, 41, 0]", fillcolor="#effdee"] ;
83 -> 95 ;
96 [label="pDiast <= 11.93\nentropy = 0.99\nsamples = 27\nvalue = [22, 26, 0, 0]", fillcolor="#e3fbe1"] ;
95 -> 96 ;
97 [label="entropy = 0.0\nsamples = 6\nvalue = [0, 10, 0, 0]", fillcolor="#47e539"] ;
96 -> 97 ;
98 [label="respiração <= 19.44\nentropy = 0.98\nsamples = 21\nvalue = [22, 16, 0, 0]", fillcolor="#f8ddc9"] ;
96 -> 98 ;
99 [label="entropy = 0.0\nsamples = 10\nvalue = [0, 14, 0, 0]", fillcolor="#47e539"] ;
98 -> 99 ;
100 [label="respiração <= 21.33\nentropy = 0.41\nsamples = 11\nvalue = [22, 2, 0, 0]", fillcolor="#e78c4b"] ;
98 -> 100 ;
101 [label="entropy = 0.0\nsamples = 10\nvalue = [22, 0, 0, 0]", fillcolor="#e58139"] ;
100 -> 101 ;
102 [label="entropy = 0.0\nsamples = 1\nvalue = [0, 2, 0, 0]", fillcolor="#47e539"] ;
100 -> 102 ;
103 [label="pulso <= 109.78\nentropy = 0.92\nsamples = 38\nvalue = [0, 21, 41, 0]", fillcolor="#9ecff2"] ;
95 -> 103 ;
104 [label="qPA <= 6.92\nentropy = 0.8\nsamples = 31\nvalue = [0, 13, 40, 0]", fillcolor="#79bded"] ;
103 -> 104 ;
105 [label="entropy = 0.0\nsamples = 5\nvalue = [0, 0, 10, 0]", fillcolor="#399de5"] ;
104 -> 105 ;
106 [label="pSist <= 20.59\nentropy = 0.88\nsamples = 26\nvalue = [0, 13, 30, 0]", fillcolor="#8fc7f0"] ;
104 -> 106 ;
107 [label="entropy = 0.97\nsamples = 22\nvalue = [0, 13, 19, 0]", fillcolor="#c0e0f7"] ;
106 -> 107 ;
108 [label="entropy = 0.0\nsamples = 4\nvalue = [0, 0, 11, 0]", fillcolor="#399de5"] ;
106 -> 108 ;
109 [label="pDiast <= 11.08\nentropy = 0.5\nsamples = 7\nvalue = [0, 8, 1, 0]", fillcolor="#5ee852"] ;
103 -> 109 ;
110 [label="entropy = 0.0\nsamples = 1\nvalue = [0, 0, 1, 0]", fillcolor="#399de5"] ;
109 -> 110 ;
111 [label="entropy = 0.0\nsamples = 6\nvalue = [0, 8, 0, 0]", fillcolor="#47e539"] ;
109 -> 111 ;
112 [label="pulso <= 191.0\nentropy = 0.93\nsamples = 69\nvalue = [75, 39, 0, 0]", fillcolor="#f3c3a0"] ;
82 -> 112 ;
113 [label="pDiast <= 14.82\nentropy = 0.96\nsamples = 57\nvalue = [60, 38, 0, 0]", fillcolor="#f5d1b6"] ;
112 -> 113 ;
114 [label="respiração <= 10.85\nentropy = 0.94\nsamples = 55\nvalue = [60, 34, 0, 0]", fillcolor="#f4c8a9"] ;
113 -> 114 ;
115 [label="entropy = 0.0\nsamples = 31\nvalue = [53, 0, 0, 0]", fillcolor="#e58139"] ;
114 -> 115 ;
116 [label="pDiast <= 11.89\nentropy = 0.66\nsamples = 24\nvalue = [7, 34, 0, 0]", fillcolor="#6dea62"] ;
114 -> 116 ;
117 [label="entropy = 0.0\nsamples = 9\nvalue = [0, 12, 0, 0]", fillcolor="#47e539"] ;
116 -> 117 ;
118 [label="pulso <= 154.06\nentropy = 0.8\nsamples = 15\nvalue = [7, 22, 0, 0]", fillcolor="#82ed78"] ;
116 -> 118 ;
119 [label="entropy = 0.0\nsamples = 5\nvalue = [0, 10, 0, 0]", fillcolor="#47e539"] ;
118 -> 119 ;
120 [label="entropy = 0.95\nsamples = 10\nvalue = [7, 12, 0, 0]", fillcolor="#b2f4ac"] ;
118 -> 120 ;
121 [label="entropy = 0.0\nsamples = 2\nvalue = [0, 4, 0, 0]", fillcolor="#47e539"] ;
113 -> 121 ;
122 [label="pSist <= 20.52\nentropy = 0.34\nsamples = 12\nvalue = [15, 1, 0, 0]", fillcolor="#e78946"] ;
112 -> 122 ;
123 [label="entropy = 0.0\nsamples = 10\nvalue = [14, 0, 0, 0]", fillcolor="#e58139"] ;
122 -> 123 ;
124 [label="pSist <= 20.89\nentropy = 1.0\nsamples = 2\nvalue = [1, 1, 0, 0]", fillcolor="#ffffff"] ;
122 -> 124 ;
125 [label="entropy = 0.0\nsamples = 1\nvalue = [0, 1, 0, 0]", fillcolor="#47e539"] ;
124 -> 125 ;
126 [label="entropy = 0.0\nsamples = 1\nvalue = [1, 0, 0, 0]", fillcolor="#e58139"] ;
124 -> 126 ;
}