digraph Tree {
node [shape=box, style="filled, rounded", color="black", fontname="helvetica"] ;
edge [fontname="helvetica"] ;
0 [label="pDiast <= 10.44\nentropy = 1.57\nsamples = 650\nvalue = [181, 555, 288, 26]", fillcolor="#bff6ba"] ;
1 [label="pSist <= 13.68\nentropy = 1.43\nsamples = 452\nvalue = [48, 404, 242, 26]", fillcolor="#c1f6bc"] ;
0 -> 1 [labeldistance=2.5, labelangle=45, headlabel="True"] ;
2 [label="pulso <= 128.05\nentropy = 1.59\nsamples = 216\nvalue = [26, 150, 157, 25]", fillcolor="#f8fcfe"] ;
1 -> 2 ;
3 [label="pulso <= 35.0\nentropy = 1.58\nsamples = 134\nvalue = [10, 80, 114, 25]", fillcolor="#d2e9f9"] ;
2 -> 3 ;
4 [label="pDiast <= 5.02\nentropy = 1.3\nsamples = 38\nvalue = [10, 42, 14, 0]", fillcolor="#9cf194"] ;
3 -> 4 ;
5 [label="qPA <= -4.73\nentropy = 0.93\nsamples = 21\nvalue = [10, 32, 1, 0]", fillcolor="#84ee7b"] ;
4 -> 5 ;
6 [label="respiração <= 13.07\nentropy = 0.92\nsamples = 9\nvalue = [10, 5, 0, 0]", fillcolor="#f2c09c"] ;
5 -> 6 ;
7 [label="entropy = 0.0\nsamples = 6\nvalue = [9, 0, 0, 0]", fillcolor="#e58139"] ;
6 -> 7 ;
8 [label="entropy = 0.65\nsamples = 3\nvalue = [1, 5, 0, 0]", fillcolor="#6cea61"] ;
6 -> 8 ;
9 [label="respiração <= 14.23\nentropy = 0.22\nsamples = 12\nvalue = [0, 27, 1, 0]", fillcolor="#4ee640"] ;
5 -> 9 ;
10 [label="entropy = 0.0\nsamples = 9\nvalue = [0, 24, 0, 0]", fillcolor="#47e539"] ;
9 -> 10 ;
11 [label="entropy = 0.81\nsamples = 3\nvalue = [0, 3, 1, 0]", fillcolor="#84ee7b"] ;
9 -> 11 ;
12 [label="pSist <= 11.01\nentropy = 0.99\nsamples = 17\nvalue = [0, 10, 13, 0]", fillcolor="#d1e8f9"] ;
4 -> 12 ;
13 [label="pDiast <= 6.99\nentropy = 0.59\nsamples = 9\nvalue = [0, 2, 12, 0]", fillcolor="#5aade9"] ;
12 -> 13 ;
14 [label="entropy = 0.92\nsamples = 4\nvalue = [0, 2, 4, 0]", fillcolor="#9ccef2"] ;
13 -> 14 ;
15 [label="entropy = 0.0\nsamples = 5\nvalue = [0, 0, 8, 0]", fillcolor="#399de5"] ;
13 -> 15 ;
16 [label="qPA <= 1.82\nentropy = 0.5\nsamples = 8\nvalue = [0, 8, 1, 0]", fillcolor="#5ee852"] ;
12 -> 16 ;
17 [label="entropy = 0.0\nsamples = 4\nvalue = [0, 5, 0, 0]", fillcolor="#47e539"] ;
16 -> 17 ;
18 [label="entropy = 0.81\nsamples = 4\nvalue = [0, 3, 1, 0]", fillcolor="#84ee7b"] ;
16 -> 18 ;
19 [label="qPA <= -4.38\nentropy = 1.34\nsamples = 96\nvalue = [0, 38, 100, 25]", fillcolor="#9dcef2"] ;
3 -> 19 ;
20 [label="respiração <= 13.24\nentropy = 0.94\nsamples = 30\nvalue = [0, 33, 18, 0]", fillcolor="#abf3a5"] ;
19 -> 20 ;
21 [label="entropy = 0.0\nsamples = 19\nvalue = [0, 32, 0, 0]", fillcolor="#47e539"] ;
20 -> 21 ;
22 [label="pulso <= 121.24\nentropy = 0.3\nsamples = 11\nvalue = [0, 1, 18, 0]", fillcolor="#44a2e6"] ;
20 -> 22 ;
23 [label="entropy = 0.0\nsamples = 9\nvalue = [0, 0, 14, 0]", fillcolor="#399de5"] ;
22 -> 23 ;
24 [label="entropy = 0.72\nsamples = 2\nvalue = [0, 1, 4, 0]", fillcolor="#6ab6ec"] ;
22 -> 24 ;
25 [label="pSist <= 11.5\nentropy = 1.01\nsamples = 66\nvalue = [0, 5, 82, 25]", fillcolor="#7dbfee"] ;
19 -> 25 ;
26 [label="respiração <= 13.73\nentropy = 1.16\nsamples = 41\nvalue = [0, 4, 46, 21]", fillcolor="#9ccef2"] ;
25 -> 26 ;
27 [label="entropy = 0.48\nsamples = 21\nvalue = [0, 4, 35, 0]", fillcolor="#50a8e8"] ;
26 -> 27 ;
28 [label="entropy = 0.93\nsamples = 20\nvalue = [0, 0, 11, 21]", fillcolor="#eca1f3"] ;
26 -> 28 ;
29 [label="qPA <= 1.51\nentropy = 0.62\nsamples = 25\nvalue = [0, 1, 36, 4]", fillcolor="#54aae9"] ;
25 -> 29 ;
30 [label="entropy = 0.0\nsamples = 12\nvalue = [0, 0, 19, 0]", fillcolor="#399de5"] ;
29 -> 30 ;
31 [label="entropy = 0.94\nsamples = 13\nvalue = [0, 1, 17, 4]", fillcolor="#70b8ec"] ;
29 -> 31 ;
32 [label="respiração <= 12.4\nentropy = 1.38\nsamples = 82\nvalue = [16, 70, 43, 0]", fillcolor="#c5f7c1"] ;
2 -> 32 ;
33 [label="pSist <= 9.89\nentropy = 0.73\nsamples = 47\nvalue = [15, 59, 0, 0]", fillcolor="#76ec6b"] ;
32 -> 33 ;
34 [label="pDiast <= 4.18\nentropy = 0.94\nsamples = 26\nvalue = [15, 27, 0, 0]", fillcolor="#adf3a7"] ;
33 -> 34 ;
35 [label="pulso <= 174.02\nentropy = 0.93\nsamples = 15\nvalue = [15, 8, 0, 0]", fillcolor="#f3c4a3"] ;
34 -> 35 ;
36 [label="entropy = 0.88\nsamples = 7\nvalue = [3, 7, 0, 0]", fillcolor="#96f08e"] ;
35 -> 36 ;
37 [label="entropy = 0.39\nsamples = 8\nvalue = [12, 1, 0, 0]", fillcolor="#e78c49"] ;
35 -> 37 ;
38 [label="entropy = 0.0\nsamples = 11\nvalue = [0, 19, 0, 0]", fillcolor="#47e539"] ;
34 -> 38 ;
39 [label="entropy = 0.0\nsamples = 21\nvalue = [0, 32, 0, 0]", fillcolor="#47e539"] ;
33 -> 39 ;
40 [label="respiração <= 19.11\nentropy = 0.85\nsamples = 35\nvalue = [1, 11, 43, 0]", fillcolor="#6fb8ec"] ;
32 -> 40 ;
41 [label="qPA <= -6.27\nentropy = 0.16\nsamples = 26\nvalue = [0, 1, 43, 0]", fillcolor="#3e9fe6"] ;
40 -> 41 ;
42 [label="pulso <= 187.8\nentropy = 0.81\nsamples = 3\nvalue = [0, 1, 3, 0]", fillcolor="#7bbeee"] ;
41 -> 42 ;
43 [label="entropy = 0.0\nsamples = 2\nvalue = [0, 0, 3, 0]", fillcolor="#399de5"] ;
42 -> 43 ;
44 [label="entropy = 0.0\nsamples = 1\nvalue = [0, 1, 0, 0]", fillcolor="#47e539"] ;
42 -> 44 ;
45 [label="entropy = 0.0\nsamples = 23\nvalue = [0, 0, 40, 0]", fillcolor="#399de5"] ;
41 -> 45 ;
46 [label="pulso <= 168.08\nentropy = 0.44\nsamples = 9\nvalue = [1, 10, 0, 0]", fillcolor="#59e84d"] ;
40 -> 46 ;
47 [label="entropy = 0.0\nsamples = 5\nvalue = [0, 7, 0, 0]", fillcolor="#47e539"] ;
46 -> 47 ;
48 [label="pulso <= 174.67\nentropy = 0.81\nsamples = 4\nvalue = [1, 3, 0, 0]", fillcolor="#84ee7b"] ;
46 -> 48 ;
49 [label="entropy = 0.0\nsamples = 1\nvalue = [1, 0, 0, 0]", fillcolor="#e58139"] ;
48 -> 49 ;
50 [label="entropy = 0.0\nsamples = 3\nvalue = [0, 3, 0, 0]", fillcolor="#47e539"] ;
48 -> 50 ;
51 [label="respiração <= 11.44\nentropy = 1.12\nsamples = 236\nvalue = [22, 254, 85, 1]", fillcolor="#8fef86"] ;
1 -> 51 ;
52 [label="pDiast <= 5.27\nentropy = 0.63\nsamples = 131\nvalue = [19, 170, 5, 0]", fillcolor="#60e954"] ;
51 -> 52 ;
53 [label="pulso <= 100.6\nentropy = 0.31\nsamples = 63\nvalue = [0, 85, 5, 0]", fillcolor="#52e745"] ;
52 -> 53 ;
54 [label="qPA <= -4.36\nentropy = 0.49\nsamples = 29\nvalue = [0, 42, 5, 0]", fillcolor="#5de851"] ;
53 -> 54 ;
55 [label="entropy = 0.0\nsamples = 7\nvalue = [0, 10, 0, 0]", fillcolor="#47e539"] ;
54 -> 55 ;
56 [label="pulso <= 44.14\nentropy = 0.57\nsamples = 22\nvalue = [0, 32, 5, 0]", fillcolor="#64e958"] ;
54 -> 56 ;
57 [label="entropy = 0.0\nsamples = 13\nvalue = [0, 24, 0, 0]", fillcolor="#47e539"] ;
56 -> 57 ;
58 [label="entropy = 0.96\nsamples = 9\nvalue = [0, 8, 5, 0]", fillcolor="#baf5b5"] ;
56 -> 58 ;
59 [label="entropy = 0.0\nsamples = 34\nvalue = [0, 43, 0, 0]", fillcolor="#47e539"] ;
53 -> 59 ;
60 [label="pSist <= 15.47\nentropy = 0.69\nsamples = 68\nvalue = [19, 85, 0, 0]", fillcolor="#70eb65"] ;
52 -> 60 ;
61 [label="entropy = 0.0\nsamples = 15\nvalue = [0, 22, 0, 0]", fillcolor="#47e539"] ;
60 -> 61 ;
62 [label="pulso <= 40.09\nentropy = 0.78\nsamples = 53\nvalue = [19, 63, 0, 0]", fillcolor="#7eed75"] ;
60 -> 62 ;
63 [label="pulso <= 29.96\nentropy = 0.99\nsamples = 11\nvalue = [11, 9, 0, 0]", fillcolor="#fae8db"] ;
62 -> 63 ;
64 [label="entropy = 0.89\nsamples = 8\nvalue = [4, 9, 0, 0]", fillcolor="#99f191"] ;
63 -> 64 ;
65 [label="entropy = 0.0\nsamples = 3\nvalue = [7, 0, 0, 0]", fillcolor="#e58139"] ;
63 -> 65 ;
66 [label="pulso <= 135.42\nentropy = 0.55\nsamples = 42\nvalue = [8, 54, 0, 0]", fillcolor="#62e956"] ;
62 -> 66 ;
67 [label="entropy = 0.0\nsamples = 25\nvalue = [0, 39, 0, 0]", fillcolor="#47e539"] ;
66 -> 67 ;
68 [label="entropy = 0.93\nsamples = 17\nvalue = [8, 15, 0, 0]", fillcolor="#a9f3a3"] ;
66 -> 68 ;
69 [label="qPA <= 4.71\nentropy = 1.16\nsamples = 105\nvalue = [3, 84, 80, 1]", fillcolor="#f7fef6"] ;
51 -> 69 ;
70 [label="pulso <= 122.84\nentropy = 1.05\nsamples = 83\nvalue = [0, 70, 65, 1]", fillcolor="#f2fdf1"] ;
69 -> 70 ;
71 [label="pDiast <= 0.99\nentropy = 1.02\nsamples = 53\nvalue = [0, 30, 55, 1]", fillcolor="#a7d3f3"] ;
70 -> 71 ;
72 [label="entropy = 0.0\nsamples = 3\nvalue = [0, 5, 0, 0]", fillcolor="#47e539"] ;
71 -> 72 ;
73 [label="qPA <= 3.51\nentropy = 0.98\nsamples = 50\nvalue = [0, 25, 55, 1]", fillcolor="#95caf1"] ;
71 -> 73 ;
74 [label="entropy = 0.75\nsamples = 18\nvalue = [0, 4, 26, 1]", fillcolor="#5eafea"] ;
73 -> 74 ;
75 [label="entropy = 0.98\nsamples = 32\nvalue = [0, 21, 29, 0]", fillcolor="#c8e4f8"] ;
73 -> 75 ;
76 [label="qPA <= 4.24\nentropy = 0.72\nsamples = 30\nvalue = [0, 40, 10, 0]", fillcolor="#75ec6a"] ;
70 -> 76 ;
77 [label="respiração <= 16.5\nentropy = 0.95\nsamples = 14\nvalue = [0, 17, 10, 0]", fillcolor="#b3f4ad"] ;
76 -> 77 ;
78 [label="entropy = 0.92\nsamples = 8\nvalue = [0, 5, 10, 0]", fillcolor="#9ccef2"] ;
77 -> 78 ;
79 [label="entropy = 0.0\nsamples = 6\nvalue = [0, 12, 0, 0]", fillcolor="#47e539"] ;
77 -> 79 ;
80 [label="entropy = 0.0\nsamples = 16\nvalue = [0, 23, 0, 0]", fillcolor="#47e539"] ;
76 -> 80 ;
81 [label="pulso <= 114.06\nentropy = 1.35\nsamples = 22\nvalue = [3, 14, 15, 0]", fillcolor="#f4fafe"] ;
69 -> 81 ;
82 [label="respiração <= 15.51\nentropy = 0.93\nsamples = 14\nvalue = [0, 8, 15, 0]", fillcolor="#a3d1f3"] ;
81 -> 82 ;
83 [label="pSist <= 17.45\nentropy = 0.95\nsamples = 6\nvalue = [0, 7, 4, 0]", fillcolor="#b0f4aa"] ;
82 -> 83 ;
84 [label="entropy = 0.0\nsamples = 2\nvalue = [0, 5, 0, 0]", fillcolor="#47e539"] ;
83 -> 84 ;
85 [label="entropy = 0.92\nsamples = 4\nvalue = [0, 2, 4, 0]", fillcolor="#9ccef2"] ;
83 -> 85 ;
86 [label="qPA <= 5.17\nentropy = 0.41\nsamples = 8\nvalue = [0, 1, 11, 0]", fillcolor="#4ba6e7"] ;
82 -> 86 ;
87 [label="entropy = 0.0\nsamples = 6\nvalue = [0, 0, 7, 0]", fillcolor="#399de5"] ;
86 -> 87 ;
88 [label="entropy = 0.72\nsamples = 2\nvalue = [0, 1, 4, 0]", fillcolor="#6ab6ec"] ;
86 -> 88 ;
89 [label="pulso <= 191.88\nentropy = 0.92\nsamples = 8\nvalue = [3, 6, 0, 0]", fillcolor="#a3f29c"] ;
81 -> 89 ;
90 [label="qPA <= 4.71\nentropy = 0.81\nsamples = 7\nvalue = [2, 6, 0, 0]", fillcolor="#84ee7b"] ;
89 -> 90 ;
91 [label="entropy = 0.0\nsamples = 1\nvalue = [1, 0, 0, 0]", fillcolor="#e58139"] ;
90 -> 91 ;
92 [label="entropy = 0.59\nsamples = 6\nvalue = [1, 6, 0, 0]", fillcolor="#66e95a"] ;
90 -> 92 ;
93 [label="entropy = 0.0\nsamples = 1\nvalue = [1, 0, 0, 0]", fillcolor="#e58139"] ;
89 -> 93 ;
94 [label="pulso <= 130.33\nentropy = 1.44\nsamples = 198\nvalue = [133, 151, 46, 0]", fillcolor="#eefded"] ;
0 -> 94 [labeldistance=2.5, labelangle=-45, headlabel="False"] ;
95 [label="respiração <= 11.2\nentropy = 1.42\nsamples = 132\nvalue = [51, 126, 46, 0]", fillcolor="#aff4a9"] ;
94 -> 95 ;
96 [label="respiração <= 2.51\nentropy = 0.93\nsamples = 62\nvalue = [39, 74, 0, 0]", fillcolor="#a8f3a1"] ;
95 -> 96 ;
97 [label="pDiast <= 10.74\nentropy = 0.2\nsamples = 17\nvalue = [1, 31, 0, 0]", fillcolor="#4de63f"] ;
96 -> 97 ;
98 [label="entropy = 0.0\nsamples = 1\nvalue = [1, 0, 0, 0]", fillcolor="#e58139"] ;
97 -> 98 ;
99 [label="entropy = 0.0\nsamples = 16\nvalue = [0, 31, 0, 0]", fillcolor="#47e539"] ;
97 -> 99 ;
100 [label="pSist <= 20.65\nentropy = 1.0\nsamples = 45\nvalue = [38, 43, 0, 0]", fillcolor="#eafce8"] ;
96 -> 100 ;
101 [label="pulso <= 43.94\nentropy = 0.96\nsamples = 37\nvalue = [25, 41, 0, 0]", fillcolor="#b7f5b2"] ;
100 -> 101 ;
102 [label="entropy = 0.0\nsamples = 14\nvalue = [23, 0, 0, 0]", fillcolor="#e58139"] ;
101 -> 102 ;
103 [label="pulso <= 123.13\nentropy = 0.27\nsamples = 23\nvalue = [2, 41, 0, 0]", fillcolor="#50e643"] ;
101 -> 103 ;
104 [label="entropy = 0.0\nsamples = 22\nvalue = [0, 41, 0, 0]", fillcolor="#47e539"] ;
103 -> 104 ;
105 [label="entropy = 0.0\nsamples = 1\nvalue = [2, 0, 0, 0]", fillcolor="#e58139"] ;
103 -> 105 ;
106 [label="pulso <= 44.96\nentropy = 0.57\nsamples = 8\nvalue = [13, 2, 0, 0]", fillcolor="#e99457"] ;
100 -> 106 ;
107 [label="entropy = 0.0\nsamples = 5\nvalue = [10, 0, 0, 0]", fillcolor="#e58139"] ;
106 -> 107 ;
108 [label="pSist <= 21.8\nentropy = 0.97\nsamples = 3\nvalue = [3, 2, 0, 0]", fillcolor="#f6d5bd"] ;
106 -> 108 ;
109 [label="entropy = 0.0\nsamples = 2\nvalue = [0, 2, 0, 0]", fillcolor="#47e539"] ;
108 -> 109 ;
110 [label="entropy = 0.0\nsamples = 1\nvalue = [3, 0, 0, 0]", fillcolor="#e58139"] ;
108 -> 110 ;
111 [label="pSist <= 18.33\nentropy = 1.39\nsamples = 70\nvalue = [12, 52, 46, 0]", fillcolor="#eefdec"] ;
95 -> 111 ;
112 [label="respiração <= 18.69\nentropy = 1.16\nsamples = 44\nvalue = [2, 29, 36, 0]", fillcolor="#dbedfa"] ;
111 -> 112 ;
113 [label="qPA <= 6.81\nentropy = 0.87\nsamples = 34\nvalue = [0, 15, 36, 0]", fillcolor="#8bc6f0"] ;
112 -> 113 ;
114 [label="entropy = 0.0\nsamples = 6\nvalue = [0, 0, 8, 0]", fillcolor="#399de5"] ;
113 -> 114 ;
115 [label="pulso <= 47.97\nentropy = 0.93\nsamples = 28\nvalue = [0, 15, 28, 0]", fillcolor="#a3d2f3"] ;
113 -> 115 ;
116 [label="entropy = 0.0\nsamples = 9\nvalue = [0, 10, 0, 0]", fillcolor="#47e539"] ;
115 -> 116 ;
117 [label="entropy = 0.61\nsamples = 19\nvalue = [0, 5, 28, 0]", fillcolor="#5caeea"] ;
115 -> 117 ;
118 [label="pulso <= 10.79\nentropy = 0.54\nsamples = 10\nvalue = [2, 14, 0, 0]", fillcolor="#61e955"] ;
112 -> 118 ;
119 [label="entropy = 0.0\nsamples = 1\nvalue = [2, 0, 0, 0]", fillcolor="#e58139"] ;
118 -> 119 ;
120 [label="entropy = 0.0\nsamples = 9\nvalue = [0, 14, 0, 0]", fillcolor="#47e539"] ;
118 -> 120 ;
121 [label="pSist <= 18.51\nentropy = 1.46\nsamples = 26\nvalue = [10, 23, 10, 0]", fillcolor="#b7f5b1"] ;
111 -> 121 ;
122 [label="entropy = 0.0\nsamples = 2\nvalue = [4, 0, 0, 0]", fillcolor="#e58139"] ;
121 -> 122 ;
123 [label="pulso <= 12.61\nentropy = 1.37\nsamples = 24\nvalue = [6, 23, 10, 0]", fillcolor="#adf3a6"] ;
121 -> 123 ;
124 [label="respiração <= 18.93\nentropy = 0.59\nsamples = 5\nvalue = [6, 1, 0, 0]", fillcolor="#e9965a"] ;
123 -> 124 ;
125 [label="entropy = 0.0\nsamples = 1\nvalue = [0, 1, 0, 0]", fillcolor="#47e539"] ;
124 -> 125 ;
126 [label="entropy = 0.0\nsamples = 4\nvalue = [6, 0, 0, 0]", fillcolor="#e58139"] ;
124 -> 126 ;
127 [label="pSist <= 19.61\nentropy = 0.9\nsamples = 19\nvalue = [0, 22, 10, 0]", fillcolor="#9bf193"] ;
123 -> 127 ;
128 [label="entropy = 0.0\nsamples = 4\nvalue = [0, 6, 0, 0]", fillcolor="#47e539"] ;
127 -> 128 ;
129 [label="entropy = 0.96\nsamples = 15\nvalue = [0, 16, 10, 0]", fillcolor="#baf5b5"] ;
127 -> 129 ;
130 [label="respiração <= 10.9\nentropy = 0.78\nsamples = 66\nvalue = [82, 25, 0, 0]", fillcolor="#eda775"] ;
94 -> 130 ;
131 [label="qPA <= 4.19\nentropy = 0.11\nsamples = 39\nvalue = [69, 1, 0, 0]", fillcolor="#e5833c"] ;
130 -> 131 ;
132 [label="entropy = 0.0\nsamples = 1\nvalue = [0, 1, 0, 0]", fillcolor="#47e539"] ;
131 -> 132 ;
133 [label="entropy = 0.0\nsamples = 38\nvalue = [69, 0, 0, 0]", fillcolor="#e58139"] ;
131 -> 133 ;
134 [label="qPA <= 6.24\nentropy = 0.94\nsamples = 27\nvalue = [13, 24, 0, 0]", fillcolor="#abf3a4"] ;
130 -> 134 ;
135 [label="entropy = 0.0\nsamples = 2\nvalue = [2, 0, 0, 0]", fillcolor="#e58139"] ;
134 -> 135 ;
136 [label="pSist <= 14.79\nentropy = 0.9\nsamples = 25\nvalue = [11, 24, 0, 0]", fillcolor="#9bf194"] ;
134 -> 136 ;
137 [label="entropy = 0.0\nsamples = 4\nvalue = [0, 6, 0, 0]", fillcolor="#47e539"] ;
136 -> 137 ;
138 [label="pDiast <= 12.45\nentropy = 0.96\nsamples = 21\nvalue = [11, 18, 0, 0]", fillcolor="#b7f5b2"] ;
136 -> 138 ;
139 [label="pDiast <= 10.67\nentropy = 0.97\nsamples = 11\nvalue = [9, 6, 0, 0]", fillcolor="#f6d5bd"] ;
138 -> 139 ;
140 [label="entropy = 0.0\nsamples = 2\nvalue = [0, 2, 0, 0]", fillcolor="#47e539"] ;
139 -> 140 ;
141 [label="entropy = 0.89\nsamples = 9\nvalue = [9, 4, 0, 0]", fillcolor="#f1b991"] ;
139 -> 141 ;
142 [label="respiração <= 19.18\nentropy = 0.59\nsamples = 10\nvalue = [2, 12, 0, 0]", fillcolor="#66e95a"] ;
138 -> 142 ;
143 [label="entropy = 0.0\nsamples = 8\nvalue = [0, 12, 0, 0]", fillcolor="#47e539"] ;
142 -> 143 ;
144 [label="entropy = 0.0\nsamples = 2\nvalue = [2, 0, 0, 0]", fillcolor="#e58139"] ;
142 -> 144 ;
}