digraph Tree {
node [shape=box, style="filled, rounded", color="black", fontname="helvetica"] ;
edge [fontname="helvetica"] ;
0 [label="qPA <= 4.7\nentropy = 1.43\nsamples = 673\nvalue = [148, 617, 273, 12]", fillcolor="#aef3a7"] ;
1 [label="respiração <= 11.85\nentropy = 1.21\nsamples = 436\nvalue = [21, 427, 227, 12]", fillcolor="#aff4a9"] ;
0 -> 1 [labeldistance=2.5, labelangle=45, headlabel="True"] ;
2 [label="qPA <= -4.72\nentropy = 0.75\nsamples = 238\nvalue = [18, 315, 38, 0]", fillcolor="#66e95a"] ;
1 -> 2 ;
3 [label="respiração <= 10.29\nentropy = 0.94\nsamples = 30\nvalue = [18, 33, 0, 0]", fillcolor="#abf3a5"] ;
2 -> 3 ;
4 [label="pDiast <= 2.68\nentropy = 0.99\nsamples = 27\nvalue = [18, 22, 0, 0]", fillcolor="#defadb"] ;
3 -> 4 ;
5 [label="pDiast <= 1.67\nentropy = 0.98\nsamples = 20\nvalue = [18, 13, 0, 0]", fillcolor="#f8dcc8"] ;
4 -> 5 ;
6 [label="respiração <= 8.61\nentropy = 0.99\nsamples = 16\nvalue = [11, 13, 0, 0]", fillcolor="#e3fbe1"] ;
5 -> 6 ;
7 [label="entropy = 0.9\nsamples = 12\nvalue = [6, 13, 0, 0]", fillcolor="#9cf194"] ;
6 -> 7 ;
8 [label="entropy = 0.0\nsamples = 4\nvalue = [5, 0, 0, 0]", fillcolor="#e58139"] ;
6 -> 8 ;
9 [label="entropy = 0.0\nsamples = 4\nvalue = [7, 0, 0, 0]", fillcolor="#e58139"] ;
5 -> 9 ;
10 [label="entropy = 0.0\nsamples = 7\nvalue = [0, 9, 0, 0]", fillcolor="#47e539"] ;
4 -> 10 ;
11 [label="entropy = 0.0\nsamples = 3\nvalue = [0, 11, 0, 0]", fillcolor="#47e539"] ;
3 -> 11 ;
12 [label="pDiast <= 3.65\nentropy = 0.53\nsamples = 208\nvalue = [0, 282, 38, 0]", fillcolor="#60e954"] ;
2 -> 12 ;
13 [label="pSist <= 2.79\nentropy = 0.23\nsamples = 70\nvalue = [0, 105, 4, 0]", fillcolor="#4ee641"] ;
12 -> 13 ;
14 [label="pulso <= 37.07\nentropy = 1.0\nsamples = 2\nvalue = [0, 1, 1, 0]", fillcolor="#ffffff"] ;
13 -> 14 ;
15 [label="entropy = 0.0\nsamples = 1\nvalue = [0, 1, 0, 0]", fillcolor="#47e539"] ;
14 -> 15 ;
16 [label="entropy = 0.0\nsamples = 1\nvalue = [0, 0, 1, 0]", fillcolor="#399de5"] ;
14 -> 16 ;
17 [label="pSist <= 16.26\nentropy = 0.18\nsamples = 68\nvalue = [0, 104, 3, 0]", fillcolor="#4ce63f"] ;
13 -> 17 ;
18 [label="entropy = 0.0\nsamples = 35\nvalue = [0, 53, 0, 0]", fillcolor="#47e539"] ;
17 -> 18 ;
19 [label="pulso <= 77.97\nentropy = 0.31\nsamples = 33\nvalue = [0, 51, 3, 0]", fillcolor="#52e745"] ;
17 -> 19 ;
20 [label="entropy = 0.0\nsamples = 15\nvalue = [0, 27, 0, 0]", fillcolor="#47e539"] ;
19 -> 20 ;
21 [label="entropy = 0.5\nsamples = 18\nvalue = [0, 24, 3, 0]", fillcolor="#5ee852"] ;
19 -> 21 ;
22 [label="respiração <= 11.36\nentropy = 0.64\nsamples = 138\nvalue = [0, 177, 34, 0]", fillcolor="#6aea5f"] ;
12 -> 22 ;
23 [label="qPA <= 3.01\nentropy = 0.58\nsamples = 133\nvalue = [0, 174, 28, 0]", fillcolor="#65e959"] ;
22 -> 23 ;
24 [label="pDiast <= 8.59\nentropy = 0.81\nsamples = 74\nvalue = [0, 85, 28, 0]", fillcolor="#84ee7a"] ;
23 -> 24 ;
25 [label="entropy = 0.71\nsamples = 63\nvalue = [0, 79, 19, 0]", fillcolor="#73eb69"] ;
24 -> 25 ;
26 [label="entropy = 0.97\nsamples = 11\nvalue = [0, 6, 9, 0]", fillcolor="#bddef6"] ;
24 -> 26 ;
27 [label="entropy = 0.0\nsamples = 59\nvalue = [0, 89, 0, 0]", fillcolor="#47e539"] ;
23 -> 27 ;
28 [label="respiração <= 11.56\nentropy = 0.92\nsamples = 5\nvalue = [0, 3, 6, 0]", fillcolor="#9ccef2"] ;
22 -> 28 ;
29 [label="entropy = 0.0\nsamples = 2\nvalue = [0, 0, 5, 0]", fillcolor="#399de5"] ;
28 -> 29 ;
30 [label="qPA <= 1.75\nentropy = 0.81\nsamples = 3\nvalue = [0, 3, 1, 0]", fillcolor="#84ee7b"] ;
28 -> 30 ;
31 [label="entropy = 0.0\nsamples = 1\nvalue = [0, 0, 1, 0]", fillcolor="#399de5"] ;
30 -> 31 ;
32 [label="entropy = 0.0\nsamples = 2\nvalue = [0, 3, 0, 0]", fillcolor="#47e539"] ;
30 -> 32 ;
33 [label="respiração <= 17.49\nentropy = 1.22\nsamples = 198\nvalue = [3, 112, 189, 12]", fillcolor="#b4daf5"] ;
1 -> 33 ;
34 [label="qPA <= 3.96\nentropy = 0.95\nsamples = 113\nvalue = [0, 36, 142, 8]", fillcolor="#73baed"] ;
33 -> 34 ;
35 [label="pDiast <= 3.8\nentropy = 0.73\nsamples = 86\nvalue = [0, 12, 119, 8]", fillcolor="#58ace9"] ;
34 -> 35 ;
36 [label="pSist <= 7.33\nentropy = 0.91\nsamples = 40\nvalue = [0, 12, 47, 2]", fillcolor="#72b9ec"] ;
35 -> 36 ;
37 [label="pSist <= 3.92\nentropy = 0.5\nsamples = 12\nvalue = [0, 0, 16, 2]", fillcolor="#52a9e8"] ;
36 -> 37 ;
38 [label="entropy = 0.86\nsamples = 6\nvalue = [0, 0, 5, 2]", fillcolor="#88c4ef"] ;
37 -> 38 ;
39 [label="entropy = 0.0\nsamples = 6\nvalue = [0, 0, 11, 0]", fillcolor="#399de5"] ;
37 -> 39 ;
40 [label="respiração <= 12.58\nentropy = 0.85\nsamples = 28\nvalue = [0, 12, 31, 0]", fillcolor="#86c3ef"] ;
36 -> 40 ;
41 [label="entropy = 0.44\nsamples = 7\nvalue = [0, 10, 1, 0]", fillcolor="#59e84d"] ;
40 -> 41 ;
42 [label="entropy = 0.34\nsamples = 21\nvalue = [0, 2, 30, 0]", fillcolor="#46a4e7"] ;
40 -> 42 ;
43 [label="respiração <= 13.73\nentropy = 0.39\nsamples = 46\nvalue = [0, 0, 72, 6]", fillcolor="#49a5e7"] ;
35 -> 43 ;
44 [label="entropy = 0.0\nsamples = 20\nvalue = [0, 0, 34, 0]", fillcolor="#399de5"] ;
43 -> 44 ;
45 [label="respiração <= 13.98\nentropy = 0.57\nsamples = 26\nvalue = [0, 0, 38, 6]", fillcolor="#58ace9"] ;
43 -> 45 ;
46 [label="entropy = 0.0\nsamples = 2\nvalue = [0, 0, 0, 2]", fillcolor="#d739e5"] ;
45 -> 46 ;
47 [label="entropy = 0.45\nsamples = 24\nvalue = [0, 0, 38, 4]", fillcolor="#4ea7e8"] ;
45 -> 47 ;
48 [label="pSist <= 17.78\nentropy = 1.0\nsamples = 27\nvalue = [0, 24, 23, 0]", fillcolor="#f7fef7"] ;
34 -> 48 ;
49 [label="pulso <= 131.37\nentropy = 0.8\nsamples = 12\nvalue = [0, 6, 19, 0]", fillcolor="#78bced"] ;
48 -> 49 ;
50 [label="qPA <= 4.05\nentropy = 0.45\nsamples = 10\nvalue = [0, 2, 19, 0]", fillcolor="#4ea7e8"] ;
49 -> 50 ;
51 [label="entropy = 0.0\nsamples = 1\nvalue = [0, 2, 0, 0]", fillcolor="#47e539"] ;
50 -> 51 ;
52 [label="entropy = 0.0\nsamples = 9\nvalue = [0, 0, 19, 0]", fillcolor="#399de5"] ;
50 -> 52 ;
53 [label="entropy = 0.0\nsamples = 2\nvalue = [0, 4, 0, 0]", fillcolor="#47e539"] ;
49 -> 53 ;
54 [label="pSist <= 20.55\nentropy = 0.68\nsamples = 15\nvalue = [0, 18, 4, 0]", fillcolor="#70eb65"] ;
48 -> 54 ;
55 [label="pDiast <= 9.33\nentropy = 0.49\nsamples = 13\nvalue = [0, 17, 2, 0]", fillcolor="#5de850"] ;
54 -> 55 ;
56 [label="entropy = 0.31\nsamples = 12\nvalue = [0, 17, 1, 0]", fillcolor="#52e745"] ;
55 -> 56 ;
57 [label="entropy = 0.0\nsamples = 1\nvalue = [0, 0, 1, 0]", fillcolor="#399de5"] ;
55 -> 57 ;
58 [label="pulso <= 129.09\nentropy = 0.92\nsamples = 2\nvalue = [0, 1, 2, 0]", fillcolor="#9ccef2"] ;
54 -> 58 ;
59 [label="entropy = 0.0\nsamples = 1\nvalue = [0, 0, 2, 0]", fillcolor="#399de5"] ;
58 -> 59 ;
60 [label="entropy = 0.0\nsamples = 1\nvalue = [0, 1, 0, 0]", fillcolor="#47e539"] ;
58 -> 60 ;
61 [label="pDiast <= 3.73\nentropy = 1.26\nsamples = 85\nvalue = [3, 76, 47, 4]", fillcolor="#bff6ba"] ;
33 -> 61 ;
62 [label="qPA <= -8.17\nentropy = 1.08\nsamples = 36\nvalue = [3, 43, 16, 0]", fillcolor="#93f08b"] ;
61 -> 62 ;
63 [label="respiração <= 19.76\nentropy = 1.0\nsamples = 4\nvalue = [3, 0, 3, 0]", fillcolor="#ffffff"] ;
62 -> 63 ;
64 [label="entropy = 0.0\nsamples = 2\nvalue = [0, 0, 3, 0]", fillcolor="#399de5"] ;
63 -> 64 ;
65 [label="entropy = 0.0\nsamples = 2\nvalue = [3, 0, 0, 0]", fillcolor="#e58139"] ;
63 -> 65 ;
66 [label="pSist <= 4.05\nentropy = 0.78\nsamples = 32\nvalue = [0, 43, 13, 0]", fillcolor="#7fed75"] ;
62 -> 66 ;
67 [label="pulso <= 135.01\nentropy = 0.65\nsamples = 5\nvalue = [0, 1, 5, 0]", fillcolor="#61b1ea"] ;
66 -> 67 ;
68 [label="entropy = 0.0\nsamples = 3\nvalue = [0, 0, 4, 0]", fillcolor="#399de5"] ;
67 -> 68 ;
69 [label="entropy = 1.0\nsamples = 2\nvalue = [0, 1, 1, 0]", fillcolor="#ffffff"] ;
67 -> 69 ;
70 [label="pDiast <= 0.74\nentropy = 0.63\nsamples = 27\nvalue = [0, 42, 8, 0]", fillcolor="#6aea5f"] ;
66 -> 70 ;
71 [label="entropy = 0.0\nsamples = 6\nvalue = [0, 10, 0, 0]", fillcolor="#47e539"] ;
70 -> 71 ;
72 [label="entropy = 0.72\nsamples = 21\nvalue = [0, 32, 8, 0]", fillcolor="#75ec6a"] ;
70 -> 72 ;
73 [label="qPA <= 3.09\nentropy = 1.26\nsamples = 49\nvalue = [0, 33, 31, 4]", fillcolor="#f5fef4"] ;
61 -> 73 ;
74 [label="pDiast <= 6.3\nentropy = 1.19\nsamples = 28\nvalue = [0, 8, 26, 4]", fillcolor="#88c4ef"] ;
73 -> 74 ;
75 [label="pDiast <= 6.18\nentropy = 1.2\nsamples = 11\nvalue = [0, 1, 9, 4]", fillcolor="#9ccef2"] ;
74 -> 75 ;
76 [label="entropy = 1.04\nsamples = 10\nvalue = [0, 1, 9, 2]", fillcolor="#74baed"] ;
75 -> 76 ;
77 [label="entropy = 0.0\nsamples = 1\nvalue = [0, 0, 0, 2]", fillcolor="#d739e5"] ;
75 -> 77 ;
78 [label="pSist <= 11.45\nentropy = 0.87\nsamples = 17\nvalue = [0, 7, 17, 0]", fillcolor="#8bc5f0"] ;
74 -> 78 ;
79 [label="entropy = 1.0\nsamples = 9\nvalue = [0, 6, 7, 0]", fillcolor="#e3f1fb"] ;
78 -> 79 ;
80 [label="entropy = 0.44\nsamples = 8\nvalue = [0, 1, 10, 0]", fillcolor="#4da7e8"] ;
78 -> 80 ;
81 [label="qPA <= 4.68\nentropy = 0.65\nsamples = 21\nvalue = [0, 25, 5, 0]", fillcolor="#6cea61"] ;
73 -> 81 ;
82 [label="pDiast <= 6.95\nentropy = 0.29\nsamples = 15\nvalue = [0, 19, 1, 0]", fillcolor="#51e643"] ;
81 -> 82 ;
83 [label="entropy = 0.92\nsamples = 3\nvalue = [0, 2, 1, 0]", fillcolor="#a3f29c"] ;
82 -> 83 ;
84 [label="entropy = 0.0\nsamples = 12\nvalue = [0, 17, 0, 0]", fillcolor="#47e539"] ;
82 -> 84 ;
85 [label="pulso <= 52.23\nentropy = 0.97\nsamples = 6\nvalue = [0, 6, 4, 0]", fillcolor="#c2f6bd"] ;
81 -> 85 ;
86 [label="entropy = 0.0\nsamples = 1\nvalue = [0, 3, 0, 0]", fillcolor="#47e539"] ;
85 -> 86 ;
87 [label="entropy = 0.99\nsamples = 5\nvalue = [0, 3, 4, 0]", fillcolor="#cee6f8"] ;
85 -> 87 ;
88 [label="respiração <= 10.17\nentropy = 1.4\nsamples = 237\nvalue = [127, 190, 46, 0]", fillcolor="#cef8ca"] ;
0 -> 88 [labeldistance=2.5, labelangle=-45, headlabel="False"] ;
89 [label="pulso <= 126.63\nentropy = 0.98\nsamples = 119\nvalue = [103, 72, 0, 0]", fillcolor="#f7d9c3"] ;
88 -> 89 ;
90 [label="pulso <= 40.17\nentropy = 0.96\nsamples = 77\nvalue = [45, 72, 0, 0]", fillcolor="#baf5b5"] ;
89 -> 90 ;
91 [label="entropy = 0.0\nsamples = 30\nvalue = [45, 0, 0, 0]", fillcolor="#e58139"] ;
90 -> 91 ;
92 [label="entropy = 0.0\nsamples = 47\nvalue = [0, 72, 0, 0]", fillcolor="#47e539"] ;
90 -> 92 ;
93 [label="entropy = 0.0\nsamples = 42\nvalue = [58, 0, 0, 0]", fillcolor="#e58139"] ;
89 -> 93 ;
94 [label="qPA <= 5.21\nentropy = 1.3\nsamples = 118\nvalue = [24, 118, 46, 0]", fillcolor="#a2f29b"] ;
88 -> 94 ;
95 [label="pDiast <= 5.68\nentropy = 0.83\nsamples = 31\nvalue = [0, 37, 13, 0]", fillcolor="#88ee7f"] ;
94 -> 95 ;
96 [label="entropy = 0.0\nsamples = 6\nvalue = [0, 9, 0, 0]", fillcolor="#47e539"] ;
95 -> 96 ;
97 [label="pulso <= 123.51\nentropy = 0.9\nsamples = 25\nvalue = [0, 28, 13, 0]", fillcolor="#9cf195"] ;
95 -> 97 ;
98 [label="pulso <= 47.72\nentropy = 0.96\nsamples = 13\nvalue = [0, 8, 13, 0]", fillcolor="#b3d9f5"] ;
97 -> 98 ;
99 [label="entropy = 0.0\nsamples = 3\nvalue = [0, 6, 0, 0]", fillcolor="#47e539"] ;
98 -> 99 ;
100 [label="qPA <= 5.09\nentropy = 0.57\nsamples = 10\nvalue = [0, 2, 13, 0]", fillcolor="#57ace9"] ;
98 -> 100 ;
101 [label="entropy = 0.0\nsamples = 9\nvalue = [0, 0, 13, 0]", fillcolor="#399de5"] ;
100 -> 101 ;
102 [label="entropy = 0.0\nsamples = 1\nvalue = [0, 2, 0, 0]", fillcolor="#47e539"] ;
100 -> 102 ;
103 [label="entropy = 0.0\nsamples = 12\nvalue = [0, 20, 0, 0]", fillcolor="#47e539"] ;
97 -> 103 ;
104 [label="respiração <= 19.5\nentropy = 1.38\nsamples = 87\nvalue = [24, 81, 33, 0]", fillcolor="#abf3a4"] ;
94 -> 104 ;
105 [label="pulso <= 109.78\nentropy = 0.89\nsamples = 68\nvalue = [0, 75, 33, 0]", fillcolor="#98f090"] ;
104 -> 105 ;
106 [label="pulso <= 45.68\nentropy = 1.0\nsamples = 37\nvalue = [0, 28, 33, 0]", fillcolor="#e1f0fb"] ;
105 -> 106 ;
107 [label="entropy = 0.0\nsamples = 12\nvalue = [0, 19, 0, 0]", fillcolor="#47e539"] ;
106 -> 107 ;
108 [label="respiração <= 11.23\nentropy = 0.75\nsamples = 25\nvalue = [0, 9, 33, 0]", fillcolor="#6fb8ec"] ;
106 -> 108 ;
109 [label="entropy = 0.0\nsamples = 3\nvalue = [0, 5, 0, 0]", fillcolor="#47e539"] ;
108 -> 109 ;
110 [label="entropy = 0.49\nsamples = 22\nvalue = [0, 4, 33, 0]", fillcolor="#51a9e8"] ;
108 -> 110 ;
111 [label="entropy = 0.0\nsamples = 31\nvalue = [0, 47, 0, 0]", fillcolor="#47e539"] ;
105 -> 111 ;
112 [label="pSist <= 13.9\nentropy = 0.72\nsamples = 19\nvalue = [24, 6, 0, 0]", fillcolor="#eca06a"] ;
104 -> 112 ;
113 [label="entropy = 0.0\nsamples = 4\nvalue = [10, 0, 0, 0]", fillcolor="#e58139"] ;
112 -> 113 ;
114 [label="pSist <= 20.32\nentropy = 0.88\nsamples = 15\nvalue = [14, 6, 0, 0]", fillcolor="#f0b78e"] ;
112 -> 114 ;
115 [label="pSist <= 18.59\nentropy = 0.99\nsamples = 9\nvalue = [6, 5, 0, 0]", fillcolor="#fbeade"] ;
114 -> 115 ;
116 [label="entropy = 0.65\nsamples = 5\nvalue = [5, 1, 0, 0]", fillcolor="#ea9a61"] ;
115 -> 116 ;
117 [label="entropy = 0.72\nsamples = 4\nvalue = [1, 4, 0, 0]", fillcolor="#75ec6a"] ;
115 -> 117 ;
118 [label="respiração <= 21.03\nentropy = 0.5\nsamples = 6\nvalue = [8, 1, 0, 0]", fillcolor="#e89152"] ;
114 -> 118 ;
119 [label="entropy = 0.0\nsamples = 5\nvalue = [8, 0, 0, 0]", fillcolor="#e58139"] ;
118 -> 119 ;
120 [label="entropy = 0.0\nsamples = 1\nvalue = [0, 1, 0, 0]", fillcolor="#47e539"] ;
118 -> 120 ;
}