digraph Tree {
node [shape=box, style="filled, rounded", color="black", fontname="helvetica"] ;
edge [fontname="helvetica"] ;
0 [label="respiração <= 11.39\nentropy = 1.47\nsamples = 666\nvalue = [151, 609, 271, 19]", fillcolor="#aff4a9"] ;
1 [label="pulso <= 126.83\nentropy = 1.15\nsamples = 334\nvalue = [121, 352, 40, 0]", fillcolor="#93f08a"] ;
0 -> 1 [labeldistance=2.5, labelangle=45, headlabel="True"] ;
2 [label="pDiast <= 9.53\nentropy = 1.14\nsamples = 206\nvalue = [48, 221, 40, 0]", fillcolor="#85ee7c"] ;
1 -> 2 ;
3 [label="pulso <= 44.23\nentropy = 0.95\nsamples = 132\nvalue = [8, 153, 40, 0]", fillcolor="#7eed74"] ;
2 -> 3 ;
4 [label="qPA <= -4.63\nentropy = 0.49\nsamples = 49\nvalue = [8, 66, 0, 0]", fillcolor="#5de851"] ;
3 -> 4 ;
5 [label="entropy = 0.0\nsamples = 4\nvalue = [8, 0, 0, 0]", fillcolor="#e58139"] ;
4 -> 5 ;
6 [label="entropy = 0.0\nsamples = 45\nvalue = [0, 66, 0, 0]", fillcolor="#47e539"] ;
4 -> 6 ;
7 [label="pSist <= 14.4\nentropy = 0.9\nsamples = 83\nvalue = [0, 87, 40, 0]", fillcolor="#9cf194"] ;
3 -> 7 ;
8 [label="respiração <= 4.13\nentropy = 1.0\nsamples = 47\nvalue = [0, 33, 37, 0]", fillcolor="#eaf4fc"] ;
7 -> 8 ;
9 [label="pDiast <= 5.04\nentropy = 0.62\nsamples = 19\nvalue = [0, 22, 4, 0]", fillcolor="#68ea5d"] ;
8 -> 9 ;
10 [label="entropy = 0.0\nsamples = 14\nvalue = [0, 20, 0, 0]", fillcolor="#47e539"] ;
9 -> 10 ;
11 [label="entropy = 0.92\nsamples = 5\nvalue = [0, 2, 4, 0]", fillcolor="#9ccef2"] ;
9 -> 11 ;
12 [label="qPA <= -4.23\nentropy = 0.81\nsamples = 28\nvalue = [0, 11, 33, 0]", fillcolor="#7bbeee"] ;
8 -> 12 ;
13 [label="entropy = 0.0\nsamples = 8\nvalue = [0, 11, 0, 0]", fillcolor="#47e539"] ;
12 -> 13 ;
14 [label="entropy = 0.0\nsamples = 20\nvalue = [0, 0, 33, 0]", fillcolor="#399de5"] ;
12 -> 14 ;
15 [label="pDiast <= 3.02\nentropy = 0.3\nsamples = 36\nvalue = [0, 54, 3, 0]", fillcolor="#51e644"] ;
7 -> 15 ;
16 [label="pulso <= 86.43\nentropy = 0.72\nsamples = 12\nvalue = [0, 12, 3, 0]", fillcolor="#75ec6a"] ;
15 -> 16 ;
17 [label="entropy = 0.81\nsamples = 4\nvalue = [0, 1, 3, 0]", fillcolor="#7bbeee"] ;
16 -> 17 ;
18 [label="entropy = 0.0\nsamples = 8\nvalue = [0, 11, 0, 0]", fillcolor="#47e539"] ;
16 -> 18 ;
19 [label="entropy = 0.0\nsamples = 24\nvalue = [0, 42, 0, 0]", fillcolor="#47e539"] ;
15 -> 19 ;
20 [label="respiração <= 10.6\nentropy = 0.95\nsamples = 74\nvalue = [40, 68, 0, 0]", fillcolor="#b3f4ad"] ;
2 -> 20 ;
21 [label="qPA <= 5.29\nentropy = 0.96\nsamples = 69\nvalue = [40, 63, 0, 0]", fillcolor="#bcf6b7"] ;
20 -> 21 ;
22 [label="pDiast <= 9.82\nentropy = 0.68\nsamples = 17\nvalue = [4, 18, 0, 0]", fillcolor="#70eb65"] ;
21 -> 22 ;
23 [label="pulso <= 41.68\nentropy = 1.0\nsamples = 5\nvalue = [3, 3, 0, 0]", fillcolor="#ffffff"] ;
22 -> 23 ;
24 [label="entropy = 0.0\nsamples = 3\nvalue = [3, 0, 0, 0]", fillcolor="#e58139"] ;
23 -> 24 ;
25 [label="entropy = 0.0\nsamples = 2\nvalue = [0, 3, 0, 0]", fillcolor="#47e539"] ;
23 -> 25 ;
26 [label="pDiast <= 10.2\nentropy = 0.34\nsamples = 12\nvalue = [1, 15, 0, 0]", fillcolor="#53e746"] ;
22 -> 26 ;
27 [label="entropy = 0.59\nsamples = 5\nvalue = [1, 6, 0, 0]", fillcolor="#66e95a"] ;
26 -> 27 ;
28 [label="entropy = 0.0\nsamples = 7\nvalue = [0, 9, 0, 0]", fillcolor="#47e539"] ;
26 -> 28 ;
29 [label="pulso <= 42.97\nentropy = 0.99\nsamples = 52\nvalue = [36, 45, 0, 0]", fillcolor="#dafad7"] ;
21 -> 29 ;
30 [label="entropy = 0.0\nsamples = 23\nvalue = [36, 0, 0, 0]", fillcolor="#e58139"] ;
29 -> 30 ;
31 [label="entropy = 0.0\nsamples = 29\nvalue = [0, 45, 0, 0]", fillcolor="#47e539"] ;
29 -> 31 ;
32 [label="entropy = 0.0\nsamples = 5\nvalue = [0, 5, 0, 0]", fillcolor="#47e539"] ;
20 -> 32 ;
33 [label="qPA <= 4.73\nentropy = 0.94\nsamples = 128\nvalue = [73, 131, 0, 0]", fillcolor="#aef3a7"] ;
1 -> 33 ;
34 [label="qPA <= -4.79\nentropy = 0.46\nsamples = 84\nvalue = [14, 129, 0, 0]", fillcolor="#5be84e"] ;
33 -> 34 ;
35 [label="entropy = 0.0\nsamples = 7\nvalue = [13, 0, 0, 0]", fillcolor="#e58139"] ;
34 -> 35 ;
36 [label="pulso <= 140.41\nentropy = 0.07\nsamples = 77\nvalue = [1, 129, 0, 0]", fillcolor="#48e53b"] ;
34 -> 36 ;
37 [label="pulso <= 140.22\nentropy = 0.21\nsamples = 18\nvalue = [1, 30, 0, 0]", fillcolor="#4de640"] ;
36 -> 37 ;
38 [label="entropy = 0.0\nsamples = 17\nvalue = [0, 30, 0, 0]", fillcolor="#47e539"] ;
37 -> 38 ;
39 [label="entropy = 0.0\nsamples = 1\nvalue = [1, 0, 0, 0]", fillcolor="#e58139"] ;
37 -> 39 ;
40 [label="entropy = 0.0\nsamples = 59\nvalue = [0, 99, 0, 0]", fillcolor="#47e539"] ;
36 -> 40 ;
41 [label="pSist <= 13.99\nentropy = 0.21\nsamples = 44\nvalue = [59, 2, 0, 0]", fillcolor="#e68540"] ;
33 -> 41 ;
42 [label="pSist <= 13.8\nentropy = 0.76\nsamples = 8\nvalue = [7, 2, 0, 0]", fillcolor="#eca572"] ;
41 -> 42 ;
43 [label="pSist <= 13.28\nentropy = 0.54\nsamples = 7\nvalue = [7, 1, 0, 0]", fillcolor="#e99355"] ;
42 -> 43 ;
44 [label="respiração <= 9.87\nentropy = 0.81\nsamples = 4\nvalue = [3, 1, 0, 0]", fillcolor="#eeab7b"] ;
43 -> 44 ;
45 [label="entropy = 0.0\nsamples = 3\nvalue = [3, 0, 0, 0]", fillcolor="#e58139"] ;
44 -> 45 ;
46 [label="entropy = 0.0\nsamples = 1\nvalue = [0, 1, 0, 0]", fillcolor="#47e539"] ;
44 -> 46 ;
47 [label="entropy = 0.0\nsamples = 3\nvalue = [4, 0, 0, 0]", fillcolor="#e58139"] ;
43 -> 47 ;
48 [label="entropy = 0.0\nsamples = 1\nvalue = [0, 1, 0, 0]", fillcolor="#47e539"] ;
42 -> 48 ;
49 [label="entropy = 0.0\nsamples = 36\nvalue = [52, 0, 0, 0]", fillcolor="#e58139"] ;
41 -> 49 ;
50 [label="qPA <= 3.51\nentropy = 1.44\nsamples = 332\nvalue = [30, 257, 231, 19]", fillcolor="#effdee"] ;
0 -> 50 [labeldistance=2.5, labelangle=-45, headlabel="False"] ;
51 [label="qPA <= -4.35\nentropy = 1.28\nsamples = 153\nvalue = [3, 67, 159, 19]", fillcolor="#9acdf2"] ;
50 -> 51 ;
52 [label="pulso <= 46.17\nentropy = 1.19\nsamples = 50\nvalue = [3, 41, 39, 0]", fillcolor="#f7fef6"] ;
51 -> 52 ;
53 [label="pSist <= 7.6\nentropy = 0.61\nsamples = 11\nvalue = [3, 17, 0, 0]", fillcolor="#67ea5c"] ;
52 -> 53 ;
54 [label="qPA <= -8.68\nentropy = 0.81\nsamples = 3\nvalue = [3, 1, 0, 0]", fillcolor="#eeab7b"] ;
53 -> 54 ;
55 [label="entropy = 0.0\nsamples = 1\nvalue = [0, 1, 0, 0]", fillcolor="#47e539"] ;
54 -> 55 ;
56 [label="entropy = 0.0\nsamples = 2\nvalue = [3, 0, 0, 0]", fillcolor="#e58139"] ;
54 -> 56 ;
57 [label="entropy = 0.0\nsamples = 8\nvalue = [0, 16, 0, 0]", fillcolor="#47e539"] ;
53 -> 57 ;
58 [label="pDiast <= 3.43\nentropy = 0.96\nsamples = 39\nvalue = [0, 24, 39, 0]", fillcolor="#b3d9f5"] ;
52 -> 58 ;
59 [label="pSist <= 13.65\nentropy = 1.0\nsamples = 29\nvalue = [0, 22, 21, 0]", fillcolor="#f7fef6"] ;
58 -> 59 ;
60 [label="pulso <= 107.55\nentropy = 0.85\nsamples = 22\nvalue = [0, 8, 21, 0]", fillcolor="#84c2ef"] ;
59 -> 60 ;
61 [label="entropy = 0.0\nsamples = 6\nvalue = [0, 0, 10, 0]", fillcolor="#399de5"] ;
60 -> 61 ;
62 [label="entropy = 0.98\nsamples = 16\nvalue = [0, 8, 11, 0]", fillcolor="#c9e4f8"] ;
60 -> 62 ;
63 [label="entropy = 0.0\nsamples = 7\nvalue = [0, 14, 0, 0]", fillcolor="#47e539"] ;
59 -> 63 ;
64 [label="pSist <= 15.89\nentropy = 0.47\nsamples = 10\nvalue = [0, 2, 18, 0]", fillcolor="#4fa8e8"] ;
58 -> 64 ;
65 [label="entropy = 0.0\nsamples = 7\nvalue = [0, 0, 15, 0]", fillcolor="#399de5"] ;
64 -> 65 ;
66 [label="pSist <= 18.9\nentropy = 0.97\nsamples = 3\nvalue = [0, 2, 3, 0]", fillcolor="#bddef6"] ;
64 -> 66 ;
67 [label="entropy = 0.0\nsamples = 2\nvalue = [0, 2, 0, 0]", fillcolor="#47e539"] ;
66 -> 67 ;
68 [label="entropy = 0.0\nsamples = 1\nvalue = [0, 0, 3, 0]", fillcolor="#399de5"] ;
66 -> 68 ;
69 [label="pSist <= 18.84\nentropy = 1.11\nsamples = 103\nvalue = [0, 26, 120, 19]", fillcolor="#79bded"] ;
51 -> 69 ;
70 [label="pSist <= 10.86\nentropy = 1.21\nsamples = 90\nvalue = [0, 26, 98, 19]", fillcolor="#85c3ef"] ;
69 -> 70 ;
71 [label="pSist <= 8.98\nentropy = 0.86\nsamples = 45\nvalue = [0, 4, 60, 10]", fillcolor="#64b2eb"] ;
70 -> 71 ;
72 [label="pDiast <= 1.55\nentropy = 0.69\nsamples = 33\nvalue = [0, 4, 46, 3]", fillcolor="#55abe9"] ;
71 -> 72 ;
73 [label="entropy = 0.81\nsamples = 9\nvalue = [0, 0, 9, 3]", fillcolor="#7bbeee"] ;
72 -> 73 ;
74 [label="entropy = 0.46\nsamples = 24\nvalue = [0, 4, 37, 0]", fillcolor="#4ea8e8"] ;
72 -> 74 ;
75 [label="pulso <= 111.71\nentropy = 0.92\nsamples = 12\nvalue = [0, 0, 14, 7]", fillcolor="#9ccef2"] ;
71 -> 75 ;
76 [label="entropy = 0.76\nsamples = 5\nvalue = [0, 0, 2, 7]", fillcolor="#e272ec"] ;
75 -> 76 ;
77 [label="entropy = 0.0\nsamples = 7\nvalue = [0, 0, 12, 0]", fillcolor="#399de5"] ;
75 -> 77 ;
78 [label="qPA <= 0.03\nentropy = 1.38\nsamples = 45\nvalue = [0, 22, 38, 9]", fillcolor="#bcdef6"] ;
70 -> 78 ;
79 [label="pulso <= 39.21\nentropy = 1.54\nsamples = 21\nvalue = [0, 14, 14, 8]", fillcolor="#ffffff"] ;
78 -> 79 ;
80 [label="entropy = 0.5\nsamples = 6\nvalue = [0, 8, 1, 0]", fillcolor="#5ee852"] ;
79 -> 80 ;
81 [label="entropy = 1.51\nsamples = 15\nvalue = [0, 6, 13, 8]", fillcolor="#cbe5f8"] ;
79 -> 81 ;
82 [label="respiração <= 18.58\nentropy = 0.98\nsamples = 24\nvalue = [0, 8, 24, 1]", fillcolor="#80c0ee"] ;
78 -> 82 ;
83 [label="entropy = 0.29\nsamples = 15\nvalue = [0, 0, 19, 1]", fillcolor="#43a2e6"] ;
82 -> 83 ;
84 [label="entropy = 0.96\nsamples = 9\nvalue = [0, 8, 5, 0]", fillcolor="#baf5b5"] ;
82 -> 84 ;
85 [label="entropy = 0.0\nsamples = 13\nvalue = [0, 0, 22, 0]", fillcolor="#399de5"] ;
69 -> 85 ;
86 [label="pulso <= 124.19\nentropy = 1.22\nsamples = 179\nvalue = [27, 190, 72, 0]", fillcolor="#9bf193"] ;
50 -> 86 ;
87 [label="pulso <= 56.85\nentropy = 1.31\nsamples = 105\nvalue = [12, 78, 72, 0]", fillcolor="#f3fdf2"] ;
86 -> 87 ;
88 [label="pDiast <= 11.92\nentropy = 0.93\nsamples = 49\nvalue = [12, 58, 4, 0]", fillcolor="#76ec6c"] ;
87 -> 88 ;
89 [label="respiração <= 16.89\nentropy = 0.53\nsamples = 25\nvalue = [0, 29, 4, 0]", fillcolor="#60e954"] ;
88 -> 89 ;
90 [label="pulso <= 43.06\nentropy = 0.81\nsamples = 15\nvalue = [0, 12, 4, 0]", fillcolor="#84ee7b"] ;
89 -> 90 ;
91 [label="entropy = 0.0\nsamples = 11\nvalue = [0, 12, 0, 0]", fillcolor="#47e539"] ;
90 -> 91 ;
92 [label="entropy = 0.0\nsamples = 4\nvalue = [0, 0, 4, 0]", fillcolor="#399de5"] ;
90 -> 92 ;
93 [label="entropy = 0.0\nsamples = 10\nvalue = [0, 17, 0, 0]", fillcolor="#47e539"] ;
89 -> 93 ;
94 [label="respiração <= 19.49\nentropy = 0.87\nsamples = 24\nvalue = [12, 29, 0, 0]", fillcolor="#93f08b"] ;
88 -> 94 ;
95 [label="entropy = 0.0\nsamples = 15\nvalue = [0, 26, 0, 0]", fillcolor="#47e539"] ;
94 -> 95 ;
96 [label="respiração <= 20.07\nentropy = 0.72\nsamples = 9\nvalue = [12, 3, 0, 0]", fillcolor="#eca06a"] ;
94 -> 96 ;
97 [label="entropy = 0.95\nsamples = 3\nvalue = [5, 3, 0, 0]", fillcolor="#f5cdb0"] ;
96 -> 97 ;
98 [label="entropy = 0.0\nsamples = 6\nvalue = [7, 0, 0, 0]", fillcolor="#e58139"] ;
96 -> 98 ;
99 [label="pulso <= 98.27\nentropy = 0.77\nsamples = 56\nvalue = [0, 20, 68, 0]", fillcolor="#73baed"] ;
87 -> 99 ;
100 [label="pDiast <= 11.36\nentropy = 0.45\nsamples = 38\nvalue = [0, 6, 57, 0]", fillcolor="#4ea7e8"] ;
99 -> 100 ;
101 [label="entropy = 0.0\nsamples = 23\nvalue = [0, 0, 40, 0]", fillcolor="#399de5"] ;
100 -> 101 ;
102 [label="pulso <= 78.2\nentropy = 0.83\nsamples = 15\nvalue = [0, 6, 17, 0]", fillcolor="#7fc0ee"] ;
100 -> 102 ;
103 [label="entropy = 0.99\nsamples = 8\nvalue = [0, 6, 8, 0]", fillcolor="#cee6f8"] ;
102 -> 103 ;
104 [label="entropy = 0.0\nsamples = 7\nvalue = [0, 0, 9, 0]", fillcolor="#399de5"] ;
102 -> 104 ;
105 [label="pulso <= 120.48\nentropy = 0.99\nsamples = 18\nvalue = [0, 14, 11, 0]", fillcolor="#d8f9d5"] ;
99 -> 105 ;
106 [label="respiração <= 16.84\nentropy = 0.88\nsamples = 15\nvalue = [0, 14, 6, 0]", fillcolor="#96f08e"] ;
105 -> 106 ;
107 [label="entropy = 0.59\nsamples = 6\nvalue = [0, 1, 6, 0]", fillcolor="#5aade9"] ;
106 -> 107 ;
108 [label="entropy = 0.0\nsamples = 9\nvalue = [0, 13, 0, 0]", fillcolor="#47e539"] ;
106 -> 108 ;
109 [label="entropy = 0.0\nsamples = 3\nvalue = [0, 0, 5, 0]", fillcolor="#399de5"] ;
105 -> 109 ;
110 [label="pDiast <= 9.5\nentropy = 0.52\nsamples = 74\nvalue = [15, 112, 0, 0]", fillcolor="#60e854"] ;
86 -> 110 ;
111 [label="entropy = 0.0\nsamples = 28\nvalue = [0, 43, 0, 0]", fillcolor="#47e539"] ;
110 -> 111 ;
112 [label="respiração <= 19.93\nentropy = 0.68\nsamples = 46\nvalue = [15, 69, 0, 0]", fillcolor="#6feb64"] ;
110 -> 112 ;
113 [label="pulso <= 161.96\nentropy = 0.11\nsamples = 38\nvalue = [1, 69, 0, 0]", fillcolor="#4ae53c"] ;
112 -> 113 ;
114 [label="entropy = 0.0\nsamples = 20\nvalue = [0, 36, 0, 0]", fillcolor="#47e539"] ;
113 -> 114 ;
115 [label="pulso <= 162.51\nentropy = 0.19\nsamples = 18\nvalue = [1, 33, 0, 0]", fillcolor="#4de63f"] ;
113 -> 115 ;
116 [label="entropy = 0.0\nsamples = 1\nvalue = [1, 0, 0, 0]", fillcolor="#e58139"] ;
115 -> 116 ;
117 [label="entropy = 0.0\nsamples = 17\nvalue = [0, 33, 0, 0]", fillcolor="#47e539"] ;
115 -> 117 ;
118 [label="entropy = 0.0\nsamples = 8\nvalue = [14, 0, 0, 0]", fillcolor="#e58139"] ;
112 -> 118 ;
}