digraph Tree {
node [shape=box, style="filled, rounded", color="black", fontname="helvetica"] ;
edge [fontname="helvetica"] ;
0 [label="pSist <= 14.64\nentropy = 1.51\nsamples = 651\nvalue = [165, 592, 270, 23]", fillcolor="#b3f4ad"] ;
1 [label="respiração <= 11.34\nentropy = 1.58\nsamples = 294\nvalue = [47, 223, 188, 23]", fillcolor="#e9fce7"] ;
0 -> 1 [labeldistance=2.5, labelangle=45, headlabel="True"] ;
2 [label="qPA <= 4.65\nentropy = 1.18\nsamples = 137\nvalue = [38, 153, 28, 0]", fillcolor="#8aee81"] ;
1 -> 2 ;
3 [label="qPA <= -4.69\nentropy = 1.05\nsamples = 118\nvalue = [18, 140, 28, 0]", fillcolor="#7ded73"] ;
2 -> 3 ;
4 [label="qPA <= -4.74\nentropy = 0.97\nsamples = 29\nvalue = [18, 28, 0, 0]", fillcolor="#bdf6b8"] ;
3 -> 4 ;
5 [label="qPA <= -6.29\nentropy = 0.93\nsamples = 27\nvalue = [15, 28, 0, 0]", fillcolor="#aaf3a3"] ;
4 -> 5 ;
6 [label="pulso <= 46.06\nentropy = 0.99\nsamples = 11\nvalue = [9, 7, 0, 0]", fillcolor="#f9e3d3"] ;
5 -> 6 ;
7 [label="entropy = 0.0\nsamples = 3\nvalue = [5, 0, 0, 0]", fillcolor="#e58139"] ;
6 -> 7 ;
8 [label="entropy = 0.95\nsamples = 8\nvalue = [4, 7, 0, 0]", fillcolor="#b0f4aa"] ;
6 -> 8 ;
9 [label="pulso <= 168.14\nentropy = 0.76\nsamples = 16\nvalue = [6, 21, 0, 0]", fillcolor="#7cec72"] ;
5 -> 9 ;
10 [label="entropy = 0.43\nsamples = 14\nvalue = [2, 21, 0, 0]", fillcolor="#59e74c"] ;
9 -> 10 ;
11 [label="entropy = 0.0\nsamples = 2\nvalue = [4, 0, 0, 0]", fillcolor="#e58139"] ;
9 -> 11 ;
12 [label="entropy = 0.0\nsamples = 2\nvalue = [3, 0, 0, 0]", fillcolor="#e58139"] ;
4 -> 12 ;
13 [label="qPA <= -3.83\nentropy = 0.72\nsamples = 89\nvalue = [0, 112, 28, 0]", fillcolor="#75ec6a"] ;
3 -> 13 ;
14 [label="entropy = 0.0\nsamples = 16\nvalue = [0, 29, 0, 0]", fillcolor="#47e539"] ;
13 -> 14 ;
15 [label="pDiast <= 1.81\nentropy = 0.81\nsamples = 73\nvalue = [0, 83, 28, 0]", fillcolor="#85ee7c"] ;
13 -> 15 ;
16 [label="entropy = 0.0\nsamples = 5\nvalue = [0, 8, 0, 0]", fillcolor="#47e539"] ;
15 -> 16 ;
17 [label="respiração <= 3.99\nentropy = 0.84\nsamples = 68\nvalue = [0, 75, 28, 0]", fillcolor="#8cef83"] ;
15 -> 17 ;
18 [label="entropy = 0.38\nsamples = 27\nvalue = [0, 37, 3, 0]", fillcolor="#56e749"] ;
17 -> 18 ;
19 [label="entropy = 0.97\nsamples = 41\nvalue = [0, 38, 25, 0]", fillcolor="#c0f6bb"] ;
17 -> 19 ;
20 [label="pulso <= 122.42\nentropy = 0.97\nsamples = 19\nvalue = [20, 13, 0, 0]", fillcolor="#f6d3ba"] ;
2 -> 20 ;
21 [label="pSist <= 12.84\nentropy = 0.81\nsamples = 7\nvalue = [4, 12, 0, 0]", fillcolor="#84ee7b"] ;
20 -> 21 ;
22 [label="pDiast <= 11.63\nentropy = 1.0\nsamples = 4\nvalue = [4, 4, 0, 0]", fillcolor="#ffffff"] ;
21 -> 22 ;
23 [label="entropy = 0.0\nsamples = 2\nvalue = [4, 0, 0, 0]", fillcolor="#e58139"] ;
22 -> 23 ;
24 [label="entropy = 0.0\nsamples = 2\nvalue = [0, 4, 0, 0]", fillcolor="#47e539"] ;
22 -> 24 ;
25 [label="entropy = 0.0\nsamples = 3\nvalue = [0, 8, 0, 0]", fillcolor="#47e539"] ;
21 -> 25 ;
26 [label="respiração <= 9.94\nentropy = 0.32\nsamples = 12\nvalue = [16, 1, 0, 0]", fillcolor="#e78945"] ;
20 -> 26 ;
27 [label="entropy = 0.0\nsamples = 11\nvalue = [16, 0, 0, 0]", fillcolor="#e58139"] ;
26 -> 27 ;
28 [label="entropy = 0.0\nsamples = 1\nvalue = [0, 1, 0, 0]", fillcolor="#47e539"] ;
26 -> 28 ;
29 [label="respiração <= 17.61\nentropy = 1.42\nsamples = 157\nvalue = [9, 70, 160, 23]", fillcolor="#a2d1f3"] ;
1 -> 29 ;
30 [label="pDiast <= 11.49\nentropy = 1.04\nsamples = 101\nvalue = [0, 22, 132, 20]", fillcolor="#70b8ec"] ;
29 -> 30 ;
31 [label="respiração <= 14.75\nentropy = 0.93\nsamples = 90\nvalue = [0, 13, 128, 20]", fillcolor="#67b4eb"] ;
30 -> 31 ;
32 [label="respiração <= 14.64\nentropy = 0.61\nsamples = 50\nvalue = [0, 11, 81, 1]", fillcolor="#56abe9"] ;
31 -> 32 ;
33 [label="pDiast <= 2.92\nentropy = 0.52\nsamples = 48\nvalue = [0, 8, 80, 1]", fillcolor="#4fa8e8"] ;
32 -> 33 ;
34 [label="entropy = 0.93\nsamples = 13\nvalue = [0, 7, 13, 0]", fillcolor="#a4d2f3"] ;
33 -> 34 ;
35 [label="entropy = 0.22\nsamples = 35\nvalue = [0, 1, 67, 1]", fillcolor="#3fa0e6"] ;
33 -> 35 ;
36 [label="qPA <= -0.08\nentropy = 0.81\nsamples = 2\nvalue = [0, 3, 1, 0]", fillcolor="#84ee7b"] ;
32 -> 36 ;
37 [label="entropy = 0.0\nsamples = 1\nvalue = [0, 3, 0, 0]", fillcolor="#47e539"] ;
36 -> 37 ;
38 [label="entropy = 0.0\nsamples = 1\nvalue = [0, 0, 1, 0]", fillcolor="#399de5"] ;
36 -> 38 ;
39 [label="pulso <= 55.18\nentropy = 1.03\nsamples = 40\nvalue = [0, 2, 47, 19]", fillcolor="#8ec7f0"] ;
31 -> 39 ;
40 [label="pDiast <= 7.83\nentropy = 0.5\nsamples = 8\nvalue = [0, 2, 16, 0]", fillcolor="#52a9e8"] ;
39 -> 40 ;
41 [label="entropy = 0.92\nsamples = 3\nvalue = [0, 2, 1, 0]", fillcolor="#a3f29c"] ;
40 -> 41 ;
42 [label="entropy = 0.0\nsamples = 5\nvalue = [0, 0, 15, 0]", fillcolor="#399de5"] ;
40 -> 42 ;
43 [label="respiração <= 14.96\nentropy = 0.96\nsamples = 32\nvalue = [0, 0, 31, 19]", fillcolor="#b2d9f5"] ;
39 -> 43 ;
44 [label="entropy = 0.0\nsamples = 3\nvalue = [0, 0, 0, 5]", fillcolor="#d739e5"] ;
43 -> 44 ;
45 [label="entropy = 0.89\nsamples = 29\nvalue = [0, 0, 31, 14]", fillcolor="#92c9f1"] ;
43 -> 45 ;
46 [label="pDiast <= 12.3\nentropy = 0.89\nsamples = 11\nvalue = [0, 9, 4, 0]", fillcolor="#99f191"] ;
30 -> 46 ;
47 [label="pulso <= 135.56\nentropy = 1.0\nsamples = 7\nvalue = [0, 4, 4, 0]", fillcolor="#ffffff"] ;
46 -> 47 ;
48 [label="entropy = 0.0\nsamples = 4\nvalue = [0, 0, 4, 0]", fillcolor="#399de5"] ;
47 -> 48 ;
49 [label="entropy = 0.0\nsamples = 3\nvalue = [0, 4, 0, 0]", fillcolor="#47e539"] ;
47 -> 49 ;
50 [label="entropy = 0.0\nsamples = 4\nvalue = [0, 5, 0, 0]", fillcolor="#47e539"] ;
46 -> 50 ;
51 [label="pDiast <= 9.71\nentropy = 1.51\nsamples = 56\nvalue = [9, 48, 28, 3]", fillcolor="#c2f6bd"] ;
29 -> 51 ;
52 [label="pDiast <= 8.89\nentropy = 1.45\nsamples = 44\nvalue = [3, 31, 27, 3]", fillcolor="#ebfcea"] ;
51 -> 52 ;
53 [label="qPA <= -4.53\nentropy = 1.46\nsamples = 39\nvalue = [3, 31, 20, 3]", fillcolor="#c8f7c4"] ;
52 -> 53 ;
54 [label="pDiast <= 3.72\nentropy = 1.09\nsamples = 9\nvalue = [3, 10, 1, 0]", fillcolor="#8aee81"] ;
53 -> 54 ;
55 [label="entropy = 0.81\nsamples = 7\nvalue = [3, 9, 0, 0]", fillcolor="#84ee7b"] ;
54 -> 55 ;
56 [label="entropy = 1.0\nsamples = 2\nvalue = [0, 1, 1, 0]", fillcolor="#ffffff"] ;
54 -> 56 ;
57 [label="pSist <= 3.56\nentropy = 1.29\nsamples = 30\nvalue = [0, 21, 19, 3]", fillcolor="#f0fdef"] ;
53 -> 57 ;
58 [label="entropy = 0.0\nsamples = 2\nvalue = [0, 0, 4, 0]", fillcolor="#399de5"] ;
57 -> 58 ;
59 [label="entropy = 1.3\nsamples = 28\nvalue = [0, 21, 15, 3]", fillcolor="#d1f8ce"] ;
57 -> 59 ;
60 [label="entropy = 0.0\nsamples = 5\nvalue = [0, 0, 7, 0]", fillcolor="#399de5"] ;
52 -> 60 ;
61 [label="pSist <= 13.2\nentropy = 1.04\nsamples = 12\nvalue = [6, 17, 1, 0]", fillcolor="#8fef86"] ;
51 -> 61 ;
62 [label="qPA <= 5.06\nentropy = 0.49\nsamples = 9\nvalue = [2, 17, 0, 0]", fillcolor="#5de850"] ;
61 -> 62 ;
63 [label="entropy = 0.0\nsamples = 5\nvalue = [0, 14, 0, 0]", fillcolor="#47e539"] ;
62 -> 63 ;
64 [label="pSist <= 12.27\nentropy = 0.97\nsamples = 4\nvalue = [2, 3, 0, 0]", fillcolor="#c2f6bd"] ;
62 -> 64 ;
65 [label="entropy = 0.0\nsamples = 2\nvalue = [2, 0, 0, 0]", fillcolor="#e58139"] ;
64 -> 65 ;
66 [label="entropy = 0.0\nsamples = 2\nvalue = [0, 3, 0, 0]", fillcolor="#47e539"] ;
64 -> 66 ;
67 [label="respiração <= 20.12\nentropy = 0.72\nsamples = 3\nvalue = [4, 0, 1, 0]", fillcolor="#eca06a"] ;
61 -> 67 ;
68 [label="entropy = 0.0\nsamples = 1\nvalue = [0, 0, 1, 0]", fillcolor="#399de5"] ;
67 -> 68 ;
69 [label="entropy = 0.0\nsamples = 2\nvalue = [4, 0, 0, 0]", fillcolor="#e58139"] ;
67 -> 69 ;
70 [label="pDiast <= 9.97\nentropy = 1.28\nsamples = 357\nvalue = [118, 369, 82, 0]", fillcolor="#99f191"] ;
0 -> 70 [labeldistance=2.5, labelangle=-45, headlabel="False"] ;
71 [label="qPA <= 4.7\nentropy = 0.94\nsamples = 194\nvalue = [12, 232, 60, 0]", fillcolor="#7ded73"] ;
70 -> 71 ;
72 [label="respiração <= 11.95\nentropy = 0.7\nsamples = 145\nvalue = [0, 182, 42, 0]", fillcolor="#71eb67"] ;
71 -> 72 ;
73 [label="entropy = 0.0\nsamples = 86\nvalue = [0, 128, 0, 0]", fillcolor="#47e539"] ;
72 -> 73 ;
74 [label="qPA <= 3.39\nentropy = 0.99\nsamples = 59\nvalue = [0, 54, 42, 0]", fillcolor="#d6f9d3"] ;
72 -> 74 ;
75 [label="respiração <= 19.48\nentropy = 0.93\nsamples = 30\nvalue = [0, 16, 31, 0]", fillcolor="#9fd0f2"] ;
74 -> 75 ;
76 [label="qPA <= -4.39\nentropy = 0.44\nsamples = 22\nvalue = [0, 3, 30, 0]", fillcolor="#4da7e8"] ;
75 -> 76 ;
77 [label="entropy = 0.0\nsamples = 2\nvalue = [0, 2, 0, 0]", fillcolor="#47e539"] ;
76 -> 77 ;
78 [label="entropy = 0.21\nsamples = 20\nvalue = [0, 1, 30, 0]", fillcolor="#40a0e6"] ;
76 -> 78 ;
79 [label="qPA <= -4.33\nentropy = 0.37\nsamples = 8\nvalue = [0, 13, 1, 0]", fillcolor="#55e748"] ;
75 -> 79 ;
80 [label="entropy = 0.0\nsamples = 5\nvalue = [0, 10, 0, 0]", fillcolor="#47e539"] ;
79 -> 80 ;
81 [label="entropy = 0.81\nsamples = 3\nvalue = [0, 3, 1, 0]", fillcolor="#84ee7b"] ;
79 -> 81 ;
82 [label="qPA <= 4.68\nentropy = 0.77\nsamples = 29\nvalue = [0, 38, 11, 0]", fillcolor="#7ced72"] ;
74 -> 82 ;
83 [label="qPA <= 4.67\nentropy = 0.58\nsamples = 22\nvalue = [0, 31, 5, 0]", fillcolor="#65e959"] ;
82 -> 83 ;
84 [label="entropy = 0.79\nsamples = 14\nvalue = [0, 16, 5, 0]", fillcolor="#81ed77"] ;
83 -> 84 ;
85 [label="entropy = 0.0\nsamples = 8\nvalue = [0, 15, 0, 0]", fillcolor="#47e539"] ;
83 -> 85 ;
86 [label="pSist <= 19.56\nentropy = 1.0\nsamples = 7\nvalue = [0, 7, 6, 0]", fillcolor="#e5fbe3"] ;
82 -> 86 ;
87 [label="entropy = 0.81\nsamples = 5\nvalue = [0, 2, 6, 0]", fillcolor="#7bbeee"] ;
86 -> 87 ;
88 [label="entropy = 0.0\nsamples = 2\nvalue = [0, 5, 0, 0]", fillcolor="#47e539"] ;
86 -> 88 ;
89 [label="pSist <= 18.03\nentropy = 1.32\nsamples = 49\nvalue = [12, 50, 18, 0]", fillcolor="#a0f299"] ;
71 -> 89 ;
90 [label="pulso <= 102.29\nentropy = 1.56\nsamples = 21\nvalue = [10, 11, 7, 0]", fillcolor="#f5fef4"] ;
89 -> 90 ;
91 [label="respiração <= 8.65\nentropy = 0.76\nsamples = 8\nvalue = [2, 0, 7, 0]", fillcolor="#72b9ec"] ;
90 -> 91 ;
92 [label="entropy = 0.0\nsamples = 1\nvalue = [2, 0, 0, 0]", fillcolor="#e58139"] ;
91 -> 92 ;
93 [label="entropy = 0.0\nsamples = 7\nvalue = [0, 0, 7, 0]", fillcolor="#399de5"] ;
91 -> 93 ;
94 [label="pDiast <= 9.59\nentropy = 0.98\nsamples = 13\nvalue = [8, 11, 0, 0]", fillcolor="#cdf8c9"] ;
90 -> 94 ;
95 [label="respiração <= 8.6\nentropy = 0.96\nsamples = 10\nvalue = [8, 5, 0, 0]", fillcolor="#f5d0b5"] ;
94 -> 95 ;
96 [label="entropy = 0.59\nsamples = 5\nvalue = [6, 1, 0, 0]", fillcolor="#e9965a"] ;
95 -> 96 ;
97 [label="entropy = 0.92\nsamples = 5\nvalue = [2, 4, 0, 0]", fillcolor="#a3f29c"] ;
95 -> 97 ;
98 [label="entropy = 0.0\nsamples = 3\nvalue = [0, 6, 0, 0]", fillcolor="#47e539"] ;
94 -> 98 ;
99 [label="pulso <= 95.3\nentropy = 0.97\nsamples = 28\nvalue = [2, 39, 11, 0]", fillcolor="#81ed78"] ;
89 -> 99 ;
100 [label="pulso <= 65.15\nentropy = 1.24\nsamples = 14\nvalue = [2, 18, 11, 0]", fillcolor="#bff6ba"] ;
99 -> 100 ;
101 [label="pulso <= 41.88\nentropy = 0.47\nsamples = 9\nvalue = [2, 18, 0, 0]", fillcolor="#5be84f"] ;
100 -> 101 ;
102 [label="entropy = 0.92\nsamples = 4\nvalue = [2, 4, 0, 0]", fillcolor="#a3f29c"] ;
101 -> 102 ;
103 [label="entropy = 0.0\nsamples = 5\nvalue = [0, 14, 0, 0]", fillcolor="#47e539"] ;
101 -> 103 ;
104 [label="entropy = 0.0\nsamples = 5\nvalue = [0, 0, 11, 0]", fillcolor="#399de5"] ;
100 -> 104 ;
105 [label="entropy = 0.0\nsamples = 14\nvalue = [0, 21, 0, 0]", fillcolor="#47e539"] ;
99 -> 105 ;
106 [label="pulso <= 147.58\nentropy = 1.32\nsamples = 163\nvalue = [106, 137, 22, 0]", fillcolor="#dbfad8"] ;
70 -> 106 ;
107 [label="pulso <= 39.64\nentropy = 1.3\nsamples = 127\nvalue = [57, 124, 22, 0]", fillcolor="#abf3a4"] ;
106 -> 107 ;
108 [label="respiração <= 10.92\nentropy = 0.94\nsamples = 42\nvalue = [43, 24, 0, 0]", fillcolor="#f4c7a8"] ;
107 -> 108 ;
109 [label="entropy = 0.0\nsamples = 23\nvalue = [34, 0, 0, 0]", fillcolor="#e58139"] ;
108 -> 109 ;
110 [label="pulso <= 6.45\nentropy = 0.85\nsamples = 19\nvalue = [9, 24, 0, 0]", fillcolor="#8cef83"] ;
108 -> 110 ;
111 [label="entropy = 0.0\nsamples = 2\nvalue = [4, 0, 0, 0]", fillcolor="#e58139"] ;
110 -> 111 ;
112 [label="respiração <= 19.39\nentropy = 0.66\nsamples = 17\nvalue = [5, 24, 0, 0]", fillcolor="#6dea62"] ;
110 -> 112 ;
113 [label="entropy = 0.0\nsamples = 13\nvalue = [0, 24, 0, 0]", fillcolor="#47e539"] ;
112 -> 113 ;
114 [label="entropy = 0.0\nsamples = 4\nvalue = [5, 0, 0, 0]", fillcolor="#e58139"] ;
112 -> 114 ;
115 [label="pDiast <= 13.58\nentropy = 1.09\nsamples = 85\nvalue = [14, 100, 22, 0]", fillcolor="#81ed78"] ;
107 -> 115 ;
116 [label="pDiast <= 13.47\nentropy = 1.25\nsamples = 61\nvalue = [13, 66, 21, 0]", fillcolor="#96f08e"] ;
115 -> 116 ;
117 [label="pDiast <= 12.24\nentropy = 1.08\nsamples = 56\nvalue = [7, 65, 17, 0]", fillcolor="#84ee7b"] ;
116 -> 117 ;
118 [label="entropy = 1.03\nsamples = 36\nvalue = [2, 41, 15, 0]", fillcolor="#90ef87"] ;
117 -> 118 ;
119 [label="entropy = 0.97\nsamples = 20\nvalue = [5, 24, 2, 0]", fillcolor="#79ec6e"] ;
117 -> 119 ;
120 [label="pulso <= 111.5\nentropy = 1.32\nsamples = 5\nvalue = [6, 1, 4, 0]", fillcolor="#f8dbc6"] ;
116 -> 120 ;
121 [label="entropy = 0.72\nsamples = 3\nvalue = [0, 1, 4, 0]", fillcolor="#6ab6ec"] ;
120 -> 121 ;
122 [label="entropy = 0.0\nsamples = 2\nvalue = [6, 0, 0, 0]", fillcolor="#e58139"] ;
120 -> 122 ;
123 [label="pulso <= 130.38\nentropy = 0.37\nsamples = 24\nvalue = [1, 34, 1, 0]", fillcolor="#52e644"] ;
115 -> 123 ;
124 [label="respiração <= 14.8\nentropy = 0.2\nsamples = 22\nvalue = [0, 32, 1, 0]", fillcolor="#4de63f"] ;
123 -> 124 ;
125 [label="entropy = 0.0\nsamples = 16\nvalue = [0, 26, 0, 0]", fillcolor="#47e539"] ;
124 -> 125 ;
126 [label="entropy = 0.59\nsamples = 6\nvalue = [0, 6, 1, 0]", fillcolor="#66e95a"] ;
124 -> 126 ;
127 [label="pSist <= 19.52\nentropy = 0.92\nsamples = 2\nvalue = [1, 2, 0, 0]", fillcolor="#a3f29c"] ;
123 -> 127 ;
128 [label="entropy = 0.0\nsamples = 1\nvalue = [1, 0, 0, 0]", fillcolor="#e58139"] ;
127 -> 128 ;
129 [label="entropy = 0.0\nsamples = 1\nvalue = [0, 2, 0, 0]", fillcolor="#47e539"] ;
127 -> 129 ;
130 [label="pDiast <= 14.82\nentropy = 0.74\nsamples = 36\nvalue = [49, 13, 0, 0]", fillcolor="#eca26e"] ;
106 -> 130 ;
131 [label="respiração <= 11.26\nentropy = 0.66\nsamples = 35\nvalue = [49, 10, 0, 0]", fillcolor="#ea9b61"] ;
130 -> 131 ;
132 [label="entropy = 0.0\nsamples = 24\nvalue = [41, 0, 0, 0]", fillcolor="#e58139"] ;
131 -> 132 ;
133 [label="pDiast <= 14.27\nentropy = 0.99\nsamples = 11\nvalue = [8, 10, 0, 0]", fillcolor="#dafad7"] ;
131 -> 133 ;
134 [label="respiração <= 17.65\nentropy = 0.96\nsamples = 8\nvalue = [8, 5, 0, 0]", fillcolor="#f5d0b5"] ;
133 -> 134 ;
135 [label="entropy = 0.0\nsamples = 3\nvalue = [0, 4, 0, 0]", fillcolor="#47e539"] ;
134 -> 135 ;
136 [label="entropy = 0.5\nsamples = 5\nvalue = [8, 1, 0, 0]", fillcolor="#e89152"] ;
134 -> 136 ;
137 [label="entropy = 0.0\nsamples = 3\nvalue = [0, 5, 0, 0]", fillcolor="#47e539"] ;
133 -> 137 ;
138 [label="entropy = 0.0\nsamples = 1\nvalue = [0, 3, 0, 0]", fillcolor="#47e539"] ;
130 -> 138 ;
}