digraph Tree {
node [shape=box, style="filled, rounded", color="black", fontname="helvetica"] ;
edge [fontname="helvetica"] ;
0 [label="respiração <= 11.39\nentropy = 1.5\nsamples = 673\nvalue = [164, 606, 256, 24]", fillcolor="#aef4a8"] ;
1 [label="qPA <= 4.7\nentropy = 1.16\nsamples = 339\nvalue = [126, 370, 45, 0]", fillcolor="#93f08b"] ;
0 -> 1 [labeldistance=2.5, labelangle=45, headlabel="True"] ;
2 [label="qPA <= -4.78\nentropy = 0.83\nsamples = 218\nvalue = [17, 283, 45, 0]", fillcolor="#6dea62"] ;
1 -> 2 ;
3 [label="pulso <= 126.04\nentropy = 0.97\nsamples = 25\nvalue = [17, 26, 0, 0]", fillcolor="#bff6ba"] ;
2 -> 3 ;
4 [label="pulso <= 39.19\nentropy = 0.79\nsamples = 18\nvalue = [8, 26, 0, 0]", fillcolor="#80ed76"] ;
3 -> 4 ;
5 [label="entropy = 0.0\nsamples = 3\nvalue = [8, 0, 0, 0]", fillcolor="#e58139"] ;
4 -> 5 ;
6 [label="entropy = 0.0\nsamples = 15\nvalue = [0, 26, 0, 0]", fillcolor="#47e539"] ;
4 -> 6 ;
7 [label="entropy = 0.0\nsamples = 7\nvalue = [9, 0, 0, 0]", fillcolor="#e58139"] ;
3 -> 7 ;
8 [label="qPA <= 3.55\nentropy = 0.61\nsamples = 193\nvalue = [0, 257, 45, 0]", fillcolor="#67ea5c"] ;
2 -> 8 ;
9 [label="pDiast <= 3.64\nentropy = 0.72\nsamples = 144\nvalue = [0, 180, 45, 0]", fillcolor="#75ec6a"] ;
8 -> 9 ;
10 [label="pSist <= 7.37\nentropy = 0.43\nsamples = 67\nvalue = [0, 92, 9, 0]", fillcolor="#59e84c"] ;
9 -> 10 ;
11 [label="pSist <= 3.99\nentropy = 0.96\nsamples = 9\nvalue = [0, 11, 7, 0]", fillcolor="#bcf6b7"] ;
10 -> 11 ;
12 [label="entropy = 0.0\nsamples = 7\nvalue = [0, 11, 0, 0]", fillcolor="#47e539"] ;
11 -> 12 ;
13 [label="entropy = 0.0\nsamples = 2\nvalue = [0, 0, 7, 0]", fillcolor="#399de5"] ;
11 -> 13 ;
14 [label="pSist <= 18.2\nentropy = 0.16\nsamples = 58\nvalue = [0, 81, 2, 0]", fillcolor="#4ce63e"] ;
10 -> 14 ;
15 [label="entropy = 0.0\nsamples = 38\nvalue = [0, 50, 0, 0]", fillcolor="#47e539"] ;
14 -> 15 ;
16 [label="entropy = 0.33\nsamples = 20\nvalue = [0, 31, 2, 0]", fillcolor="#53e746"] ;
14 -> 16 ;
17 [label="pulso <= 124.29\nentropy = 0.87\nsamples = 77\nvalue = [0, 88, 36, 0]", fillcolor="#92f08a"] ;
9 -> 17 ;
18 [label="pulso <= 47.25\nentropy = 1.0\nsamples = 45\nvalue = [0, 35, 36, 0]", fillcolor="#fafcfe"] ;
17 -> 18 ;
19 [label="entropy = 0.0\nsamples = 16\nvalue = [0, 29, 0, 0]", fillcolor="#47e539"] ;
18 -> 19 ;
20 [label="entropy = 0.59\nsamples = 29\nvalue = [0, 6, 36, 0]", fillcolor="#5aade9"] ;
18 -> 20 ;
21 [label="entropy = 0.0\nsamples = 32\nvalue = [0, 53, 0, 0]", fillcolor="#47e539"] ;
17 -> 21 ;
22 [label="entropy = 0.0\nsamples = 49\nvalue = [0, 77, 0, 0]", fillcolor="#47e539"] ;
8 -> 22 ;
23 [label="respiração <= 10.53\nentropy = 0.99\nsamples = 121\nvalue = [109, 87, 0, 0]", fillcolor="#fae6d7"] ;
1 -> 23 ;
24 [label="pulso <= 126.72\nentropy = 0.98\nsamples = 113\nvalue = [109, 77, 0, 0]", fillcolor="#f7dac5"] ;
23 -> 24 ;
25 [label="qPA <= 4.81\nentropy = 0.96\nsamples = 74\nvalue = [47, 77, 0, 0]", fillcolor="#b7f5b2"] ;
24 -> 25 ;
26 [label="qPA <= 4.75\nentropy = 0.53\nsamples = 12\nvalue = [3, 22, 0, 0]", fillcolor="#60e954"] ;
25 -> 26 ;
27 [label="qPA <= 4.74\nentropy = 0.85\nsamples = 6\nvalue = [3, 8, 0, 0]", fillcolor="#8cef83"] ;
26 -> 27 ;
28 [label="entropy = 0.0\nsamples = 4\nvalue = [0, 8, 0, 0]", fillcolor="#47e539"] ;
27 -> 28 ;
29 [label="entropy = 0.0\nsamples = 2\nvalue = [3, 0, 0, 0]", fillcolor="#e58139"] ;
27 -> 29 ;
30 [label="entropy = 0.0\nsamples = 6\nvalue = [0, 14, 0, 0]", fillcolor="#47e539"] ;
26 -> 30 ;
31 [label="pulso <= 41.28\nentropy = 0.99\nsamples = 62\nvalue = [44, 55, 0, 0]", fillcolor="#dafad7"] ;
25 -> 31 ;
32 [label="entropy = 0.0\nsamples = 27\nvalue = [44, 0, 0, 0]", fillcolor="#e58139"] ;
31 -> 32 ;
33 [label="entropy = 0.0\nsamples = 35\nvalue = [0, 55, 0, 0]", fillcolor="#47e539"] ;
31 -> 33 ;
34 [label="entropy = 0.0\nsamples = 39\nvalue = [62, 0, 0, 0]", fillcolor="#e58139"] ;
24 -> 34 ;
35 [label="entropy = 0.0\nsamples = 8\nvalue = [0, 10, 0, 0]", fillcolor="#47e539"] ;
23 -> 35 ;
36 [label="pulso <= 113.92\nentropy = 1.53\nsamples = 334\nvalue = [38, 236, 211, 24]", fillcolor="#f0fdee"] ;
0 -> 36 [labeldistance=2.5, labelangle=-45, headlabel="False"] ;
37 [label="pulso <= 46.36\nentropy = 1.55\nsamples = 189\nvalue = [16, 96, 151, 24]", fillcolor="#c6e3f8"] ;
36 -> 37 ;
38 [label="respiração <= 19.61\nentropy = 1.32\nsamples = 73\nvalue = [16, 67, 25, 0]", fillcolor="#a2f29b"] ;
37 -> 38 ;
39 [label="respiração <= 12.17\nentropy = 0.9\nsamples = 56\nvalue = [0, 52, 24, 0]", fillcolor="#9cf194"] ;
38 -> 39 ;
40 [label="entropy = 0.0\nsamples = 7\nvalue = [0, 8, 0, 0]", fillcolor="#47e539"] ;
39 -> 40 ;
41 [label="pSist <= 13.54\nentropy = 0.94\nsamples = 49\nvalue = [0, 44, 24, 0]", fillcolor="#abf3a5"] ;
39 -> 41 ;
42 [label="pSist <= 8.28\nentropy = 0.7\nsamples = 17\nvalue = [0, 4, 17, 0]", fillcolor="#68b4eb"] ;
41 -> 42 ;
43 [label="entropy = 0.0\nsamples = 8\nvalue = [0, 0, 10, 0]", fillcolor="#399de5"] ;
42 -> 43 ;
44 [label="entropy = 0.95\nsamples = 9\nvalue = [0, 4, 7, 0]", fillcolor="#aad5f4"] ;
42 -> 44 ;
45 [label="pSist <= 19.94\nentropy = 0.61\nsamples = 32\nvalue = [0, 40, 7, 0]", fillcolor="#67ea5c"] ;
41 -> 45 ;
46 [label="entropy = 0.38\nsamples = 28\nvalue = [0, 38, 3, 0]", fillcolor="#56e749"] ;
45 -> 46 ;
47 [label="entropy = 0.92\nsamples = 4\nvalue = [0, 2, 4, 0]", fillcolor="#9ccef2"] ;
45 -> 47 ;
48 [label="pulso <= 14.3\nentropy = 1.17\nsamples = 17\nvalue = [16, 15, 1, 0]", fillcolor="#fdf8f3"] ;
38 -> 48 ;
49 [label="pDiast <= 2.95\nentropy = 0.39\nsamples = 7\nvalue = [12, 1, 0, 0]", fillcolor="#e78c49"] ;
48 -> 49 ;
50 [label="qPA <= -6.5\nentropy = 0.81\nsamples = 2\nvalue = [3, 1, 0, 0]", fillcolor="#eeab7b"] ;
49 -> 50 ;
51 [label="entropy = 0.0\nsamples = 1\nvalue = [3, 0, 0, 0]", fillcolor="#e58139"] ;
50 -> 51 ;
52 [label="entropy = 0.0\nsamples = 1\nvalue = [0, 1, 0, 0]", fillcolor="#47e539"] ;
50 -> 52 ;
53 [label="entropy = 0.0\nsamples = 5\nvalue = [9, 0, 0, 0]", fillcolor="#e58139"] ;
49 -> 53 ;
54 [label="respiração <= 20.8\nentropy = 1.02\nsamples = 10\nvalue = [4, 14, 1, 0]", fillcolor="#84ee7b"] ;
48 -> 54 ;
55 [label="qPA <= 7.46\nentropy = 0.76\nsamples = 9\nvalue = [4, 14, 0, 0]", fillcolor="#7cec72"] ;
54 -> 55 ;
56 [label="entropy = 0.0\nsamples = 6\nvalue = [0, 14, 0, 0]", fillcolor="#47e539"] ;
55 -> 56 ;
57 [label="entropy = 0.0\nsamples = 3\nvalue = [4, 0, 0, 0]", fillcolor="#e58139"] ;
55 -> 57 ;
58 [label="entropy = 0.0\nsamples = 1\nvalue = [0, 0, 1, 0]", fillcolor="#399de5"] ;
54 -> 58 ;
59 [label="pSist <= 16.04\nentropy = 1.17\nsamples = 116\nvalue = [0, 29, 126, 24]", fillcolor="#7fc0ee"] ;
37 -> 59 ;
60 [label="qPA <= 2.89\nentropy = 0.86\nsamples = 64\nvalue = [0, 1, 72, 22]", fillcolor="#77bced"] ;
59 -> 60 ;
61 [label="pSist <= 4.63\nentropy = 0.92\nsamples = 41\nvalue = [0, 0, 43, 22]", fillcolor="#9ecff2"] ;
60 -> 61 ;
62 [label="entropy = 0.0\nsamples = 3\nvalue = [0, 0, 0, 6]", fillcolor="#d739e5"] ;
61 -> 62 ;
63 [label="pDiast <= 4.02\nentropy = 0.84\nsamples = 38\nvalue = [0, 0, 43, 16]", fillcolor="#83c1ef"] ;
61 -> 63 ;
64 [label="entropy = 0.0\nsamples = 15\nvalue = [0, 0, 24, 0]", fillcolor="#399de5"] ;
63 -> 64 ;
65 [label="entropy = 0.99\nsamples = 23\nvalue = [0, 0, 19, 16]", fillcolor="#e0f0fb"] ;
63 -> 65 ;
66 [label="respiração <= 18.13\nentropy = 0.21\nsamples = 23\nvalue = [0, 1, 29, 0]", fillcolor="#40a0e6"] ;
60 -> 66 ;
67 [label="entropy = 0.0\nsamples = 16\nvalue = [0, 0, 22, 0]", fillcolor="#399de5"] ;
66 -> 67 ;
68 [label="respiração <= 18.57\nentropy = 0.54\nsamples = 7\nvalue = [0, 1, 7, 0]", fillcolor="#55abe9"] ;
66 -> 68 ;
69 [label="entropy = 0.0\nsamples = 1\nvalue = [0, 1, 0, 0]", fillcolor="#47e539"] ;
68 -> 69 ;
70 [label="entropy = 0.0\nsamples = 6\nvalue = [0, 0, 7, 0]", fillcolor="#399de5"] ;
68 -> 70 ;
71 [label="respiração <= 18.5\nentropy = 1.07\nsamples = 52\nvalue = [0, 28, 54, 2]", fillcolor="#a3d2f3"] ;
59 -> 71 ;
72 [label="qPA <= 4.1\nentropy = 0.56\nsamples = 31\nvalue = [0, 3, 46, 2]", fillcolor="#4ea7e8"] ;
71 -> 72 ;
73 [label="respiração <= 14.88\nentropy = 0.59\nsamples = 8\nvalue = [0, 0, 12, 2]", fillcolor="#5aade9"] ;
72 -> 73 ;
74 [label="entropy = 0.0\nsamples = 5\nvalue = [0, 0, 9, 0]", fillcolor="#399de5"] ;
73 -> 74 ;
75 [label="entropy = 0.97\nsamples = 3\nvalue = [0, 0, 3, 2]", fillcolor="#bddef6"] ;
73 -> 75 ;
76 [label="pSist <= 16.12\nentropy = 0.41\nsamples = 23\nvalue = [0, 3, 34, 0]", fillcolor="#4aa6e7"] ;
72 -> 76 ;
77 [label="entropy = 0.0\nsamples = 1\nvalue = [0, 1, 0, 0]", fillcolor="#47e539"] ;
76 -> 77 ;
78 [label="entropy = 0.31\nsamples = 22\nvalue = [0, 2, 34, 0]", fillcolor="#45a3e7"] ;
76 -> 78 ;
79 [label="pDiast <= 10.26\nentropy = 0.8\nsamples = 21\nvalue = [0, 25, 8, 0]", fillcolor="#82ed78"] ;
71 -> 79 ;
80 [label="pulso <= 59.43\nentropy = 0.85\nsamples = 9\nvalue = [0, 3, 8, 0]", fillcolor="#83c2ef"] ;
79 -> 80 ;
81 [label="entropy = 0.0\nsamples = 2\nvalue = [0, 2, 0, 0]", fillcolor="#47e539"] ;
80 -> 81 ;
82 [label="entropy = 0.5\nsamples = 7\nvalue = [0, 1, 8, 0]", fillcolor="#52a9e8"] ;
80 -> 82 ;
83 [label="entropy = 0.0\nsamples = 12\nvalue = [0, 22, 0, 0]", fillcolor="#47e539"] ;
79 -> 83 ;
84 [label="respiração <= 19.77\nentropy = 1.26\nsamples = 145\nvalue = [22, 140, 60, 0]", fillcolor="#a4f29d"] ;
36 -> 84 ;
85 [label="qPA <= 4.35\nentropy = 0.92\nsamples = 116\nvalue = [0, 114, 58, 0]", fillcolor="#a5f29e"] ;
84 -> 85 ;
86 [label="pulso <= 114.56\nentropy = 0.9\nsamples = 60\nvalue = [0, 26, 57, 0]", fillcolor="#93caf1"] ;
85 -> 86 ;
87 [label="entropy = 0.0\nsamples = 2\nvalue = [0, 4, 0, 0]", fillcolor="#47e539"] ;
86 -> 87 ;
88 [label="respiração <= 12.31\nentropy = 0.85\nsamples = 58\nvalue = [0, 22, 57, 0]", fillcolor="#85c3ef"] ;
86 -> 88 ;
89 [label="pDiast <= 4.47\nentropy = 0.9\nsamples = 11\nvalue = [0, 11, 5, 0]", fillcolor="#9bf193"] ;
88 -> 89 ;
90 [label="entropy = 0.0\nsamples = 7\nvalue = [0, 10, 0, 0]", fillcolor="#47e539"] ;
89 -> 90 ;
91 [label="entropy = 0.65\nsamples = 4\nvalue = [0, 1, 5, 0]", fillcolor="#61b1ea"] ;
89 -> 91 ;
92 [label="pDiast <= 3.57\nentropy = 0.67\nsamples = 47\nvalue = [0, 11, 52, 0]", fillcolor="#63b2ea"] ;
88 -> 92 ;
93 [label="entropy = 0.86\nsamples = 27\nvalue = [0, 10, 25, 0]", fillcolor="#88c4ef"] ;
92 -> 93 ;
94 [label="entropy = 0.22\nsamples = 20\nvalue = [0, 1, 27, 0]", fillcolor="#40a1e6"] ;
92 -> 94 ;
95 [label="pulso <= 127.37\nentropy = 0.09\nsamples = 56\nvalue = [0, 88, 1, 0]", fillcolor="#49e53b"] ;
85 -> 95 ;
96 [label="pulso <= 126.82\nentropy = 0.39\nsamples = 9\nvalue = [0, 12, 1, 0]", fillcolor="#56e749"] ;
95 -> 96 ;
97 [label="entropy = 0.0\nsamples = 8\nvalue = [0, 12, 0, 0]", fillcolor="#47e539"] ;
96 -> 97 ;
98 [label="entropy = 0.0\nsamples = 1\nvalue = [0, 0, 1, 0]", fillcolor="#399de5"] ;
96 -> 98 ;
99 [label="entropy = 0.0\nsamples = 47\nvalue = [0, 76, 0, 0]", fillcolor="#47e539"] ;
95 -> 99 ;
100 [label="qPA <= 4.69\nentropy = 1.2\nsamples = 29\nvalue = [22, 26, 2, 0]", fillcolor="#e5fbe3"] ;
84 -> 100 ;
101 [label="pulso <= 122.39\nentropy = 0.7\nsamples = 18\nvalue = [2, 26, 2, 0]", fillcolor="#61e955"] ;
100 -> 101 ;
102 [label="entropy = 0.0\nsamples = 1\nvalue = [0, 0, 2, 0]", fillcolor="#399de5"] ;
101 -> 102 ;
103 [label="qPA <= -4.61\nentropy = 0.37\nsamples = 17\nvalue = [2, 26, 0, 0]", fillcolor="#55e748"] ;
101 -> 103 ;
104 [label="pulso <= 147.28\nentropy = 0.92\nsamples = 2\nvalue = [2, 1, 0, 0]", fillcolor="#f2c09c"] ;
103 -> 104 ;
105 [label="entropy = 0.0\nsamples = 1\nvalue = [0, 1, 0, 0]", fillcolor="#47e539"] ;
104 -> 105 ;
106 [label="entropy = 0.0\nsamples = 1\nvalue = [2, 0, 0, 0]", fillcolor="#e58139"] ;
104 -> 106 ;
107 [label="entropy = 0.0\nsamples = 15\nvalue = [0, 25, 0, 0]", fillcolor="#47e539"] ;
103 -> 107 ;
108 [label="entropy = 0.0\nsamples = 11\nvalue = [20, 0, 0, 0]", fillcolor="#e58139"] ;
100 -> 108 ;
}