digraph Tree {
node [shape=box, style="filled, rounded", color="black", fontname="helvetica"] ;
edge [fontname="helvetica"] ;
0 [label="respiração <= 11.37\nentropy = 1.46\nsamples = 659\nvalue = [152, 586, 300, 12]", fillcolor="#b9f5b3"] ;
1 [label="pDiast <= 10.43\nentropy = 1.17\nsamples = 322\nvalue = [123, 341, 40, 0]", fillcolor="#96f08e"] ;
0 -> 1 [labeldistance=2.5, labelangle=45, headlabel="True"] ;
2 [label="pSist <= 13.01\nentropy = 0.93\nsamples = 223\nvalue = [30, 276, 40, 0]", fillcolor="#71eb66"] ;
1 -> 2 ;
3 [label="pDiast <= 3.64\nentropy = 1.23\nsamples = 97\nvalue = [16, 97, 34, 0]", fillcolor="#98f191"] ;
2 -> 3 ;
4 [label="pSist <= 4.73\nentropy = 0.9\nsamples = 48\nvalue = [16, 50, 1, 0]", fillcolor="#84ee7b"] ;
3 -> 4 ;
5 [label="respiração <= 8.86\nentropy = 0.32\nsamples = 11\nvalue = [0, 16, 1, 0]", fillcolor="#52e745"] ;
4 -> 5 ;
6 [label="entropy = 0.0\nsamples = 10\nvalue = [0, 16, 0, 0]", fillcolor="#47e539"] ;
5 -> 6 ;
7 [label="entropy = 0.0\nsamples = 1\nvalue = [0, 0, 1, 0]", fillcolor="#399de5"] ;
5 -> 7 ;
8 [label="pSist <= 10.4\nentropy = 0.9\nsamples = 37\nvalue = [16, 34, 0, 0]", fillcolor="#9ef196"] ;
4 -> 8 ;
9 [label="pDiast <= 2.71\nentropy = 0.99\nsamples = 28\nvalue = [16, 20, 0, 0]", fillcolor="#dafad7"] ;
8 -> 9 ;
10 [label="entropy = 0.99\nsamples = 23\nvalue = [16, 13, 0, 0]", fillcolor="#fae7da"] ;
9 -> 10 ;
11 [label="entropy = 0.0\nsamples = 5\nvalue = [0, 7, 0, 0]", fillcolor="#47e539"] ;
9 -> 11 ;
12 [label="entropy = 0.0\nsamples = 9\nvalue = [0, 14, 0, 0]", fillcolor="#47e539"] ;
8 -> 12 ;
13 [label="qPA <= 1.26\nentropy = 0.98\nsamples = 49\nvalue = [0, 47, 33, 0]", fillcolor="#c8f7c4"] ;
3 -> 13 ;
14 [label="pulso <= 124.29\nentropy = 0.92\nsamples = 41\nvalue = [0, 45, 23, 0]", fillcolor="#a5f29e"] ;
13 -> 14 ;
15 [label="pDiast <= 5.08\nentropy = 0.88\nsamples = 22\nvalue = [0, 10, 23, 0]", fillcolor="#8fc8f0"] ;
14 -> 15 ;
16 [label="entropy = 1.0\nsamples = 9\nvalue = [0, 7, 7, 0]", fillcolor="#ffffff"] ;
15 -> 16 ;
17 [label="entropy = 0.63\nsamples = 13\nvalue = [0, 3, 16, 0]", fillcolor="#5eafea"] ;
15 -> 17 ;
18 [label="entropy = 0.0\nsamples = 19\nvalue = [0, 35, 0, 0]", fillcolor="#47e539"] ;
14 -> 18 ;
19 [label="pulso <= 129.2\nentropy = 0.65\nsamples = 8\nvalue = [0, 2, 10, 0]", fillcolor="#61b1ea"] ;
13 -> 19 ;
20 [label="entropy = 0.0\nsamples = 6\nvalue = [0, 0, 10, 0]", fillcolor="#399de5"] ;
19 -> 20 ;
21 [label="entropy = 0.0\nsamples = 2\nvalue = [0, 2, 0, 0]", fillcolor="#47e539"] ;
19 -> 21 ;
22 [label="pDiast <= 5.21\nentropy = 0.56\nsamples = 126\nvalue = [14, 179, 6, 0]", fillcolor="#5be84e"] ;
2 -> 22 ;
23 [label="pDiast <= 1.45\nentropy = 0.27\nsamples = 54\nvalue = [0, 82, 4, 0]", fillcolor="#50e643"] ;
22 -> 23 ;
24 [label="pDiast <= 0.99\nentropy = 0.72\nsamples = 12\nvalue = [0, 12, 3, 0]", fillcolor="#75ec6a"] ;
23 -> 24 ;
25 [label="entropy = 0.0\nsamples = 8\nvalue = [0, 9, 0, 0]", fillcolor="#47e539"] ;
24 -> 25 ;
26 [label="pulso <= 53.45\nentropy = 1.0\nsamples = 4\nvalue = [0, 3, 3, 0]", fillcolor="#ffffff"] ;
24 -> 26 ;
27 [label="entropy = 0.0\nsamples = 2\nvalue = [0, 3, 0, 0]", fillcolor="#47e539"] ;
26 -> 27 ;
28 [label="entropy = 0.0\nsamples = 2\nvalue = [0, 0, 3, 0]", fillcolor="#399de5"] ;
26 -> 28 ;
29 [label="qPA <= -4.36\nentropy = 0.11\nsamples = 42\nvalue = [0, 70, 1, 0]", fillcolor="#4ae53c"] ;
23 -> 29 ;
30 [label="pulso <= 65.26\nentropy = 0.3\nsamples = 12\nvalue = [0, 18, 1, 0]", fillcolor="#51e644"] ;
29 -> 30 ;
31 [label="entropy = 0.0\nsamples = 6\nvalue = [0, 11, 0, 0]", fillcolor="#47e539"] ;
30 -> 31 ;
32 [label="entropy = 0.54\nsamples = 6\nvalue = [0, 7, 1, 0]", fillcolor="#61e955"] ;
30 -> 32 ;
33 [label="entropy = 0.0\nsamples = 30\nvalue = [0, 52, 0, 0]", fillcolor="#47e539"] ;
29 -> 33 ;
34 [label="pSist <= 14.89\nentropy = 0.67\nsamples = 72\nvalue = [14, 97, 2, 0]", fillcolor="#65e959"] ;
22 -> 34 ;
35 [label="pSist <= 13.9\nentropy = 0.34\nsamples = 15\nvalue = [0, 30, 2, 0]", fillcolor="#53e746"] ;
34 -> 35 ;
36 [label="pDiast <= 6.91\nentropy = 0.65\nsamples = 6\nvalue = [0, 10, 2, 0]", fillcolor="#6cea61"] ;
35 -> 36 ;
37 [label="entropy = 0.0\nsamples = 1\nvalue = [0, 0, 1, 0]", fillcolor="#399de5"] ;
36 -> 37 ;
38 [label="entropy = 0.44\nsamples = 5\nvalue = [0, 10, 1, 0]", fillcolor="#59e84d"] ;
36 -> 38 ;
39 [label="entropy = 0.0\nsamples = 9\nvalue = [0, 20, 0, 0]", fillcolor="#47e539"] ;
35 -> 39 ;
40 [label="pulso <= 162.15\nentropy = 0.66\nsamples = 57\nvalue = [14, 67, 0, 0]", fillcolor="#6dea62"] ;
34 -> 40 ;
41 [label="pDiast <= 9.39\nentropy = 0.45\nsamples = 44\nvalue = [6, 58, 0, 0]", fillcolor="#5ae84d"] ;
40 -> 41 ;
42 [label="entropy = 0.15\nsamples = 32\nvalue = [1, 45, 0, 0]", fillcolor="#4be63d"] ;
41 -> 42 ;
43 [label="entropy = 0.85\nsamples = 12\nvalue = [5, 13, 0, 0]", fillcolor="#8eef85"] ;
41 -> 43 ;
44 [label="pSist <= 18.14\nentropy = 1.0\nsamples = 13\nvalue = [8, 9, 0, 0]", fillcolor="#ebfce9"] ;
40 -> 44 ;
45 [label="entropy = 0.5\nsamples = 7\nvalue = [8, 1, 0, 0]", fillcolor="#e89152"] ;
44 -> 45 ;
46 [label="entropy = 0.0\nsamples = 6\nvalue = [0, 8, 0, 0]", fillcolor="#47e539"] ;
44 -> 46 ;
47 [label="respiração <= 10.28\nentropy = 0.98\nsamples = 99\nvalue = [93, 65, 0, 0]", fillcolor="#f7d9c3"] ;
1 -> 47 ;
48 [label="pulso <= 123.04\nentropy = 0.94\nsamples = 91\nvalue = [92, 50, 0, 0]", fillcolor="#f3c5a5"] ;
47 -> 48 ;
49 [label="pulso <= 40.88\nentropy = 0.99\nsamples = 52\nvalue = [37, 49, 0, 0]", fillcolor="#d2f9cf"] ;
48 -> 49 ;
50 [label="qPA <= 4.5\nentropy = 0.18\nsamples = 23\nvalue = [37, 1, 0, 0]", fillcolor="#e6843e"] ;
49 -> 50 ;
51 [label="entropy = 0.0\nsamples = 1\nvalue = [0, 1, 0, 0]", fillcolor="#47e539"] ;
50 -> 51 ;
52 [label="entropy = 0.0\nsamples = 22\nvalue = [37, 0, 0, 0]", fillcolor="#e58139"] ;
50 -> 52 ;
53 [label="entropy = 0.0\nsamples = 29\nvalue = [0, 48, 0, 0]", fillcolor="#47e539"] ;
49 -> 53 ;
54 [label="qPA <= 4.78\nentropy = 0.13\nsamples = 39\nvalue = [55, 1, 0, 0]", fillcolor="#e5833d"] ;
48 -> 54 ;
55 [label="entropy = 0.0\nsamples = 1\nvalue = [0, 1, 0, 0]", fillcolor="#47e539"] ;
54 -> 55 ;
56 [label="entropy = 0.0\nsamples = 38\nvalue = [55, 0, 0, 0]", fillcolor="#e58139"] ;
54 -> 56 ;
57 [label="pSist <= 18.57\nentropy = 0.34\nsamples = 8\nvalue = [1, 15, 0, 0]", fillcolor="#53e746"] ;
47 -> 57 ;
58 [label="pSist <= 15.45\nentropy = 0.54\nsamples = 4\nvalue = [1, 7, 0, 0]", fillcolor="#61e955"] ;
57 -> 58 ;
59 [label="entropy = 0.0\nsamples = 3\nvalue = [0, 7, 0, 0]", fillcolor="#47e539"] ;
58 -> 59 ;
60 [label="entropy = 0.0\nsamples = 1\nvalue = [1, 0, 0, 0]", fillcolor="#e58139"] ;
58 -> 60 ;
61 [label="entropy = 0.0\nsamples = 4\nvalue = [0, 8, 0, 0]", fillcolor="#47e539"] ;
57 -> 61 ;
62 [label="respiração <= 19.49\nentropy = 1.37\nsamples = 337\nvalue = [29, 245, 260, 12]", fillcolor="#f5fafe"] ;
0 -> 62 [labeldistance=2.5, labelangle=-45, headlabel="False"] ;
63 [label="pSist <= 14.38\nentropy = 1.14\nsamples = 265\nvalue = [0, 177, 233, 12]", fillcolor="#d2e9f9"] ;
62 -> 63 ;
64 [label="pulso <= 103.09\nentropy = 1.03\nsamples = 108\nvalue = [0, 34, 135, 12]", fillcolor="#77bced"] ;
63 -> 64 ;
65 [label="respiração <= 17.98\nentropy = 1.11\nsamples = 58\nvalue = [0, 15, 73, 12]", fillcolor="#78bced"] ;
64 -> 65 ;
66 [label="qPA <= -3.55\nentropy = 0.95\nsamples = 48\nvalue = [0, 5, 61, 12]", fillcolor="#6cb6ec"] ;
65 -> 66 ;
67 [label="pDiast <= 2.39\nentropy = 0.63\nsamples = 12\nvalue = [0, 3, 16, 0]", fillcolor="#5eafea"] ;
66 -> 67 ;
68 [label="entropy = 0.0\nsamples = 5\nvalue = [0, 0, 9, 0]", fillcolor="#399de5"] ;
67 -> 68 ;
69 [label="entropy = 0.88\nsamples = 7\nvalue = [0, 3, 7, 0]", fillcolor="#8ec7f0"] ;
67 -> 69 ;
70 [label="pulso <= 55.18\nentropy = 0.93\nsamples = 36\nvalue = [0, 2, 45, 12]", fillcolor="#74baed"] ;
66 -> 70 ;
71 [label="entropy = 0.32\nsamples = 20\nvalue = [0, 2, 33, 0]", fillcolor="#45a3e7"] ;
70 -> 71 ;
72 [label="entropy = 1.0\nsamples = 16\nvalue = [0, 0, 12, 12]", fillcolor="#ffffff"] ;
70 -> 72 ;
73 [label="respiração <= 17.99\nentropy = 0.99\nsamples = 10\nvalue = [0, 10, 12, 0]", fillcolor="#deeffb"] ;
65 -> 73 ;
74 [label="entropy = 0.0\nsamples = 1\nvalue = [0, 4, 0, 0]", fillcolor="#47e539"] ;
73 -> 74 ;
75 [label="pSist <= 11.01\nentropy = 0.92\nsamples = 9\nvalue = [0, 6, 12, 0]", fillcolor="#9ccef2"] ;
73 -> 75 ;
76 [label="entropy = 0.0\nsamples = 6\nvalue = [0, 0, 11, 0]", fillcolor="#399de5"] ;
75 -> 76 ;
77 [label="entropy = 0.59\nsamples = 3\nvalue = [0, 6, 1, 0]", fillcolor="#66e95a"] ;
75 -> 77 ;
78 [label="pSist <= 5.9\nentropy = 0.79\nsamples = 50\nvalue = [0, 19, 62, 0]", fillcolor="#76bbed"] ;
64 -> 78 ;
79 [label="entropy = 0.0\nsamples = 9\nvalue = [0, 0, 11, 0]", fillcolor="#399de5"] ;
78 -> 79 ;
80 [label="qPA <= -4.59\nentropy = 0.84\nsamples = 41\nvalue = [0, 19, 51, 0]", fillcolor="#83c2ef"] ;
78 -> 80 ;
81 [label="qPA <= -4.73\nentropy = 0.99\nsamples = 11\nvalue = [0, 13, 10, 0]", fillcolor="#d5f9d1"] ;
80 -> 81 ;
82 [label="entropy = 1.0\nsamples = 10\nvalue = [0, 10, 10, 0]", fillcolor="#ffffff"] ;
81 -> 82 ;
83 [label="entropy = 0.0\nsamples = 1\nvalue = [0, 3, 0, 0]", fillcolor="#47e539"] ;
81 -> 83 ;
84 [label="qPA <= 3.91\nentropy = 0.55\nsamples = 30\nvalue = [0, 6, 41, 0]", fillcolor="#56abe9"] ;
80 -> 84 ;
85 [label="entropy = 0.0\nsamples = 24\nvalue = [0, 0, 38, 0]", fillcolor="#399de5"] ;
84 -> 85 ;
86 [label="entropy = 0.92\nsamples = 6\nvalue = [0, 6, 3, 0]", fillcolor="#a3f29c"] ;
84 -> 86 ;
87 [label="pDiast <= 5.3\nentropy = 0.97\nsamples = 157\nvalue = [0, 143, 98, 0]", fillcolor="#c5f7c1"] ;
63 -> 87 ;
88 [label="qPA <= -2.74\nentropy = 0.72\nsamples = 35\nvalue = [0, 11, 44, 0]", fillcolor="#6ab6ec"] ;
87 -> 88 ;
89 [label="pDiast <= 1.2\nentropy = 0.87\nsamples = 24\nvalue = [0, 11, 27, 0]", fillcolor="#8ac5f0"] ;
88 -> 89 ;
90 [label="pDiast <= 0.66\nentropy = 0.92\nsamples = 6\nvalue = [0, 6, 3, 0]", fillcolor="#a3f29c"] ;
89 -> 90 ;
91 [label="entropy = 0.81\nsamples = 2\nvalue = [0, 1, 3, 0]", fillcolor="#7bbeee"] ;
90 -> 91 ;
92 [label="entropy = 0.0\nsamples = 4\nvalue = [0, 5, 0, 0]", fillcolor="#47e539"] ;
90 -> 92 ;
93 [label="respiração <= 13.13\nentropy = 0.66\nsamples = 18\nvalue = [0, 5, 24, 0]", fillcolor="#62b1ea"] ;
89 -> 93 ;
94 [label="entropy = 0.0\nsamples = 5\nvalue = [0, 5, 0, 0]", fillcolor="#47e539"] ;
93 -> 94 ;
95 [label="entropy = 0.0\nsamples = 13\nvalue = [0, 0, 24, 0]", fillcolor="#399de5"] ;
93 -> 95 ;
96 [label="entropy = 0.0\nsamples = 11\nvalue = [0, 0, 17, 0]", fillcolor="#399de5"] ;
88 -> 96 ;
97 [label="pDiast <= 11.53\nentropy = 0.87\nsamples = 122\nvalue = [0, 132, 54, 0]", fillcolor="#92f08a"] ;
87 -> 97 ;
98 [label="pSist <= 16.56\nentropy = 0.94\nsamples = 77\nvalue = [0, 75, 41, 0]", fillcolor="#acf3a5"] ;
97 -> 98 ;
99 [label="pulso <= 132.23\nentropy = 0.98\nsamples = 21\nvalue = [0, 12, 17, 0]", fillcolor="#c5e2f7"] ;
98 -> 99 ;
100 [label="entropy = 0.77\nsamples = 14\nvalue = [0, 5, 17, 0]", fillcolor="#73baed"] ;
99 -> 100 ;
101 [label="entropy = 0.0\nsamples = 7\nvalue = [0, 7, 0, 0]", fillcolor="#47e539"] ;
99 -> 101 ;
102 [label="pulso <= 122.11\nentropy = 0.85\nsamples = 56\nvalue = [0, 63, 24, 0]", fillcolor="#8def84"] ;
98 -> 102 ;
103 [label="entropy = 0.96\nsamples = 29\nvalue = [0, 15, 24, 0]", fillcolor="#b5daf5"] ;
102 -> 103 ;
104 [label="entropy = 0.0\nsamples = 27\nvalue = [0, 48, 0, 0]", fillcolor="#47e539"] ;
102 -> 104 ;
105 [label="pDiast <= 13.45\nentropy = 0.69\nsamples = 45\nvalue = [0, 57, 13, 0]", fillcolor="#71eb66"] ;
97 -> 105 ;
106 [label="pDiast <= 12.29\nentropy = 0.34\nsamples = 22\nvalue = [0, 30, 2, 0]", fillcolor="#53e746"] ;
105 -> 106 ;
107 [label="entropy = 0.62\nsamples = 9\nvalue = [0, 11, 2, 0]", fillcolor="#68ea5d"] ;
106 -> 107 ;
108 [label="entropy = 0.0\nsamples = 13\nvalue = [0, 19, 0, 0]", fillcolor="#47e539"] ;
106 -> 108 ;
109 [label="pulso <= 116.11\nentropy = 0.87\nsamples = 23\nvalue = [0, 27, 11, 0]", fillcolor="#92f08a"] ;
105 -> 109 ;
110 [label="entropy = 1.0\nsamples = 12\nvalue = [0, 10, 11, 0]", fillcolor="#edf6fd"] ;
109 -> 110 ;
111 [label="entropy = 0.0\nsamples = 11\nvalue = [0, 17, 0, 0]", fillcolor="#47e539"] ;
109 -> 111 ;
112 [label="pDiast <= 10.91\nentropy = 1.44\nsamples = 72\nvalue = [29, 68, 27, 0]", fillcolor="#b3f4ae"] ;
62 -> 112 ;
113 [label="pulso <= 126.82\nentropy = 1.22\nsamples = 49\nvalue = [7, 58, 27, 0]", fillcolor="#a7f3a1"] ;
112 -> 113 ;
114 [label="respiração <= 19.84\nentropy = 1.11\nsamples = 27\nvalue = [1, 20, 27, 0]", fillcolor="#cee6f8"] ;
113 -> 114 ;
115 [label="entropy = 0.0\nsamples = 6\nvalue = [0, 11, 0, 0]", fillcolor="#47e539"] ;
114 -> 115 ;
116 [label="pSist <= 19.46\nentropy = 0.97\nsamples = 21\nvalue = [1, 9, 27, 0]", fillcolor="#80c0ee"] ;
114 -> 116 ;
117 [label="qPA <= -4.37\nentropy = 0.86\nsamples = 20\nvalue = [1, 6, 27, 0]", fillcolor="#6bb6ec"] ;
116 -> 117 ;
118 [label="entropy = 0.54\nsamples = 4\nvalue = [1, 0, 7, 0]", fillcolor="#55abe9"] ;
117 -> 118 ;
119 [label="entropy = 0.78\nsamples = 16\nvalue = [0, 6, 20, 0]", fillcolor="#74baed"] ;
117 -> 119 ;
120 [label="entropy = 0.0\nsamples = 1\nvalue = [0, 3, 0, 0]", fillcolor="#47e539"] ;
116 -> 120 ;
121 [label="qPA <= 4.69\nentropy = 0.57\nsamples = 22\nvalue = [6, 38, 0, 0]", fillcolor="#64e958"] ;
113 -> 121 ;
122 [label="entropy = 0.0\nsamples = 17\nvalue = [0, 32, 0, 0]", fillcolor="#47e539"] ;
121 -> 122 ;
123 [label="qPA <= 4.8\nentropy = 1.0\nsamples = 5\nvalue = [6, 6, 0, 0]", fillcolor="#ffffff"] ;
121 -> 123 ;
124 [label="entropy = 0.0\nsamples = 3\nvalue = [6, 0, 0, 0]", fillcolor="#e58139"] ;
123 -> 124 ;
125 [label="entropy = 0.0\nsamples = 2\nvalue = [0, 6, 0, 0]", fillcolor="#47e539"] ;
123 -> 125 ;
126 [label="pulso <= 129.98\nentropy = 0.9\nsamples = 23\nvalue = [22, 10, 0, 0]", fillcolor="#f1ba93"] ;
112 -> 126 ;
127 [label="pDiast <= 12.69\nentropy = 1.0\nsamples = 15\nvalue = [10, 10, 0, 0]", fillcolor="#ffffff"] ;
126 -> 127 ;
128 [label="pulso <= 59.41\nentropy = 0.68\nsamples = 8\nvalue = [9, 2, 0, 0]", fillcolor="#eb9d65"] ;
127 -> 128 ;
129 [label="entropy = 0.0\nsamples = 6\nvalue = [9, 0, 0, 0]", fillcolor="#e58139"] ;
128 -> 129 ;
130 [label="entropy = 0.0\nsamples = 2\nvalue = [0, 2, 0, 0]", fillcolor="#47e539"] ;
128 -> 130 ;
131 [label="pulso <= 27.7\nentropy = 0.5\nsamples = 7\nvalue = [1, 8, 0, 0]", fillcolor="#5ee852"] ;
127 -> 131 ;
132 [label="entropy = 0.0\nsamples = 1\nvalue = [1, 0, 0, 0]", fillcolor="#e58139"] ;
131 -> 132 ;
133 [label="entropy = 0.0\nsamples = 6\nvalue = [0, 8, 0, 0]", fillcolor="#47e539"] ;
131 -> 133 ;
134 [label="entropy = 0.0\nsamples = 8\nvalue = [12, 0, 0, 0]", fillcolor="#e58139"] ;
126 -> 134 ;
}