digraph Tree {
node [shape=box, style="filled, rounded", color="black", fontname="helvetica"] ;
edge [fontname="helvetica"] ;
0 [label="respiração <= 11.37\nentropy = 1.56\nsamples = 669\nvalue = [167, 569, 283, 31]", fillcolor="#baf5b5"] ;
1 [label="pSist <= 13.53\nentropy = 1.16\nsamples = 337\nvalue = [132, 355, 38, 0]", fillcolor="#97f08f"] ;
0 -> 1 [labeldistance=2.5, labelangle=45, headlabel="True"] ;
2 [label="pulso <= 123.35\nentropy = 1.12\nsamples = 105\nvalue = [23, 129, 26, 0]", fillcolor="#82ed79"] ;
1 -> 2 ;
3 [label="respiração <= 1.61\nentropy = 1.12\nsamples = 59\nvalue = [6, 70, 26, 0]", fillcolor="#94f08c"] ;
2 -> 3 ;
4 [label="pSist <= 8.16\nentropy = 0.37\nsamples = 10\nvalue = [1, 13, 0, 0]", fillcolor="#55e748"] ;
3 -> 4 ;
5 [label="pSist <= 5.06\nentropy = 0.92\nsamples = 2\nvalue = [1, 2, 0, 0]", fillcolor="#a3f29c"] ;
4 -> 5 ;
6 [label="entropy = 0.0\nsamples = 1\nvalue = [0, 2, 0, 0]", fillcolor="#47e539"] ;
5 -> 6 ;
7 [label="entropy = 0.0\nsamples = 1\nvalue = [1, 0, 0, 0]", fillcolor="#e58139"] ;
5 -> 7 ;
8 [label="entropy = 0.0\nsamples = 8\nvalue = [0, 11, 0, 0]", fillcolor="#47e539"] ;
4 -> 8 ;
9 [label="pulso <= 56.98\nentropy = 1.16\nsamples = 49\nvalue = [5, 57, 26, 0]", fillcolor="#a3f29c"] ;
3 -> 9 ;
10 [label="qPA <= -4.73\nentropy = 0.55\nsamples = 19\nvalue = [5, 34, 0, 0]", fillcolor="#62e956"] ;
9 -> 10 ;
11 [label="entropy = 0.0\nsamples = 3\nvalue = [5, 0, 0, 0]", fillcolor="#e58139"] ;
10 -> 11 ;
12 [label="entropy = 0.0\nsamples = 16\nvalue = [0, 34, 0, 0]", fillcolor="#47e539"] ;
10 -> 12 ;
13 [label="qPA <= -2.32\nentropy = 1.0\nsamples = 30\nvalue = [0, 23, 26, 0]", fillcolor="#e8f4fc"] ;
9 -> 13 ;
14 [label="entropy = 0.0\nsamples = 10\nvalue = [0, 17, 0, 0]", fillcolor="#47e539"] ;
13 -> 14 ;
15 [label="pDiast <= 10.28\nentropy = 0.7\nsamples = 20\nvalue = [0, 6, 26, 0]", fillcolor="#67b4eb"] ;
13 -> 15 ;
16 [label="entropy = 0.0\nsamples = 17\nvalue = [0, 0, 26, 0]", fillcolor="#399de5"] ;
15 -> 16 ;
17 [label="entropy = 0.0\nsamples = 3\nvalue = [0, 6, 0, 0]", fillcolor="#47e539"] ;
15 -> 17 ;
18 [label="pDiast <= 1.6\nentropy = 0.77\nsamples = 46\nvalue = [17, 59, 0, 0]", fillcolor="#7cec72"] ;
2 -> 18 ;
19 [label="pSist <= 9.95\nentropy = 0.68\nsamples = 6\nvalue = [9, 2, 0, 0]", fillcolor="#eb9d65"] ;
18 -> 19 ;
20 [label="entropy = 0.0\nsamples = 5\nvalue = [9, 0, 0, 0]", fillcolor="#e58139"] ;
19 -> 20 ;
21 [label="entropy = 0.0\nsamples = 1\nvalue = [0, 2, 0, 0]", fillcolor="#47e539"] ;
19 -> 21 ;
22 [label="qPA <= -4.68\nentropy = 0.54\nsamples = 40\nvalue = [8, 57, 0, 0]", fillcolor="#61e955"] ;
18 -> 22 ;
23 [label="qPA <= -5.84\nentropy = 0.72\nsamples = 4\nvalue = [4, 1, 0, 0]", fillcolor="#eca06a"] ;
22 -> 23 ;
24 [label="entropy = 0.0\nsamples = 2\nvalue = [2, 0, 0, 0]", fillcolor="#e58139"] ;
23 -> 24 ;
25 [label="qPA <= -4.74\nentropy = 0.92\nsamples = 2\nvalue = [2, 1, 0, 0]", fillcolor="#f2c09c"] ;
23 -> 25 ;
26 [label="entropy = 0.0\nsamples = 1\nvalue = [0, 1, 0, 0]", fillcolor="#47e539"] ;
25 -> 26 ;
27 [label="entropy = 0.0\nsamples = 1\nvalue = [2, 0, 0, 0]", fillcolor="#e58139"] ;
25 -> 27 ;
28 [label="pSist <= 11.28\nentropy = 0.35\nsamples = 36\nvalue = [4, 56, 0, 0]", fillcolor="#54e747"] ;
22 -> 28 ;
29 [label="entropy = 0.0\nsamples = 16\nvalue = [0, 30, 0, 0]", fillcolor="#47e539"] ;
28 -> 29 ;
30 [label="qPA <= 3.7\nentropy = 0.57\nsamples = 20\nvalue = [4, 26, 0, 0]", fillcolor="#63e957"] ;
28 -> 30 ;
31 [label="entropy = 0.0\nsamples = 15\nvalue = [0, 24, 0, 0]", fillcolor="#47e539"] ;
30 -> 31 ;
32 [label="entropy = 0.92\nsamples = 5\nvalue = [4, 2, 0, 0]", fillcolor="#f2c09c"] ;
30 -> 32 ;
33 [label="qPA <= 4.7\nentropy = 1.1\nsamples = 232\nvalue = [109, 226, 12, 0]", fillcolor="#a5f29e"] ;
1 -> 33 ;
34 [label="respiração <= 8.34\nentropy = 0.37\nsamples = 113\nvalue = [0, 159, 12, 0]", fillcolor="#55e748"] ;
33 -> 34 ;
35 [label="respiração <= 8.04\nentropy = 0.44\nsamples = 84\nvalue = [0, 118, 12, 0]", fillcolor="#5ae84d"] ;
34 -> 35 ;
36 [label="qPA <= 1.47\nentropy = 0.28\nsamples = 82\nvalue = [0, 118, 6, 0]", fillcolor="#50e643"] ;
35 -> 36 ;
37 [label="pDiast <= 4.14\nentropy = 0.44\nsamples = 38\nvalue = [0, 60, 6, 0]", fillcolor="#59e84d"] ;
36 -> 37 ;
38 [label="entropy = 0.28\nsamples = 36\nvalue = [0, 60, 3, 0]", fillcolor="#50e643"] ;
37 -> 38 ;
39 [label="entropy = 0.0\nsamples = 2\nvalue = [0, 0, 3, 0]", fillcolor="#399de5"] ;
37 -> 39 ;
40 [label="entropy = 0.0\nsamples = 44\nvalue = [0, 58, 0, 0]", fillcolor="#47e539"] ;
36 -> 40 ;
41 [label="entropy = 0.0\nsamples = 2\nvalue = [0, 0, 6, 0]", fillcolor="#399de5"] ;
35 -> 41 ;
42 [label="entropy = 0.0\nsamples = 29\nvalue = [0, 41, 0, 0]", fillcolor="#47e539"] ;
34 -> 42 ;
43 [label="respiração <= 6.61\nentropy = 0.96\nsamples = 119\nvalue = [109, 67, 0, 0]", fillcolor="#f5ceb3"] ;
33 -> 43 ;
44 [label="pulso <= 128.12\nentropy = 0.87\nsamples = 71\nvalue = [76, 31, 0, 0]", fillcolor="#f0b48a"] ;
43 -> 44 ;
45 [label="pSist <= 21.05\nentropy = 0.99\nsamples = 40\nvalue = [26, 31, 0, 0]", fillcolor="#e1fbdf"] ;
44 -> 45 ;
46 [label="respiração <= 4.17\nentropy = 1.0\nsamples = 35\nvalue = [26, 24, 0, 0]", fillcolor="#fdf5f0"] ;
45 -> 46 ;
47 [label="entropy = 0.76\nsamples = 20\nvalue = [6, 21, 0, 0]", fillcolor="#7cec72"] ;
46 -> 47 ;
48 [label="entropy = 0.56\nsamples = 15\nvalue = [20, 3, 0, 0]", fillcolor="#e99457"] ;
46 -> 48 ;
49 [label="entropy = 0.0\nsamples = 5\nvalue = [0, 7, 0, 0]", fillcolor="#47e539"] ;
45 -> 49 ;
50 [label="entropy = 0.0\nsamples = 31\nvalue = [50, 0, 0, 0]", fillcolor="#e58139"] ;
44 -> 50 ;
51 [label="pulso <= 136.65\nentropy = 1.0\nsamples = 48\nvalue = [33, 36, 0, 0]", fillcolor="#f0fdef"] ;
43 -> 51 ;
52 [label="pulso <= 42.24\nentropy = 0.92\nsamples = 34\nvalue = [17, 34, 0, 0]", fillcolor="#a3f29c"] ;
51 -> 52 ;
53 [label="pDiast <= 5.74\nentropy = 0.54\nsamples = 12\nvalue = [14, 2, 0, 0]", fillcolor="#e99355"] ;
52 -> 53 ;
54 [label="entropy = 0.0\nsamples = 1\nvalue = [0, 1, 0, 0]", fillcolor="#47e539"] ;
53 -> 54 ;
55 [label="entropy = 0.35\nsamples = 11\nvalue = [14, 1, 0, 0]", fillcolor="#e78a47"] ;
53 -> 55 ;
56 [label="pDiast <= 11.77\nentropy = 0.42\nsamples = 22\nvalue = [3, 32, 0, 0]", fillcolor="#58e74c"] ;
52 -> 56 ;
57 [label="entropy = 0.0\nsamples = 12\nvalue = [0, 21, 0, 0]", fillcolor="#47e539"] ;
56 -> 57 ;
58 [label="entropy = 0.75\nsamples = 10\nvalue = [3, 11, 0, 0]", fillcolor="#79ec6f"] ;
56 -> 58 ;
59 [label="pDiast <= 11.13\nentropy = 0.5\nsamples = 14\nvalue = [16, 2, 0, 0]", fillcolor="#e89152"] ;
51 -> 59 ;
60 [label="respiração <= 10.15\nentropy = 0.97\nsamples = 5\nvalue = [3, 2, 0, 0]", fillcolor="#f6d5bd"] ;
59 -> 60 ;
61 [label="entropy = 0.0\nsamples = 3\nvalue = [3, 0, 0, 0]", fillcolor="#e58139"] ;
60 -> 61 ;
62 [label="entropy = 0.0\nsamples = 2\nvalue = [0, 2, 0, 0]", fillcolor="#47e539"] ;
60 -> 62 ;
63 [label="entropy = 0.0\nsamples = 9\nvalue = [13, 0, 0, 0]", fillcolor="#e58139"] ;
59 -> 63 ;
64 [label="qPA <= 3.59\nentropy = 1.54\nsamples = 332\nvalue = [35, 214, 245, 31]", fillcolor="#ebf5fc"] ;
0 -> 64 [labeldistance=2.5, labelangle=-45, headlabel="False"] ;
65 [label="respiração <= 18.25\nentropy = 1.29\nsamples = 162\nvalue = [0, 66, 162, 31]", fillcolor="#9dcef2"] ;
64 -> 65 ;
66 [label="qPA <= -3.78\nentropy = 1.1\nsamples = 113\nvalue = [0, 23, 128, 23]", fillcolor="#75bbed"] ;
65 -> 66 ;
67 [label="pSist <= 14.43\nentropy = 0.89\nsamples = 47\nvalue = [0, 23, 52, 0]", fillcolor="#91c8f0"] ;
66 -> 67 ;
68 [label="pulso <= 55.8\nentropy = 0.69\nsamples = 25\nvalue = [0, 8, 35, 0]", fillcolor="#66b3eb"] ;
67 -> 68 ;
69 [label="entropy = 0.0\nsamples = 5\nvalue = [0, 5, 0, 0]", fillcolor="#47e539"] ;
68 -> 69 ;
70 [label="qPA <= -5.78\nentropy = 0.4\nsamples = 20\nvalue = [0, 3, 35, 0]", fillcolor="#4aa5e7"] ;
68 -> 70 ;
71 [label="entropy = 0.75\nsamples = 8\nvalue = [0, 3, 11, 0]", fillcolor="#6fb8ec"] ;
70 -> 71 ;
72 [label="entropy = 0.0\nsamples = 12\nvalue = [0, 0, 24, 0]", fillcolor="#399de5"] ;
70 -> 72 ;
73 [label="pulso <= 58.39\nentropy = 1.0\nsamples = 22\nvalue = [0, 15, 17, 0]", fillcolor="#e8f3fc"] ;
67 -> 73 ;
74 [label="entropy = 0.0\nsamples = 5\nvalue = [0, 7, 0, 0]", fillcolor="#47e539"] ;
73 -> 74 ;
75 [label="qPA <= -4.36\nentropy = 0.9\nsamples = 17\nvalue = [0, 8, 17, 0]", fillcolor="#96cbf1"] ;
73 -> 75 ;
76 [label="entropy = 0.81\nsamples = 3\nvalue = [0, 3, 1, 0]", fillcolor="#84ee7b"] ;
75 -> 76 ;
77 [label="entropy = 0.79\nsamples = 14\nvalue = [0, 5, 16, 0]", fillcolor="#77bced"] ;
75 -> 77 ;
78 [label="pulso <= 103.09\nentropy = 0.78\nsamples = 66\nvalue = [0, 0, 76, 23]", fillcolor="#75bbed"] ;
66 -> 78 ;
79 [label="pSist <= 8.98\nentropy = 0.96\nsamples = 36\nvalue = [0, 0, 37, 23]", fillcolor="#b4daf5"] ;
78 -> 79 ;
80 [label="pSist <= 2.57\nentropy = 0.61\nsamples = 13\nvalue = [0, 0, 17, 3]", fillcolor="#5caeea"] ;
79 -> 80 ;
81 [label="entropy = 0.0\nsamples = 1\nvalue = [0, 0, 0, 2]", fillcolor="#d739e5"] ;
80 -> 81 ;
82 [label="entropy = 0.31\nsamples = 12\nvalue = [0, 0, 17, 1]", fillcolor="#45a3e7"] ;
80 -> 82 ;
83 [label="pulso <= 48.94\nentropy = 1.0\nsamples = 23\nvalue = [0, 0, 20, 20]", fillcolor="#ffffff"] ;
79 -> 83 ;
84 [label="entropy = 0.0\nsamples = 7\nvalue = [0, 0, 13, 0]", fillcolor="#399de5"] ;
83 -> 84 ;
85 [label="entropy = 0.83\nsamples = 16\nvalue = [0, 0, 7, 20]", fillcolor="#e57eee"] ;
83 -> 85 ;
86 [label="entropy = 0.0\nsamples = 30\nvalue = [0, 0, 39, 0]", fillcolor="#399de5"] ;
78 -> 86 ;
87 [label="pDiast <= 8.89\nentropy = 1.35\nsamples = 49\nvalue = [0, 43, 34, 8]", fillcolor="#dffadc"] ;
65 -> 87 ;
88 [label="pulso <= 50.61\nentropy = 1.34\nsamples = 45\nvalue = [0, 43, 28, 8]", fillcolor="#c9f7c5"] ;
87 -> 88 ;
89 [label="entropy = 0.0\nsamples = 9\nvalue = [0, 19, 0, 0]", fillcolor="#47e539"] ;
88 -> 89 ;
90 [label="pulso <= 122.58\nentropy = 1.43\nsamples = 36\nvalue = [0, 24, 28, 8]", fillcolor="#e9f4fc"] ;
88 -> 90 ;
91 [label="pulso <= 81.54\nentropy = 1.0\nsamples = 16\nvalue = [0, 1, 23, 8]", fillcolor="#83c2ef"] ;
90 -> 91 ;
92 [label="entropy = 0.97\nsamples = 8\nvalue = [0, 0, 12, 8]", fillcolor="#bddef6"] ;
91 -> 92 ;
93 [label="entropy = 0.41\nsamples = 8\nvalue = [0, 1, 11, 0]", fillcolor="#4ba6e7"] ;
91 -> 93 ;
94 [label="pSist <= 11.91\nentropy = 0.68\nsamples = 20\nvalue = [0, 23, 5, 0]", fillcolor="#6feb64"] ;
90 -> 94 ;
95 [label="entropy = 0.94\nsamples = 9\nvalue = [0, 9, 5, 0]", fillcolor="#adf3a7"] ;
94 -> 95 ;
96 [label="entropy = 0.0\nsamples = 11\nvalue = [0, 14, 0, 0]", fillcolor="#47e539"] ;
94 -> 96 ;
97 [label="entropy = 0.0\nsamples = 4\nvalue = [0, 0, 6, 0]", fillcolor="#399de5"] ;
87 -> 97 ;
98 [label="pulso <= 115.67\nentropy = 1.38\nsamples = 170\nvalue = [35, 148, 83, 0]", fillcolor="#bef6b9"] ;
64 -> 98 ;
99 [label="pulso <= 43.23\nentropy = 1.35\nsamples = 106\nvalue = [16, 72, 82, 0]", fillcolor="#ebf5fc"] ;
98 -> 99 ;
100 [label="qPA <= 6.94\nentropy = 0.86\nsamples = 37\nvalue = [16, 41, 0, 0]", fillcolor="#8fef86"] ;
99 -> 100 ;
101 [label="entropy = 0.0\nsamples = 13\nvalue = [0, 19, 0, 0]", fillcolor="#47e539"] ;
100 -> 101 ;
102 [label="respiração <= 19.48\nentropy = 0.98\nsamples = 24\nvalue = [16, 22, 0, 0]", fillcolor="#cdf8c9"] ;
100 -> 102 ;
103 [label="entropy = 0.0\nsamples = 14\nvalue = [0, 22, 0, 0]", fillcolor="#47e539"] ;
102 -> 103 ;
104 [label="entropy = 0.0\nsamples = 10\nvalue = [16, 0, 0, 0]", fillcolor="#e58139"] ;
102 -> 104 ;
105 [label="pSist <= 20.55\nentropy = 0.85\nsamples = 69\nvalue = [0, 31, 82, 0]", fillcolor="#84c2ef"] ;
99 -> 105 ;
106 [label="qPA <= 4.76\nentropy = 0.89\nsamples = 63\nvalue = [0, 31, 69, 0]", fillcolor="#92c9f1"] ;
105 -> 106 ;
107 [label="pulso <= 55.84\nentropy = 0.68\nsamples = 28\nvalue = [0, 8, 37, 0]", fillcolor="#64b2eb"] ;
106 -> 107 ;
108 [label="entropy = 1.0\nsamples = 5\nvalue = [0, 5, 5, 0]", fillcolor="#ffffff"] ;
107 -> 108 ;
109 [label="entropy = 0.42\nsamples = 23\nvalue = [0, 3, 32, 0]", fillcolor="#4ca6e7"] ;
107 -> 109 ;
110 [label="pDiast <= 14.0\nentropy = 0.98\nsamples = 35\nvalue = [0, 23, 32, 0]", fillcolor="#c7e3f8"] ;
106 -> 110 ;
111 [label="entropy = 1.0\nsamples = 32\nvalue = [0, 23, 27, 0]", fillcolor="#e2f0fb"] ;
110 -> 111 ;
112 [label="entropy = 0.0\nsamples = 3\nvalue = [0, 0, 5, 0]", fillcolor="#399de5"] ;
110 -> 112 ;
113 [label="entropy = 0.0\nsamples = 6\nvalue = [0, 0, 13, 0]", fillcolor="#399de5"] ;
105 -> 113 ;
114 [label="qPA <= 4.71\nentropy = 0.8\nsamples = 64\nvalue = [19, 76, 1, 0]", fillcolor="#77ec6c"] ;
98 -> 114 ;
115 [label="pSist <= 14.56\nentropy = 0.18\nsamples = 22\nvalue = [0, 35, 1, 0]", fillcolor="#4ce63f"] ;
114 -> 115 ;
116 [label="respiração <= 13.4\nentropy = 0.92\nsamples = 2\nvalue = [0, 2, 1, 0]", fillcolor="#a3f29c"] ;
115 -> 116 ;
117 [label="entropy = 0.0\nsamples = 1\nvalue = [0, 2, 0, 0]", fillcolor="#47e539"] ;
116 -> 117 ;
118 [label="entropy = 0.0\nsamples = 1\nvalue = [0, 0, 1, 0]", fillcolor="#399de5"] ;
116 -> 118 ;
119 [label="entropy = 0.0\nsamples = 20\nvalue = [0, 33, 0, 0]", fillcolor="#47e539"] ;
115 -> 119 ;
120 [label="respiração <= 19.5\nentropy = 0.9\nsamples = 42\nvalue = [19, 41, 0, 0]", fillcolor="#9cf195"] ;
114 -> 120 ;
121 [label="entropy = 0.0\nsamples = 27\nvalue = [0, 39, 0, 0]", fillcolor="#47e539"] ;
120 -> 121 ;
122 [label="pulso <= 125.99\nentropy = 0.45\nsamples = 15\nvalue = [19, 2, 0, 0]", fillcolor="#e88e4e"] ;
120 -> 122 ;
123 [label="entropy = 0.0\nsamples = 1\nvalue = [0, 1, 0, 0]", fillcolor="#47e539"] ;
122 -> 123 ;
124 [label="pDiast <= 10.24\nentropy = 0.29\nsamples = 14\nvalue = [19, 1, 0, 0]", fillcolor="#e68843"] ;
122 -> 124 ;
125 [label="entropy = 0.59\nsamples = 4\nvalue = [6, 1, 0, 0]", fillcolor="#e9965a"] ;
124 -> 125 ;
126 [label="entropy = 0.0\nsamples = 10\nvalue = [13, 0, 0, 0]", fillcolor="#e58139"] ;
124 -> 126 ;
}