digraph Tree {
node [shape=box, style="filled, rounded", color="black", fontname="helvetica"] ;
edge [fontname="helvetica"] ;
0 [label="respiração <= 11.37\nentropy = 1.5\nsamples = 684\nvalue = [163, 582, 286, 19]", fillcolor="#b8f5b2"] ;
1 [label="pDiast <= 10.43\nentropy = 1.16\nsamples = 326\nvalue = [124, 339, 37, 0]", fillcolor="#96f08e"] ;
0 -> 1 [labeldistance=2.5, labelangle=45, headlabel="True"] ;
2 [label="qPA <= -4.72\nentropy = 0.94\nsamples = 227\nvalue = [35, 277, 37, 0]", fillcolor="#71eb67"] ;
1 -> 2 ;
3 [label="respiração <= 8.28\nentropy = 0.97\nsamples = 22\nvalue = [21, 14, 0, 0]", fillcolor="#f6d5bd"] ;
2 -> 3 ;
4 [label="pDiast <= 2.97\nentropy = 1.0\nsamples = 17\nvalue = [13, 14, 0, 0]", fillcolor="#f2fdf1"] ;
3 -> 4 ;
5 [label="pulso <= 131.59\nentropy = 0.9\nsamples = 12\nvalue = [13, 6, 0, 0]", fillcolor="#f1bb94"] ;
4 -> 5 ;
6 [label="pulso <= 36.55\nentropy = 0.81\nsamples = 5\nvalue = [2, 6, 0, 0]", fillcolor="#84ee7b"] ;
5 -> 6 ;
7 [label="entropy = 0.0\nsamples = 1\nvalue = [2, 0, 0, 0]", fillcolor="#e58139"] ;
6 -> 7 ;
8 [label="entropy = 0.0\nsamples = 4\nvalue = [0, 6, 0, 0]", fillcolor="#47e539"] ;
6 -> 8 ;
9 [label="entropy = 0.0\nsamples = 7\nvalue = [11, 0, 0, 0]", fillcolor="#e58139"] ;
5 -> 9 ;
10 [label="entropy = 0.0\nsamples = 5\nvalue = [0, 8, 0, 0]", fillcolor="#47e539"] ;
4 -> 10 ;
11 [label="entropy = 0.0\nsamples = 5\nvalue = [8, 0, 0, 0]", fillcolor="#e58139"] ;
3 -> 11 ;
12 [label="qPA <= 4.7\nentropy = 0.78\nsamples = 205\nvalue = [14, 263, 37, 0]", fillcolor="#69ea5d"] ;
2 -> 12 ;
13 [label="pSist <= 14.39\nentropy = 0.57\nsamples = 180\nvalue = [0, 238, 37, 0]", fillcolor="#64e958"] ;
12 -> 13 ;
14 [label="pulso <= 123.59\nentropy = 0.78\nsamples = 98\nvalue = [0, 118, 35, 0]", fillcolor="#7eed74"] ;
13 -> 14 ;
15 [label="qPA <= -3.64\nentropy = 0.97\nsamples = 53\nvalue = [0, 51, 35, 0]", fillcolor="#c5f7c1"] ;
14 -> 15 ;
16 [label="entropy = 0.0\nsamples = 16\nvalue = [0, 25, 0, 0]", fillcolor="#47e539"] ;
15 -> 16 ;
17 [label="entropy = 0.98\nsamples = 37\nvalue = [0, 26, 35, 0]", fillcolor="#cce6f8"] ;
15 -> 17 ;
18 [label="entropy = 0.0\nsamples = 45\nvalue = [0, 67, 0, 0]", fillcolor="#47e539"] ;
14 -> 18 ;
19 [label="pSist <= 18.93\nentropy = 0.12\nsamples = 82\nvalue = [0, 120, 2, 0]", fillcolor="#4ae53c"] ;
13 -> 19 ;
20 [label="pSist <= 18.72\nentropy = 0.19\nsamples = 47\nvalue = [0, 68, 2, 0]", fillcolor="#4ce63f"] ;
19 -> 20 ;
21 [label="entropy = 0.11\nsamples = 46\nvalue = [0, 68, 1, 0]", fillcolor="#4ae53c"] ;
20 -> 21 ;
22 [label="entropy = 0.0\nsamples = 1\nvalue = [0, 0, 1, 0]", fillcolor="#399de5"] ;
20 -> 22 ;
23 [label="entropy = 0.0\nsamples = 35\nvalue = [0, 52, 0, 0]", fillcolor="#47e539"] ;
19 -> 23 ;
24 [label="pulso <= 37.57\nentropy = 0.94\nsamples = 25\nvalue = [14, 25, 0, 0]", fillcolor="#aef4a8"] ;
12 -> 24 ;
25 [label="entropy = 0.0\nsamples = 4\nvalue = [7, 0, 0, 0]", fillcolor="#e58139"] ;
24 -> 25 ;
26 [label="pSist <= 17.98\nentropy = 0.76\nsamples = 21\nvalue = [7, 25, 0, 0]", fillcolor="#7bec70"] ;
24 -> 26 ;
27 [label="pDiast <= 10.22\nentropy = 1.0\nsamples = 11\nvalue = [7, 8, 0, 0]", fillcolor="#e8fce6"] ;
26 -> 27 ;
28 [label="entropy = 0.95\nsamples = 8\nvalue = [7, 4, 0, 0]", fillcolor="#f4c9aa"] ;
27 -> 28 ;
29 [label="entropy = 0.0\nsamples = 3\nvalue = [0, 4, 0, 0]", fillcolor="#47e539"] ;
27 -> 29 ;
30 [label="entropy = 0.0\nsamples = 10\nvalue = [0, 17, 0, 0]", fillcolor="#47e539"] ;
26 -> 30 ;
31 [label="respiração <= 10.78\nentropy = 0.98\nsamples = 99\nvalue = [89, 62, 0, 0]", fillcolor="#f7d9c3"] ;
1 -> 31 ;
32 [label="pDiast <= 14.58\nentropy = 0.95\nsamples = 92\nvalue = [89, 53, 0, 0]", fillcolor="#f4ccaf"] ;
31 -> 32 ;
33 [label="qPA <= 4.47\nentropy = 0.92\nsamples = 85\nvalue = [87, 44, 0, 0]", fillcolor="#f2c19d"] ;
32 -> 33 ;
34 [label="entropy = 0.0\nsamples = 3\nvalue = [0, 8, 0, 0]", fillcolor="#47e539"] ;
33 -> 34 ;
35 [label="pSist <= 20.5\nentropy = 0.87\nsamples = 82\nvalue = [87, 36, 0, 0]", fillcolor="#f0b58b"] ;
33 -> 35 ;
36 [label="pulso <= 121.11\nentropy = 0.78\nsamples = 65\nvalue = [77, 23, 0, 0]", fillcolor="#eda774"] ;
35 -> 36 ;
37 [label="entropy = 1.0\nsamples = 34\nvalue = [27, 23, 0, 0]", fillcolor="#fbece2"] ;
36 -> 37 ;
38 [label="entropy = 0.0\nsamples = 31\nvalue = [50, 0, 0, 0]", fillcolor="#e58139"] ;
36 -> 38 ;
39 [label="pulso <= 124.02\nentropy = 0.99\nsamples = 17\nvalue = [10, 13, 0, 0]", fillcolor="#d5f9d1"] ;
35 -> 39 ;
40 [label="entropy = 0.79\nsamples = 13\nvalue = [4, 13, 0, 0]", fillcolor="#80ed76"] ;
39 -> 40 ;
41 [label="entropy = 0.0\nsamples = 4\nvalue = [6, 0, 0, 0]", fillcolor="#e58139"] ;
39 -> 41 ;
42 [label="respiração <= 6.59\nentropy = 0.68\nsamples = 7\nvalue = [2, 9, 0, 0]", fillcolor="#70eb65"] ;
32 -> 42 ;
43 [label="pulso <= 138.43\nentropy = 0.47\nsamples = 6\nvalue = [1, 9, 0, 0]", fillcolor="#5be84f"] ;
42 -> 43 ;
44 [label="entropy = 0.0\nsamples = 5\nvalue = [0, 9, 0, 0]", fillcolor="#47e539"] ;
43 -> 44 ;
45 [label="entropy = 0.0\nsamples = 1\nvalue = [1, 0, 0, 0]", fillcolor="#e58139"] ;
43 -> 45 ;
46 [label="entropy = 0.0\nsamples = 1\nvalue = [1, 0, 0, 0]", fillcolor="#e58139"] ;
42 -> 46 ;
47 [label="entropy = 0.0\nsamples = 7\nvalue = [0, 9, 0, 0]", fillcolor="#47e539"] ;
31 -> 47 ;
48 [label="pDiast <= 11.53\nentropy = 1.48\nsamples = 358\nvalue = [39, 243, 249, 19]", fillcolor="#fbfdfe"] ;
0 -> 48 [labeldistance=2.5, labelangle=-45, headlabel="False"] ;
49 [label="respiração <= 19.4\nentropy = 1.34\nsamples = 284\nvalue = [11, 172, 235, 19]", fillcolor="#d0e8f9"] ;
48 -> 49 ;
50 [label="qPA <= 4.24\nentropy = 1.16\nsamples = 220\nvalue = [0, 108, 208, 16]", fillcolor="#a7d3f3"] ;
49 -> 50 ;
51 [label="pulso <= 30.64\nentropy = 0.98\nsamples = 137\nvalue = [0, 30, 158, 16]", fillcolor="#6db7ec"] ;
50 -> 51 ;
52 [label="qPA <= -2.17\nentropy = 0.97\nsamples = 18\nvalue = [0, 15, 10, 0]", fillcolor="#c2f6bd"] ;
51 -> 52 ;
53 [label="entropy = 0.0\nsamples = 6\nvalue = [0, 9, 0, 0]", fillcolor="#47e539"] ;
52 -> 53 ;
54 [label="qPA <= 1.75\nentropy = 0.95\nsamples = 12\nvalue = [0, 6, 10, 0]", fillcolor="#b0d8f5"] ;
52 -> 54 ;
55 [label="entropy = 0.65\nsamples = 9\nvalue = [0, 2, 10, 0]", fillcolor="#61b1ea"] ;
54 -> 55 ;
56 [label="entropy = 0.0\nsamples = 3\nvalue = [0, 4, 0, 0]", fillcolor="#47e539"] ;
54 -> 56 ;
57 [label="qPA <= -4.23\nentropy = 0.84\nsamples = 119\nvalue = [0, 15, 148, 16]", fillcolor="#5fb0ea"] ;
51 -> 57 ;
58 [label="qPA <= -8.12\nentropy = 0.79\nsamples = 48\nvalue = [0, 15, 48, 0]", fillcolor="#77bced"] ;
57 -> 58 ;
59 [label="entropy = 0.0\nsamples = 7\nvalue = [0, 0, 9, 0]", fillcolor="#399de5"] ;
58 -> 59 ;
60 [label="entropy = 0.85\nsamples = 41\nvalue = [0, 15, 39, 0]", fillcolor="#85c3ef"] ;
58 -> 60 ;
61 [label="pSist <= 2.27\nentropy = 0.58\nsamples = 71\nvalue = [0, 0, 100, 16]", fillcolor="#59ade9"] ;
57 -> 61 ;
62 [label="entropy = 0.81\nsamples = 2\nvalue = [0, 0, 1, 3]", fillcolor="#e47bee"] ;
61 -> 62 ;
63 [label="entropy = 0.52\nsamples = 69\nvalue = [0, 0, 99, 13]", fillcolor="#53aae8"] ;
61 -> 63 ;
64 [label="respiração <= 12.31\nentropy = 0.97\nsamples = 83\nvalue = [0, 78, 50, 0]", fillcolor="#bdf6b8"] ;
50 -> 64 ;
65 [label="entropy = 0.0\nsamples = 7\nvalue = [0, 11, 0, 0]", fillcolor="#47e539"] ;
64 -> 65 ;
66 [label="pulso <= 127.57\nentropy = 0.98\nsamples = 76\nvalue = [0, 67, 50, 0]", fillcolor="#d0f8cd"] ;
64 -> 66 ;
67 [label="pulso <= 43.06\nentropy = 0.95\nsamples = 50\nvalue = [0, 29, 50, 0]", fillcolor="#acd6f4"] ;
66 -> 67 ;
68 [label="entropy = 0.0\nsamples = 12\nvalue = [0, 19, 0, 0]", fillcolor="#47e539"] ;
67 -> 68 ;
69 [label="entropy = 0.65\nsamples = 38\nvalue = [0, 10, 50, 0]", fillcolor="#61b1ea"] ;
67 -> 69 ;
70 [label="entropy = 0.0\nsamples = 26\nvalue = [0, 38, 0, 0]", fillcolor="#47e539"] ;
66 -> 70 ;
71 [label="pulso <= 122.58\nentropy = 1.43\nsamples = 64\nvalue = [11, 64, 27, 3]", fillcolor="#a8f3a1"] ;
49 -> 71 ;
72 [label="pulso <= 54.56\nentropy = 1.51\nsamples = 36\nvalue = [4, 27, 27, 3]", fillcolor="#ffffff"] ;
71 -> 72 ;
73 [label="pDiast <= 4.08\nentropy = 0.94\nsamples = 13\nvalue = [4, 17, 1, 0]", fillcolor="#7aec70"] ;
72 -> 73 ;
74 [label="pSist <= 10.72\nentropy = 1.0\nsamples = 5\nvalue = [4, 4, 0, 0]", fillcolor="#ffffff"] ;
73 -> 74 ;
75 [label="entropy = 0.0\nsamples = 2\nvalue = [4, 0, 0, 0]", fillcolor="#e58139"] ;
74 -> 75 ;
76 [label="entropy = 0.0\nsamples = 3\nvalue = [0, 4, 0, 0]", fillcolor="#47e539"] ;
74 -> 76 ;
77 [label="pSist <= 12.68\nentropy = 0.37\nsamples = 8\nvalue = [0, 13, 1, 0]", fillcolor="#55e748"] ;
73 -> 77 ;
78 [label="entropy = 0.72\nsamples = 4\nvalue = [0, 4, 1, 0]", fillcolor="#75ec6a"] ;
77 -> 78 ;
79 [label="entropy = 0.0\nsamples = 4\nvalue = [0, 9, 0, 0]", fillcolor="#47e539"] ;
77 -> 79 ;
80 [label="qPA <= 3.86\nentropy = 1.18\nsamples = 23\nvalue = [0, 10, 26, 3]", fillcolor="#92c9f1"] ;
72 -> 80 ;
81 [label="respiração <= 20.82\nentropy = 0.52\nsamples = 14\nvalue = [0, 0, 23, 3]", fillcolor="#53aae8"] ;
80 -> 81 ;
82 [label="entropy = 0.0\nsamples = 8\nvalue = [0, 0, 13, 0]", fillcolor="#399de5"] ;
81 -> 82 ;
83 [label="entropy = 0.78\nsamples = 6\nvalue = [0, 0, 10, 3]", fillcolor="#74baed"] ;
81 -> 83 ;
84 [label="pulso <= 92.92\nentropy = 0.78\nsamples = 9\nvalue = [0, 10, 3, 0]", fillcolor="#7eed74"] ;
80 -> 84 ;
85 [label="entropy = 1.0\nsamples = 5\nvalue = [0, 3, 3, 0]", fillcolor="#ffffff"] ;
84 -> 85 ;
86 [label="entropy = 0.0\nsamples = 4\nvalue = [0, 7, 0, 0]", fillcolor="#47e539"] ;
84 -> 86 ;
87 [label="pDiast <= 2.35\nentropy = 0.63\nsamples = 28\nvalue = [7, 37, 0, 0]", fillcolor="#6aea5e"] ;
71 -> 87 ;
88 [label="entropy = 0.0\nsamples = 7\nvalue = [0, 15, 0, 0]", fillcolor="#47e539"] ;
87 -> 88 ;
89 [label="pulso <= 154.27\nentropy = 0.8\nsamples = 21\nvalue = [7, 22, 0, 0]", fillcolor="#82ed78"] ;
87 -> 89 ;
90 [label="pSist <= 13.16\nentropy = 0.99\nsamples = 8\nvalue = [5, 6, 0, 0]", fillcolor="#e0fbde"] ;
89 -> 90 ;
91 [label="entropy = 0.0\nsamples = 2\nvalue = [0, 2, 0, 0]", fillcolor="#47e539"] ;
90 -> 91 ;
92 [label="entropy = 0.99\nsamples = 6\nvalue = [5, 4, 0, 0]", fillcolor="#fae6d7"] ;
90 -> 92 ;
93 [label="qPA <= -4.61\nentropy = 0.5\nsamples = 13\nvalue = [2, 16, 0, 0]", fillcolor="#5ee852"] ;
89 -> 93 ;
94 [label="entropy = 0.0\nsamples = 1\nvalue = [1, 0, 0, 0]", fillcolor="#e58139"] ;
93 -> 94 ;
95 [label="entropy = 0.32\nsamples = 12\nvalue = [1, 16, 0, 0]", fillcolor="#52e745"] ;
93 -> 95 ;
96 [label="pulso <= 12.82\nentropy = 1.29\nsamples = 74\nvalue = [28, 71, 14, 0]", fillcolor="#a2f29b"] ;
48 -> 96 ;
97 [label="respiração <= 19.54\nentropy = 0.87\nsamples = 9\nvalue = [12, 5, 0, 0]", fillcolor="#f0b58b"] ;
96 -> 97 ;
98 [label="entropy = 0.0\nsamples = 3\nvalue = [0, 5, 0, 0]", fillcolor="#47e539"] ;
97 -> 98 ;
99 [label="entropy = 0.0\nsamples = 6\nvalue = [12, 0, 0, 0]", fillcolor="#e58139"] ;
97 -> 99 ;
100 [label="respiração <= 19.5\nentropy = 1.21\nsamples = 65\nvalue = [16, 66, 14, 0]", fillcolor="#8cef83"] ;
96 -> 100 ;
101 [label="respiração <= 11.43\nentropy = 0.72\nsamples = 49\nvalue = [0, 56, 14, 0]", fillcolor="#75ec6a"] ;
100 -> 101 ;
102 [label="entropy = 0.0\nsamples = 1\nvalue = [0, 0, 1, 0]", fillcolor="#399de5"] ;
101 -> 102 ;
103 [label="pSist <= 14.26\nentropy = 0.7\nsamples = 48\nvalue = [0, 56, 13, 0]", fillcolor="#72eb67"] ;
101 -> 103 ;
104 [label="entropy = 0.0\nsamples = 5\nvalue = [0, 6, 0, 0]", fillcolor="#47e539"] ;
103 -> 104 ;
105 [label="pulso <= 113.9\nentropy = 0.73\nsamples = 43\nvalue = [0, 50, 13, 0]", fillcolor="#77ec6c"] ;
103 -> 105 ;
106 [label="entropy = 0.94\nsamples = 24\nvalue = [0, 24, 13, 0]", fillcolor="#abf3a4"] ;
105 -> 106 ;
107 [label="entropy = 0.0\nsamples = 19\nvalue = [0, 26, 0, 0]", fillcolor="#47e539"] ;
105 -> 107 ;
108 [label="pulso <= 134.97\nentropy = 0.96\nsamples = 16\nvalue = [16, 10, 0, 0]", fillcolor="#f5d0b5"] ;
100 -> 108 ;
109 [label="pulso <= 43.61\nentropy = 0.86\nsamples = 8\nvalue = [4, 10, 0, 0]", fillcolor="#91ef88"] ;
108 -> 109 ;
110 [label="entropy = 0.0\nsamples = 2\nvalue = [4, 0, 0, 0]", fillcolor="#e58139"] ;
109 -> 110 ;
111 [label="entropy = 0.0\nsamples = 6\nvalue = [0, 10, 0, 0]", fillcolor="#47e539"] ;
109 -> 111 ;
112 [label="entropy = 0.0\nsamples = 8\nvalue = [12, 0, 0, 0]", fillcolor="#e58139"] ;
108 -> 112 ;
}