digraph Tree {
node [shape=box, style="filled, rounded", color="black", fontname="helvetica"] ;
edge [fontname="helvetica"] ;
0 [label="qPA <= 4.7\nentropy = 1.52\nsamples = 669\nvalue = [156, 584, 284, 26]", fillcolor="#b7f5b1"] ;
1 [label="respiração <= 12.14\nentropy = 1.37\nsamples = 412\nvalue = [27, 370, 226, 26]", fillcolor="#c0f6bc"] ;
0 -> 1 [labeldistance=2.5, labelangle=45, headlabel="True"] ;
2 [label="pulso <= 120.31\nentropy = 0.95\nsamples = 222\nvalue = [26, 267, 46, 0]", fillcolor="#74eb6a"] ;
1 -> 2 ;
3 [label="qPA <= -4.36\nentropy = 0.97\nsamples = 128\nvalue = [6, 143, 46, 0]", fillcolor="#87ee7e"] ;
2 -> 3 ;
4 [label="pDiast <= 2.71\nentropy = 0.44\nsamples = 40\nvalue = [6, 60, 0, 0]", fillcolor="#59e84d"] ;
3 -> 4 ;
5 [label="pDiast <= 2.58\nentropy = 0.72\nsamples = 17\nvalue = [6, 24, 0, 0]", fillcolor="#75ec6a"] ;
4 -> 5 ;
6 [label="pulso <= 15.27\nentropy = 0.59\nsamples = 16\nvalue = [4, 24, 0, 0]", fillcolor="#66e95a"] ;
5 -> 6 ;
7 [label="entropy = 0.99\nsamples = 4\nvalue = [4, 3, 0, 0]", fillcolor="#f8e0ce"] ;
6 -> 7 ;
8 [label="entropy = 0.0\nsamples = 12\nvalue = [0, 21, 0, 0]", fillcolor="#47e539"] ;
6 -> 8 ;
9 [label="entropy = 0.0\nsamples = 1\nvalue = [2, 0, 0, 0]", fillcolor="#e58139"] ;
5 -> 9 ;
10 [label="entropy = 0.0\nsamples = 23\nvalue = [0, 36, 0, 0]", fillcolor="#47e539"] ;
4 -> 10 ;
11 [label="pulso <= 43.27\nentropy = 0.94\nsamples = 88\nvalue = [0, 83, 46, 0]", fillcolor="#adf3a7"] ;
3 -> 11 ;
12 [label="pSist <= 8.89\nentropy = 0.14\nsamples = 31\nvalue = [0, 48, 1, 0]", fillcolor="#4be63d"] ;
11 -> 12 ;
13 [label="pulso <= 16.2\nentropy = 0.54\nsamples = 5\nvalue = [0, 7, 1, 0]", fillcolor="#61e955"] ;
12 -> 13 ;
14 [label="entropy = 1.0\nsamples = 2\nvalue = [0, 1, 1, 0]", fillcolor="#ffffff"] ;
13 -> 14 ;
15 [label="entropy = 0.0\nsamples = 3\nvalue = [0, 6, 0, 0]", fillcolor="#47e539"] ;
13 -> 15 ;
16 [label="entropy = 0.0\nsamples = 26\nvalue = [0, 41, 0, 0]", fillcolor="#47e539"] ;
12 -> 16 ;
17 [label="pSist <= 13.06\nentropy = 0.99\nsamples = 57\nvalue = [0, 35, 45, 0]", fillcolor="#d3e9f9"] ;
11 -> 17 ;
18 [label="pulso <= 52.18\nentropy = 0.32\nsamples = 27\nvalue = [0, 2, 32, 0]", fillcolor="#45a3e7"] ;
17 -> 18 ;
19 [label="entropy = 0.81\nsamples = 4\nvalue = [0, 1, 3, 0]", fillcolor="#7bbeee"] ;
18 -> 19 ;
20 [label="entropy = 0.21\nsamples = 23\nvalue = [0, 1, 29, 0]", fillcolor="#40a0e6"] ;
18 -> 20 ;
21 [label="qPA <= 3.79\nentropy = 0.86\nsamples = 30\nvalue = [0, 33, 13, 0]", fillcolor="#8fef87"] ;
17 -> 21 ;
22 [label="entropy = 1.0\nsamples = 15\nvalue = [0, 12, 13, 0]", fillcolor="#f0f7fd"] ;
21 -> 22 ;
23 [label="entropy = 0.0\nsamples = 15\nvalue = [0, 21, 0, 0]", fillcolor="#47e539"] ;
21 -> 23 ;
24 [label="pDiast <= 1.54\nentropy = 0.58\nsamples = 94\nvalue = [20, 124, 0, 0]", fillcolor="#65e959"] ;
2 -> 24 ;
25 [label="pulso <= 173.54\nentropy = 1.0\nsamples = 19\nvalue = [16, 15, 0, 0]", fillcolor="#fdf7f3"] ;
24 -> 25 ;
26 [label="respiração <= 1.51\nentropy = 0.54\nsamples = 10\nvalue = [2, 14, 0, 0]", fillcolor="#61e955"] ;
25 -> 26 ;
27 [label="entropy = 0.0\nsamples = 1\nvalue = [1, 0, 0, 0]", fillcolor="#e58139"] ;
26 -> 27 ;
28 [label="pSist <= 5.94\nentropy = 0.35\nsamples = 9\nvalue = [1, 14, 0, 0]", fillcolor="#54e747"] ;
26 -> 28 ;
29 [label="entropy = 1.0\nsamples = 2\nvalue = [1, 1, 0, 0]", fillcolor="#ffffff"] ;
28 -> 29 ;
30 [label="entropy = 0.0\nsamples = 7\nvalue = [0, 13, 0, 0]", fillcolor="#47e539"] ;
28 -> 30 ;
31 [label="pSist <= 11.5\nentropy = 0.35\nsamples = 9\nvalue = [14, 1, 0, 0]", fillcolor="#e78a47"] ;
25 -> 31 ;
32 [label="entropy = 0.0\nsamples = 8\nvalue = [14, 0, 0, 0]", fillcolor="#e58139"] ;
31 -> 32 ;
33 [label="entropy = 0.0\nsamples = 1\nvalue = [0, 1, 0, 0]", fillcolor="#47e539"] ;
31 -> 33 ;
34 [label="pSist <= 10.58\nentropy = 0.22\nsamples = 75\nvalue = [4, 109, 0, 0]", fillcolor="#4ee640"] ;
24 -> 34 ;
35 [label="respiração <= 5.42\nentropy = 0.57\nsamples = 22\nvalue = [4, 26, 0, 0]", fillcolor="#63e957"] ;
34 -> 35 ;
36 [label="respiração <= 5.23\nentropy = 0.79\nsamples = 13\nvalue = [4, 13, 0, 0]", fillcolor="#80ed76"] ;
35 -> 36 ;
37 [label="entropy = 0.57\nsamples = 12\nvalue = [2, 13, 0, 0]", fillcolor="#63e957"] ;
36 -> 37 ;
38 [label="entropy = 0.0\nsamples = 1\nvalue = [2, 0, 0, 0]", fillcolor="#e58139"] ;
36 -> 38 ;
39 [label="entropy = 0.0\nsamples = 9\nvalue = [0, 13, 0, 0]", fillcolor="#47e539"] ;
35 -> 39 ;
40 [label="entropy = 0.0\nsamples = 53\nvalue = [0, 83, 0, 0]", fillcolor="#47e539"] ;
34 -> 40 ;
41 [label="respiração <= 18.66\nentropy = 1.31\nsamples = 190\nvalue = [1, 103, 180, 26]", fillcolor="#b5dbf5"] ;
1 -> 41 ;
42 [label="pSist <= 12.69\nentropy = 1.08\nsamples = 132\nvalue = [0, 35, 153, 20]", fillcolor="#78bced"] ;
41 -> 42 ;
43 [label="pulso <= 104.72\nentropy = 1.14\nsamples = 64\nvalue = [0, 10, 73, 20]", fillcolor="#81c0ee"] ;
42 -> 43 ;
44 [label="qPA <= -1.7\nentropy = 1.24\nsamples = 30\nvalue = [0, 3, 28, 20]", fillcolor="#cce6f8"] ;
43 -> 44 ;
45 [label="respiração <= 15.77\nentropy = 0.78\nsamples = 9\nvalue = [0, 3, 10, 0]", fillcolor="#74baed"] ;
44 -> 45 ;
46 [label="entropy = 0.0\nsamples = 5\nvalue = [0, 0, 7, 0]", fillcolor="#399de5"] ;
45 -> 46 ;
47 [label="entropy = 1.0\nsamples = 4\nvalue = [0, 3, 3, 0]", fillcolor="#ffffff"] ;
45 -> 47 ;
48 [label="pulso <= 55.38\nentropy = 1.0\nsamples = 21\nvalue = [0, 0, 18, 20]", fillcolor="#fbebfc"] ;
44 -> 48 ;
49 [label="entropy = 0.0\nsamples = 10\nvalue = [0, 0, 18, 0]", fillcolor="#399de5"] ;
48 -> 49 ;
50 [label="entropy = 0.0\nsamples = 11\nvalue = [0, 0, 0, 20]", fillcolor="#d739e5"] ;
48 -> 50 ;
51 [label="respiração <= 17.71\nentropy = 0.57\nsamples = 34\nvalue = [0, 7, 45, 0]", fillcolor="#58ace9"] ;
43 -> 51 ;
52 [label="respiração <= 12.76\nentropy = 0.29\nsamples = 27\nvalue = [0, 2, 38, 0]", fillcolor="#43a2e6"] ;
51 -> 52 ;
53 [label="entropy = 0.92\nsamples = 5\nvalue = [0, 2, 4, 0]", fillcolor="#9ccef2"] ;
52 -> 53 ;
54 [label="entropy = 0.0\nsamples = 22\nvalue = [0, 0, 34, 0]", fillcolor="#399de5"] ;
52 -> 54 ;
55 [label="qPA <= -2.32\nentropy = 0.98\nsamples = 7\nvalue = [0, 5, 7, 0]", fillcolor="#c6e3f8"] ;
51 -> 55 ;
56 [label="entropy = 0.0\nsamples = 3\nvalue = [0, 5, 0, 0]", fillcolor="#47e539"] ;
55 -> 56 ;
57 [label="entropy = 0.0\nsamples = 4\nvalue = [0, 0, 7, 0]", fillcolor="#399de5"] ;
55 -> 57 ;
58 [label="pulso <= 33.5\nentropy = 0.79\nsamples = 68\nvalue = [0, 25, 80, 0]", fillcolor="#77bced"] ;
42 -> 58 ;
59 [label="pSist <= 20.61\nentropy = 0.62\nsamples = 10\nvalue = [0, 11, 2, 0]", fillcolor="#68ea5d"] ;
58 -> 59 ;
60 [label="entropy = 0.0\nsamples = 9\nvalue = [0, 11, 0, 0]", fillcolor="#47e539"] ;
59 -> 60 ;
61 [label="entropy = 0.0\nsamples = 1\nvalue = [0, 0, 2, 0]", fillcolor="#399de5"] ;
59 -> 61 ;
62 [label="qPA <= 4.67\nentropy = 0.62\nsamples = 58\nvalue = [0, 14, 78, 0]", fillcolor="#5dafea"] ;
58 -> 62 ;
63 [label="pDiast <= 8.81\nentropy = 0.32\nsamples = 46\nvalue = [0, 4, 66, 0]", fillcolor="#45a3e7"] ;
62 -> 63 ;
64 [label="entropy = 0.26\nsamples = 45\nvalue = [0, 3, 66, 0]", fillcolor="#42a1e6"] ;
63 -> 64 ;
65 [label="entropy = 0.0\nsamples = 1\nvalue = [0, 1, 0, 0]", fillcolor="#47e539"] ;
63 -> 65 ;
66 [label="respiração <= 14.52\nentropy = 0.99\nsamples = 12\nvalue = [0, 10, 12, 0]", fillcolor="#deeffb"] ;
62 -> 66 ;
67 [label="entropy = 0.92\nsamples = 9\nvalue = [0, 10, 5, 0]", fillcolor="#a3f29c"] ;
66 -> 67 ;
68 [label="entropy = 0.0\nsamples = 3\nvalue = [0, 0, 7, 0]", fillcolor="#399de5"] ;
66 -> 68 ;
69 [label="pSist <= 13.89\nentropy = 1.2\nsamples = 58\nvalue = [1, 68, 27, 6]", fillcolor="#9af193"] ;
41 -> 69 ;
70 [label="respiração <= 20.26\nentropy = 1.52\nsamples = 31\nvalue = [1, 22, 22, 6]", fillcolor="#ffffff"] ;
69 -> 70 ;
71 [label="qPA <= -6.92\nentropy = 1.19\nsamples = 14\nvalue = [1, 15, 2, 2]", fillcolor="#7aec70"] ;
70 -> 71 ;
72 [label="entropy = 0.0\nsamples = 1\nvalue = [1, 0, 0, 0]", fillcolor="#e58139"] ;
71 -> 72 ;
73 [label="pulso <= 76.55\nentropy = 0.95\nsamples = 13\nvalue = [0, 15, 2, 2]", fillcolor="#72eb68"] ;
71 -> 73 ;
74 [label="entropy = 0.76\nsamples = 6\nvalue = [0, 7, 2, 0]", fillcolor="#7cec72"] ;
73 -> 74 ;
75 [label="entropy = 0.72\nsamples = 7\nvalue = [0, 8, 0, 2]", fillcolor="#75ec6a"] ;
73 -> 75 ;
76 [label="pulso <= 129.13\nentropy = 1.27\nsamples = 17\nvalue = [0, 7, 20, 4]", fillcolor="#94caf1"] ;
70 -> 76 ;
77 [label="qPA <= -2.85\nentropy = 0.99\nsamples = 13\nvalue = [0, 2, 20, 4]", fillcolor="#6fb8ec"] ;
76 -> 77 ;
78 [label="entropy = 0.0\nsamples = 4\nvalue = [0, 0, 10, 0]", fillcolor="#399de5"] ;
77 -> 78 ;
79 [label="entropy = 1.3\nsamples = 9\nvalue = [0, 2, 10, 4]", fillcolor="#9ccef2"] ;
77 -> 79 ;
80 [label="entropy = 0.0\nsamples = 4\nvalue = [0, 5, 0, 0]", fillcolor="#47e539"] ;
76 -> 80 ;
81 [label="pulso <= 85.71\nentropy = 0.46\nsamples = 27\nvalue = [0, 46, 5, 0]", fillcolor="#5be84f"] ;
69 -> 81 ;
82 [label="pulso <= 62.41\nentropy = 0.92\nsamples = 9\nvalue = [0, 10, 5, 0]", fillcolor="#a3f29c"] ;
81 -> 82 ;
83 [label="entropy = 0.0\nsamples = 6\nvalue = [0, 10, 0, 0]", fillcolor="#47e539"] ;
82 -> 83 ;
84 [label="entropy = 0.0\nsamples = 3\nvalue = [0, 0, 5, 0]", fillcolor="#399de5"] ;
82 -> 84 ;
85 [label="entropy = 0.0\nsamples = 18\nvalue = [0, 36, 0, 0]", fillcolor="#47e539"] ;
81 -> 85 ;
86 [label="respiração <= 10.78\nentropy = 1.41\nsamples = 257\nvalue = [129, 214, 58, 0]", fillcolor="#c6f7c1"] ;
0 -> 86 [labeldistance=2.5, labelangle=-45, headlabel="False"] ;
87 [label="pSist <= 20.38\nentropy = 0.99\nsamples = 129\nvalue = [108, 85, 0, 0]", fillcolor="#f9e4d5"] ;
86 -> 87 ;
88 [label="pulso <= 40.88\nentropy = 0.95\nsamples = 102\nvalue = [94, 55, 0, 0]", fillcolor="#f4cbad"] ;
87 -> 88 ;
89 [label="entropy = 0.0\nsamples = 25\nvalue = [40, 0, 0, 0]", fillcolor="#e58139"] ;
88 -> 89 ;
90 [label="pulso <= 126.72\nentropy = 1.0\nsamples = 77\nvalue = [54, 55, 0, 0]", fillcolor="#fcfffb"] ;
88 -> 90 ;
91 [label="entropy = 0.0\nsamples = 37\nvalue = [0, 51, 0, 0]", fillcolor="#47e539"] ;
90 -> 91 ;
92 [label="pDiast <= 10.45\nentropy = 0.36\nsamples = 40\nvalue = [54, 4, 0, 0]", fillcolor="#e78a48"] ;
90 -> 92 ;
93 [label="qPA <= 4.79\nentropy = 0.86\nsamples = 9\nvalue = [10, 4, 0, 0]", fillcolor="#efb388"] ;
92 -> 93 ;
94 [label="entropy = 0.44\nsamples = 6\nvalue = [10, 1, 0, 0]", fillcolor="#e88e4d"] ;
93 -> 94 ;
95 [label="entropy = 0.0\nsamples = 3\nvalue = [0, 3, 0, 0]", fillcolor="#47e539"] ;
93 -> 95 ;
96 [label="entropy = 0.0\nsamples = 31\nvalue = [44, 0, 0, 0]", fillcolor="#e58139"] ;
92 -> 96 ;
97 [label="pSist <= 21.54\nentropy = 0.9\nsamples = 27\nvalue = [14, 30, 0, 0]", fillcolor="#9df195"] ;
87 -> 97 ;
98 [label="pulso <= 40.66\nentropy = 0.7\nsamples = 19\nvalue = [6, 26, 0, 0]", fillcolor="#71eb67"] ;
97 -> 98 ;
99 [label="entropy = 0.0\nsamples = 3\nvalue = [3, 0, 0, 0]", fillcolor="#e58139"] ;
98 -> 99 ;
100 [label="pDiast <= 5.66\nentropy = 0.48\nsamples = 16\nvalue = [3, 26, 0, 0]", fillcolor="#5ce850"] ;
98 -> 100 ;
101 [label="entropy = 0.0\nsamples = 1\nvalue = [2, 0, 0, 0]", fillcolor="#e58139"] ;
100 -> 101 ;
102 [label="pulso <= 117.17\nentropy = 0.23\nsamples = 15\nvalue = [1, 26, 0, 0]", fillcolor="#4ee641"] ;
100 -> 102 ;
103 [label="entropy = 0.0\nsamples = 14\nvalue = [0, 26, 0, 0]", fillcolor="#47e539"] ;
102 -> 103 ;
104 [label="entropy = 0.0\nsamples = 1\nvalue = [1, 0, 0, 0]", fillcolor="#e58139"] ;
102 -> 104 ;
105 [label="pDiast <= 12.88\nentropy = 0.92\nsamples = 8\nvalue = [8, 4, 0, 0]", fillcolor="#f2c09c"] ;
97 -> 105 ;
106 [label="entropy = 0.0\nsamples = 4\nvalue = [5, 0, 0, 0]", fillcolor="#e58139"] ;
105 -> 106 ;
107 [label="pulso <= 102.92\nentropy = 0.99\nsamples = 4\nvalue = [3, 4, 0, 0]", fillcolor="#d1f8ce"] ;
105 -> 107 ;
108 [label="entropy = 0.0\nsamples = 2\nvalue = [0, 4, 0, 0]", fillcolor="#47e539"] ;
107 -> 108 ;
109 [label="entropy = 0.0\nsamples = 2\nvalue = [3, 0, 0, 0]", fillcolor="#e58139"] ;
107 -> 109 ;
110 [label="respiração <= 19.6\nentropy = 1.28\nsamples = 128\nvalue = [21, 129, 58, 0]", fillcolor="#a8f3a1"] ;
86 -> 110 ;
111 [label="pulso <= 116.19\nentropy = 0.91\nsamples = 99\nvalue = [0, 114, 55, 0]", fillcolor="#a0f299"] ;
110 -> 111 ;
112 [label="pDiast <= 14.42\nentropy = 1.0\nsamples = 65\nvalue = [0, 55, 55, 0]", fillcolor="#ffffff"] ;
111 -> 112 ;
113 [label="pulso <= 48.92\nentropy = 1.0\nsamples = 63\nvalue = [0, 55, 48, 0]", fillcolor="#e8fce6"] ;
112 -> 113 ;
114 [label="entropy = 0.0\nsamples = 20\nvalue = [0, 30, 0, 0]", fillcolor="#47e539"] ;
113 -> 114 ;
115 [label="respiração <= 11.2\nentropy = 0.93\nsamples = 43\nvalue = [0, 25, 48, 0]", fillcolor="#a0d0f3"] ;
113 -> 115 ;
116 [label="entropy = 0.0\nsamples = 4\nvalue = [0, 7, 0, 0]", fillcolor="#47e539"] ;
115 -> 116 ;
117 [label="entropy = 0.85\nsamples = 39\nvalue = [0, 18, 48, 0]", fillcolor="#83c2ef"] ;
115 -> 117 ;
118 [label="entropy = 0.0\nsamples = 2\nvalue = [0, 0, 7, 0]", fillcolor="#399de5"] ;
112 -> 118 ;
119 [label="entropy = 0.0\nsamples = 34\nvalue = [0, 59, 0, 0]", fillcolor="#47e539"] ;
111 -> 119 ;
120 [label="pulso <= 123.86\nentropy = 1.3\nsamples = 29\nvalue = [21, 15, 3, 0]", fillcolor="#f8e0ce"] ;
110 -> 120 ;
121 [label="pDiast <= 10.11\nentropy = 1.36\nsamples = 21\nvalue = [10, 15, 3, 0]", fillcolor="#ccf8c8"] ;
120 -> 121 ;
122 [label="entropy = 0.0\nsamples = 2\nvalue = [0, 0, 3, 0]", fillcolor="#399de5"] ;
121 -> 122 ;
123 [label="pDiast <= 13.81\nentropy = 0.97\nsamples = 19\nvalue = [10, 15, 0, 0]", fillcolor="#c2f6bd"] ;
121 -> 123 ;
124 [label="pDiast <= 12.7\nentropy = 0.85\nsamples = 14\nvalue = [5, 13, 0, 0]", fillcolor="#8eef85"] ;
123 -> 124 ;
125 [label="entropy = 1.0\nsamples = 9\nvalue = [5, 5, 0, 0]", fillcolor="#ffffff"] ;
124 -> 125 ;
126 [label="entropy = 0.0\nsamples = 5\nvalue = [0, 8, 0, 0]", fillcolor="#47e539"] ;
124 -> 126 ;
127 [label="pulso <= 37.42\nentropy = 0.86\nsamples = 5\nvalue = [5, 2, 0, 0]", fillcolor="#efb388"] ;
123 -> 127 ;
128 [label="entropy = 0.0\nsamples = 3\nvalue = [5, 0, 0, 0]", fillcolor="#e58139"] ;
127 -> 128 ;
129 [label="entropy = 0.0\nsamples = 2\nvalue = [0, 2, 0, 0]", fillcolor="#47e539"] ;
127 -> 129 ;
130 [label="entropy = 0.0\nsamples = 8\nvalue = [11, 0, 0, 0]", fillcolor="#e58139"] ;
120 -> 130 ;
}