digraph Tree {
node [shape=box, style="filled, rounded", color="black", fontname="helvetica"] ;
edge [fontname="helvetica"] ;
0 [label="pDiast <= 10.44\nentropy = 1.48\nsamples = 681\nvalue = [168, 599, 268, 15]", fillcolor="#b1f4ab"] ;
1 [label="pSist <= 13.55\nentropy = 1.32\nsamples = 482\nvalue = [42, 445, 237, 15]", fillcolor="#b3f4ad"] ;
0 -> 1 [labeldistance=2.5, labelangle=45, headlabel="True"] ;
2 [label="pDiast <= 3.66\nentropy = 1.48\nsamples = 219\nvalue = [21, 156, 145, 14]", fillcolor="#f4fef4"] ;
1 -> 2 ;
3 [label="pulso <= 173.18\nentropy = 1.52\nsamples = 82\nvalue = [21, 69, 40, 2]", fillcolor="#c5f7c1"] ;
2 -> 3 ;
4 [label="pulso <= 44.23\nentropy = 1.41\nsamples = 68\nvalue = [12, 66, 31, 2]", fillcolor="#aef4a8"] ;
3 -> 4 ;
5 [label="qPA <= -4.6\nentropy = 1.17\nsamples = 19\nvalue = [10, 22, 2, 0]", fillcolor="#a3f29c"] ;
4 -> 5 ;
6 [label="respiração <= 10.35\nentropy = 0.98\nsamples = 8\nvalue = [10, 7, 0, 0]", fillcolor="#f7d9c4"] ;
5 -> 6 ;
7 [label="entropy = 0.0\nsamples = 4\nvalue = [8, 0, 0, 0]", fillcolor="#e58139"] ;
6 -> 7 ;
8 [label="entropy = 0.76\nsamples = 4\nvalue = [2, 7, 0, 0]", fillcolor="#7cec72"] ;
6 -> 8 ;
9 [label="respiração <= 16.06\nentropy = 0.52\nsamples = 11\nvalue = [0, 15, 2, 0]", fillcolor="#60e853"] ;
5 -> 9 ;
10 [label="entropy = 0.0\nsamples = 9\nvalue = [0, 15, 0, 0]", fillcolor="#47e539"] ;
9 -> 10 ;
11 [label="entropy = 0.0\nsamples = 2\nvalue = [0, 0, 2, 0]", fillcolor="#399de5"] ;
9 -> 11 ;
12 [label="respiração <= 7.4\nentropy = 1.27\nsamples = 49\nvalue = [2, 44, 29, 2]", fillcolor="#c6f7c1"] ;
4 -> 12 ;
13 [label="pulso <= 143.33\nentropy = 0.35\nsamples = 21\nvalue = [2, 29, 0, 0]", fillcolor="#54e747"] ;
12 -> 13 ;
14 [label="entropy = 0.0\nsamples = 16\nvalue = [0, 22, 0, 0]", fillcolor="#47e539"] ;
13 -> 14 ;
15 [label="entropy = 0.76\nsamples = 5\nvalue = [2, 7, 0, 0]", fillcolor="#7cec72"] ;
13 -> 15 ;
16 [label="pulso <= 108.22\nentropy = 1.14\nsamples = 28\nvalue = [0, 15, 29, 2]", fillcolor="#a6d3f3"] ;
12 -> 16 ;
17 [label="entropy = 0.87\nsamples = 12\nvalue = [0, 2, 18, 2]", fillcolor="#61b1ea"] ;
16 -> 17 ;
18 [label="entropy = 0.99\nsamples = 16\nvalue = [0, 13, 11, 0]", fillcolor="#e3fbe1"] ;
16 -> 18 ;
19 [label="respiração <= 12.55\nentropy = 1.45\nsamples = 14\nvalue = [9, 3, 9, 0]", fillcolor="#ffffff"] ;
3 -> 19 ;
20 [label="pDiast <= 1.57\nentropy = 0.81\nsamples = 9\nvalue = [9, 3, 0, 0]", fillcolor="#eeab7b"] ;
19 -> 20 ;
21 [label="entropy = 0.0\nsamples = 6\nvalue = [7, 0, 0, 0]", fillcolor="#e58139"] ;
20 -> 21 ;
22 [label="respiração <= 6.78\nentropy = 0.97\nsamples = 3\nvalue = [2, 3, 0, 0]", fillcolor="#c2f6bd"] ;
20 -> 22 ;
23 [label="entropy = 0.0\nsamples = 1\nvalue = [2, 0, 0, 0]", fillcolor="#e58139"] ;
22 -> 23 ;
24 [label="entropy = 0.0\nsamples = 2\nvalue = [0, 3, 0, 0]", fillcolor="#47e539"] ;
22 -> 24 ;
25 [label="entropy = 0.0\nsamples = 5\nvalue = [0, 0, 9, 0]", fillcolor="#399de5"] ;
19 -> 25 ;
26 [label="respiração <= 11.36\nentropy = 1.26\nsamples = 137\nvalue = [0, 87, 105, 12]", fillcolor="#e1f0fb"] ;
2 -> 26 ;
27 [label="pDiast <= 8.59\nentropy = 0.87\nsamples = 63\nvalue = [0, 64, 26, 0]", fillcolor="#92f089"] ;
26 -> 27 ;
28 [label="pSist <= 5.42\nentropy = 0.77\nsamples = 52\nvalue = [0, 58, 17, 0]", fillcolor="#7ded73"] ;
27 -> 28 ;
29 [label="pSist <= 4.79\nentropy = 0.92\nsamples = 2\nvalue = [0, 1, 2, 0]", fillcolor="#9ccef2"] ;
28 -> 29 ;
30 [label="entropy = 0.0\nsamples = 1\nvalue = [0, 1, 0, 0]", fillcolor="#47e539"] ;
29 -> 30 ;
31 [label="entropy = 0.0\nsamples = 1\nvalue = [0, 0, 2, 0]", fillcolor="#399de5"] ;
29 -> 31 ;
32 [label="pulso <= 124.29\nentropy = 0.74\nsamples = 50\nvalue = [0, 57, 15, 0]", fillcolor="#77ec6d"] ;
28 -> 32 ;
33 [label="entropy = 1.0\nsamples = 23\nvalue = [0, 14, 15, 0]", fillcolor="#f2f8fd"] ;
32 -> 33 ;
34 [label="entropy = 0.0\nsamples = 27\nvalue = [0, 43, 0, 0]", fillcolor="#47e539"] ;
32 -> 34 ;
35 [label="pulso <= 58.73\nentropy = 0.97\nsamples = 11\nvalue = [0, 6, 9, 0]", fillcolor="#bddef6"] ;
27 -> 35 ;
36 [label="entropy = 0.0\nsamples = 2\nvalue = [0, 3, 0, 0]", fillcolor="#47e539"] ;
35 -> 36 ;
37 [label="pSist <= 10.95\nentropy = 0.81\nsamples = 9\nvalue = [0, 3, 9, 0]", fillcolor="#7bbeee"] ;
35 -> 37 ;
38 [label="entropy = 0.0\nsamples = 2\nvalue = [0, 0, 3, 0]", fillcolor="#399de5"] ;
37 -> 38 ;
39 [label="entropy = 0.92\nsamples = 7\nvalue = [0, 3, 6, 0]", fillcolor="#9ccef2"] ;
37 -> 39 ;
40 [label="pDiast <= 6.44\nentropy = 1.17\nsamples = 74\nvalue = [0, 23, 79, 12]", fillcolor="#85c3ef"] ;
26 -> 40 ;
41 [label="pDiast <= 4.96\nentropy = 0.31\nsamples = 31\nvalue = [0, 1, 42, 1]", fillcolor="#42a2e6"] ;
40 -> 41 ;
42 [label="pSist <= 11.97\nentropy = 0.64\nsamples = 15\nvalue = [0, 1, 15, 1]", fillcolor="#52a9e8"] ;
41 -> 42 ;
43 [label="entropy = 0.35\nsamples = 13\nvalue = [0, 1, 14, 0]", fillcolor="#47a4e7"] ;
42 -> 43 ;
44 [label="entropy = 1.0\nsamples = 2\nvalue = [0, 0, 1, 1]", fillcolor="#ffffff"] ;
42 -> 44 ;
45 [label="entropy = 0.0\nsamples = 16\nvalue = [0, 0, 27, 0]", fillcolor="#399de5"] ;
41 -> 45 ;
46 [label="pulso <= 140.08\nentropy = 1.43\nsamples = 43\nvalue = [0, 22, 37, 11]", fillcolor="#c1e0f7"] ;
40 -> 46 ;
47 [label="respiração <= 18.67\nentropy = 1.31\nsamples = 31\nvalue = [0, 8, 33, 11]", fillcolor="#95caf1"] ;
46 -> 47 ;
48 [label="entropy = 0.88\nsamples = 22\nvalue = [0, 0, 26, 11]", fillcolor="#8dc6f0"] ;
47 -> 48 ;
49 [label="entropy = 1.0\nsamples = 9\nvalue = [0, 8, 7, 0]", fillcolor="#e8fce6"] ;
47 -> 49 ;
50 [label="pSist <= 10.19\nentropy = 0.76\nsamples = 12\nvalue = [0, 14, 4, 0]", fillcolor="#7cec72"] ;
46 -> 50 ;
51 [label="entropy = 0.0\nsamples = 2\nvalue = [0, 6, 0, 0]", fillcolor="#47e539"] ;
50 -> 51 ;
52 [label="entropy = 0.92\nsamples = 10\nvalue = [0, 8, 4, 0]", fillcolor="#a3f29c"] ;
50 -> 52 ;
53 [label="respiração <= 11.3\nentropy = 1.07\nsamples = 263\nvalue = [21, 289, 92, 1]", fillcolor="#8aef82"] ;
1 -> 53 ;
54 [label="qPA <= 4.72\nentropy = 0.54\nsamples = 129\nvalue = [18, 183, 3, 0]", fillcolor="#5ce84f"] ;
53 -> 54 ;
55 [label="pSist <= 14.4\nentropy = 0.13\nsamples = 101\nvalue = [0, 158, 3, 0]", fillcolor="#4ae53d"] ;
54 -> 55 ;
56 [label="respiração <= 5.73\nentropy = 0.47\nsamples = 14\nvalue = [0, 18, 2, 0]", fillcolor="#5be84f"] ;
55 -> 56 ;
57 [label="entropy = 0.0\nsamples = 7\nvalue = [0, 11, 0, 0]", fillcolor="#47e539"] ;
56 -> 57 ;
58 [label="pulso <= 96.07\nentropy = 0.76\nsamples = 7\nvalue = [0, 7, 2, 0]", fillcolor="#7cec72"] ;
56 -> 58 ;
59 [label="entropy = 0.0\nsamples = 2\nvalue = [0, 0, 2, 0]", fillcolor="#399de5"] ;
58 -> 59 ;
60 [label="entropy = 0.0\nsamples = 5\nvalue = [0, 7, 0, 0]", fillcolor="#47e539"] ;
58 -> 60 ;
61 [label="qPA <= 1.09\nentropy = 0.06\nsamples = 87\nvalue = [0, 140, 1, 0]", fillcolor="#48e53a"] ;
55 -> 61 ;
62 [label="pSist <= 18.72\nentropy = 0.11\nsamples = 43\nvalue = [0, 65, 1, 0]", fillcolor="#4ae53c"] ;
61 -> 62 ;
63 [label="entropy = 0.0\nsamples = 28\nvalue = [0, 43, 0, 0]", fillcolor="#47e539"] ;
62 -> 63 ;
64 [label="entropy = 0.26\nsamples = 15\nvalue = [0, 22, 1, 0]", fillcolor="#4fe642"] ;
62 -> 64 ;
65 [label="entropy = 0.0\nsamples = 44\nvalue = [0, 75, 0, 0]", fillcolor="#47e539"] ;
61 -> 65 ;
66 [label="pDiast <= 5.46\nentropy = 0.98\nsamples = 28\nvalue = [18, 25, 0, 0]", fillcolor="#cbf8c8"] ;
54 -> 66 ;
67 [label="entropy = 0.0\nsamples = 2\nvalue = [4, 0, 0, 0]", fillcolor="#e58139"] ;
66 -> 67 ;
68 [label="pulso <= 41.88\nentropy = 0.94\nsamples = 26\nvalue = [14, 25, 0, 0]", fillcolor="#aef4a8"] ;
66 -> 68 ;
69 [label="entropy = 0.0\nsamples = 7\nvalue = [11, 0, 0, 0]", fillcolor="#e58139"] ;
68 -> 69 ;
70 [label="pulso <= 173.58\nentropy = 0.49\nsamples = 19\nvalue = [3, 25, 0, 0]", fillcolor="#5de851"] ;
68 -> 70 ;
71 [label="entropy = 0.0\nsamples = 16\nvalue = [0, 25, 0, 0]", fillcolor="#47e539"] ;
70 -> 71 ;
72 [label="entropy = 0.0\nsamples = 3\nvalue = [3, 0, 0, 0]", fillcolor="#e58139"] ;
70 -> 72 ;
73 [label="pulso <= 116.97\nentropy = 1.13\nsamples = 134\nvalue = [3, 106, 89, 1]", fillcolor="#e3fbe0"] ;
53 -> 73 ;
74 [label="pSist <= 21.18\nentropy = 1.01\nsamples = 79\nvalue = [0, 42, 72, 1]", fillcolor="#aed7f4"] ;
73 -> 74 ;
75 [label="pSist <= 19.66\nentropy = 1.04\nsamples = 73\nvalue = [0, 42, 62, 1]", fillcolor="#c0e0f7"] ;
74 -> 75 ;
76 [label="respiração <= 17.18\nentropy = 0.94\nsamples = 58\nvalue = [0, 32, 57, 0]", fillcolor="#a8d4f4"] ;
75 -> 76 ;
77 [label="entropy = 0.63\nsamples = 25\nvalue = [0, 6, 32, 0]", fillcolor="#5eafea"] ;
76 -> 77 ;
78 [label="entropy = 1.0\nsamples = 33\nvalue = [0, 26, 25, 0]", fillcolor="#f8fef7"] ;
76 -> 78 ;
79 [label="pulso <= 45.56\nentropy = 1.2\nsamples = 15\nvalue = [0, 10, 5, 1]", fillcolor="#abf3a5"] ;
75 -> 79 ;
80 [label="entropy = 0.65\nsamples = 11\nvalue = [0, 10, 2, 0]", fillcolor="#6cea61"] ;
79 -> 80 ;
81 [label="entropy = 0.81\nsamples = 4\nvalue = [0, 0, 3, 1]", fillcolor="#7bbeee"] ;
79 -> 81 ;
82 [label="entropy = 0.0\nsamples = 6\nvalue = [0, 0, 10, 0]", fillcolor="#399de5"] ;
74 -> 82 ;
83 [label="qPA <= 4.24\nentropy = 0.94\nsamples = 55\nvalue = [3, 64, 17, 0]", fillcolor="#7eed74"] ;
73 -> 83 ;
84 [label="respiração <= 17.48\nentropy = 0.97\nsamples = 19\nvalue = [0, 11, 17, 0]", fillcolor="#b9dcf6"] ;
83 -> 84 ;
85 [label="respiração <= 13.03\nentropy = 0.61\nsamples = 13\nvalue = [0, 3, 17, 0]", fillcolor="#5caeea"] ;
84 -> 85 ;
86 [label="entropy = 0.0\nsamples = 2\nvalue = [0, 3, 0, 0]", fillcolor="#47e539"] ;
85 -> 86 ;
87 [label="entropy = 0.0\nsamples = 11\nvalue = [0, 0, 17, 0]", fillcolor="#399de5"] ;
85 -> 87 ;
88 [label="entropy = 0.0\nsamples = 6\nvalue = [0, 8, 0, 0]", fillcolor="#47e539"] ;
84 -> 88 ;
89 [label="pSist <= 18.04\nentropy = 0.3\nsamples = 36\nvalue = [3, 53, 0, 0]", fillcolor="#51e644"] ;
83 -> 89 ;
90 [label="pSist <= 17.14\nentropy = 0.63\nsamples = 13\nvalue = [3, 16, 0, 0]", fillcolor="#6aea5e"] ;
89 -> 90 ;
91 [label="entropy = 0.32\nsamples = 11\nvalue = [1, 16, 0, 0]", fillcolor="#52e745"] ;
90 -> 91 ;
92 [label="entropy = 0.0\nsamples = 2\nvalue = [2, 0, 0, 0]", fillcolor="#e58139"] ;
90 -> 92 ;
93 [label="entropy = 0.0\nsamples = 23\nvalue = [0, 37, 0, 0]", fillcolor="#47e539"] ;
89 -> 93 ;
94 [label="respiração <= 10.6\nentropy = 1.36\nsamples = 199\nvalue = [126, 154, 31, 0]", fillcolor="#e3fbe1"] ;
0 -> 94 [labeldistance=2.5, labelangle=-45, headlabel="False"] ;
95 [label="pulso <= 123.13\nentropy = 0.93\nsamples = 105\nvalue = [103, 55, 0, 0]", fillcolor="#f3c4a3"] ;
94 -> 95 ;
96 [label="pSist <= 21.27\nentropy = 0.97\nsamples = 62\nvalue = [37, 55, 0, 0]", fillcolor="#c3f6be"] ;
95 -> 96 ;
97 [label="respiração <= 0.9\nentropy = 1.0\nsamples = 56\nvalue = [37, 43, 0, 0]", fillcolor="#e5fbe3"] ;
96 -> 97 ;
98 [label="entropy = 0.0\nsamples = 5\nvalue = [0, 5, 0, 0]", fillcolor="#47e539"] ;
97 -> 98 ;
99 [label="pulso <= 41.54\nentropy = 1.0\nsamples = 51\nvalue = [37, 38, 0, 0]", fillcolor="#fafefa"] ;
97 -> 99 ;
100 [label="pDiast <= 10.85\nentropy = 0.18\nsamples = 25\nvalue = [37, 1, 0, 0]", fillcolor="#e6843e"] ;
99 -> 100 ;
101 [label="entropy = 0.72\nsamples = 4\nvalue = [4, 1, 0, 0]", fillcolor="#eca06a"] ;
100 -> 101 ;
102 [label="entropy = 0.0\nsamples = 21\nvalue = [33, 0, 0, 0]", fillcolor="#e58139"] ;
100 -> 102 ;
103 [label="entropy = 0.0\nsamples = 26\nvalue = [0, 37, 0, 0]", fillcolor="#47e539"] ;
99 -> 103 ;
104 [label="entropy = 0.0\nsamples = 6\nvalue = [0, 12, 0, 0]", fillcolor="#47e539"] ;
96 -> 104 ;
105 [label="entropy = 0.0\nsamples = 43\nvalue = [66, 0, 0, 0]", fillcolor="#e58139"] ;
95 -> 105 ;
106 [label="pulso <= 116.07\nentropy = 1.28\nsamples = 94\nvalue = [23, 99, 31, 0]", fillcolor="#98f191"] ;
94 -> 106 ;
107 [label="pulso <= 48.66\nentropy = 1.36\nsamples = 58\nvalue = [11, 53, 31, 0]", fillcolor="#c0f6bb"] ;
106 -> 107 ;
108 [label="respiração <= 19.44\nentropy = 0.85\nsamples = 25\nvalue = [11, 29, 0, 0]", fillcolor="#8def84"] ;
107 -> 108 ;
109 [label="entropy = 0.0\nsamples = 16\nvalue = [0, 27, 0, 0]", fillcolor="#47e539"] ;
108 -> 109 ;
110 [label="pSist <= 19.67\nentropy = 0.62\nsamples = 9\nvalue = [11, 2, 0, 0]", fillcolor="#ea985d"] ;
108 -> 110 ;
111 [label="respiração <= 21.33\nentropy = 0.92\nsamples = 5\nvalue = [4, 2, 0, 0]", fillcolor="#f2c09c"] ;
110 -> 111 ;
112 [label="entropy = 0.72\nsamples = 4\nvalue = [4, 1, 0, 0]", fillcolor="#eca06a"] ;
111 -> 112 ;
113 [label="entropy = 0.0\nsamples = 1\nvalue = [0, 1, 0, 0]", fillcolor="#47e539"] ;
111 -> 113 ;
114 [label="entropy = 0.0\nsamples = 4\nvalue = [7, 0, 0, 0]", fillcolor="#e58139"] ;
110 -> 114 ;
115 [label="pDiast <= 11.37\nentropy = 0.99\nsamples = 33\nvalue = [0, 24, 31, 0]", fillcolor="#d2e9f9"] ;
107 -> 115 ;
116 [label="pSist <= 18.71\nentropy = 0.65\nsamples = 11\nvalue = [0, 3, 15, 0]", fillcolor="#61b1ea"] ;
115 -> 116 ;
117 [label="entropy = 0.0\nsamples = 7\nvalue = [0, 0, 13, 0]", fillcolor="#399de5"] ;
116 -> 117 ;
118 [label="respiração <= 18.28\nentropy = 0.97\nsamples = 4\nvalue = [0, 3, 2, 0]", fillcolor="#c2f6bd"] ;
116 -> 118 ;
119 [label="entropy = 0.0\nsamples = 2\nvalue = [0, 0, 2, 0]", fillcolor="#399de5"] ;
118 -> 119 ;
120 [label="entropy = 0.0\nsamples = 2\nvalue = [0, 3, 0, 0]", fillcolor="#47e539"] ;
118 -> 120 ;
121 [label="respiração <= 18.24\nentropy = 0.99\nsamples = 22\nvalue = [0, 21, 16, 0]", fillcolor="#d3f9d0"] ;
115 -> 121 ;
122 [label="pSist <= 15.82\nentropy = 0.98\nsamples = 16\nvalue = [0, 11, 16, 0]", fillcolor="#c1e0f7"] ;
121 -> 122 ;
123 [label="entropy = 0.0\nsamples = 4\nvalue = [0, 0, 6, 0]", fillcolor="#399de5"] ;
122 -> 123 ;
124 [label="entropy = 1.0\nsamples = 12\nvalue = [0, 11, 10, 0]", fillcolor="#eefded"] ;
122 -> 124 ;
125 [label="entropy = 0.0\nsamples = 6\nvalue = [0, 10, 0, 0]", fillcolor="#47e539"] ;
121 -> 125 ;
126 [label="pulso <= 162.61\nentropy = 0.74\nsamples = 36\nvalue = [12, 46, 0, 0]", fillcolor="#77ec6d"] ;
106 -> 126 ;
127 [label="pSist <= 16.75\nentropy = 0.43\nsamples = 19\nvalue = [3, 31, 0, 0]", fillcolor="#59e84c"] ;
126 -> 127 ;
128 [label="pDiast <= 11.55\nentropy = 0.78\nsamples = 8\nvalue = [3, 10, 0, 0]", fillcolor="#7eed74"] ;
127 -> 128 ;
129 [label="entropy = 0.0\nsamples = 2\nvalue = [3, 0, 0, 0]", fillcolor="#e58139"] ;
128 -> 129 ;
130 [label="entropy = 0.0\nsamples = 6\nvalue = [0, 10, 0, 0]", fillcolor="#47e539"] ;
128 -> 130 ;
131 [label="entropy = 0.0\nsamples = 11\nvalue = [0, 21, 0, 0]", fillcolor="#47e539"] ;
127 -> 131 ;
132 [label="respiração <= 19.23\nentropy = 0.95\nsamples = 17\nvalue = [9, 15, 0, 0]", fillcolor="#b5f5b0"] ;
126 -> 132 ;
133 [label="respiração <= 10.85\nentropy = 0.34\nsamples = 11\nvalue = [1, 15, 0, 0]", fillcolor="#53e746"] ;
132 -> 133 ;
134 [label="entropy = 0.0\nsamples = 1\nvalue = [1, 0, 0, 0]", fillcolor="#e58139"] ;
133 -> 134 ;
135 [label="entropy = 0.0\nsamples = 10\nvalue = [0, 15, 0, 0]", fillcolor="#47e539"] ;
133 -> 135 ;
136 [label="entropy = 0.0\nsamples = 6\nvalue = [8, 0, 0, 0]", fillcolor="#e58139"] ;
132 -> 136 ;
}