digraph Tree {
node [shape=box, style="filled, rounded", color="black", fontname="helvetica"] ;
edge [fontname="helvetica"] ;
0 [label="pDiast <= 10.44\nentropy = 1.5\nsamples = 649\nvalue = [183, 590, 261, 16]", fillcolor="#b2f4ac"] ;
1 [label="pulso <= 135.02\nentropy = 1.37\nsamples = 449\nvalue = [53, 432, 225, 16]", fillcolor="#b3f4ad"] ;
0 -> 1 [labeldistance=2.5, labelangle=45, headlabel="True"] ;
2 [label="pulso <= 43.41\nentropy = 1.36\nsamples = 305\nvalue = [20, 265, 197, 16]", fillcolor="#d5f9d2"] ;
1 -> 2 ;
3 [label="respiração <= 11.87\nentropy = 1.11\nsamples = 99\nvalue = [19, 123, 27, 0]", fillcolor="#83ed79"] ;
2 -> 3 ;
4 [label="pDiast <= 9.58\nentropy = 0.63\nsamples = 54\nvalue = [16, 86, 0, 0]", fillcolor="#69ea5e"] ;
3 -> 4 ;
5 [label="pSist <= 10.47\nentropy = 0.48\nsamples = 51\nvalue = [10, 86, 0, 0]", fillcolor="#5ce850"] ;
4 -> 5 ;
6 [label="qPA <= -4.36\nentropy = 0.99\nsamples = 11\nvalue = [8, 10, 0, 0]", fillcolor="#dafad7"] ;
5 -> 6 ;
7 [label="entropy = 0.72\nsamples = 5\nvalue = [8, 2, 0, 0]", fillcolor="#eca06a"] ;
6 -> 7 ;
8 [label="entropy = 0.0\nsamples = 6\nvalue = [0, 8, 0, 0]", fillcolor="#47e539"] ;
6 -> 8 ;
9 [label="respiração <= 9.77\nentropy = 0.17\nsamples = 40\nvalue = [2, 76, 0, 0]", fillcolor="#4ce63e"] ;
5 -> 9 ;
10 [label="entropy = 0.0\nsamples = 34\nvalue = [0, 59, 0, 0]", fillcolor="#47e539"] ;
9 -> 10 ;
11 [label="entropy = 0.49\nsamples = 6\nvalue = [2, 17, 0, 0]", fillcolor="#5de850"] ;
9 -> 11 ;
12 [label="entropy = 0.0\nsamples = 3\nvalue = [6, 0, 0, 0]", fillcolor="#e58139"] ;
4 -> 12 ;
13 [label="pSist <= 6.88\nentropy = 1.2\nsamples = 45\nvalue = [3, 37, 27, 0]", fillcolor="#d1f8cd"] ;
3 -> 13 ;
14 [label="respiração <= 19.72\nentropy = 0.92\nsamples = 6\nvalue = [3, 0, 6, 0]", fillcolor="#9ccef2"] ;
13 -> 14 ;
15 [label="entropy = 0.0\nsamples = 4\nvalue = [0, 0, 6, 0]", fillcolor="#399de5"] ;
14 -> 15 ;
16 [label="entropy = 0.0\nsamples = 2\nvalue = [3, 0, 0, 0]", fillcolor="#e58139"] ;
14 -> 16 ;
17 [label="pSist <= 13.19\nentropy = 0.94\nsamples = 39\nvalue = [0, 37, 21, 0]", fillcolor="#aff4a9"] ;
13 -> 17 ;
18 [label="respiração <= 14.35\nentropy = 0.99\nsamples = 21\nvalue = [0, 15, 19, 0]", fillcolor="#d5eafa"] ;
17 -> 18 ;
19 [label="entropy = 0.0\nsamples = 8\nvalue = [0, 0, 13, 0]", fillcolor="#399de5"] ;
18 -> 19 ;
20 [label="entropy = 0.86\nsamples = 13\nvalue = [0, 15, 6, 0]", fillcolor="#91ef88"] ;
18 -> 20 ;
21 [label="pDiast <= 5.18\nentropy = 0.41\nsamples = 18\nvalue = [0, 22, 2, 0]", fillcolor="#58e74b"] ;
17 -> 21 ;
22 [label="entropy = 0.86\nsamples = 6\nvalue = [0, 5, 2, 0]", fillcolor="#91ef88"] ;
21 -> 22 ;
23 [label="entropy = 0.0\nsamples = 12\nvalue = [0, 17, 0, 0]", fillcolor="#47e539"] ;
21 -> 23 ;
24 [label="respiração <= 12.46\nentropy = 1.25\nsamples = 206\nvalue = [1, 142, 170, 16]", fillcolor="#e1f0fb"] ;
2 -> 24 ;
25 [label="pDiast <= 1.16\nentropy = 0.89\nsamples = 97\nvalue = [1, 109, 40, 0]", fillcolor="#8cef83"] ;
24 -> 25 ;
26 [label="pDiast <= 0.22\nentropy = 0.27\nsamples = 11\nvalue = [1, 21, 0, 0]", fillcolor="#50e642"] ;
25 -> 26 ;
27 [label="qPA <= -4.35\nentropy = 0.92\nsamples = 2\nvalue = [1, 2, 0, 0]", fillcolor="#a3f29c"] ;
26 -> 27 ;
28 [label="entropy = 0.0\nsamples = 1\nvalue = [1, 0, 0, 0]", fillcolor="#e58139"] ;
27 -> 28 ;
29 [label="entropy = 0.0\nsamples = 1\nvalue = [0, 2, 0, 0]", fillcolor="#47e539"] ;
27 -> 29 ;
30 [label="entropy = 0.0\nsamples = 9\nvalue = [0, 19, 0, 0]", fillcolor="#47e539"] ;
26 -> 30 ;
31 [label="respiração <= 11.79\nentropy = 0.9\nsamples = 86\nvalue = [0, 88, 40, 0]", fillcolor="#9bf193"] ;
25 -> 31 ;
32 [label="pSist <= 15.05\nentropy = 0.86\nsamples = 81\nvalue = [0, 87, 35, 0]", fillcolor="#91ef89"] ;
31 -> 32 ;
33 [label="entropy = 1.0\nsamples = 45\nvalue = [0, 32, 33, 0]", fillcolor="#f9fcfe"] ;
32 -> 33 ;
34 [label="entropy = 0.22\nsamples = 36\nvalue = [0, 55, 2, 0]", fillcolor="#4ee640"] ;
32 -> 34 ;
35 [label="pSist <= 20.43\nentropy = 0.65\nsamples = 5\nvalue = [0, 1, 5, 0]", fillcolor="#61b1ea"] ;
31 -> 35 ;
36 [label="entropy = 0.0\nsamples = 4\nvalue = [0, 0, 5, 0]", fillcolor="#399de5"] ;
35 -> 36 ;
37 [label="entropy = 0.0\nsamples = 1\nvalue = [0, 1, 0, 0]", fillcolor="#47e539"] ;
35 -> 37 ;
38 [label="respiração <= 17.56\nentropy = 1.1\nsamples = 109\nvalue = [0, 33, 130, 16]", fillcolor="#7bbeee"] ;
24 -> 38 ;
39 [label="pSist <= 11.87\nentropy = 0.71\nsamples = 59\nvalue = [0, 2, 87, 14]", fillcolor="#5dafea"] ;
38 -> 39 ;
40 [label="pulso <= 104.78\nentropy = 0.92\nsamples = 22\nvalue = [0, 0, 24, 12]", fillcolor="#9ccef2"] ;
39 -> 40 ;
41 [label="entropy = 0.99\nsamples = 13\nvalue = [0, 0, 10, 12]", fillcolor="#f8defb"] ;
40 -> 41 ;
42 [label="entropy = 0.0\nsamples = 9\nvalue = [0, 0, 14, 0]", fillcolor="#399de5"] ;
40 -> 42 ;
43 [label="pSist <= 18.32\nentropy = 0.39\nsamples = 37\nvalue = [0, 2, 63, 2]", fillcolor="#45a3e7"] ;
39 -> 43 ;
44 [label="entropy = 0.0\nsamples = 23\nvalue = [0, 0, 42, 0]", fillcolor="#399de5"] ;
43 -> 44 ;
45 [label="entropy = 0.79\nsamples = 14\nvalue = [0, 2, 21, 2]", fillcolor="#5baeea"] ;
43 -> 45 ;
46 [label="pulso <= 98.1\nentropy = 1.13\nsamples = 50\nvalue = [0, 31, 43, 2]", fillcolor="#cae5f8"] ;
38 -> 46 ;
47 [label="pSist <= 13.62\nentropy = 0.96\nsamples = 31\nvalue = [0, 10, 37, 2]", fillcolor="#76bbed"] ;
46 -> 47 ;
48 [label="entropy = 0.52\nsamples = 12\nvalue = [0, 0, 15, 2]", fillcolor="#53aae8"] ;
47 -> 48 ;
49 [label="entropy = 0.9\nsamples = 19\nvalue = [0, 10, 22, 0]", fillcolor="#93caf1"] ;
47 -> 49 ;
50 [label="pSist <= 7.0\nentropy = 0.76\nsamples = 19\nvalue = [0, 21, 6, 0]", fillcolor="#7cec72"] ;
46 -> 50 ;
51 [label="entropy = 0.0\nsamples = 3\nvalue = [0, 0, 4, 0]", fillcolor="#399de5"] ;
50 -> 51 ;
52 [label="entropy = 0.43\nsamples = 16\nvalue = [0, 21, 2, 0]", fillcolor="#59e74c"] ;
50 -> 52 ;
53 [label="qPA <= -4.55\nentropy = 1.1\nsamples = 144\nvalue = [33, 167, 28, 0]", fillcolor="#81ed77"] ;
1 -> 53 ;
54 [label="pulso <= 194.93\nentropy = 1.25\nsamples = 18\nvalue = [18, 4, 5, 0]", fillcolor="#f0b58a"] ;
53 -> 54 ;
55 [label="respiração <= 10.29\nentropy = 0.83\nsamples = 15\nvalue = [18, 1, 3, 0]", fillcolor="#ea9c63"] ;
54 -> 55 ;
56 [label="entropy = 0.0\nsamples = 10\nvalue = [16, 0, 0, 0]", fillcolor="#e58139"] ;
55 -> 56 ;
57 [label="respiração <= 18.98\nentropy = 1.46\nsamples = 5\nvalue = [2, 1, 3, 0]", fillcolor="#cee6f8"] ;
55 -> 57 ;
58 [label="pDiast <= 2.21\nentropy = 0.81\nsamples = 4\nvalue = [0, 1, 3, 0]", fillcolor="#7bbeee"] ;
57 -> 58 ;
59 [label="entropy = 0.0\nsamples = 3\nvalue = [0, 0, 3, 0]", fillcolor="#399de5"] ;
58 -> 59 ;
60 [label="entropy = 0.0\nsamples = 1\nvalue = [0, 1, 0, 0]", fillcolor="#47e539"] ;
58 -> 60 ;
61 [label="entropy = 0.0\nsamples = 1\nvalue = [2, 0, 0, 0]", fillcolor="#e58139"] ;
57 -> 61 ;
62 [label="pSist <= 6.94\nentropy = 0.97\nsamples = 3\nvalue = [0, 3, 2, 0]", fillcolor="#c2f6bd"] ;
54 -> 62 ;
63 [label="entropy = 0.0\nsamples = 1\nvalue = [0, 0, 2, 0]", fillcolor="#399de5"] ;
62 -> 63 ;
64 [label="entropy = 0.0\nsamples = 2\nvalue = [0, 3, 0, 0]", fillcolor="#47e539"] ;
62 -> 64 ;
65 [label="respiração <= 12.2\nentropy = 0.88\nsamples = 126\nvalue = [15, 163, 23, 0]", fillcolor="#6eeb63"] ;
53 -> 65 ;
66 [label="qPA <= 4.7\nentropy = 0.38\nsamples = 70\nvalue = [9, 111, 0, 0]", fillcolor="#56e749"] ;
65 -> 66 ;
67 [label="entropy = 0.0\nsamples = 61\nvalue = [0, 109, 0, 0]", fillcolor="#47e539"] ;
66 -> 67 ;
68 [label="pDiast <= 9.56\nentropy = 0.68\nsamples = 9\nvalue = [9, 2, 0, 0]", fillcolor="#eb9d65"] ;
66 -> 68 ;
69 [label="entropy = 0.0\nsamples = 6\nvalue = [8, 0, 0, 0]", fillcolor="#e58139"] ;
68 -> 69 ;
70 [label="respiração <= 5.65\nentropy = 0.92\nsamples = 3\nvalue = [1, 2, 0, 0]", fillcolor="#a3f29c"] ;
68 -> 70 ;
71 [label="entropy = 0.0\nsamples = 1\nvalue = [1, 0, 0, 0]", fillcolor="#e58139"] ;
70 -> 71 ;
72 [label="entropy = 0.0\nsamples = 2\nvalue = [0, 2, 0, 0]", fillcolor="#47e539"] ;
70 -> 72 ;
73 [label="qPA <= 4.3\nentropy = 1.2\nsamples = 56\nvalue = [6, 52, 23, 0]", fillcolor="#a3f29c"] ;
65 -> 73 ;
74 [label="pulso <= 144.64\nentropy = 1.0\nsamples = 32\nvalue = [0, 20, 23, 0]", fillcolor="#e5f2fc"] ;
73 -> 74 ;
75 [label="respiração <= 18.18\nentropy = 0.5\nsamples = 5\nvalue = [0, 8, 1, 0]", fillcolor="#5ee852"] ;
74 -> 75 ;
76 [label="entropy = 1.0\nsamples = 2\nvalue = [0, 1, 1, 0]", fillcolor="#ffffff"] ;
75 -> 76 ;
77 [label="entropy = 0.0\nsamples = 3\nvalue = [0, 7, 0, 0]", fillcolor="#47e539"] ;
75 -> 77 ;
78 [label="pSist <= 15.69\nentropy = 0.94\nsamples = 27\nvalue = [0, 12, 22, 0]", fillcolor="#a5d2f3"] ;
74 -> 78 ;
79 [label="entropy = 0.98\nsamples = 24\nvalue = [0, 12, 17, 0]", fillcolor="#c5e2f7"] ;
78 -> 79 ;
80 [label="entropy = 0.0\nsamples = 3\nvalue = [0, 0, 5, 0]", fillcolor="#399de5"] ;
78 -> 80 ;
81 [label="qPA <= 4.71\nentropy = 0.63\nsamples = 24\nvalue = [6, 32, 0, 0]", fillcolor="#6aea5e"] ;
73 -> 81 ;
82 [label="entropy = 0.0\nsamples = 14\nvalue = [0, 23, 0, 0]", fillcolor="#47e539"] ;
81 -> 82 ;
83 [label="respiração <= 19.97\nentropy = 0.97\nsamples = 10\nvalue = [6, 9, 0, 0]", fillcolor="#c2f6bd"] ;
81 -> 83 ;
84 [label="entropy = 0.0\nsamples = 6\nvalue = [0, 9, 0, 0]", fillcolor="#47e539"] ;
83 -> 84 ;
85 [label="entropy = 0.0\nsamples = 4\nvalue = [6, 0, 0, 0]", fillcolor="#e58139"] ;
83 -> 85 ;
86 [label="pulso <= 129.25\nentropy = 1.39\nsamples = 200\nvalue = [130, 158, 36, 0]", fillcolor="#e4fbe2"] ;
0 -> 86 [labeldistance=2.5, labelangle=-45, headlabel="False"] ;
87 [label="pDiast <= 12.22\nentropy = 1.36\nsamples = 130\nvalue = [46, 124, 36, 0]", fillcolor="#a5f29e"] ;
86 -> 87 ;
88 [label="pulso <= 43.36\nentropy = 1.42\nsamples = 62\nvalue = [16, 54, 30, 0]", fillcolor="#c0f6bb"] ;
87 -> 88 ;
89 [label="respiração <= 9.01\nentropy = 0.99\nsamples = 17\nvalue = [15, 12, 0, 0]", fillcolor="#fae6d7"] ;
88 -> 89 ;
90 [label="pulso <= 38.74\nentropy = 0.62\nsamples = 8\nvalue = [11, 2, 0, 0]", fillcolor="#ea985d"] ;
89 -> 90 ;
91 [label="entropy = 0.0\nsamples = 7\nvalue = [11, 0, 0, 0]", fillcolor="#e58139"] ;
90 -> 91 ;
92 [label="entropy = 0.0\nsamples = 1\nvalue = [0, 2, 0, 0]", fillcolor="#47e539"] ;
90 -> 92 ;
93 [label="respiração <= 19.42\nentropy = 0.86\nsamples = 9\nvalue = [4, 10, 0, 0]", fillcolor="#91ef88"] ;
89 -> 93 ;
94 [label="respiração <= 10.35\nentropy = 0.44\nsamples = 7\nvalue = [1, 10, 0, 0]", fillcolor="#59e84d"] ;
93 -> 94 ;
95 [label="entropy = 0.92\nsamples = 2\nvalue = [1, 2, 0, 0]", fillcolor="#a3f29c"] ;
94 -> 95 ;
96 [label="entropy = 0.0\nsamples = 5\nvalue = [0, 8, 0, 0]", fillcolor="#47e539"] ;
94 -> 96 ;
97 [label="entropy = 0.0\nsamples = 2\nvalue = [3, 0, 0, 0]", fillcolor="#e58139"] ;
93 -> 97 ;
98 [label="pDiast <= 10.84\nentropy = 1.07\nsamples = 45\nvalue = [1, 42, 30, 0]", fillcolor="#ccf8c8"] ;
88 -> 98 ;
99 [label="qPA <= 7.63\nentropy = 0.87\nsamples = 7\nvalue = [1, 9, 1, 0]", fillcolor="#6cea61"] ;
98 -> 99 ;
100 [label="qPA <= 6.76\nentropy = 0.47\nsamples = 6\nvalue = [0, 9, 1, 0]", fillcolor="#5be84f"] ;
99 -> 100 ;
101 [label="entropy = 0.0\nsamples = 3\nvalue = [0, 7, 0, 0]", fillcolor="#47e539"] ;
100 -> 101 ;
102 [label="entropy = 0.92\nsamples = 3\nvalue = [0, 2, 1, 0]", fillcolor="#a3f29c"] ;
100 -> 102 ;
103 [label="entropy = 0.0\nsamples = 1\nvalue = [1, 0, 0, 0]", fillcolor="#e58139"] ;
99 -> 103 ;
104 [label="pDiast <= 10.94\nentropy = 1.0\nsamples = 38\nvalue = [0, 33, 29, 0]", fillcolor="#e9fce7"] ;
98 -> 104 ;
105 [label="entropy = 0.0\nsamples = 3\nvalue = [0, 0, 6, 0]", fillcolor="#399de5"] ;
104 -> 105 ;
106 [label="respiração <= 11.11\nentropy = 0.98\nsamples = 35\nvalue = [0, 33, 23, 0]", fillcolor="#c7f7c3"] ;
104 -> 106 ;
107 [label="entropy = 0.0\nsamples = 16\nvalue = [0, 23, 0, 0]", fillcolor="#47e539"] ;
106 -> 107 ;
108 [label="entropy = 0.88\nsamples = 19\nvalue = [0, 10, 23, 0]", fillcolor="#8fc8f0"] ;
106 -> 108 ;
109 [label="respiração <= 19.59\nentropy = 1.15\nsamples = 68\nvalue = [30, 70, 6, 0]", fillcolor="#9ef197"] ;
87 -> 109 ;
110 [label="pDiast <= 13.22\nentropy = 1.06\nsamples = 57\nvalue = [18, 65, 6, 0]", fillcolor="#85ee7c"] ;
109 -> 110 ;
111 [label="pulso <= 37.04\nentropy = 0.52\nsamples = 17\nvalue = [3, 23, 0, 0]", fillcolor="#5fe853"] ;
110 -> 111 ;
112 [label="pDiast <= 12.55\nentropy = 0.92\nsamples = 6\nvalue = [3, 6, 0, 0]", fillcolor="#a3f29c"] ;
111 -> 112 ;
113 [label="entropy = 0.0\nsamples = 2\nvalue = [2, 0, 0, 0]", fillcolor="#e58139"] ;
112 -> 113 ;
114 [label="entropy = 0.59\nsamples = 4\nvalue = [1, 6, 0, 0]", fillcolor="#66e95a"] ;
112 -> 114 ;
115 [label="entropy = 0.0\nsamples = 11\nvalue = [0, 17, 0, 0]", fillcolor="#47e539"] ;
111 -> 115 ;
116 [label="pulso <= 41.54\nentropy = 1.21\nsamples = 40\nvalue = [15, 42, 6, 0]", fillcolor="#98f090"] ;
110 -> 116 ;
117 [label="respiração <= 11.38\nentropy = 1.0\nsamples = 16\nvalue = [13, 13, 0, 0]", fillcolor="#ffffff"] ;
116 -> 117 ;
118 [label="entropy = 0.0\nsamples = 9\nvalue = [13, 0, 0, 0]", fillcolor="#e58139"] ;
117 -> 118 ;
119 [label="entropy = 0.0\nsamples = 7\nvalue = [0, 13, 0, 0]", fillcolor="#47e539"] ;
117 -> 119 ;
120 [label="pSist <= 21.81\nentropy = 0.93\nsamples = 24\nvalue = [2, 29, 6, 0]", fillcolor="#76ec6c"] ;
116 -> 120 ;
121 [label="entropy = 0.66\nsamples = 23\nvalue = [0, 29, 6, 0]", fillcolor="#6dea62"] ;
120 -> 121 ;
122 [label="entropy = 0.0\nsamples = 1\nvalue = [2, 0, 0, 0]", fillcolor="#e58139"] ;
120 -> 122 ;
123 [label="respiração <= 21.3\nentropy = 0.87\nsamples = 11\nvalue = [12, 5, 0, 0]", fillcolor="#f0b58b"] ;
109 -> 123 ;
124 [label="pSist <= 17.66\nentropy = 0.59\nsamples = 9\nvalue = [12, 2, 0, 0]", fillcolor="#e9965a"] ;
123 -> 124 ;
125 [label="pDiast <= 12.67\nentropy = 1.0\nsamples = 3\nvalue = [2, 2, 0, 0]", fillcolor="#ffffff"] ;
124 -> 125 ;
126 [label="entropy = 0.0\nsamples = 2\nvalue = [2, 0, 0, 0]", fillcolor="#e58139"] ;
125 -> 126 ;
127 [label="entropy = 0.0\nsamples = 1\nvalue = [0, 2, 0, 0]", fillcolor="#47e539"] ;
125 -> 127 ;
128 [label="entropy = 0.0\nsamples = 6\nvalue = [10, 0, 0, 0]", fillcolor="#e58139"] ;
124 -> 128 ;
129 [label="entropy = 0.0\nsamples = 2\nvalue = [0, 3, 0, 0]", fillcolor="#47e539"] ;
123 -> 129 ;
130 [label="pulso <= 195.61\nentropy = 0.87\nsamples = 70\nvalue = [84, 34, 0, 0]", fillcolor="#f0b489"] ;
86 -> 130 ;
131 [label="pDiast <= 14.28\nentropy = 0.91\nsamples = 59\nvalue = [68, 33, 0, 0]", fillcolor="#f2be99"] ;
130 -> 131 ;
132 [label="pulso <= 187.66\nentropy = 0.87\nsamples = 54\nvalue = [64, 26, 0, 0]", fillcolor="#f0b489"] ;
131 -> 132 ;
133 [label="respiração <= 10.85\nentropy = 0.78\nsamples = 48\nvalue = [60, 18, 0, 0]", fillcolor="#eda774"] ;
132 -> 133 ;
134 [label="pDiast <= 10.67\nentropy = 0.14\nsamples = 32\nvalue = [52, 1, 0, 0]", fillcolor="#e6833d"] ;
133 -> 134 ;
135 [label="entropy = 0.92\nsamples = 3\nvalue = [2, 1, 0, 0]", fillcolor="#f2c09c"] ;
134 -> 135 ;
136 [label="entropy = 0.0\nsamples = 29\nvalue = [50, 0, 0, 0]", fillcolor="#e58139"] ;
134 -> 136 ;
137 [label="pDiast <= 10.73\nentropy = 0.9\nsamples = 16\nvalue = [8, 17, 0, 0]", fillcolor="#9ef196"] ;
133 -> 137 ;
138 [label="entropy = 0.0\nsamples = 1\nvalue = [2, 0, 0, 0]", fillcolor="#e58139"] ;
137 -> 138 ;
139 [label="entropy = 0.83\nsamples = 15\nvalue = [6, 17, 0, 0]", fillcolor="#88ee7f"] ;
137 -> 139 ;
140 [label="pulso <= 191.75\nentropy = 0.92\nsamples = 6\nvalue = [4, 8, 0, 0]", fillcolor="#a3f29c"] ;
132 -> 140 ;
141 [label="entropy = 0.0\nsamples = 2\nvalue = [0, 6, 0, 0]", fillcolor="#47e539"] ;
140 -> 141 ;
142 [label="pulso <= 195.03\nentropy = 0.92\nsamples = 4\nvalue = [4, 2, 0, 0]", fillcolor="#f2c09c"] ;
140 -> 142 ;
143 [label="entropy = 0.72\nsamples = 3\nvalue = [4, 1, 0, 0]", fillcolor="#eca06a"] ;
142 -> 143 ;
144 [label="entropy = 0.0\nsamples = 1\nvalue = [0, 1, 0, 0]", fillcolor="#47e539"] ;
142 -> 144 ;
145 [label="pulso <= 162.13\nentropy = 0.95\nsamples = 5\nvalue = [4, 7, 0, 0]", fillcolor="#b0f4aa"] ;
131 -> 145 ;
146 [label="entropy = 0.0\nsamples = 2\nvalue = [4, 0, 0, 0]", fillcolor="#e58139"] ;
145 -> 146 ;
147 [label="entropy = 0.0\nsamples = 3\nvalue = [0, 7, 0, 0]", fillcolor="#47e539"] ;
145 -> 147 ;
148 [label="respiração <= 10.77\nentropy = 0.32\nsamples = 11\nvalue = [16, 1, 0, 0]", fillcolor="#e78945"] ;
130 -> 148 ;
149 [label="entropy = 0.0\nsamples = 8\nvalue = [14, 0, 0, 0]", fillcolor="#e58139"] ;
148 -> 149 ;
150 [label="pDiast <= 14.32\nentropy = 0.92\nsamples = 3\nvalue = [2, 1, 0, 0]", fillcolor="#f2c09c"] ;
148 -> 150 ;
151 [label="entropy = 0.0\nsamples = 2\nvalue = [2, 0, 0, 0]", fillcolor="#e58139"] ;
150 -> 151 ;
152 [label="entropy = 0.0\nsamples = 1\nvalue = [0, 1, 0, 0]", fillcolor="#47e539"] ;
150 -> 152 ;
}