digraph Tree {
node [shape=box, style="filled, rounded", color="black", fontname="helvetica"] ;
edge [fontname="helvetica"] ;
0 [label="respiração <= 11.38\nentropy = 1.51\nsamples = 666\nvalue = [174, 598, 254, 24]", fillcolor="#aff4a9"] ;
1 [label="qPA <= 4.7\nentropy = 1.13\nsamples = 345\nvalue = [143, 367, 32, 0]", fillcolor="#98f090"] ;
0 -> 1 [labeldistance=2.5, labelangle=45, headlabel="True"] ;
2 [label="qPA <= -4.68\nentropy = 0.85\nsamples = 212\nvalue = [28, 281, 32, 0]", fillcolor="#6bea5f"] ;
1 -> 2 ;
3 [label="qPA <= -8.7\nentropy = 1.0\nsamples = 33\nvalue = [28, 28, 0, 0]", fillcolor="#ffffff"] ;
2 -> 3 ;
4 [label="entropy = 0.0\nsamples = 3\nvalue = [0, 5, 0, 0]", fillcolor="#47e539"] ;
3 -> 4 ;
5 [label="pulso <= 154.55\nentropy = 0.99\nsamples = 30\nvalue = [28, 23, 0, 0]", fillcolor="#fae8dc"] ;
3 -> 5 ;
6 [label="pSist <= 10.17\nentropy = 0.88\nsamples = 22\nvalue = [10, 23, 0, 0]", fillcolor="#97f08f"] ;
5 -> 6 ;
7 [label="pSist <= 7.59\nentropy = 0.78\nsamples = 20\nvalue = [7, 23, 0, 0]", fillcolor="#7fed75"] ;
6 -> 7 ;
8 [label="entropy = 0.92\nsamples = 3\nvalue = [4, 2, 0, 0]", fillcolor="#f2c09c"] ;
7 -> 8 ;
9 [label="entropy = 0.54\nsamples = 17\nvalue = [3, 21, 0, 0]", fillcolor="#61e955"] ;
7 -> 9 ;
10 [label="entropy = 0.0\nsamples = 2\nvalue = [3, 0, 0, 0]", fillcolor="#e58139"] ;
6 -> 10 ;
11 [label="entropy = 0.0\nsamples = 8\nvalue = [18, 0, 0, 0]", fillcolor="#e58139"] ;
5 -> 11 ;
12 [label="pulso <= 121.91\nentropy = 0.51\nsamples = 179\nvalue = [0, 253, 32, 0]", fillcolor="#5ee852"] ;
2 -> 12 ;
13 [label="qPA <= 3.55\nentropy = 0.7\nsamples = 104\nvalue = [0, 139, 32, 0]", fillcolor="#71eb67"] ;
12 -> 13 ;
14 [label="qPA <= -4.33\nentropy = 0.83\nsamples = 76\nvalue = [0, 90, 32, 0]", fillcolor="#88ee7f"] ;
13 -> 14 ;
15 [label="qPA <= -4.36\nentropy = 0.15\nsamples = 29\nvalue = [0, 46, 1, 0]", fillcolor="#4be63d"] ;
14 -> 15 ;
16 [label="entropy = 0.0\nsamples = 20\nvalue = [0, 36, 0, 0]", fillcolor="#47e539"] ;
15 -> 16 ;
17 [label="entropy = 0.44\nsamples = 9\nvalue = [0, 10, 1, 0]", fillcolor="#59e84d"] ;
15 -> 17 ;
18 [label="pulso <= 60.39\nentropy = 0.98\nsamples = 47\nvalue = [0, 44, 31, 0]", fillcolor="#c9f7c4"] ;
14 -> 18 ;
19 [label="entropy = 0.18\nsamples = 21\nvalue = [0, 36, 1, 0]", fillcolor="#4ce63e"] ;
18 -> 19 ;
20 [label="entropy = 0.74\nsamples = 26\nvalue = [0, 8, 30, 0]", fillcolor="#6eb7ec"] ;
18 -> 20 ;
21 [label="entropy = 0.0\nsamples = 28\nvalue = [0, 49, 0, 0]", fillcolor="#47e539"] ;
13 -> 21 ;
22 [label="entropy = 0.0\nsamples = 75\nvalue = [0, 114, 0, 0]", fillcolor="#47e539"] ;
12 -> 22 ;
23 [label="pulso <= 125.38\nentropy = 0.98\nsamples = 133\nvalue = [115, 86, 0, 0]", fillcolor="#f8dfcd"] ;
1 -> 23 ;
24 [label="pulso <= 40.63\nentropy = 0.95\nsamples = 79\nvalue = [46, 78, 0, 0]", fillcolor="#b4f4ae"] ;
23 -> 24 ;
25 [label="respiração <= 10.24\nentropy = 0.25\nsamples = 30\nvalue = [46, 2, 0, 0]", fillcolor="#e68642"] ;
24 -> 25 ;
26 [label="entropy = 0.0\nsamples = 28\nvalue = [43, 0, 0, 0]", fillcolor="#e58139"] ;
25 -> 26 ;
27 [label="qPA <= 6.72\nentropy = 0.97\nsamples = 2\nvalue = [3, 2, 0, 0]", fillcolor="#f6d5bd"] ;
25 -> 27 ;
28 [label="entropy = 0.0\nsamples = 1\nvalue = [0, 2, 0, 0]", fillcolor="#47e539"] ;
27 -> 28 ;
29 [label="entropy = 0.0\nsamples = 1\nvalue = [3, 0, 0, 0]", fillcolor="#e58139"] ;
27 -> 29 ;
30 [label="entropy = 0.0\nsamples = 49\nvalue = [0, 76, 0, 0]", fillcolor="#47e539"] ;
24 -> 30 ;
31 [label="respiração <= 10.52\nentropy = 0.48\nsamples = 54\nvalue = [69, 8, 0, 0]", fillcolor="#e89050"] ;
23 -> 31 ;
32 [label="pulso <= 132.61\nentropy = 0.11\nsamples = 49\nvalue = [68, 1, 0, 0]", fillcolor="#e5833c"] ;
31 -> 32 ;
33 [label="pulso <= 131.48\nentropy = 0.47\nsamples = 4\nvalue = [9, 1, 0, 0]", fillcolor="#e88f4f"] ;
32 -> 33 ;
34 [label="entropy = 0.0\nsamples = 3\nvalue = [9, 0, 0, 0]", fillcolor="#e58139"] ;
33 -> 34 ;
35 [label="entropy = 0.0\nsamples = 1\nvalue = [0, 1, 0, 0]", fillcolor="#47e539"] ;
33 -> 35 ;
36 [label="entropy = 0.0\nsamples = 45\nvalue = [59, 0, 0, 0]", fillcolor="#e58139"] ;
32 -> 36 ;
37 [label="pulso <= 158.02\nentropy = 0.54\nsamples = 5\nvalue = [1, 7, 0, 0]", fillcolor="#61e955"] ;
31 -> 37 ;
38 [label="entropy = 0.0\nsamples = 2\nvalue = [0, 4, 0, 0]", fillcolor="#47e539"] ;
37 -> 38 ;
39 [label="pDiast <= 11.13\nentropy = 0.81\nsamples = 3\nvalue = [1, 3, 0, 0]", fillcolor="#84ee7b"] ;
37 -> 39 ;
40 [label="entropy = 0.0\nsamples = 2\nvalue = [0, 3, 0, 0]", fillcolor="#47e539"] ;
39 -> 40 ;
41 [label="entropy = 0.0\nsamples = 1\nvalue = [1, 0, 0, 0]", fillcolor="#e58139"] ;
39 -> 41 ;
42 [label="respiração <= 19.49\nentropy = 1.49\nsamples = 321\nvalue = [31, 231, 222, 24]", fillcolor="#f9fef9"] ;
0 -> 42 [labeldistance=2.5, labelangle=-45, headlabel="False"] ;
43 [label="qPA <= 3.65\nentropy = 1.22\nsamples = 239\nvalue = [0, 159, 192, 17]", fillcolor="#e0f0fb"] ;
42 -> 43 ;
44 [label="respiração <= 11.96\nentropy = 1.05\nsamples = 107\nvalue = [0, 22, 120, 17]", fillcolor="#71b9ec"] ;
43 -> 44 ;
45 [label="qPA <= -2.74\nentropy = 0.81\nsamples = 10\nvalue = [0, 9, 3, 0]", fillcolor="#84ee7b"] ;
44 -> 45 ;
46 [label="entropy = 0.0\nsamples = 6\nvalue = [0, 8, 0, 0]", fillcolor="#47e539"] ;
45 -> 46 ;
47 [label="pSist <= 13.98\nentropy = 0.81\nsamples = 4\nvalue = [0, 1, 3, 0]", fillcolor="#7bbeee"] ;
45 -> 47 ;
48 [label="entropy = 0.0\nsamples = 2\nvalue = [0, 0, 2, 0]", fillcolor="#399de5"] ;
47 -> 48 ;
49 [label="pulso <= 58.94\nentropy = 1.0\nsamples = 2\nvalue = [0, 1, 1, 0]", fillcolor="#ffffff"] ;
47 -> 49 ;
50 [label="entropy = 0.0\nsamples = 1\nvalue = [0, 1, 0, 0]", fillcolor="#47e539"] ;
49 -> 50 ;
51 [label="entropy = 0.0\nsamples = 1\nvalue = [0, 0, 1, 0]", fillcolor="#399de5"] ;
49 -> 51 ;
52 [label="respiração <= 17.83\nentropy = 0.93\nsamples = 97\nvalue = [0, 13, 117, 17]", fillcolor="#67b4eb"] ;
44 -> 52 ;
53 [label="pulso <= 103.09\nentropy = 0.75\nsamples = 76\nvalue = [0, 4, 97, 14]", fillcolor="#5caeea"] ;
52 -> 53 ;
54 [label="pulso <= 57.7\nentropy = 0.93\nsamples = 44\nvalue = [0, 2, 50, 14]", fillcolor="#76bbed"] ;
53 -> 54 ;
55 [label="entropy = 0.39\nsamples = 18\nvalue = [0, 2, 24, 0]", fillcolor="#49a5e7"] ;
54 -> 55 ;
56 [label="entropy = 0.93\nsamples = 26\nvalue = [0, 0, 26, 14]", fillcolor="#a4d2f3"] ;
54 -> 56 ;
57 [label="respiração <= 12.14\nentropy = 0.25\nsamples = 32\nvalue = [0, 2, 47, 0]", fillcolor="#41a1e6"] ;
53 -> 57 ;
58 [label="entropy = 1.0\nsamples = 2\nvalue = [0, 2, 2, 0]", fillcolor="#ffffff"] ;
57 -> 58 ;
59 [label="entropy = 0.0\nsamples = 30\nvalue = [0, 0, 45, 0]", fillcolor="#399de5"] ;
57 -> 59 ;
60 [label="respiração <= 17.99\nentropy = 1.26\nsamples = 21\nvalue = [0, 9, 20, 3]", fillcolor="#a0d0f3"] ;
52 -> 60 ;
61 [label="pSist <= 7.39\nentropy = 1.46\nsamples = 4\nvalue = [0, 3, 1, 2]", fillcolor="#d1f8ce"] ;
60 -> 61 ;
62 [label="entropy = 0.0\nsamples = 2\nvalue = [0, 3, 0, 0]", fillcolor="#47e539"] ;
61 -> 62 ;
63 [label="entropy = 0.92\nsamples = 2\nvalue = [0, 0, 1, 2]", fillcolor="#eb9cf2"] ;
61 -> 63 ;
64 [label="pSist <= 7.45\nentropy = 1.0\nsamples = 17\nvalue = [0, 6, 19, 1]", fillcolor="#7ebfee"] ;
60 -> 64 ;
65 [label="entropy = 0.39\nsamples = 9\nvalue = [0, 0, 12, 1]", fillcolor="#49a5e7"] ;
64 -> 65 ;
66 [label="entropy = 1.0\nsamples = 8\nvalue = [0, 6, 7, 0]", fillcolor="#e3f1fb"] ;
64 -> 66 ;
67 [label="pSist <= 21.61\nentropy = 0.93\nsamples = 132\nvalue = [0, 137, 72, 0]", fillcolor="#a8f3a1"] ;
43 -> 67 ;
68 [label="pulso <= 124.19\nentropy = 0.94\nsamples = 127\nvalue = [0, 128, 72, 0]", fillcolor="#aef4a8"] ;
67 -> 68 ;
69 [label="pSist <= 21.23\nentropy = 0.98\nsamples = 82\nvalue = [0, 51, 71, 0]", fillcolor="#c7e3f8"] ;
68 -> 69 ;
70 [label="pulso <= 57.02\nentropy = 0.99\nsamples = 78\nvalue = [0, 51, 62, 0]", fillcolor="#dceefa"] ;
69 -> 70 ;
71 [label="entropy = 0.25\nsamples = 33\nvalue = [0, 45, 2, 0]", fillcolor="#4fe642"] ;
70 -> 71 ;
72 [label="entropy = 0.44\nsamples = 45\nvalue = [0, 6, 60, 0]", fillcolor="#4da7e8"] ;
70 -> 72 ;
73 [label="entropy = 0.0\nsamples = 4\nvalue = [0, 0, 9, 0]", fillcolor="#399de5"] ;
69 -> 73 ;
74 [label="pSist <= 15.17\nentropy = 0.1\nsamples = 45\nvalue = [0, 77, 1, 0]", fillcolor="#49e53c"] ;
68 -> 74 ;
75 [label="pulso <= 130.16\nentropy = 0.35\nsamples = 10\nvalue = [0, 14, 1, 0]", fillcolor="#54e747"] ;
74 -> 75 ;
76 [label="entropy = 0.0\nsamples = 1\nvalue = [0, 0, 1, 0]", fillcolor="#399de5"] ;
75 -> 76 ;
77 [label="entropy = 0.0\nsamples = 9\nvalue = [0, 14, 0, 0]", fillcolor="#47e539"] ;
75 -> 77 ;
78 [label="entropy = 0.0\nsamples = 35\nvalue = [0, 63, 0, 0]", fillcolor="#47e539"] ;
74 -> 78 ;
79 [label="entropy = 0.0\nsamples = 5\nvalue = [0, 9, 0, 0]", fillcolor="#47e539"] ;
67 -> 79 ;
80 [label="pSist <= 12.04\nentropy = 1.67\nsamples = 82\nvalue = [31, 72, 30, 7]", fillcolor="#baf5b5"] ;
42 -> 80 ;
81 [label="qPA <= -2.85\nentropy = 1.85\nsamples = 20\nvalue = [6, 17, 7, 7]", fillcolor="#c2f6bd"] ;
80 -> 81 ;
82 [label="pulso <= 39.02\nentropy = 0.97\nsamples = 5\nvalue = [6, 0, 4, 0]", fillcolor="#f6d5bd"] ;
81 -> 82 ;
83 [label="entropy = 0.0\nsamples = 2\nvalue = [4, 0, 0, 0]", fillcolor="#e58139"] ;
82 -> 83 ;
84 [label="pulso <= 135.42\nentropy = 0.92\nsamples = 3\nvalue = [2, 0, 4, 0]", fillcolor="#9ccef2"] ;
82 -> 84 ;
85 [label="entropy = 0.0\nsamples = 2\nvalue = [0, 0, 4, 0]", fillcolor="#399de5"] ;
84 -> 85 ;
86 [label="entropy = 0.0\nsamples = 1\nvalue = [2, 0, 0, 0]", fillcolor="#e58139"] ;
84 -> 86 ;
87 [label="pulso <= 129.13\nentropy = 1.28\nsamples = 15\nvalue = [0, 17, 3, 7]", fillcolor="#a3f29c"] ;
81 -> 87 ;
88 [label="pulso <= 31.44\nentropy = 1.48\nsamples = 10\nvalue = [0, 8, 3, 7]", fillcolor="#eefded"] ;
87 -> 88 ;
89 [label="entropy = 0.0\nsamples = 4\nvalue = [0, 8, 0, 0]", fillcolor="#47e539"] ;
88 -> 89 ;
90 [label="pulso <= 106.88\nentropy = 0.88\nsamples = 6\nvalue = [0, 0, 3, 7]", fillcolor="#e88ef0"] ;
88 -> 90 ;
91 [label="entropy = 0.54\nsamples = 4\nvalue = [0, 0, 1, 7]", fillcolor="#dd55e9"] ;
90 -> 91 ;
92 [label="entropy = 0.0\nsamples = 2\nvalue = [0, 0, 2, 0]", fillcolor="#399de5"] ;
90 -> 92 ;
93 [label="entropy = 0.0\nsamples = 5\nvalue = [0, 9, 0, 0]", fillcolor="#47e539"] ;
87 -> 93 ;
94 [label="pDiast <= 10.37\nentropy = 1.46\nsamples = 62\nvalue = [25, 55, 23, 0]", fillcolor="#b8f5b3"] ;
80 -> 94 ;
95 [label="qPA <= 4.68\nentropy = 1.11\nsamples = 39\nvalue = [2, 41, 23, 0]", fillcolor="#b2f4ac"] ;
94 -> 95 ;
96 [label="pSist <= 13.52\nentropy = 0.8\nsamples = 31\nvalue = [0, 41, 13, 0]", fillcolor="#81ed78"] ;
95 -> 96 ;
97 [label="pSist <= 12.85\nentropy = 1.0\nsamples = 8\nvalue = [0, 9, 9, 0]", fillcolor="#ffffff"] ;
96 -> 97 ;
98 [label="entropy = 0.0\nsamples = 3\nvalue = [0, 6, 0, 0]", fillcolor="#47e539"] ;
97 -> 98 ;
99 [label="entropy = 0.81\nsamples = 5\nvalue = [0, 3, 9, 0]", fillcolor="#7bbeee"] ;
97 -> 99 ;
100 [label="respiração <= 20.89\nentropy = 0.5\nsamples = 23\nvalue = [0, 32, 4, 0]", fillcolor="#5ee852"] ;
96 -> 100 ;
101 [label="entropy = 0.7\nsamples = 15\nvalue = [0, 17, 4, 0]", fillcolor="#72eb68"] ;
100 -> 101 ;
102 [label="entropy = 0.0\nsamples = 8\nvalue = [0, 15, 0, 0]", fillcolor="#47e539"] ;
100 -> 102 ;
103 [label="pulso <= 114.16\nentropy = 0.65\nsamples = 8\nvalue = [2, 0, 10, 0]", fillcolor="#61b1ea"] ;
95 -> 103 ;
104 [label="entropy = 0.0\nsamples = 6\nvalue = [0, 0, 10, 0]", fillcolor="#399de5"] ;
103 -> 104 ;
105 [label="entropy = 0.0\nsamples = 2\nvalue = [2, 0, 0, 0]", fillcolor="#e58139"] ;
103 -> 105 ;
106 [label="pDiast <= 12.69\nentropy = 0.96\nsamples = 23\nvalue = [23, 14, 0, 0]", fillcolor="#f5ceb2"] ;
94 -> 106 ;
107 [label="pDiast <= 11.64\nentropy = 0.7\nsamples = 13\nvalue = [17, 4, 0, 0]", fillcolor="#eb9f68"] ;
106 -> 107 ;
108 [label="respiração <= 20.13\nentropy = 0.99\nsamples = 5\nvalue = [3, 4, 0, 0]", fillcolor="#d1f8ce"] ;
107 -> 108 ;
109 [label="entropy = 0.72\nsamples = 3\nvalue = [1, 4, 0, 0]", fillcolor="#75ec6a"] ;
108 -> 109 ;
110 [label="entropy = 0.0\nsamples = 2\nvalue = [2, 0, 0, 0]", fillcolor="#e58139"] ;
108 -> 110 ;
111 [label="entropy = 0.0\nsamples = 8\nvalue = [14, 0, 0, 0]", fillcolor="#e58139"] ;
107 -> 111 ;
112 [label="qPA <= 8.7\nentropy = 0.95\nsamples = 10\nvalue = [6, 10, 0, 0]", fillcolor="#b5f5b0"] ;
106 -> 112 ;
113 [label="pSist <= 14.69\nentropy = 0.81\nsamples = 3\nvalue = [3, 1, 0, 0]", fillcolor="#eeab7b"] ;
112 -> 113 ;
114 [label="entropy = 0.0\nsamples = 1\nvalue = [0, 1, 0, 0]", fillcolor="#47e539"] ;
113 -> 114 ;
115 [label="entropy = 0.0\nsamples = 2\nvalue = [3, 0, 0, 0]", fillcolor="#e58139"] ;
113 -> 115 ;
116 [label="pDiast <= 13.92\nentropy = 0.81\nsamples = 7\nvalue = [3, 9, 0, 0]", fillcolor="#84ee7b"] ;
112 -> 116 ;
117 [label="entropy = 0.0\nsamples = 4\nvalue = [0, 8, 0, 0]", fillcolor="#47e539"] ;
116 -> 117 ;
118 [label="entropy = 0.81\nsamples = 3\nvalue = [3, 1, 0, 0]", fillcolor="#eeab7b"] ;
116 -> 118 ;
}